tree
version=v3
num_class=1
num_tree_per_iteration=1
label_index=0
max_feature_idx=8
objective=regression
feature_names=Column_0 Column_1 Column_2 Column_3 Column_4 Column_5 Column_6 Column_7 Column_8
feature_infos=[4:739] [0:1] [0:25] [0:2018] [0:1] [0:1] [0:1] [0:1] [8.6144111480000003:42.129650480000002]
tree_sizes=3730 3778 3832 3804 3388 3228 3394 3754 3436 3386 3380 3540 3636 3692 3638 3741 3738 3697 3742 3756 3658 3728

Tree=0
num_leaves=37
num_cat=0
split_feature=3 0 0 6 0 2 0 0 5 3 7 3 3 3 0 0 0 4 0 2 7 0 0 0 5 0 0 3 3 3 3 6 0 0 0 0
split_gain=48.3153 40.769 43.6585 18.5514 16.3345 9.54637 6.65753 8.23144 4.95574 4.13835 3.88913 3.57801 5.96191 3.84546 3.34582 2.28461 2.18152 1.76791 1.67893 3.12907 1.06007 1.49065 2.00902 1.23804 1.04023 1.04008 0.702046 0.570789 0.511657 0.466291 0.32826 0.227207 0.20126 0.429464 0.0636416 0.0170864
threshold=2003.5000000000002 377.50000000000006 198.50000000000003 1.0000000180025095e-35 159.00000000000003 1.7500000000000002 105.00000000000001 147.50000000000003 1.0000000180025095e-35 1980.5000000000002 1.0000000180025095e-35 1965.5000000000002 1984.5000000000002 1948.5000000000002 539.00000000000011 115.50000000000001 355.50000000000006 1.0000000180025095e-35 418.50000000000006 1.7500000000000002 1.0000000180025095e-35 562.00000000000011 622.00000000000011 661.50000000000011 1.0000000180025095e-35 50.500000000000007 449.50000000000006 1984.5000000000002 1979.5000000000002 1973.5000000000002 1994.0000000000002 1.0000000180025095e-35 576.50000000000011 599.00000000000011 518.50000000000011 290.00000000000006
decision_type=2 2 2 2 2 2 2 2 2 2 2 2 2 2 2 2 2 2 2 2 2 2 2 2 2 2 2 2 2 2 2 2 2 2 2 2
left_child=1 2 6 5 15 11 9 -8 17 -1 25 13 -13 26 -14 -2 24 18 19 -6 -20 34 32 -24 27 -11 -3 28 31 -5 -9 -4 -23 -34 -22 -26
right_child=4 3 16 29 8 -7 7 30 -10 10 -12 12 14 -15 -16 -17 -18 -19 20 -21 21 22 23 -25 35 -27 -28 -29 -30 -31 -32 -33 33 -35 -36 -37
leaf_value=-0.072218107706900181 -0.14175415591628354 -0.031074444131648279 0.093052768556678558 -0.088128481583392329 -0.072872327840920029 0.064725560999649351 0.10317205014169641 -0.012004670956148628 -0.087579485666732362 0.047506274802887674 -0.042657765027479082 0.049324996640744884 -0.062942006618223467 -0.080672522518772494 0.0053576896323802624 -0.082292308188076563 0.064049385213260118 -0.061485315366455399 0.0081684372793520161 -0.011030402557646975 -0.044452950542853913 0.019689879937374841 -0.053334005948499574 -0.0056922820971367213 0.12198286048909447 0.0018974234892966898 0.0063967584802749307 0.084109533693652747 0.12713833324452664 -0.11724550227708465 0.012425556323514457 0.11172241848142278 -0.012338842825686673 0.016968640012944 -0.034118004609051782 0.12713833324452664
leaf_weight=11.999999999999998 14.000000000000002 10.000000000000002 15.999999999999998 11.000000000000002 14.999999999999998 18 11.999999999999998 11.000000000000002 12.999999999999998 10.000000000000002 14.999999999999998 17 13.000000000000002 13.999999999999998 15.999999999999998 11.999999999999998 11.999999999999998 10.999999999999998 19 18 11.000000000000002 10.000000000000002 12.000000000000002 9.9999999999999982 10.000000000000002 9.9999999999999982 9.9999999999999982 13.999999999999998 9.9999999999999982 10.999999999999998 10.999999999999998 11.000000000000002 10.000000000000002 9.9999999999999982 12.999999999999998 18
leaf_count=12 14 10 16 11 15 18 12 11 13 10 15 17 13 14 16 12 12 11 19 18 11 10 12 10 10 10 10 14 10 11 11 11 10 10 13 18
internal_value=4.69228e-09 0.025033 0.0562434 -0.019702 -0.0410653 -0.00107276 0.00284256 0.0365498 -0.0285365 -0.0215414 -0.00416656 -0.0158774 0.00230439 -0.0404762 -0.0252594 -0.11431 0.103776 -0.0230145 -0.0197085 -0.0391404 -0.0129584 -0.0182401 -0.00872566 -0.0316787 0.10981 0.0247018 -0.0123388 0.101308 0.107816 -0.102687 0.000210443 0.100659 0.00810656 0.0023149 -0.0388549 0.125297
internal_weight=0 292 172 120 178 98 81 34 152 47 35 80 46 34 29 26 91 139 128 33 95 76 52 22 79 20 20 51 37 22 22 27 30 20 24 28
internal_count=470 292 172 120 178 98 81 34 152 47 35 80 46 34 29 26 91 139 128 33 95 76 52 22 79 20 20 51 37 22 22 27 30 20 24 28
is_linear=0
shrinkage=1


Tree=1
num_leaves=37
num_cat=0
split_feature=8 3 0 8 6 8 3 8 0 3 5 3 0 0 8 8 0 8 8 3 0 8 0 0 3 8 0 0 8 8 3 3 3 0 5 0
split_gain=82.9922 11.5958 12.4026 9.75544 7.91989 7.59959 7.55949 5.93194 6.12342 5.89095 5.67326 5.65003 3.76657 5.16337 4.64356 3.05881 3.00708 2.16223 2.31647 3.47615 1.72154 1.56612 2.56814 1.17687 0.837367 0.671929 0.647173 1.22846 1.5712 0.566279 0.369942 0.31376 0.957692 0.145625 0.00150085 3.98697e-05
threshold=10.286845695000002 2000.5000000000002 127.50000000000001 15.339515245000003 1.0000000180025095e-35 24.251441005000004 1965.5000000000002 25.249446465000002 449.50000000000006 1996.5000000000002 1.0000000180025095e-35 1984.5000000000002 418.50000000000006 222.00000000000003 20.963646615000005 13.730196790000003 119.50000000000001 16.942185300000002 24.152993425000002 1997.5000000000002 191.50000000000003 8.9206268110000018 290.00000000000006 576.50000000000011 2012.5000000000002 19.041120585000005 656.50000000000011 546.50000000000011 21.113901485000003 29.120715160000003 1979.5000000000002 1981.5000000000002 1976.5000000000002 105.00000000000001 1.0000000180025095e-35 306.00000000000006
decision_type=2 2 2 2 2 2 2 2 2 2 2 2 2 2 2 2 2 2 2 2 2 2 2 2 2 2 2 2 2 2 2 2 2 2 2 2
left_child=9 3 33 15 6 -6 7 8 -5 21 12 31 13 24 23 20 -17 -13 19 -19 -2 34 30 -14 -4 -25 27 28 -16 -9 -23 32 -8 -3 -1 -36
right_child=1 2 10 4 5 -7 11 29 -10 -11 -12 17 14 -15 26 16 -18 18 -20 -21 -22 22 -24 25 -26 -27 -28 -29 -30 -31 -32 -33 -34 -35 35 -37
leaf_value=0.11585621748651778 -0.0090941727693591781 -0.11941864550113675 -0.014601027068534961 -0.054452609256483035 -0.10864153197035192 -0.0033669525446991125 0.060979559475725309 -0.087781722346941607 0.039316257735093438 0.034050988638773559 -0.089658660335200174 -0.041860109481673978 0.033019185625016691 -0.10739265971563079 -0.049671724562843633 0.027859300225973122 0.10541031590662897 0.065675697137008993 -0.026521769352257252 -0.012150561437010765 0.043770868724889382 0.089901907723396998 0.0429885849216953 0.01113445142077075 -0.050351357385516174 -0.020236532254652544 -0.012624893443925041 -0.056571543099064585 -0.00036025515624455047 -0.056369981914758685 0.11594471136728923 0.062139577865600586 0.018220679704099893 -0.10274499112909491 0.11468226909637447 0.11442449092864991
leaf_weight=13.999999999999998 14.000000000000002 10.000000000000002 19.000000000000004 13.000000000000002 16.000000000000004 11.999999999999998 11.000000000000005 12.000000000000002 14.999999999999998 15.999999999999998 13.999999999999998 12.999999999999998 15.999999999999998 10.999999999999998 12.000000000000002 10.000000000000002 9.9999999999999982 11.000000000000002 13.999999999999998 11.999999999999998 10.999999999999998 10.000000000000002 9.9999999999999982 18.000000000000004 9.9999999999999982 10.999999999999998 13.999999999999998 19 13.999999999999998 10.999999999999998 11.999999999999998 9.9999999999999982 9.9999999999999982 10.999999999999998 12.000000000000002 11.999999999999998
leaf_count=14 14 10 19 13 16 12 11 12 15 16 14 13 16 11 12 10 10 11 14 12 11 10 10 18 10 11 14 19 14 11 12 10 10 11 12 12
internal_value=0 -0.0198863 -0.0384829 -0.00364821 -0.0152171 -0.0635239 -0.00497025 -0.0351292 -0.00421929 0.0887945 -0.0288865 0.0140187 -0.022978 -0.0490563 -0.012948 0.0374857 0.0666348 -0.00677721 0.00554922 0.0250707 0.0141664 0.101307 0.0850075 0.0112472 -0.0269287 -0.000764887 -0.0314019 -0.0372436 -0.0231194 -0.0727587 0.104107 0.0475606 0.0406182 -0.110685 0.115033 0.114553
internal_weight=0 384 179 205 160 28 132 51 28 86 158 81 144 40 104 45 20 50 37 23 25 70 32 45 29 29 59 45 26 23 22 31 21 21 38 24
internal_count=470 384 179 205 160 28 132 51 28 86 158 81 144 40 104 45 20 50 37 23 25 70 32 45 29 29 59 45 26 23 22 31 21 21 38 24
is_linear=0
shrinkage=0.1


Tree=2
num_leaves=38
num_cat=0
split_feature=0 0 6 1 2 4 7 0 0 0 0 0 0 0 0 0 7 2 0 0 0 7 2 0 0 0 0 0 0 0 0 0 7 0 0 0 0
split_gain=18.5284 51.7986 9.04792 12.4602 8.3359 6.86514 5.83767 5.7321 5.45852 2.68577 2.82341 2.34777 2.31897 2.01596 1.81323 1.40948 1.85965 1.12925 2.13349 1.93585 0.924142 0.779056 0.540497 1.17178 0.472885 1.11446 0.419716 0.380702 0.353065 0.345524 0.238873 0.671008 0.194495 0.370159 0.133622 0.0899969 0.0859463
threshold=377.50000000000006 227.00000000000003 1.0000000180025095e-35 1.0000000180025095e-35 1.7500000000000002 1.0000000180025095e-35 1.0000000180025095e-35 558.00000000000011 403.50000000000006 119.50000000000001 97.500000000000014 27.500000000000004 647.00000000000011 626.50000000000011 119.50000000000001 562.00000000000011 1.0000000180025095e-35 1.7500000000000002 350.00000000000006 279.00000000000006 449.50000000000006 1.0000000180025095e-35 1.2500000000000002 580.00000000000011 477.00000000000006 501.00000000000006 258.00000000000006 147.50000000000003 515.50000000000011 532.50000000000011 266.50000000000006 295.00000000000006 1.0000000180025095e-35 168.00000000000003 61.500000000000007 321.50000000000006 198.50000000000003
decision_type=2 2 2 2 2 2 2 2 2 2 2 2 2 2 2 2 2 2 2 2 2 2 2 2 2 2 2 2 2 2 2 2 2 2 2 2 2
left_child=1 4 3 13 9 8 7 -4 -5 10 11 -1 15 24 34 16 20 18 30 26 -10 -14 23 -17 -2 -26 -19 -16 -18 -30 -3 -32 33 -11 -6 -33 -35
right_child=2 17 6 5 14 -7 -8 -9 12 32 -12 -13 21 -15 27 22 28 19 -20 -21 -22 -23 -24 -25 25 -27 -28 -29 29 -31 31 35 -34 36 -36 -37 -38
leaf_value=-0.073947709626876371 0.035988951623439791 0.10650623928416858 0.017342109680175775 -0.086617920886386535 -0.014875701556985192 -0.090273888558149343 -0.13142253786325456 -0.081786347180604943 -0.0166040489077568 -0.0024594714695757077 -0.10053558478301222 -0.018177671151028741 -0.054124429337680337 0.059895917586982254 0.045500598812941447 0.023973460743824636 -0.046314761923118071 0.056375532224774344 0.042844811286777258 0.09035526396085819 0.024557340083022915 -0.020678292042933977 0.023563967059765545 -0.016368509083986283 -0.0090449689887464029 0.03161607287251033 0.028636025805026295 0.020911083808716605 -0.011840515922416337 -0.03690495863556862 0.068953593075275418 0.10341813405354816 -0.032671406594189732 -0.018742390125989907 0.00049985416233539587 0.091799385566264394 -0.031853169240057468
leaf_weight=13.000000000000002 9.9999999999999982 10.999999999999998 10.000000000000002 10.999999999999998 13.000000000000002 14.999999999999998 9.9999999999999982 13.999999999999998 10.000000000000002 11.000000000000002 10.999999999999998 18 15 15.999999999999998 10.000000000000002 12.000000000000002 10.999999999999998 12.000000000000002 9.9999999999999982 14.999999999999998 11.999999999999998 13 13.999999999999998 18 14.000000000000002 12.999999999999998 9.9999999999999982 17 11.000000000000002 10.999999999999998 10.999999999999998 15.000000000000002 10.999999999999998 10.000000000000002 9.9999999999999982 11.999999999999998 9.9999999999999982
leaf_count=13 10 11 10 11 13 15 10 14 10 11 11 18 15 16 10 12 11 12 10 15 12 13 14 18 14 13 10 17 11 11 11 15 11 10 10 12 10
internal_value=0 0.020282 -0.019437 -0.0115488 -0.0198858 -0.0260239 -0.0672298 -0.0404828 -0.0190402 -0.0391286 -0.0570098 -0.0415651 -0.013187 0.0302378 0.0124422 -0.00600072 -0.016673 0.0763497 0.0849385 0.0626539 0.00584762 -0.0385959 0.00733963 -0.000231721 0.0174127 0.0105326 0.0437667 0.0300183 -0.0316867 -0.0243727 0.093529 0.0897725 -0.0212475 -0.0171939 -0.00819068 0.0982542 -0.0252978
internal_weight=0 230 240 206 134 153 34 24 138 84 42 31 127 53 50 99 55 96 59 37 22 28 44 30 37 27 22 27 33 22 49 38 42 31 23 27 20
internal_count=470 230 240 206 134 153 34 24 138 84 42 31 127 53 50 99 55 96 59 37 22 28 44 30 37 27 22 27 33 22 49 38 42 31 23 27 20
is_linear=0
shrinkage=0.1


Tree=3
num_leaves=38
num_cat=0
split_feature=8 2 3 3 3 6 1 8 0 8 8 8 3 0 8 8 8 8 3 8 8 0 0 3 8 8 0 3 0 3 8 8 8 0 8 3 8
split_gain=54.9479 11.3597 9.66293 7.92355 7.24081 4.7767 6.69095 11.4312 4.70138 4.24741 4.0644 3.52622 3.00563 2.70593 1.80985 1.57981 2.55725 2.04348 1.55043 1.21692 2.19626 1.82694 1.49128 2.42974 1.40888 1.10759 1.8924 0.988596 1.96785 0.707716 0.697201 0.288027 0.246169 0.0475269 0.0327414 0.00214962 0.000857644
threshold=10.563633835000003 1.7500000000000002 1998.5000000000002 2012.5000000000002 2003.5000000000002 1.0000000180025095e-35 1.0000000180025095e-35 25.113786945000005 394.00000000000006 22.166087935000004 24.251441005000004 25.683870580000004 1984.5000000000002 105.00000000000001 15.153029020000002 14.785046725000003 18.778672370000006 19.343605670000006 2016.5000000000002 20.963646615000005 24.308573915 515.50000000000011 412.50000000000006 2005.5000000000002 15.182703795000002 8.891703199500002 266.50000000000006 1984.5000000000002 422.50000000000006 2006.5000000000002 9.2069090670000016 24.694385710000002 21.363255710000001 244.50000000000003 15.653677295000003 1966.5000000000002 8.7174921285000018
decision_type=2 2 2 2 2 2 2 2 2 2 2 2 2 2 2 2 2 2 2 2 2 2 2 2 2 2 2 2 2 2 2 2 2 2 2 2 2
left_child=4 3 13 5 25 6 9 19 14 -2 12 -11 -7 -3 -5 -4 -17 -18 -10 22 21 -21 23 24 -8 35 33 28 -15 32 -28 -19 -23 -27 -26 -1 -37
right_child=1 2 15 8 -6 10 7 -9 18 11 -12 -13 -14 27 -16 16 17 31 -20 20 -22 29 -24 -25 34 26 30 -29 -30 -31 -32 -33 -34 -35 -36 36 -38
leaf_value=0.093504354128470801 0.079319766461849225 0.0093274485319852826 0.0093140838434919715 -0.070082612211505552 -0.0094252840336412208 -0.11908183097839352 0.017497023793035433 -0.10596041520436605 -0.010290738653678159 -0.03514007173048761 -0.0015004250407218934 0.034046119330998735 -0.046159563156274647 0.01356390684843063 -0.12623886438933285 -0.071659947931766513 0.023641996756196014 -0.043722963333129868 -0.061301696435971699 -0.058579453562988965 0.017779693617062133 -0.03884355882803598 0.019200351402947777 -0.055218678035519345 -0.024574806839227668 0.096216348626396844 0.067213887721300103 0.079578790068626407 0.076298992000520233 -0.0047363474965095523 0.032359621233560822 -0.01972183059900999 -0.018588141947984697 0.086920509555123079 -0.016482656258158385 0.095810819864273034 0.094531241872093899
leaf_weight=12.999999999999998 9.9999999999999982 15.999999999999998 15.999999999999998 12.000000000000002 9.9999999999999982 10.000000000000002 19 14.999999999999998 13.000000000000002 13.000000000000002 9.9999999999999982 17 12.999999999999998 10.000000000000002 10.999999999999998 9.9999999999999982 10.000000000000002 10.000000000000002 10.999999999999998 17 10.999999999999998 15.000000000000002 19 10.999999999999998 10.000000000000002 11.000000000000002 12.000000000000002 13.999999999999998 9.9999999999999982 18 10.999999999999998 9.9999999999999982 9.9999999999999982 10.999999999999998 9.9999999999999982 10.000000000000002 10.999999999999998
leaf_count=13 10 16 16 12 10 10 19 15 13 13 10 17 13 10 11 10 10 10 11 17 11 15 19 11 10 11 12 14 10 18 11 10 10 11 10 10 11
internal_value=0 -0.0165257 0.0112865 -0.027246 0.0707448 -0.0195392 -0.0135848 -0.0229948 -0.0646323 0.022879 -0.0547241 0.00406544 -0.0778649 0.0432394 -0.09694 -0.0172429 -0.0278657 -0.0132676 -0.0336708 -0.0141057 -0.0232967 -0.0308273 -0.00464826 -0.0137107 -0.00200336 0.0808929 0.0706006 0.059198 0.0449314 -0.0198556 0.0505445 -0.0317224 -0.0307414 0.0915684 -0.0205287 0.094515 0.0951406
internal_weight=0 381 106 275 89 228 195 155 47 40 33 30 23 50 23 56 40 30 24 140 71 60 69 50 39 79 45 34 20 43 23 20 25 22 20 34 21
internal_count=470 381 106 275 89 228 195 155 47 40 33 30 23 50 23 56 40 30 24 140 71 60 69 50 39 79 45 34 20 43 23 20 25 22 20 34 21
is_linear=0
shrinkage=0.1


Tree=4
num_leaves=34
num_cat=0
split_feature=8 2 1 0 6 4 0 8 8 8 8 0 8 0 1 0 8 0 0 8 0 0 8 0 0 0 2 8 8 0 0 8 0
split_gain=44.5078 9.20139 5.3995 7.17666 7.15946 4.09692 4.08866 3.91401 2.85624 2.30321 2.21541 1.9601 1.81214 3.04413 2.81398 1.31507 3.08087 1.08984 0.901712 0.890295 1.26129 0.810336 0.910173 0.839472 1.28502 0.798709 0.731066 0.64983 0.46225 0.143348 0.0948228 0.0445442 0.0285206
threshold=10.563633835000003 1.7500000000000002 1.0000000180025095e-35 692.50000000000011 1.0000000180025095e-35 1.0000000180025095e-35 119.50000000000001 22.166087935000004 25.683870580000004 8.9206268110000018 24.251441005000004 266.50000000000006 15.421143530000002 422.50000000000006 1.0000000180025095e-35 97.500000000000014 29.047396990000003 133.50000000000003 55.000000000000007 22.561955135000002 671.50000000000011 562.00000000000011 19.183431370000005 208.00000000000003 403.50000000000006 183.50000000000003 1.7500000000000002 19.343605670000006 21.185753980000005 168.00000000000003 523.50000000000011 8.7077387820000016 313.50000000000006
decision_type=2 2 2 2 2 2 2 2 2 2 2 2 2 2 2 2 2 2 2 2 2 2 2 2 2 2 2 2 2 2 2 2 2
left_child=9 2 4 5 7 6 15 -2 -9 31 19 26 17 18 -15 16 -4 -3 -14 21 -21 23 -23 25 -25 -8 -11 -16 30 -19 -26 -1 -33
right_child=1 12 3 -5 -6 -7 10 8 -10 11 -12 -13 13 14 27 -17 -18 29 -20 20 -22 22 -24 24 28 -27 -28 -29 -30 -31 -32 32 -34
leaf_value=0.085653781465121689 0.071233637010057776 0.049156235679984096 -0.012210310716181991 -0.095882611256092792 -0.067660939557985827 -0.080694906184306525 -0.021193695647848978 -0.031626065763143384 0.030641507036874401 0.084057217836379983 0.021033768523484472 0.023837054363991084 -0.00044362843036651597 0.057138098088594581 0.021277796700596804 -0.08123811415650628 -0.080958685685287829 0.0050324393063783633 -0.03642032648387708 -0.056416926320110042 -0.011167125268415972 -0.022003428841179062 0.015867572824160261 -0.050531035716481071 -0.021529392085292115 0.0106533375701734 0.051819651595809882 -0.010516011880503761 -0.0064094139949271564 0.021964532285928727 -0.034983959794044499 0.081195588848170103 0.074465247541666044
leaf_weight=13.999999999999998 11.999999999999998 14.999999999999998 16.000000000000004 15.999999999999998 10.999999999999998 12.999999999999998 18 13.000000000000002 17 12.000000000000002 14.999999999999998 19 11.000000000000002 12.999999999999998 10.000000000000002 10.999999999999998 10.999999999999998 10.000000000000002 19 14.000000000000002 10.999999999999998 11.000000000000002 14.999999999999998 17 11.000000000000002 13.999999999999998 17 18 19 9.9999999999999982 9.9999999999999982 17.000000000000004 9.9999999999999982
leaf_count=14 12 15 16 16 11 13 18 13 17 12 15 19 11 13 10 11 11 10 19 14 11 11 15 17 11 14 17 18 19 10 10 17 10
internal_value=0 -0.0148731 -0.0245214 -0.031368 0.00415661 -0.0263571 -0.0226971 0.022966 0.00365889 0.0636703 -0.0154903 0.0488026 0.0101579 0.000977731 0.0186899 -0.0520929 -0.0402189 0.0287804 -0.0232289 -0.0194036 -0.036507 -0.0156855 -0.000154774 -0.0202226 -0.0274995 -0.00726062 0.0651593 0.00083892 -0.017711 0.0134985 -0.0279363 0.0810764 0.0787029
internal_weight=0 381 275 222 53 206 193 42 30 89 155 48 106 71 41 38 27 35 30 140 25 115 26 89 57 32 29 28 40 20 21 41 27
internal_count=470 381 275 222 53 206 193 42 30 89 155 48 106 71 41 38 27 35 30 140 25 115 26 89 57 32 29 28 40 20 21 41 27
is_linear=0
shrinkage=0.1


Tree=5
num_leaves=33
num_cat=0
split_feature=8 2 3 3 8 5 3 8 8 4 3 8 8 8 8 3 3 3 3 8 8 8 8 8 8 8 8 8 8 1 3 3
split_gain=36.1369 7.42174 8.61174 6.05159 3.38972 4.01809 3.3661 2.99489 3.57767 3.12328 2.91937 2.42001 1.86592 1.13314 1.16625 1.15441 1.10252 2.25071 1.09675 0.944106 3.35883 0.76314 0.691343 1.03408 0.606647 0.60117 0.522863 0.44135 0.436302 0.301015 0.0805531 0.00769236
threshold=10.286845695000002 1.7500000000000002 2004.5000000000002 2012.5000000000002 21.735715895000002 1.0000000180025095e-35 1996.5000000000002 25.683870580000004 29.047396990000003 1.0000000180025095e-35 1984.5000000000002 18.472860010000002 15.182703795000002 18.542185310000004 20.054814400000001 2005.5000000000002 1956.5000000000002 2004.5000000000002 2015.5000000000002 15.421143530000002 16.942185300000002 21.113901485000003 9.2488978485000022 9.9692109770000013 21.848881175000006 17.873875740000003 14.181717015000002 15.182703795000002 14.457770610000003 1.0000000180025095e-35 1964.5000000000002 1977.5000000000002
decision_type=2 2 2 2 2 2 2 2 2 2 2 2 2 2 2 2 2 2 2 2 2 2 2 2 2 2 2 2 2 2 2 2
left_child=6 3 19 4 10 7 22 9 -9 16 26 12 -5 15 -15 27 -6 -18 25 28 -21 -16 30 -24 -20 -4 -2 -12 -3 -22 -1 -32
right_child=1 2 18 11 5 -7 -8 8 -10 -11 13 -13 -14 14 21 -17 17 -19 24 20 29 -23 23 -25 -26 -27 -28 -29 -30 -31 31 -33
leaf_value=0.067289640158414848 0.010493404064327475 0.036214301213622083 -0.019116305621961746 -0.053954794506231932 -0.00078122872445318442 -0.069380255200360952 0.017211388649593574 0.052693802490830402 -0.019694184387723607 -0.079450042545795449 0.0020264413207769388 -0.026957620288196368 -0.10782998591661452 0.019329875210920971 -0.02999839431473187 -0.049527567128340409 -0.05609637341565557 -0.006088517937395308 0.0075409403536468734 -0.023905981630086899 0.053504218161106114 0.0011314360631836785 0.033535360048214585 0.075049979488054919 -0.024707557559013368 -0.049618477986327243 0.040432281579290123 -0.022732113094793428 0.064496571671528127 0.031725181910124682 0.075889669796999765 0.07881772769124884
leaf_weight=9.9999999999999982 10.000000000000002 10.000000000000002 12.000000000000002 18.000000000000004 18 19 15.999999999999998 11.000000000000002 18 10.999999999999998 12.000000000000002 19 9.9999999999999982 18 13.999999999999998 11.999999999999998 18 18 14.000000000000002 9.9999999999999982 14.999999999999998 18 12.000000000000002 11.999999999999998 9.9999999999999982 13.999999999999998 13.999999999999998 18 11.999999999999998 11.000000000000002 17 19
leaf_count=10 10 10 12 18 18 19 16 11 18 11 12 19 10 18 14 12 18 18 14 10 15 18 12 12 10 14 14 18 12 11 17 19
internal_value=0 -0.0131223 0.00910209 -0.0218188 -0.0151105 -0.0274374 0.0585926 -0.0189596 0.00776333 -0.0308822 -0.00310241 -0.0545038 -0.0731959 -0.0112051 -0.00103348 -0.0233141 -0.0209887 -0.0310924 -0.0213111 0.0353204 0.0253467 -0.0124879 0.0680512 0.0542927 -0.00589593 -0.0355406 0.0279577 -0.0128287 0.051641 0.04429 0.0752295 0.077435
internal_weight=0 384 108 276 229 113 86 94 29 65 116 47 28 92 50 42 54 36 50 58 36 32 70 24 24 26 24 30 22 26 46 36
internal_count=470 384 108 276 229 113 86 94 29 65 116 47 28 92 50 42 54 36 50 58 36 32 70 24 24 26 24 30 22 26 46 36
is_linear=0
shrinkage=0.1


Tree=6
num_leaves=34
num_cat=0
split_feature=8 3 0 8 5 1 0 6 8 0 3 0 3 3 8 8 8 0 8 0 0 3 0 3 3 8 0 0 0 8 3 0 0
split_gain=29.2709 5.93142 6.6738 4.86662 3.84096 3.75667 6.30922 5.89087 2.89342 2.86166 2.72654 2.39883 2.37168 2.4527 2.35961 2.02615 1.96129 2.29284 1.93481 1.74276 1.36451 1.06281 0.813815 0.775876 0.814375 0.578437 1.43552 0.392505 1.04745 1.19382 0.292849 0.0048832 0.00203014
threshold=10.286845695000002 2000.5000000000002 115.50000000000001 15.339515245000003 1.0000000180025095e-35 1.0000000180025095e-35 692.50000000000011 1.0000000180025095e-35 24.537856855000005 418.50000000000006 1996.5000000000002 222.00000000000003 1964.5000000000002 1937.0000000000002 13.730196790000003 20.963646615000005 21.363255710000001 377.50000000000006 25.748683725000003 119.50000000000001 191.50000000000003 1985.5000000000002 163.50000000000003 2005.5000000000002 2015.5000000000002 8.9206268110000018 290.00000000000006 656.50000000000011 546.50000000000011 21.113901485000003 1979.5000000000002 295.00000000000006 313.50000000000006
decision_type=2 2 2 2 2 2 2 2 2 2 2 2 2 2 2 2 2 2 2 2 2 2 2 2 2 2 2 2 2 2 2 2 2
left_child=10 3 -3 14 9 7 12 8 21 11 25 22 13 -7 20 23 17 -14 -10 -16 -2 -5 -4 -11 -25 31 30 28 29 -17 -27 -1 -33
right_child=1 2 4 5 -6 6 -8 -9 18 15 -12 -13 16 -15 19 27 -18 -19 -20 -21 -22 -23 -24 24 -26 26 -28 -29 -30 -31 -32 32 -34
leaf_value=0.071484777331352237 -0.012333572549479345 -0.088956861495971692 -0.039178373548202222 0.069758909826095269 -0.069364138799054287 -0.0013833780937335073 -0.080451781948407491 -0.05619600335644051 -0.025278798204201914 -0.010028455750300334 0.015490249480353669 -0.076097881523045641 0.010350300704962328 -0.053667759581616049 0.024938899688422674 -0.032251545662681257 0.033564397552981975 -0.048807133883237847 0.025970027918982154 0.083977269604802132 0.034731451997702771 0.026395785808563235 -0.0085686009744868463 0.037030819430947305 0.0048729725389017008 0.052981106638908371 0.019924818575382235 -0.0029762805572577885 -0.039995957362024409 0.010731963919741768 0.076152009268601745 0.067851891842755391 0.069595387753318347
leaf_weight=9.9999999999999982 14.000000000000002 14.999999999999998 15.999999999999998 13.000000000000002 13.999999999999998 17 14.999999999999998 10.999999999999998 13.000000000000002 12.999999999999998 15.999999999999998 10.999999999999998 19.000000000000004 19 10.000000000000002 12.000000000000002 15.999999999999998 9.9999999999999982 17 9.9999999999999982 10.999999999999998 9.9999999999999982 19 13.999999999999998 18 10.000000000000002 9.9999999999999982 13.999999999999998 19 13.999999999999998 11.999999999999998 11.000000000000002 17
leaf_count=10 14 15 16 13 14 17 15 11 13 13 16 11 19 19 10 12 16 10 17 10 11 10 19 14 18 10 10 14 19 14 12 11 17
internal_value=0 -0.0118101 -0.0251105 -0.000196563 -0.0192708 -0.00836771 -0.0208788 0.010399 0.0242206 -0.0145955 0.0527333 -0.0353638 -0.00984679 -0.0289779 0.0288564 -0.00540949 0.00545811 -0.0100488 0.0037622 0.0544581 0.00837504 0.0509054 -0.0225616 0.0105728 0.018942 0.0612461 0.0513401 -0.0175994 -0.0221488 -0.00910658 0.0656198 0.0695879 0.0689104
internal_weight=0 384 179 205 164 160 96 64 53 150 86 46 81 36 45 104 45 29 30 20 25 23 35 45 32 70 32 59 45 26 22 38 28
internal_count=470 384 179 205 164 160 96 64 53 150 86 46 81 36 45 104 45 29 30 20 25 23 35 45 32 70 32 59 45 26 22 38 28
is_linear=0
shrinkage=0.1


Tree=7
num_leaves=37
num_cat=0
split_feature=8 2 5 0 0 0 8 8 0 8 6 0 8 0 8 8 8 0 8 8 8 8 0 0 8 7 0 8 8 0 2 0 8 0 0 0
split_gain=23.7622 5.79736 2.69758 4.08567 2.30462 2.02733 1.51014 3.63111 1.28889 1.24797 1.7047 1.14846 1.12441 1.53577 1.33016 1.29416 1.10094 2.1353 0.97916 1.24289 0.90122 0.749462 0.704512 1.11633 0.998457 0.688464 0.596063 0.560649 0.421456 0.344455 0.188493 0.0926635 0.0358586 0.0289043 0.0169329 6.78469e-05
threshold=10.563633835000003 1.7500000000000002 1.0000000180025095e-35 617.50000000000011 449.50000000000006 428.00000000000006 25.748683725000003 25.113786945000005 470.50000000000006 8.9206268110000018 1.0000000180025095e-35 397.50000000000006 15.182703795000002 147.50000000000003 12.059706745000002 15.482414685000002 15.421143530000002 422.50000000000006 19.183431370000005 22.561955135000002 18.472860010000002 16.365083740000006 638.50000000000011 553.00000000000011 19.614625340000003 1.0000000180025095e-35 194.50000000000003 14.083535495000001 21.185753980000005 275.50000000000006 1.7500000000000002 633.00000000000011 8.7077387820000016 523.50000000000011 313.50000000000006 568.50000000000011
decision_type=2 2 2 2 2 2 2 2 2 2 2 2 2 2 2 2 2 2 2 2 2 2 2 2 2 2 2 2 2 2 2 2 2 2 2 2
left_child=9 2 4 26 5 11 7 8 -6 32 29 12 13 -2 -15 -14 27 20 -19 -20 -18 -17 23 28 -25 -24 -4 -3 33 30 -11 -21 -1 -10 -34 -26
right_child=1 16 3 -5 6 -7 -8 -9 22 10 -12 -13 15 14 -16 21 17 18 19 31 -22 -23 25 24 35 -27 -28 -29 -30 -31 -32 -33 34 -35 -36 -37
leaf_value=0.063441926240921029 0.019154949892650954 0.009724335314240308 -0.034242061823606479 -0.088989994846857517 0.029966680519282821 -0.064628566677371657 0.026160032359453352 -0.064503971419551151 -0.019873403283682731 0.061721751838922478 0.0029372396258016426 0.011054694056510925 -0.062309598005734962 -0.0091908671844162428 -0.054249027594923976 -0.0064238938001485967 -0.0052400745059314521 0.043889269065111876 -0.019096503779292104 0.015945843756198879 -0.041206973249262036 -0.037933854675955246 -0.0087940785619947653 -0.011810797173529864 0.024519992234523995 -0.040548716350035222 0.00028513014316558841 0.035130720762045757 -0.0028556194352476224 0.03068609654903412 0.044642081963164465 0.029559330344200135 0.059126106112757142 -0.027301785498857502 0.053940212428569792 0.024160095155239106
leaf_weight=13.999999999999998 10.999999999999998 15.999999999999998 10.000000000000002 12.999999999999998 9.9999999999999982 11.999999999999998 12.999999999999998 10.999999999999998 11.000000000000002 12.000000000000002 11.999999999999998 9.9999999999999982 12.999999999999998 19.000000000000004 9.9999999999999982 13.000000000000002 19.000000000000004 9.9999999999999982 11.000000000000002 10.000000000000002 10.999999999999998 18 18 11.999999999999998 11.000000000000002 11.000000000000002 9.9999999999999982 19 19 9.9999999999999982 13.999999999999998 9.9999999999999982 17.000000000000004 9.9999999999999982 9.9999999999999982 9.9999999999999982
leaf_count=14 11 16 10 13 10 12 13 11 11 12 12 10 13 19 10 13 19 10 11 10 11 18 18 12 11 11 10 19 19 10 14 10 17 10 10 10
internal_value=0 -0.0108674 -0.0185258 -0.0453466 -0.0148685 -0.0259222 -0.00625306 -0.00967884 -0.00429423 0.0465224 0.0355783 -0.020981 -0.0247947 -0.0126603 -0.0247282 -0.035826 0.00900111 0.0018457 0.0166801 0.00790291 -0.0184279 -0.02472 -0.00765314 -0.00241494 0.0111997 -0.0208389 -0.0169785 0.0235164 -0.0136471 0.0464586 0.052525 0.0227526 0.0593349 -0.0234107 0.0572054 0.0243486
internal_weight=0 381 275 33 242 106 136 123 112 89 48 94 84 40 29 44 106 71 41 31 30 31 102 73 33 29 20 35 40 36 26 20 41 21 27 21
internal_count=470 381 275 33 242 106 136 123 112 89 48 94 84 40 29 44 106 71 41 31 30 31 102 73 33 29 20 35 40 36 26 20 41 21 27 21
is_linear=0
shrinkage=0.1


Tree=8
num_leaves=34
num_cat=0
split_feature=8 3 2 0 5 0 8 1 0 3 0 8 8 0 8 8 8 8 3 0 3 3 8 8 0 8 0 0 0 0 3 0 3
split_gain=19.301 5.10072 6.23191 5.08826 2.8791 2.52789 2.52144 2.46636 4.29229 2.07378 2.05031 1.7383 2.045 1.72806 1.68484 2.67367 1.39064 1.35808 0.899577 0.758154 0.676113 0.731611 0.567976 0.471646 0.418004 0.376761 1.02061 0.354982 0.975901 1.03984 0.0615218 0.0439984 0.0137228
threshold=10.286845695000002 2001.5000000000002 1.7500000000000002 115.50000000000001 1.0000000180025095e-35 418.50000000000006 15.182703795000002 1.0000000180025095e-35 692.50000000000011 1996.5000000000002 105.00000000000001 29.047396990000003 24.308573915 222.00000000000003 25.748683725000003 24.199787505000003 20.963646615000005 12.083487690000002 1983.5000000000002 163.50000000000003 2005.5000000000002 2015.5000000000002 21.823594810000003 14.532767825000002 377.50000000000006 9.2488978485000022 261.50000000000006 656.50000000000011 546.50000000000011 518.50000000000011 1964.5000000000002 286.50000000000006 1973.5000000000002
decision_type=2 2 2 2 2 2 2 2 2 2 2 2 2 2 2 2 2 2 2 2 2 2 2 2 2 2 2 2 2 2 2 2 2
left_child=9 2 6 -3 5 13 17 14 11 25 -4 12 18 19 15 -8 20 -2 -9 -5 -7 -22 23 -12 -20 30 -27 28 29 -18 -1 -32 -33
right_child=1 3 10 4 -6 16 7 8 -10 -11 22 -13 -14 -15 -16 -17 27 -19 24 -21 21 -23 -24 -25 -26 26 -28 -29 -30 -31 31 32 -34
leaf_value=0.048605512082576754 -0.0066129136999899668 -0.079958552654300422 0.0033045164799611819 -0.038275683224201204 -0.06046581566333771 -0.01051050854416994 0.019370205389956631 -0.040811725533925571 -0.075859504139849127 0.010340725397691132 0.038805763386189927 -0.051450953429395513 0.025163857206436144 -0.067438714883544235 0.029699371545575559 -0.040336575377732518 -0.026354878453107973 0.040341095373566664 0.001723429001867771 -0.0078350478770314817 0.033678377313273299 0.0031983789438123095 0.02904592404762904 0.068812668865377263 -0.021937230761562076 0.059057550934644834 0.017670204016295345 -0.00071228551013129094 -0.036172203562761608 0.013641968942605533 0.063108884692192085 0.058209692239761336 0.053487459383904937
leaf_weight=9.9999999999999982 11.000000000000002 13.999999999999998 19 14.999999999999998 13.999999999999998 12.999999999999998 15.000000000000002 12.999999999999998 13.999999999999998 15.999999999999998 10.000000000000002 10.999999999999998 13.999999999999998 10.999999999999998 15.999999999999998 14.999999999999998 13.000000000000002 13.999999999999998 16.000000000000004 18 13.999999999999998 18 14.999999999999998 10.999999999999998 13.999999999999998 13.000000000000002 10.999999999999998 13.999999999999998 19 12.999999999999998 9.9999999999999982 10.000000000000002 15.999999999999998
leaf_count=10 11 14 19 15 14 13 15 13 14 16 10 11 14 11 16 15 13 14 16 18 14 18 15 11 14 13 11 14 19 13 10 10 16
internal_value=0 -0.00959014 0.00101154 -0.0221194 -0.0171209 -0.0130208 -0.00936647 -0.0150399 -0.0254366 0.0428211 0.0298813 -0.0150554 -0.00803166 -0.0331135 0.00349336 -0.0104832 -0.00452 0.0196813 -0.0188395 -0.0216717 0.0087207 0.0165334 0.0439079 0.0545237 -0.00931821 0.0502452 0.0400884 -0.0146188 -0.0189453 -0.00635645 0.0555444 0.0574718 0.0553037
internal_weight=0 384 208 176 162 148 153 128 82 86 55 68 57 44 46 30 104 25 43 33 45 32 36 21 30 70 24 59 45 26 46 36 26
internal_count=470 384 208 176 162 148 153 128 82 86 55 68 57 44 46 30 104 25 43 33 45 32 36 21 30 70 24 59 45 26 46 36 26
is_linear=0
shrinkage=0.1


Tree=9
num_leaves=34
num_cat=0
split_feature=7 0 0 6 1 0 0 2 4 0 0 0 0 2 0 0 0 0 0 0 0 2 0 0 0 0 0 0 0 6 0 0 0
split_gain=7.02377 3.54554 7.83324 3.13459 2.36966 2.21798 2.20016 1.74848 1.62198 1.34133 3.41392 1.20715 1.81895 0.864602 0.86045 0.92448 0.777178 1.34995 0.61975 0.450051 0.402162 0.805628 0.307314 0.487815 0.305222 0.261026 0.278414 0.302118 0.29542 0.119026 0.0668618 0.0177482 0.00286373
threshold=1.0000000180025095e-35 377.50000000000006 231.00000000000003 1.0000000180025095e-35 1.0000000180025095e-35 692.50000000000011 163.50000000000003 1.7500000000000002 1.0000000180025095e-35 382.50000000000006 515.50000000000011 445.50000000000006 539.00000000000011 1.2500000000000002 477.00000000000006 703.00000000000011 27.500000000000004 147.50000000000003 194.50000000000003 73.500000000000014 279.00000000000006 1.7500000000000002 143.50000000000003 61.500000000000007 558.00000000000011 647.00000000000011 562.00000000000011 580.00000000000011 532.50000000000011 1.0000000180025095e-35 495.50000000000006 301.50000000000006 321.50000000000006
decision_type=2 2 2 2 2 2 2 2 2 2 2 2 2 2 2 2 2 2 2 2 2 2 2 2 2 2 2 2 2 2 2 2 2
left_child=1 2 7 6 14 8 19 16 11 -8 -11 -6 -13 25 -3 24 -1 -18 -19 -2 21 -4 23 -9 30 26 28 -28 -12 -22 -16 -31 -33
right_child=3 4 20 -5 5 -7 9 22 -10 10 13 12 -14 -15 15 -17 17 18 -20 -21 29 -23 -24 -25 -26 -27 27 -29 -30 31 -32 32 -34
leaf_value=-0.037310281937772576 -0.019795693755149835 0.037310620126399123 0.051551132152477891 -0.058080854748978339 -0.017885099053382876 -0.047763755562482406 0.020787526661297309 0.0042173562198877324 -0.037916387044466461 -0.052543804608285428 -0.00110494697635824 0.038968144531051324 -0.0081822810280654159 0.018169333884382948 0.0010184136374543108 0.033075398504734038 0.014388953982030646 -0.036144361751420148 -0.0051744131138548258 -0.046004851938127297 0.039080705245335898 0.018454740294500404 0.0035129255625446715 0.033135416145835608 -0.012836965386356628 -0.022173191010951998 0.014235422511895494 -0.0073877840968114995 -0.024280942841009661 0.045833479071205316 0.012089993879199028 0.04964892491698264 0.051882717284289274
leaf_weight=10.999999999999998 10.000000000000002 10.999999999999998 12.000000000000002 17 20 15.999999999999998 15.999999999999998 10.000000000000002 12.999999999999998 15.999999999999998 11.000000000000002 14.999999999999998 18 17 12.000000000000002 9.9999999999999982 17 14.000000000000002 11.999999999999998 19 18 19 17 13.999999999999998 13.999999999999998 9.9999999999999982 12.000000000000002 13.999999999999998 10.999999999999998 10.999999999999998 9.9999999999999982 12.000000000000002 10.999999999999998
leaf_count=11 10 11 12 17 20 16 16 10 13 16 11 15 18 17 12 10 17 14 12 19 18 19 17 14 14 10 12 14 11 11 10 12 11
internal_value=0 0.00849283 0.0178385 -0.0175962 -0.00347496 -0.0143609 -0.0125357 -0.00176975 -0.00626324 -0.00591404 -0.0106088 0.00150074 0.0132497 -0.00166269 0.0121855 0.00617733 -0.013591 -0.0075233 -0.0218505 -0.0369672 0.0402816 0.0312662 0.0137997 0.0210862 -0.00129435 -0.00747553 -0.00441351 0.00259216 -0.0126929 0.0456561 0.00605095 0.0491372 0.0507173
internal_weight=0 317 178 153 139 82 136 95 66 107 91 53 33 75 57 46 54 43 26 29 83 31 41 24 36 58 48 26 22 52 22 34 23
internal_count=470 317 178 153 139 82 136 95 66 107 91 53 33 75 57 46 54 43 26 29 83 31 41 24 36 58 48 26 22 52 22 34 23
is_linear=0
shrinkage=0.1


Tree=10
num_leaves=34
num_cat=0
split_feature=8 3 0 3 8 7 3 1 0 8 8 3 3 8 8 3 3 3 0 0 8 8 3 0 8 0 0 8 3 3 3 8 8
split_gain=13.0447 3.53569 4.09454 3.46309 2.62534 2.56249 3.38393 2.43353 2.25658 1.80146 1.67948 1.40412 1.22421 1.21244 1.75772 1.19722 1.51269 1.14448 0.802875 3.01091 0.765452 0.731769 0.704703 0.650863 0.477117 0.467656 0.446737 1.06549 0.353578 0.209073 0.0378925 0.0221026 0.0110547
threshold=10.563633835000003 2001.5000000000002 115.50000000000001 2003.5000000000002 15.339515245000003 1.0000000180025095e-35 1988.5000000000002 1.0000000180025095e-35 692.50000000000011 13.730196790000003 22.166087935000004 1980.5000000000002 1955.5000000000002 18.472860010000002 20.963646615000005 1964.5000000000002 1937.0000000000002 1986.5000000000002 546.50000000000011 629.50000000000011 24.084264855000004 21.113901485000003 2005.5000000000002 222.00000000000003 12.059706745000002 173.50000000000003 266.50000000000006 8.9206268110000018 2015.5000000000002 2008.5000000000002 1981.5000000000002 10.107055955000002 8.7077387820000016
decision_type=2 2 2 2 2 2 2 2 2 2 2 2 2 2 2 2 2 2 2 2 2 2 2 2 2 2 2 2 2 2 2 2 2
left_child=3 4 -3 26 9 7 -7 10 15 24 -6 12 -12 23 22 16 -9 -11 21 -20 -17 -16 -15 25 -2 -4 31 30 -24 -21 32 -1 -28
right_child=1 2 13 -5 5 6 -8 8 -10 17 11 -13 -14 14 18 20 -18 -19 19 29 -22 -23 28 -25 -26 -27 27 -29 -30 -31 -32 -33 -34
leaf_value=0.050698545823494583 0.020147290034219615 -0.070375634583511523 -0.028727221763447715 -0.020973860546946527 0.042689911407582902 -0.067383837167705796 -0.00099377478746806884 0.0068432670831680281 -0.047294279427400665 0.065828477252613399 -0.0033371097221970552 -0.014607421779318862 0.044037905149161817 -0.0099143310235096857 -0.023840744545062378 -8.1835029756321612e-05 -0.037359521072357897 0.019085483876988291 -0.074221468567848212 -0.022292287051677698 0.034785319864749913 0.0084123196847298558 0.029397397514964847 -0.041109303502660052 -0.0084519212799412866 -0.0055233450024388736 0.044933445453643785 0.015843772800529704 0.0060050015648206081 -0.0044286087939613746 0.040731627019968908 0.057064189016819006 0.049041113257408148
leaf_weight=12.000000000000002 10.000000000000002 13.999999999999998 19 9.9999999999999982 17 14.000000000000002 17 15.000000000000002 13.999999999999998 11.000000000000002 10.000000000000002 19 11.999999999999998 12.999999999999998 12.000000000000002 17.000000000000004 15.999999999999998 9.9999999999999982 9.9999999999999982 10.000000000000002 9.9999999999999982 17 14.000000000000002 19 13.999999999999998 15.999999999999998 10.000000000000002 17 11.999999999999998 19 10.999999999999998 9.9999999999999982 19
leaf_count=12 10 14 19 10 17 14 17 15 14 11 10 19 12 13 12 17 16 10 10 10 10 17 14 19 14 16 10 17 12 19 11 10 19
internal_value=0 -0.00805195 -0.0185037 0.0344696 0.000826972 -0.00514135 -0.0309764 0.00101931 -0.0112606 0.0221803 0.0162633 0.00530592 0.0225038 -0.0139931 -0.00782826 -0.00256278 -0.0159711 0.0435699 -0.0175347 -0.0269046 0.0128319 -0.00493378 0.00909583 -0.0262087 0.00346442 -0.0181197 0.0414877 0.0368159 0.0186009 -0.0105885 0.0457291 0.053592 0.0476247
internal_weight=0 381 175 89 206 161 31 130 72 45 58 41 22 161 107 58 31 21 68 39 27 29 39 54 24 35 79 57 26 29 40 22 29
internal_count=470 381 175 89 206 161 31 130 72 45 58 41 22 161 107 58 31 21 68 39 27 29 39 54 24 35 79 57 26 29 40 22 29
is_linear=0
shrinkage=0.1


Tree=11
num_leaves=35
num_cat=0
split_feature=8 2 5 0 0 0 0 0 8 8 0 8 0 8 0 0 8 0 8 8 8 8 8 7 8 8 8 0 0 0 2 8 8 0
split_gain=10.5662 3.48236 1.39562 2.26659 1.23689 1.53763 0.986611 0.807453 0.815206 0.829723 0.980394 2.27541 0.748186 0.627601 2.20073 0.615087 0.60419 1.43232 0.99047 0.962266 0.480185 0.478491 0.53413 0.758488 0.786597 0.335149 0.527664 0.776869 0.409768 0.155924 0.113615 0.0519826 0.0480833 0.00306199
threshold=10.563633835000003 1.7500000000000002 1.0000000180025095e-35 495.50000000000006 449.50000000000006 428.00000000000006 692.50000000000011 633.00000000000011 15.421143530000002 22.333365345000004 368.50000000000006 19.041120585000005 397.50000000000006 9.2488978485000022 266.50000000000006 143.50000000000003 15.182703795000002 147.50000000000003 12.059706745000002 15.482414685000002 16.069766775000002 25.683870580000004 24.372314945000003 1.0000000180025095e-35 23.114959740000003 21.363255710000001 20.963646615000005 528.50000000000011 580.00000000000011 240.50000000000003 1.7500000000000002 8.7174921285000018 27.909271320000006 306.00000000000006
decision_type=2 2 2 2 2 2 2 2 2 2 2 2 2 2 2 2 2 2 2 2 2 2 2 2 2 2 2 2 2 2 2 2 2 2
left_child=13 2 4 -4 5 12 21 8 15 10 -10 -12 16 30 29 -3 17 -2 -19 -18 -21 22 23 24 -6 26 28 -28 -25 -15 31 -1 -22 -33
right_child=1 7 3 -5 6 -7 -8 -9 9 -11 11 -13 -14 14 -16 -17 19 18 -20 20 32 -23 -24 25 -26 -27 27 -29 -30 -31 -32 33 -34 -35
leaf_value=0.037035612708755904 0.022195483727211304 0.030702991364523771 -0.0070486690191661613 -0.059488243097439414 0.032622924012442427 -0.052358644704023995 -0.026047611319356498 0.027450002067618901 -0.035108889887730282 0.015112787485122681 0.022833873331546781 -0.037973495777696376 0.011510846614837648 0.027126537466591046 -0.016385109180753882 0.003385498665054055 -0.048347395343276173 -0.0067764984933953529 -0.04565799007192254 0.00084770674055272856 -0.020261061638593668 0.01801257890959581 -0.023917000300504948 0.011519880699259891 -0.0017266850918531418 0.0069255625208218888 -0.004939800075122288 -0.040452498739415949 -0.012674809370322952 0.042406239535878687 0.03149019703269005 0.043743198812007889 -0.030067523121833802 0.046217864453792577
leaf_weight=13.999999999999998 10.999999999999998 15.999999999999998 17 15.999999999999998 12.000000000000002 11.999999999999998 18 18 11.999999999999998 17 16.000000000000004 9.9999999999999982 9.9999999999999982 11.000000000000002 10.999999999999998 17 12.999999999999998 19.000000000000004 9.9999999999999982 11.000000000000002 10.000000000000002 11.999999999999998 10.999999999999998 14.000000000000002 14.999999999999998 14.999999999999998 14.000000000000002 10.999999999999998 13.999999999999998 17 15.999999999999998 10.000000000000002 9.9999999999999982 9.9999999999999982
leaf_count=14 11 16 17 16 12 12 18 18 12 17 16 10 10 11 11 17 13 19 10 11 10 12 11 14 15 15 14 11 14 17 16 10 10 10
internal_value=0 -0.00724676 -0.0131823 -0.0324739 -0.0105516 -0.0186496 -0.00423999 0.00815207 0.00420476 -0.00325059 -0.0114658 -0.000553576 -0.0143463 0.0310226 0.0215144 0.0166303 -0.0174245 -0.00852958 -0.0201839 -0.0255108 -0.0159342 -0.000913403 -0.00305597 -0.000640478 0.0135398 -0.00627089 -0.0100057 -0.0205654 -0.000577464 0.0364035 0.038439 0.0417091 -0.0251643 0.0449805
internal_weight=0 381 275 33 242 106 136 106 88 55 38 26 94 89 39 33 84 40 29 44 31 118 106 95 27 68 53 25 28 28 50 34 20 20
internal_count=470 381 275 33 242 106 136 106 88 55 38 26 94 89 39 33 84 40 29 44 31 118 106 95 27 68 53 25 28 28 50 34 20 20
is_linear=0
shrinkage=0.1


Tree=12
num_leaves=36
num_cat=0
split_feature=7 6 0 0 1 4 0 0 2 0 0 0 0 0 0 2 0 0 5 0 0 0 0 0 0 2 0 0 0 0 0 0 0 0 0
split_gain=4.41056 2.57728 1.84234 4.26256 1.38102 1.59653 1.34292 1.22583 1.15262 0.990364 2.52956 0.923319 1.43641 0.635749 0.726534 0.559 0.508488 1.01943 0.422385 0.402343 0.376525 0.344402 0.240043 0.227193 0.223025 0.248536 0.217413 0.216459 0.582629 0.143709 0.19256 0.190253 0.0273145 0.0204199 0.00497722
threshold=1.0000000180025095e-35 1.0000000180025095e-35 377.50000000000006 231.00000000000003 1.0000000180025095e-35 1.0000000180025095e-35 163.50000000000003 703.00000000000011 1.7500000000000002 382.50000000000006 515.50000000000011 445.50000000000006 539.00000000000011 477.00000000000006 703.00000000000011 1.2500000000000002 27.500000000000004 147.50000000000003 1.0000000180025095e-35 73.500000000000014 194.50000000000003 295.00000000000006 143.50000000000003 647.00000000000011 344.00000000000006 1.7500000000000002 61.500000000000007 501.00000000000006 576.50000000000011 562.00000000000011 580.00000000000011 532.50000000000011 258.00000000000006 656.50000000000011 275.50000000000006
decision_type=2 2 2 2 2 2 2 2 2 2 2 2 2 2 2 2 2 2 2 2 2 2 2 2 2 2 2 2 2 2 2 2 2 2 2
left_child=2 6 3 8 13 7 19 11 16 -8 -11 -6 -13 -4 27 23 -1 -18 24 -2 -19 -20 26 29 25 34 -10 -15 -29 31 -31 -12 -27 -14 -5
right_child=1 -3 4 18 5 -7 9 -9 22 10 15 12 33 14 -16 -17 17 20 21 -21 -22 -23 -24 -25 -26 32 -28 28 -30 30 -32 -33 -34 -35 -36
leaf_value=-0.029781476746905934 -0.012206718027591702 -0.050653436254052553 0.031655125184492636 0.040318656265735615 -0.014488669931888583 -0.040959334932267666 0.018761960283154622 -0.031492698651093706 0.006821575462818143 -0.044313097000122072 0.00101852457631718 0.0358381472590069 -0.0019031833857297892 -0.0109045800101012 0.028739116936922073 0.015431235412902693 0.013354177318294259 -0.029279327339359687 0.0047817316651344284 -0.036987803886203395 -0.0051397862378507854 0.028740088740984601 0.0025519707952352134 -0.018901308476924897 0.046243104453270255 0.027634223550558081 0.026127233781984879 0.022293383909855032 -0.011057650365612725 0.011996129838128882 -0.0052668320148118904 -0.017580266838723962 0.020557744180162749 -0.0082937906682491302 0.037351192419345564
leaf_weight=10.999999999999998 10.000000000000002 17 10.999999999999998 10.000000000000002 20 13.999999999999998 15.999999999999998 12.999999999999998 10.000000000000002 15.999999999999998 11.000000000000002 14.999999999999998 10.000000000000002 14.999999999999998 9.9999999999999982 17 17 14.000000000000002 10.000000000000002 19 11.999999999999998 14.999999999999998 17 9.9999999999999982 12.999999999999998 10.000000000000002 13.999999999999998 10.000000000000002 10.999999999999998 12.000000000000002 13.999999999999998 10.999999999999998 11.999999999999998 9.9999999999999982 12.999999999999998
leaf_count=11 10 17 11 10 20 14 16 13 10 16 11 15 10 15 10 17 17 14 10 19 12 15 17 10 13 10 14 10 11 12 14 11 12 10 13
internal_value=0 -0.0139438 0.00672999 0.0134668 -0.00189697 -0.0102074 -0.00935512 -0.00387612 -0.000997713 -0.00418188 -0.00821597 0.00265144 0.0124458 0.0100584 0.00489396 -0.000515245 -0.0105956 -0.0056876 0.0300225 -0.0284426 -0.018138 0.0191567 0.0116434 -0.00518921 0.034706 0.031373 0.0180832 -0.00172969 0.00482379 -0.00233253 0.00270069 -0.00828087 0.0237743 -0.00509849 0.0386414
internal_weight=0 153 317 178 139 82 136 68 95 107 91 55 35 57 46 75 54 43 83 29 26 25 41 58 58 45 24 36 21 48 26 22 22 20 23
internal_count=470 153 317 178 139 82 136 68 95 107 91 55 35 57 46 75 54 43 83 29 26 25 41 58 58 45 24 36 21 48 26 22 22 20 23
is_linear=0
shrinkage=0.1


Tree=13
num_leaves=37
num_cat=0
split_feature=3 8 2 8 8 6 8 3 3 3 8 6 8 8 8 8 3 8 8 8 3 2 3 3 8 2 2 3 8 3 3 8 3 3 8 8
split_gain=7.25502 7.29689 2.54202 2.39635 2.25404 1.54141 4.2064 2.32994 2.70002 1.8988 1.11885 1.48662 0.958755 0.676963 0.590635 1.84189 0.681294 0.57857 0.517379 0.42099 0.397151 0.675535 0.701995 0.383327 0.376499 0.352464 0.345689 0.322921 0.321692 0.202724 0.136963 0.134532 0.0650029 0.00931927 0.011788 0.00655891
threshold=2003.5000000000002 15.339515245000003 1.7500000000000002 18.542185310000004 16.069766775000002 1.0000000180025095e-35 24.251441005000004 1965.5000000000002 1937.0000000000002 1984.5000000000002 15.182703795000002 1.0000000180025095e-35 22.166087935000004 19.041120585000005 11.983525240000001 13.730196790000003 1986.5000000000002 10.042051770000002 8.891703199500002 18.944973555000004 2015.5000000000002 1.7500000000000002 2008.5000000000002 1950.5000000000002 12.083487690000002 1.7500000000000002 1.7500000000000002 2013.5000000000002 22.166087935000004 2005.5000000000002 1983.5000000000002 21.113901485000003 1974.5000000000002 1978.5000000000002 8.7077387820000016 16.565984685000004
decision_type=2 2 2 2 2 2 2 2 2 2 2 2 2 2 2 2 2 2 2 2 2 2 2 2 2 2 2 2 2 2 2 2 2 2 2 2
left_child=1 14 5 10 -4 7 -7 8 -3 -9 11 26 19 -5 17 24 -17 18 33 -11 21 22 29 -10 -16 -22 27 -2 -6 -15 32 -31 -20 34 -1 -12
right_child=3 2 4 13 28 6 -8 9 23 12 35 -13 -14 20 15 16 -18 -19 30 -21 25 -23 -24 -25 -26 -27 -28 -29 -30 31 -32 -33 -34 -35 -36 -37
leaf_value=0.033256945013999929 -0.0099679888846973558 0.0051550015905185752 -0.022231006287038328 0.01512201697780536 0.047458380460739122 -0.064470091834664331 0.018206379953771831 0.033632286932123334 -0.057941627285132795 -0.0078260973095893843 -0.050994727318175129 -0.056612603813409802 -0.025871623201029644 -0.019486511995395028 -0.013590510119684039 0.05665586346929722 0.022201501112431288 0.049256402429412399 0.018007185794413079 0.018316311335989408 -0.03492538645863532 -0.029774736911058426 0.015524457307422863 -0.032665570545941595 0.012022396364905449 -0.008985360821878367 -0.0032349038869142533 -0.033167165354825556 0.025088536159859766 -0.010729444609023631 0.0093748527765274061 0.0022383973002433779 0.029409196972846986 0.039512714743614202 0.037752271124294828 -0.047456146180629738
leaf_weight=10.000000000000002 12.000000000000002 19 9.9999999999999982 12.999999999999998 10.000000000000002 16.000000000000004 9.9999999999999982 19 12.000000000000002 11.000000000000002 11.000000000000002 9.9999999999999982 13.999999999999998 11.999999999999998 12.000000000000002 11.000000000000002 11.999999999999998 17 10.000000000000005 13.999999999999998 10 9.9999999999999982 17 11.999999999999998 10.999999999999998 11 18 11.999999999999998 18 15.999999999999998 9.9999999999999982 15.999999999999998 9.9999999999999982 9.9999999999999982 13.999999999999998 9.9999999999999982
leaf_count=10 12 19 10 13 10 16 10 19 12 11 11 10 14 12 12 11 12 17 10 14 10 10 17 12 11 11 18 12 18 16 10 16 10 10 14 10
internal_value=0 0.00970039 -0.00416836 -0.015913 0.0185228 -0.0109579 -0.0326714 -0.00536821 -0.0230079 0.00770952 -0.0298285 -0.0219611 -0.00491952 -0.00623841 0.0277188 0.0186694 0.0386797 0.032858 0.0285022 0.00681365 -0.00925673 -0.00568347 -0.00173408 -0.0453036 -0.00134086 -0.0213378 -0.0137107 -0.0215676 0.0330778 -0.00840216 0.0189304 -0.00424552 0.0237082 0.0369479 0.0358792 -0.0493097
internal_weight=0 292 165 178 38 127 26 101 43 58 73 52 39 105 127 46 23 81 64 25 92 71 61 24 23 21 42 24 28 44 30 32 20 34 24 21
internal_count=470 292 165 178 38 127 26 101 43 58 73 52 39 105 127 46 23 81 64 25 92 71 61 24 23 21 42 24 28 44 30 32 20 34 24 21
is_linear=0
shrinkage=0.1


Tree=14
num_leaves=36
num_cat=0
split_feature=3 8 2 8 7 8 1 8 8 7 8 8 3 8 3 3 3 7 8 3 2 8 3 8 8 8 8 3 8 8 2 8 3 8 8
split_gain=5.87657 6.01581 2.46269 1.94105 1.43723 6.5709 1.52854 2.50766 2.62113 1.22063 1.06 1.49655 1.00936 0.906265 1.21202 0.64561 0.679609 0.588279 0.57876 0.935578 0.578289 0.505741 0.491666 0.468642 0.440417 0.432119 0.314543 0.247118 0.217275 0.274031 0.182813 0.103646 0.0075486 0.00954826 0.00531272
threshold=2003.5000000000002 15.182703795000002 1.7500000000000002 18.542185310000004 1.0000000180025095e-35 21.442217670000002 1.0000000180025095e-35 25.113786945000005 21.823594810000003 1.0000000180025095e-35 14.181717015000002 11.983525240000001 1937.0000000000002 15.182703795000002 2007.5000000000002 1985.5000000000002 1955.5000000000002 1.0000000180025095e-35 20.963646615000005 2005.5000000000002 1.7500000000000002 21.823594810000003 2015.5000000000002 10.042051770000002 12.083487690000002 9.2488978485000022 25.683870580000004 2010.5000000000002 21.113901485000003 23.375215230000006 1.7500000000000002 8.891703199500002 1978.5000000000002 8.7077387820000016 16.565984685000004
decision_type=2 2 2 2 2 2 2 2 2 2 2 2 2 2 2 2 2 2 2 2 2 2 2 2 2 2 2 2 2 2 2 2 2 2 2
left_child=1 10 4 13 6 -6 15 8 -8 21 11 23 -10 14 -2 16 -3 20 19 -5 -16 -4 -21 25 -13 31 -18 28 -20 -30 -29 32 33 -1 -15
right_child=3 2 9 18 5 -7 7 -9 12 -11 -12 24 -14 34 17 -17 26 -19 27 22 -22 -23 -24 -25 -26 -27 -28 30 29 -31 -32 -33 -34 -35 -36
leaf_value=0.029931251108646386 -0.051053022816777233 -0.0038414734695106732 0.040928234718739978 -0.019996916096318852 0.0061969563778903744 -0.094903972744941723 -0.031773806073599392 -0.048670031689107419 -0.00037358901463448993 -0.008953937018911045 0.054329154516259831 -0.012231458236783507 0.039149793412070727 -0.045895254053175433 -0.037278467354675125 -0.0089346630068925705 0.016163358905098648 0.0044217319493847235 -0.018114088475704195 0.027524715954703939 -0.0082381854299455881 0.01490263608949525 -5.9901668767755239e-05 0.04433076188844793 0.014335372958045739 0.010800699343283973 0.040668289978057152 -0.026629681885242458 0.0075159398714701332 -0.011028119658722598 -0.0089267402887344346 0.023274041910966239 0.03556144267320633 0.033977044054440096 -0.04271053105592728
leaf_weight=10.000000000000002 9.9999999999999982 10.000000000000002 16.000000000000004 10.999999999999998 18.000000000000004 9.9999999999999982 18 15.999999999999998 14.000000000000002 11.999999999999998 11.999999999999998 12.000000000000002 11.999999999999998 11.000000000000002 12.000000000000002 12.999999999999998 11.000000000000002 13.999999999999998 11.999999999999998 14.000000000000002 15.999999999999998 13.999999999999998 11.999999999999998 17 12.999999999999998 14.999999999999998 9.9999999999999982 14 14.999999999999998 17 10 14.999999999999998 9.9999999999999982 13.999999999999998 9.9999999999999982
leaf_count=10 10 10 16 11 18 10 18 16 14 12 12 12 12 11 12 13 11 14 12 14 16 14 12 17 13 15 10 14 15 17 10 15 10 14 10
internal_value=0 0.00873035 -0.00308977 -0.0143217 -0.00980047 -0.0299105 -0.00438622 -0.014768 -0.00244003 0.018001 0.02616 0.0229711 0.017868 -0.0268456 -0.019765 0.00977078 0.017615 -0.0123154 -0.00561457 0.0044503 -0.020684 0.028783 0.0147934 0.0295722 0.00158329 0.025652 0.0278324 -0.011091 -0.00663882 -0.00233559 -0.0192535 0.0301983 0.0332531 0.0322913 -0.0443787
internal_weight=0 292 174 178 132 28 104 60 44 42 118 106 26 73 52 44 31 42 105 37 28 30 26 81 25 64 21 68 44 32 24 49 34 24 21
internal_count=470 292 174 178 132 28 104 60 44 42 118 106 26 73 52 44 31 42 105 37 28 30 26 81 25 64 21 68 44 32 24 49 34 24 21
is_linear=0
shrinkage=0.1


Tree=15
num_leaves=37
num_cat=0
split_feature=3 8 0 2 8 8 0 8 3 0 0 0 8 0 7 3 0 0 8 0 8 8 0 0 0 0 3 2 8 3 0 3 2 2 8 3
split_gain=4.76002 4.8728 3.13964 1.99478 1.2847 2.53906 3.49827 2.23735 1.97167 2.99855 1.27255 1.19376 1.56579 1.10412 0.903797 0.875471 0.858597 1.44253 0.840787 0.320475 0.622242 0.270599 0.24925 1.13524 0.445431 0.620588 0.390394 0.369746 0.979003 0.521622 0.221932 0.209204 0.123525 0.0545705 0.0229322 0.0149843
threshold=2003.5000000000002 15.182703795000002 159.00000000000003 1.7500000000000002 25.683870580000004 22.166087935000004 558.00000000000011 29.047396990000003 1978.5000000000002 543.50000000000011 403.50000000000006 449.50000000000006 24.537856855000005 73.500000000000014 1.0000000180025095e-35 1961.0000000000002 147.50000000000003 194.50000000000003 11.070405290000002 266.50000000000006 9.2488978485000022 15.653677295000003 191.50000000000003 386.50000000000006 546.50000000000011 584.50000000000011 2007.5000000000002 1.2500000000000002 22.526052545000002 2012.5000000000002 523.50000000000011 2008.5000000000002 1.7500000000000002 1.7500000000000002 8.7077387820000016 1970.5000000000002
decision_type=2 2 2 2 2 2 2 2 2 2 2 2 2 2 2 2 2 2 2 2 2 2 2 2 2 2 2 2 2 2 2 2 2 2 2 2
left_child=1 16 14 4 5 8 11 -6 -3 21 13 -7 -13 -5 -2 -9 -1 -18 -4 33 32 -10 -20 -24 26 -26 30 29 -29 31 -25 -27 34 -19 -21 -36
right_child=2 3 18 10 7 6 -8 15 9 -11 -12 12 -14 -15 -16 -17 17 19 22 20 -22 -23 23 24 25 27 -28 28 -30 -31 -32 -33 -34 -35 35 -37
leaf_value=0.048896238952875141 -0.063645779112210629 -0.032818681345536165 -0.031716331295095955 0.020193105240662888 0.045153932188722219 -0.039289166352578571 -0.080498187243938452 -0.029985651136799286 -0.016580667470892266 0.056389573419635942 0.038389985822141176 0.020631391039261447 -0.032001781708095221 -0.02151810018853708 -0.026356955940047135 0.010896541625261307 -0.0042887949582923043 0.031645251582894052 0.0093228303573348308 0.026793573548396427 0.00049198256297545008 0.0032844744622707368 -0.037077473510395399 -0.012023973923463084 -0.024788924569592759 -0.0092810882509432018 0.016575904672636706 0.02836094728501682 -0.012940843900044761 -0.023713182434439661 0.0077913954854011537 0.010222009230743755 0.01933633307615916 0.040858686529099943 0.035075152814388263 0.029726659980687228
leaf_weight=11.999999999999998 13 12.999999999999998 12.999999999999998 15.000000000000002 10.999999999999998 13.999999999999998 10.999999999999998 11.000000000000002 12.000000000000002 10.999999999999998 15.999999999999998 13.000000000000002 9.9999999999999982 10.999999999999998 13 9.9999999999999982 19 18.000000000000004 10.999999999999998 11.999999999999998 10.999999999999998 15.999999999999998 10.999999999999998 13.000000000000002 17 11.000000000000002 17 11.000000000000002 11.999999999999998 14.999999999999998 9.9999999999999982 10.999999999999998 14.999999999999998 9.9999999999999982 10.000000000000002 10.999999999999998
leaf_count=12 13 13 13 15 11 14 11 11 12 11 16 13 10 11 13 10 19 18 11 12 11 16 11 13 17 11 17 11 12 15 10 11 15 10 10 11
internal_value=0 0.00785731 -0.0128895 -0.0027808 -0.00882042 -0.0144011 -0.0309862 0.00861927 0.000908193 0.0121505 0.0162009 -0.0162664 -0.0022526 0.00254606 -0.0450014 -0.0105179 0.023544 0.020674 -0.00739671 0.0261256 0.0219445 -0.00522916 -0.00512221 -0.00636358 -0.00347595 -0.0079231 0.00508482 -0.00314446 0.00681219 -0.00933372 -0.0034086 0.00047046 0.0268607 0.0349358 0.0302808 0.0322736
internal_weight=0 292 178 174 132 100 48 32 52 39 42 37 23 26 26 21 118 106 152 87 59 28 139 128 117 77 40 60 23 37 23 22 48 28 33 21
internal_count=470 292 178 174 132 100 48 32 52 39 42 37 23 26 26 21 118 106 152 87 59 28 139 128 117 77 40 60 23 37 23 22 48 28 33 21
is_linear=0
shrinkage=0.1


Tree=16
num_leaves=37
num_cat=0
split_feature=3 7 0 3 5 0 0 3 7 3 0 1 0 0 3 3 0 3 2 0 0 0 3 3 3 0 3 0 0 3 3 3 0 0 0 0
split_gain=3.87915 2.39954 1.99006 1.53847 1.05566 2.07703 1.59822 2.83997 1.12091 0.832376 1.81232 0.731075 1.02504 0.900303 0.84339 1.07196 0.612542 1.94173 0.524468 0.796137 0.873248 0.439586 0.745818 0.357404 0.532579 0.357359 0.281972 0.19524 0.480748 0.152827 0.0837928 0.0713348 0.0470036 0.0283247 0.0283125 0.000790944
threshold=1995.5000000000002 1.0000000180025095e-35 377.50000000000006 1961.0000000000002 1.0000000180025095e-35 222.00000000000003 163.50000000000003 2004.5000000000002 1.0000000180025095e-35 1937.0000000000002 214.50000000000003 1.0000000180025095e-35 692.50000000000011 449.50000000000006 1974.5000000000002 1955.5000000000002 368.50000000000006 1984.5000000000002 1.7500000000000002 501.00000000000006 222.00000000000003 275.50000000000006 2014.5000000000002 2014.5000000000002 2008.5000000000002 127.50000000000001 1980.5000000000002 535.50000000000011 565.50000000000011 1970.5000000000002 2004.5000000000002 1982.5000000000002 231.00000000000003 286.50000000000006 310.00000000000006 518.50000000000011
decision_type=2 2 2 2 2 2 2 2 2 2 2 2 2 2 2 2 2 2 2 2 2 2 2 2 2 2 2 2 2 2 2 2 2 2 2 2
left_child=1 2 3 9 6 -6 7 -2 -9 -1 -11 14 13 -13 15 -4 17 -3 19 20 -8 -20 -23 24 27 -5 29 35 -29 -27 -30 -16 -28 -31 -34 -21
right_child=4 16 11 25 5 -7 18 8 -10 10 -12 12 -14 -15 31 -17 -18 -19 21 23 -22 22 -24 -25 -26 26 32 28 30 33 -32 -33 34 -35 -36 -37
leaf_value=0.026376756876707069 0.012013700633094862 0.022529970244927835 0.0036598660827924798 0.014707616666952771 0.0048164034431630899 -0.05239288151264191 -0.0049061086247949026 -0.067631335556507105 -0.024408799658219016 -0.039487558528780928 0.019333142956549473 -0.016132677133594241 -0.029555642924138478 0.01767919223703858 -0.0092954332381486853 0.046877956475046556 -0.037027809619903561 -0.036887358061291953 0.018308808170776399 -0.011262306571006771 -0.038631829193660192 -0.018719687153186119 0.011374108567833901 -0.016064535294260298 0.018163190633058549 0.033012472706682547 0.044458356946706759 0.015941862349531481 -0.0010022971127182244 0.016756463237106795 -0.013396657685128353 0.0021404949948191643 0.032627588916908604 0.024109989181160928 0.039979541003704072 -0.01003349244594574
leaf_weight=10.000000000000002 12.999999999999998 11.000000000000002 12.000000000000002 14.999999999999998 11.000000000000002 14.999999999999998 17.000000000000004 12 12 10.000000000000002 10.999999999999998 13.999999999999998 13.999999999999998 18 10.000000000000002 10.999999999999998 9.9999999999999982 10.999999999999998 18 11.000000000000002 13.999999999999998 13.999999999999998 20 13.999999999999998 14.999999999999998 17 10.000000000000002 13.999999999999998 10.000000000000002 11.000000000000002 11.999999999999998 11.999999999999998 11.000000000000002 9.9999999999999982 9.9999999999999982 9.9999999999999982
leaf_count=10 13 11 12 15 11 15 17 12 12 10 11 14 14 18 10 11 10 11 18 11 14 14 20 14 15 17 10 14 10 11 12 12 11 10 10 10
internal_value=0 0.00896964 0.0129271 0.0216703 -0.00920161 -0.028189 -0.00680515 -0.0256298 -0.0460201 0.00263086 -0.00867671 0.00187798 -0.0069872 0.0028865 0.0109402 0.0243294 -0.0165065 -0.00717869 -0.00268377 -0.00639763 -0.0201371 0.00567241 -0.00101745 -0.00144503 0.00139765 0.0286968 0.0317379 -0.00301433 0.00145564 0.025964 -0.00776286 -0.00305765 0.0388156 0.0202581 0.0361285 -0.0106772
internal_weight=0 238 206 115 232 26 206 37 24 31 21 91 46 32 45 23 32 22 169 117 31 52 34 86 72 84 69 57 36 38 22 22 31 21 21 21
internal_count=470 238 206 115 232 26 206 37 24 31 21 91 46 32 45 23 32 22 169 117 31 52 34 86 72 84 69 57 36 38 22 22 31 21 21 21
is_linear=0
shrinkage=0.1


Tree=17
num_leaves=37
num_cat=0
split_feature=3 8 7 7 3 5 8 8 8 8 8 3 7 3 3 3 8 8 3 6 3 2 8 8 3 3 3 8 8 3 2 2 8 8 3 3
split_gain=3.14211 3.01157 1.55776 0.934891 0.870653 0.855082 1.11185 0.771947 0.865966 0.737831 1.59834 3.20888 0.724837 0.926722 0.669106 0.640149 0.73057 0.621097 0.6063 0.536259 0.520159 0.4449 0.759822 0.298265 0.293431 0.197256 0.29098 0.541807 0.171977 0.139866 0.122927 0.0948094 0.0852046 0.0200142 0.00086541 0.000137775
threshold=1995.5000000000002 21.698399180000003 1.0000000180025095e-35 1.0000000180025095e-35 1950.5000000000002 1.0000000180025095e-35 10.168153060000002 18.869341475000002 15.182703795000002 29.194372755000007 25.249446465000002 1970.5000000000002 1.0000000180025095e-35 2013.5000000000002 2012.5000000000002 1967.5000000000002 24.251441005000004 20.963646615000005 1980.5000000000002 1.0000000180025095e-35 2011.5000000000002 1.7500000000000002 15.339515245000003 12.110135530000003 1985.5000000000002 1998.5000000000002 2010.5000000000002 24.152993425000002 19.729430720000003 2006.5000000000002 1.7500000000000002 1.7500000000000002 12.024406995000001 8.8672578065000014 1974.5000000000002 1967.5000000000002
decision_type=2 2 2 2 2 2 2 2 2 2 2 2 2 2 2 2 2 2 2 2 2 2 2 2 2 2 2 2 2 2 2 2 2 2 2 2
left_child=1 3 9 4 -1 6 -2 8 12 10 15 -12 13 30 -10 16 -3 20 -17 -7 28 22 32 -23 -5 -19 27 29 -9 -27 -8 -28 33 35 -35 -6
right_child=5 2 -4 24 21 19 7 17 14 -11 11 -13 -14 -15 -16 18 -18 25 -20 -21 -22 23 -24 -25 -26 26 31 -29 -30 -31 -32 -33 -34 34 -36 -37
leaf_value=-0.0001583803677931428 0.0221825737792712 -0.0037968706000934939 -0.040371146798133854 0.0097798390821977072 0.020564763695001598 -0.0098578392217556626 -0.011542168530550866 -0.010561485732905563 -0.01434548187535256 0.019736940003931523 -0.057418177649378767 0.010287881190223355 0.0080939947382399919 -0.040077032047239225 -0.043743820488452913 -0.024633750766515722 0.029277306039105444 -0.019964020826261156 0.0093880280174992309 -0.03866624439667378 0.024381983939271708 0.02523347668741879 -0.0039699412205002529 0.043466170482775748 -0.013888402581214904 -0.013334009226630717 -0.021626173501664941 0.019564143680036068 0.0075580938930877237 -0.00068578107489479913 0.0037770833820104602 -0.0081725591421127307 0.033284526951611042 0.025911345705389967 0.024595739692449572 0.021077622473239899
leaf_weight=15.999999999999998 12.999999999999998 11.000000000000002 10.999999999999998 11.000000000000002 10.000000000000002 12 11.000000000000002 10.000000000000002 16.000000000000004 14.999999999999998 14.000000000000002 13.999999999999998 19 10.999999999999998 14.999999999999998 10.000000000000002 17 10.999999999999998 10.999999999999998 14 12.999999999999998 19 10.999999999999998 17 9.9999999999999982 17 11 9.9999999999999982 10.999999999999998 18 9.9999999999999982 10 9.9999999999999982 10.000000000000002 9.9999999999999982 10.999999999999998
leaf_count=16 13 11 11 11 10 12 11 10 16 15 14 14 19 11 15 10 17 11 11 14 13 19 11 17 10 17 11 10 11 18 10 10 10 10 10 11
internal_value=0 0.00807267 -0.00480557 0.0178983 0.02147 -0.00828145 -0.00612463 -0.00803134 -0.0153895 -0.000553159 -0.00450578 -0.0235651 -0.00737754 -0.0165638 -0.0285705 0.00638529 0.0162839 -0.00259557 -0.00681282 -0.0253701 0.00866147 0.0250011 0.0198669 0.0338434 -0.00149075 -0.00756621 -0.00549991 -0.000964017 -0.00107028 -0.00682921 -0.00424729 -0.0152197 0.0250082 0.0229896 0.0252535 0.0208334
internal_weight=0 238 103 135 114 232 206 193 82 92 77 28 51 32 31 49 28 111 21 26 34 98 62 36 21 77 66 45 21 35 21 21 51 41 20 21
internal_count=470 238 103 135 114 232 206 193 82 92 77 28 51 32 31 49 28 111 21 26 34 98 62 36 21 77 66 45 21 35 21 21 51 41 20 21
is_linear=0
shrinkage=0.1


Tree=18
num_leaves=37
num_cat=0
split_feature=3 8 0 7 3 8 8 0 6 1 3 8 0 8 0 0 3 3 3 3 3 3 0 7 8 8 0 3 0 3 8 0 0 3 3 8
split_gain=2.61879 2.81344 2.0477 1.77625 1.72498 1.67549 0.785382 1.39375 1.13801 1.42744 0.686834 0.533717 0.697806 0.533647 0.531397 0.486447 0.486359 0.462635 0.408367 0.324459 0.290765 0.508462 0.340021 0.331086 0.464735 0.246643 0.233085 0.621448 0.735042 0.391573 0.201894 0.158291 0.154202 0.0295535 0.12477 0.0205871
threshold=2003.5000000000002 15.421143530000002 386.50000000000006 1.0000000180025095e-35 1991.0000000000002 15.296048855000002 24.084264855000004 692.50000000000011 1.0000000180025095e-35 1.0000000180025095e-35 2007.5000000000002 29.194372755000007 449.50000000000006 25.683870580000004 546.50000000000011 584.50000000000011 2012.5000000000002 2015.5000000000002 2007.5000000000002 1953.5000000000002 1950.5000000000002 1983.5000000000002 208.00000000000003 1.0000000180025095e-35 12.083487690000002 21.363255710000001 638.50000000000011 2015.5000000000002 676.00000000000011 2015.5000000000002 9.8374501400000032 389.50000000000006 523.50000000000011 1977.5000000000002 1973.5000000000002 8.7174921285000018
decision_type=2 2 2 2 2 2 2 2 2 2 2 2 2 2 2 2 2 2 2 2 2 2 2 2 2 2 2 2 2 2 2 2 2 2 2 2
left_child=1 20 5 6 -5 10 8 11 9 -3 -2 12 -8 19 18 -16 -12 -18 32 -14 -1 22 -22 24 30 -6 29 28 -28 -17 -23 -11 -4 34 35 -24
right_child=2 3 14 4 25 -7 7 -9 -10 31 16 -13 13 -15 15 26 17 -19 -20 -21 21 23 33 -25 -26 -27 27 -29 -30 -31 -32 -33 -34 -35 -36 -37
leaf_value=0.0031722098056759154 -0.040574189424514774 0.039680155405872747 -0.0083337013538067137 -0.052026186310327974 -0.016340222954750055 -0.061842409707605843 -0.02066206193994731 -0.037103811651468276 -0.015410887884596984 0.011553923264145848 0.0078315562754869474 0.018680954910814764 0.0060450558765576421 0.02164198639802635 -0.021605577369165772 0.020086385477334254 -0.030992454662919042 -0.0064447156811023466 0.019287044686429642 -0.017914121225476264 0.041255009844899181 0.015476666255430739 0.019637385688044802 -0.0021443068715078489 0.028750009322538975 0.0058698321133852007 -0.037980694919824587 0.010982037809762089 -0.00052056217735463924 -0.0045938543354471532 -0.0041558098793029784 -0.0054813301966836064 0.0081835094094276431 0.024828056991100314 0.010092128403484821 0.025128537747595048
leaf_weight=13.999999999999998 9.9999999999999982 19 13.000000000000002 12.999999999999998 10.000000000000002 9.9999999999999982 15.999999999999998 10.999999999999998 11.999999999999998 10.000000000000002 9.9999999999999982 13.999999999999998 13.000000000000002 11.999999999999998 17 10.000000000000002 14.000000000000002 17 17 9.9999999999999982 9.9999999999999982 11.000000000000002 11.000000000000002 13.999999999999998 15.999999999999998 9.9999999999999982 10.000000000000002 10.999999999999998 10.999999999999998 18 9.9999999999999982 11.999999999999998 9.9999999999999982 15.999999999999998 9.9999999999999982 18
leaf_count=14 10 19 13 13 10 10 16 11 12 10 10 14 13 12 17 10 14 17 17 10 10 11 11 14 16 10 10 11 11 18 10 12 10 16 10 18
internal_value=0 0.00582801 -0.00956056 -0.00296507 -0.023668 -0.0244148 0.00233103 -0.00418491 0.0116746 0.0196021 -0.0170761 0.00138598 -0.00336166 0.0045471 -0.00181602 -0.00667339 -0.0113449 -0.0175308 0.00753442 -0.00437198 0.0167855 0.0184285 0.024293 0.0109542 0.0159104 -0.0052352 -0.0024426 -0.00827283 -0.0183587 0.00422052 0.00612787 0.00226197 -0.00115231 0.021209 0.0197243 0.0230457
internal_weight=0 292 178 162 33 61 129 76 53 41 51 65 51 35 117 77 41 31 40 23 130 116 65 51 37 20 60 32 21 28 21 22 23 55 39 29
internal_count=470 292 178 162 33 61 129 76 53 41 51 65 51 35 117 77 41 31 40 23 130 116 65 51 37 20 60 32 21 28 21 22 23 55 39 29
is_linear=0
shrinkage=0.1


Tree=19
num_leaves=37
num_cat=0
split_feature=7 6 0 2 0 0 0 0 0 0 5 4 5 0 0 2 0 0 0 1 0 0 0 0 0 0 0 0 0 0 0 0 0 0 0 6
split_gain=1.45039 1.66899 0.628398 0.690999 0.505877 1.25838 0.474053 0.707482 0.554546 0.641784 0.519338 0.44385 0.4065 0.395326 1.08409 0.324338 0.309112 1.00099 0.458628 0.290275 0.258558 0.24397 0.220766 0.240692 0.166257 0.193705 0.161852 0.142691 0.183213 0.13353 0.133089 0.118424 0.0456052 0.0239224 0.00680613 0.000932448
threshold=1.0000000180025095e-35 1.0000000180025095e-35 91.500000000000014 1.7500000000000002 661.50000000000011 712.50000000000011 231.00000000000003 377.50000000000006 397.50000000000006 428.00000000000006 1.0000000180025095e-35 1.0000000180025095e-35 1.0000000180025095e-35 477.00000000000006 528.50000000000011 1.7500000000000002 515.50000000000011 382.50000000000006 183.50000000000003 1.0000000180025095e-35 647.00000000000011 603.00000000000011 562.00000000000011 532.50000000000011 147.50000000000003 61.500000000000007 460.00000000000006 344.00000000000006 272.50000000000006 295.00000000000006 143.50000000000003 580.00000000000011 198.50000000000003 254.00000000000003 67.000000000000014 1.0000000180025095e-35
decision_type=2 2 2 2 2 2 2 2 2 2 2 2 2 2 2 2 2 2 2 2 2 2 2 2 2 2 2 2 2 2 2 2 2 2 2 2
left_child=4 2 -2 16 6 -6 10 12 -9 -10 15 13 27 26 -15 24 17 18 -4 -16 22 -5 23 -18 25 -1 -11 28 33 -14 34 -24 -26 -8 -17 -30
right_child=1 -3 3 21 5 -7 7 8 9 11 -12 -13 29 14 19 30 20 -19 -20 -21 -22 -23 31 -25 32 -27 -28 -29 35 -31 -32 -33 -34 -35 -36 -37
leaf_value=-0.01135160964555465 -0.02521224362918964 -0.037537111604914949 -0.01375482476183346 0.0046803498019774743 -0.024132563509047033 0.012872986057225397 0.020108567848085207 -0.01852606155655601 0.024940145228590286 0.008396823297847399 0.016644615940749646 -0.012599152760744534 -0.0044948926940560326 -0.023829166591167451 0.022951235063374043 0.010510821603238581 0.004701207442717118 -0.035443814098834993 0.012886903062462807 0.001756056611027036 -0.015966928005218508 0.024845105707645417 0.01514087372925132 -0.016218212043697184 -0.019618669524788853 0.0071607917547225957 0.025974934808909896 0.028938279171975764 0.0095239134132862075 0.010423207879066469 -0.0039645853718476634 0.0018128836496422687 -0.010474841296672822 0.026444924995303154 0.0069061676209623175 0.010858127881180155
leaf_weight=13.000000000000002 12.999999999999998 17 14.000000000000002 15.000000000000002 20 17 13.000000000000002 10.999999999999998 13.999999999999998 11.000000000000002 14.999999999999998 17 10.000000000000002 12.999999999999998 11.999999999999998 10.000000000000002 11.000000000000002 12.999999999999998 11.999999999999998 14.000000000000002 9.9999999999999982 9.9999999999999982 12.000000000000002 10.999999999999998 12.000000000000002 9.9999999999999982 9.9999999999999982 12.999999999999998 10 14.999999999999998 13.999999999999998 14.999999999999998 9.9999999999999982 10.999999999999998 10.999999999999998 11
leaf_count=13 13 17 14 15 20 17 13 11 14 11 15 17 10 13 12 10 11 13 12 14 10 10 12 11 12 10 10 13 10 15 14 15 10 11 11 11
internal_value=0 -0.00799608 -0.00430345 -0.00209358 0.00385931 -0.00713001 0.00531147 0.00826003 0.00268161 0.00524518 -0.000430467 0.00166428 0.0151154 0.00570558 -0.000250758 -0.00363204 -0.00587925 -0.012787 -0.00145864 0.0115384 -0.00131309 0.0127463 0.00167748 -0.0057585 -0.00924745 -0.00330274 0.0167674 0.01971 0.0170441 0.00445597 0.00358777 0.00773643 -0.0154624 0.0230127 0.00862267 0.0102228
internal_weight=0 153 136 123 317 37 280 185 102 91 95 77 83 60 39 80 98 39 26 26 59 25 49 22 45 23 21 58 45 25 35 27 22 24 21 21
internal_count=470 153 136 123 317 37 280 185 102 91 95 77 83 60 39 80 98 39 26 26 59 25 49 22 45 23 21 58 45 25 35 27 22 24 21 21
is_linear=0
shrinkage=0.1


Tree=20
num_leaves=36
num_cat=0
split_feature=3 0 0 6 1 3 0 0 3 7 3 3 0 0 0 3 0 0 0 0 0 0 0 7 0 3 0 3 0 3 0 0 3 5 0
split_gain=1.95406 2.01142 1.70716 0.995411 1.09596 0.978964 0.91517 0.909811 0.848637 0.732169 0.690735 1.69909 0.802655 0.629993 0.934148 0.592712 0.850915 0.477631 0.459977 0.449627 0.397169 0.367447 0.33747 0.293277 0.289984 0.278876 0.479038 0.243084 0.190679 0.138258 0.394345 0.559978 0.0824937 0.0211605 0.0107922
threshold=2003.5000000000002 377.50000000000006 386.50000000000006 1.0000000180025095e-35 1.0000000180025095e-35 1974.5000000000002 198.50000000000003 594.00000000000011 1950.5000000000002 1.0000000180025095e-35 1966.5000000000002 1937.0000000000002 543.50000000000011 115.50000000000001 222.00000000000003 1980.5000000000002 50.500000000000007 692.50000000000011 546.50000000000011 584.50000000000011 163.50000000000003 130.50000000000003 91.500000000000014 1.0000000180025095e-35 254.00000000000003 1961.0000000000002 350.00000000000006 1983.5000000000002 518.50000000000011 2016.5000000000002 638.50000000000011 671.50000000000011 1948.5000000000002 1.0000000180025095e-35 306.00000000000006
decision_type=2 2 2 2 2 2 2 2 2 2 2 2 2 2 2 2 2 2 2 2 2 2 2 2 2 2 2 2 2 2 2 2 2 2 2
left_child=1 6 13 4 5 8 9 -7 -3 15 11 -6 -12 -2 20 32 -17 -5 23 -20 -15 -18 -11 -4 -8 -26 27 33 -25 30 -21 -32 -1 -27 -35
right_child=2 3 18 17 10 7 24 -9 -10 22 12 -13 -14 14 -16 16 21 -19 19 29 -22 -23 -24 28 25 26 -28 -29 -30 -31 31 -33 -34 34 -36
leaf_value=0.0027103707939386359 -0.040441825175990487 0.0065987759642302975 0.018566558261712395 -0.038859306140379461 0.00050127687198775147 -0.018411012738943095 0.02983759414208563 0.018531062826514243 0.047796764560043815 -0.022459914038578666 -0.01559397546308381 -0.05201785930178382 0.019650946464389564 -0.019255103543400764 -0.036866510050992167 0.042595886662602424 -0.0036919677486786464 -0.0093903410163792694 -0.020062358910217883 0.007662480347789824 0.0032024599611759188 0.019277943074703218 0.0017891126938841561 -0.0068616961794240126 0.0020324707652131717 0.016166884783241485 0.038712009690934794 0.0023282790556550027 0.01073214967142452 0.0079617487887541465 -0.023839888907968995 0.0035457114023821693 -0.010134370122104884 0.018570042252540581 0.023215941041707995
leaf_weight=10.000000000000002 13.999999999999998 10.000000000000002 14.999999999999998 11.000000000000002 14.000000000000002 15.000000000000002 19 11.999999999999998 9.9999999999999982 12.000000000000002 14.000000000000002 10.999999999999998 11.999999999999998 13.999999999999998 14.999999999999998 9.9999999999999982 13.000000000000002 10.999999999999998 17 18 18 14.999999999999998 10.999999999999998 14.000000000000002 11.999999999999998 18 9.9999999999999982 11.999999999999998 10.999999999999998 11.999999999999998 16.000000000000004 13.999999999999998 9.9999999999999982 10.000000000000002 9.9999999999999982
leaf_count=10 14 10 15 11 14 15 19 12 10 12 14 11 12 14 15 10 13 11 17 18 18 15 11 14 12 18 10 12 11 12 16 14 10 10 10
internal_value=0 0.0050343 -0.00825851 -0.00490222 -0.000586938 0.010429 0.0119667 -0.00199231 0.0271978 0.00423523 -0.0107389 -0.0226071 0.000672912 -0.0218215 -0.016275 0.0102223 0.0175561 -0.0241248 -0.00118722 -0.0057064 -0.00662272 0.00861334 -0.0108626 0.00751221 0.0188486 0.0159488 0.0187321 0.0147361 0.000879596 -0.00163888 -0.00403903 -0.0110599 -0.003712 0.0186543 0.020893
internal_weight=0 292 178 120 98 47 172 27 20 81 51 25 26 61 47 58 38 22 117 77 32 28 23 40 91 72 60 50 25 60 48 30 20 38 20
internal_count=470 292 178 120 98 47 172 27 20 81 51 25 26 61 47 58 38 22 117 77 32 28 23 40 91 72 60 50 25 60 48 30 20 38 20
is_linear=0
shrinkage=0.1


Tree=21
num_leaves=37
num_cat=0
split_feature=3 8 0 8 7 3 2 1 8 8 0 3 3 8 6 0 3 3 3 0 3 8 3 2 7 3 0 8 3 0 8 0 2 3 8 8
split_gain=1.58279 1.82027 1.3828 1.16967 1.14448 1.8303 0.833781 0.792717 1.50796 1.99245 0.869482 0.595948 0.428381 0.397021 0.548108 0.377969 0.367587 0.362091 0.34928 0.330825 0.272663 1.01391 1.2346 0.838246 0.31085 0.2688 0.206123 0.33488 0.650488 0.42983 0.254364 0.561879 0.0652624 0.181162 0.177009 0.0810179
threshold=2003.5000000000002 15.495527935 386.50000000000006 15.296048855000002 1.0000000180025095e-35 1991.0000000000002 1.7500000000000002 1.0000000180025095e-35 25.113786945000005 21.823594810000003 460.00000000000006 2007.5000000000002 1985.5000000000002 17.703788390000003 1.0000000180025095e-35 422.50000000000006 2016.5000000000002 2012.5000000000002 2015.5000000000002 495.50000000000006 1984.5000000000002 13.730196790000003 1950.5000000000002 1.7500000000000002 1.0000000180025095e-35 1996.5000000000002 515.50000000000011 24.084264855000004 2006.5000000000002 565.50000000000011 19.343605670000006 647.00000000000011 1.7500000000000002 1973.5000000000002 9.2488978485000022 8.9111196970000019
decision_type=2 2 2 2 2 2 2 2 2 2 2 2 2 2 2 2 2 2 2 2 2 2 2 2 2 2 2 2 2 2 2 2 2 2 2 2
left_child=1 20 3 11 6 -6 7 12 9 -9 -11 -2 19 -4 16 -8 26 -13 -19 -3 21 22 -1 24 -22 -25 -15 28 29 -28 -30 -32 33 35 -35 -24
right_child=2 4 13 -5 5 -7 15 8 -10 10 -12 17 -14 14 -16 -17 -18 18 -20 -21 23 -23 32 25 -26 -27 27 -29 30 -31 31 -33 -34 34 -36 -37
leaf_value=-0.02050344839692116 -0.035395876765251161 0.025907489714714189 0.01701450076970187 -0.050911043658852573 -0.055394415706396083 -0.0025397386597959624 0.0058048409768022011 -0.028250697115436197 -0.036562258560479677 -0.00168678519101097 0.034887316450476651 0.0083771606534719465 -0.0078749293318161589 -0.01355141133069992 0.019334999322891237 0.030416206022103626 -0.021637553597489992 -0.025203290528484745 -0.0038738644024466765 0.0049725230576263537 0.0033106254270443545 0.044723308357325471 0.016605671702159774 0.031195812638510345 -0.020140697360038755 0.010615157932043076 0.0025715393080775221 -0.016614374247464269 0.00045235642076780396 -0.023220170987769961 0.035629679858684531 0.0021071842312812804 0.022540072132559385 0.017081814631819719 -0.0013009715825319291 0.02783188607543707
leaf_weight=9.9999999999999982 9.9999999999999982 13.000000000000002 10.999999999999998 9.9999999999999982 10.000000000000002 19 13.000000000000002 15.999999999999998 15.999999999999998 13.000000000000002 12.999999999999998 9.9999999999999982 12.999999999999998 14.999999999999998 9.9999999999999982 11.999999999999998 11.999999999999998 14.000000000000002 17 18 13 10.999999999999998 18.000000000000004 11.000000000000002 10 14.999999999999998 14.000000000000002 10.999999999999998 11.999999999999998 11.999999999999998 10.000000000000002 9.9999999999999982 17 11.000000000000002 9.9999999999999982 9.9999999999999982
leaf_count=10 10 13 11 10 10 19 13 16 16 13 13 10 13 15 10 12 12 14 17 18 13 11 18 11 10 15 14 11 12 12 10 10 17 11 10 10
internal_value=0 0.00453087 -0.00743266 -0.0196393 -0.00284111 -0.0207655 0.00125186 -0.00275953 -0.0104379 -0.000485815 0.0166003 -0.0135076 0.00736202 -0.0010685 -0.00294503 0.0176183 -0.00526587 -0.00816903 -0.0135065 0.0137517 0.012987 0.0163473 0.0122402 0.00702066 -0.0068856 0.0193224 -0.00292706 -0.000617416 0.00241649 -0.00933233 0.0119624 0.0188684 0.0172014 0.0153492 0.00832811 0.020615
internal_weight=0 292 178 61 156 29 127 102 58 42 26 51 44 117 106 25 96 41 31 31 136 87 76 49 23 26 84 69 58 26 32 20 66 49 21 28
internal_count=470 292 178 61 156 29 127 102 58 42 26 51 44 117 106 25 96 41 31 31 136 87 76 49 23 26 84 69 58 26 32 20 66 49 21 28
is_linear=0
shrinkage=0.1


end of trees

feature_importances:
Column_0=287
Column_8=203
Column_3=156
Column_2=40
Column_7=27
Column_6=19
Column_1=16
Column_5=15
Column_4=7

parameters:
[boosting: gbdt]
[objective: regression]
[metric: rmse]
[tree_learner: serial]
[device_type: cpu]
[data: ]
[valid: ]
[num_iterations: 10000]
[learning_rate: 0.1]
[num_leaves: 63]
[num_threads: 0]
[deterministic: 0]
[force_col_wise: 0]
[force_row_wise: 0]
[histogram_pool_size: -1]
[max_depth: -1]
[min_data_in_leaf: 10]
[min_sum_hessian_in_leaf: 0.001]
[bagging_fraction: 0.9]
[pos_bagging_fraction: 1]
[neg_bagging_fraction: 1]
[bagging_freq: 0]
[bagging_seed: 29216]
[feature_fraction: 0.8]
[feature_fraction_bynode: 1]
[feature_fraction_seed: 17795]
[extra_trees: 0]
[extra_seed: 19650]
[early_stopping_round: 0]
[first_metric_only: 0]
[max_delta_step: 0]
[lambda_l1: 0]
[lambda_l2: 0]
[linear_lambda: 0]
[min_gain_to_split: 0]
[drop_rate: 0.1]
[max_drop: 50]
[skip_drop: 0.5]
[xgboost_dart_mode: 0]
[uniform_drop: 0]
[drop_seed: 24198]
[top_rate: 0.2]
[other_rate: 0.1]
[min_data_per_group: 100]
[max_cat_threshold: 32]
[cat_l2: 10]
[cat_smooth: 10]
[max_cat_to_onehot: 4]
[top_k: 20]
[monotone_constraints: ]
[monotone_constraints_method: basic]
[monotone_penalty: 0]
[feature_contri: ]
[forcedsplits_filename: ]
[refit_decay_rate: 0.9]
[cegb_tradeoff: 1]
[cegb_penalty_split: 0]
[cegb_penalty_feature_lazy: ]
[cegb_penalty_feature_coupled: ]
[path_smooth: 0]
[interaction_constraints: ]
[verbosity: -1]
[saved_feature_importance_type: 0]
[linear_tree: 0]
[max_bin: 255]
[max_bin_by_feature: ]
[min_data_in_bin: 3]
[bin_construct_sample_cnt: 200000]
[data_random_seed: 45]
[is_enable_sparse: 1]
[enable_bundle: 1]
[use_missing: 1]
[zero_as_missing: 0]
[feature_pre_filter: 1]
[pre_partition: 0]
[two_round: 0]
[header: 0]
[label_column: ]
[weight_column: ]
[group_column: ]
[ignore_column: ]
[categorical_feature: ]
[forcedbins_filename: ]
[precise_float_parser: 0]
[objective_seed: 29484]
[num_class: 1]
[is_unbalance: 0]
[scale_pos_weight: 1]
[sigmoid: 1]
[boost_from_average: 1]
[reg_sqrt: 0]
[alpha: 0.9]
[fair_c: 1]
[poisson_max_delta_step: 0.7]
[tweedie_variance_power: 1.5]
[lambdarank_truncation_level: 30]
[lambdarank_norm: 1]
[label_gain: ]
[eval_at: ]
[multi_error_top_k: 1]
[auc_mu_weights: ]
[num_machines: 1]
[local_listen_port: 12400]
[time_out: 120]
[machine_list_filename: ]
[machines: ]
[gpu_platform_id: -1]
[gpu_device_id: -1]
[gpu_use_dp: 0]
[num_gpu: 1]

end of parameters

pandas_categorical:null
