tree
version=v3
num_class=1
num_tree_per_iteration=1
label_index=0
max_feature_idx=21
objective=regression
feature_names=Column_0 Column_1 Column_2 Column_3 Column_4 Column_5 Column_6 Column_7 Column_8 Column_9 Column_10 Column_11 Column_12 Column_13 Column_14 Column_15 Column_16 Column_17 Column_18 Column_19 Column_20 Column_21
feature_infos=[1:736] [29.683928000000002:30.774559] [-85.921270829999997:-85.045621999999995] [0:27] [-1:4] [0:6] [-1:4] [0:21] [0:12] [0:100] [0:2018] [0:16] [0:18] [0:13] [0:17] [0:12] [0:56] [0:12] [0:5] [0:19] [-85.921270829999997:-85.045621999999995] [4.4588299818758124:43.19921711588912]
tree_sizes=2322 3373 3697 3686 4163 3831 4040 3926 4174 4132 4162 4265 4295 4061 4027 4248 3790 3852 3981 3957 4075 4204 3839 3980 4068 3739 4164 4030 3922 3714 3902 4103 3871 4107 3729 4251 3877 3787 3828 4004 4061 3949 4083 3907 3876 3822 3835 3924 3887 3980 3770 4044 3834 4115 4127 4035 3946 4097 4239 3960 4009 4238 4025 3743 4044 3859

Tree=0
num_leaves=23
num_cat=0
split_feature=4 5 4 4 4 0 0 3 20 0 5 21 21 5 3 20 16 21 3 0 11 16
split_gain=134.664 149.966 93.5038 42.9263 5.30004 2.64087 1.39748 0.804823 0.698442 0.984274 0.599604 0.995381 0.551825 0.474769 0.371113 0.326505 0.312402 0.227816 0.0831279 0.0352179 0.0299032 0.0924914
threshold=2.5000000000000004 2.5000000000000004 1.0000000180025095e-35 1.5000000000000002 3.5000000000000004 268.50000000000006 60.500000000000007 17.500000000000004 -85.373893499999994 52.000000000000007 1.5000000000000002 15.272470095637864 15.223463158557779 5.5000000000000009 10.500000000000002 -85.675951499999982 35.500000000000007 14.409806285310891 7.5000000000000009 640.50000000000011 8.5000000000000018 32.500000000000007
decision_type=2 2 2 2 2 2 2 2 2 2 2 2 2 2 2 2 2 2 2 2 2 2
left_child=1 2 5 6 10 -1 -4 14 15 -10 11 -2 -6 -3 -8 -5 -14 -16 -17 -13 -20 -22
right_child=4 13 3 8 12 -7 7 -9 9 -11 -12 19 16 -15 17 18 -18 -19 20 -21 21 -23
leaf_value=-0.094431909619967683 0.019238309045381183 0.051067013332086554 -0.023062859843426115 -0.0052248703641227532 0.062707670410222641 -0.12200217656319655 -0.033145201723032362 -0.029173673082872172 0.0040819067555137815 -0.017069859425478347 0.04383755262040203 0.037098224838323236 0.056690869751179186 0.062707670410222641 -0.050406998614721657 0.00075805778421502009 0.045119941313809996 -0.042451978842668894 0.0040819067555137832 0.033796593030042288 0.0040819067555137832 0.0095846264359820254
leaf_weight=19 9.9999999999999982 10.999999999999998 11.999999999999998 9.9999999999999982 23 15.999999999999998 9.9999999999999982 12.999999999999998 11.000000000000002 10.999999999999998 19 42 14.000000000000002 43 9.9999999999999982 13.999999999999998 9.9999999999999982 90 43 9.9999999999999982 21 11.999999999999998
leaf_count=19 10 11 12 10 23 16 10 13 11 11 19 42 14 43 10 14 10 90 43 10 21 12
internal_value=7.82783e-09 -0.0162096 -0.0303654 -0.019924 0.0438167 -0.107035 -0.0393497 -0.0409387 0.00157176 -0.00649398 0.0360665 0.0336851 0.0571734 0.0603364 -0.0423291 0.00334622 0.0518696 -0.0432475 0.00429856 0.0364633 0.00495076 0.0060829
internal_weight=0 346 292 257 128 35 135 123 122 22 81 62 47 54 110 100 24 100 90 52 76 33
internal_count=474 346 292 257 128 35 135 123 122 22 81 62 47 54 110 100 24 100 90 52 76 33
is_linear=0
shrinkage=1


Tree=1
num_leaves=33
num_cat=0
split_feature=4 5 4 4 4 0 5 2 21 9 2 21 5 21 10 10 16 18 14 10 10 7 0 0 0 14 0 2 0 2 0 0
split_gain=121.534 135.344 84.3872 38.7409 4.78329 2.38339 1.27446 0.630343 0.90539 0.547593 0.820665 0.498022 0.428479 0.319326 0.312742 0.307955 0.234301 0.131803 0.0864615 0.037578 0.0815051 0.0243949 0.000681872 0.000541678 0.000217661 0.000134228 1.97215e-05 1.86466e-05 1.31108e-05 6.4897e-06 4.74617e-06 7.10543e-15
threshold=2.5000000000000004 2.5000000000000004 1.0000000180025095e-35 1.5000000000000002 3.5000000000000004 268.50000000000006 1.0000000180025095e-35 -85.373893499999994 21.848881173123374 27.500000000000004 -85.406350439999997 15.223463158557779 5.5000000000000009 14.073587893277137 2016.5000000000002 1985.5000000000002 3.5000000000000004 4.5000000000000009 6.5000000000000009 2000.5000000000002 1996.5000000000002 10.500000000000002 83.500000000000014 373.00000000000006 629.00000000000011 9.5000000000000018 234.00000000000003 -85.656283774999977 498.50000000000006 -85.601278384999986 647.50000000000011 276.00000000000006
decision_type=2 2 2 2 2 2 2 2 2 2 2 2 2 2 2 2 2 2 2 2 2 2 2 2 2 2 2 2 2 2 2 2
left_child=1 2 5 6 9 -1 13 14 -9 10 21 31 -3 -4 18 -13 -15 22 -5 20 -20 -2 -18 -23 -25 -24 -21 -27 -19 -28 -29 -6
right_child=4 12 3 7 11 -7 -8 8 -10 -11 -12 15 -14 16 -16 -17 17 28 19 26 -22 23 25 24 -26 27 29 30 -30 -31 -32 -33
leaf_value=-0.08971032268906895 0.037965660989284521 0.048513655770908708 -0.047338451309637597 0.00015986384823918343 0.059572279453277567 -0.11590207815170289 -0.024583065663190448 -0.016312518038532946 0.0039739484475417577 0.045217511057853703 0.023139643669128421 0.054062942555174222 0.059572279453277588 -0.033008757277446635 -0.0052095990628004078 0.042574664168059828 -0.040814115107059484 -0.035869890227913842 0.0039183204884038246 0.0038118824362754823 0.0093003540610273674 0.034906339645385746 -0.040535381138324743 0.0352433055639267 0.035520953536033628 -0.040395779311656985 0.0038778040558099755 -0.040329387784004203 -0.035788924656808378 0.0039231292226097779 -0.040289612710475924 0.059572279453277588
leaf_weight=19 9.9999999999999982 10.999999999999998 10.999999999999998 11.999999999999998 12.000000000000002 15.999999999999998 17 11.000000000000002 10.999999999999998 9.9999999999999982 17 14.000000000000002 43 17 9.9999999999999982 9.9999999999999982 9.9999999999999982 10.000000000000002 17.000000000000004 9.9999999999999982 11.999999999999998 9.9999999999999982 9.9999999999999982 24 9.9999999999999982 9.9999999999999911 27.999999999999993 30.000000000000007 9.9999999999999982 11.000000000000005 9.9999999999999982 10.999999999999998
leaf_count=19 10 11 11 12 12 16 17 11 11 10 17 14 43 17 10 10 10 10 17 10 12 10 10 24 10 10 28 30 10 11 10 11
internal_value=0 -0.0153992 -0.0288471 -0.0189278 0.0416258 -0.101684 -0.0373822 0.00149316 -0.00616928 0.0342632 0.0327203 0.0543147 0.0573196 -0.0392262 0.0031789 0.0492762 -0.0383922 -0.0394091 0.00411095 0.00471881 0.00614537 0.0357365 -0.0404319 0.0352298 0.035325 -0.0403682 0.00387453 -0.0403347 -0.0358294 0.00389059 -0.0403194 0.0595723
internal_weight=0 346 292 257 128 35 135 122 22 81 71 47 54 118 100 24 107 90 90 78 29 54 70 44 34 60 49 50 20 39 40 23
internal_count=474 346 292 257 128 35 135 122 22 81 71 47 54 118 100 24 107 90 90 78 29 54 70 44 34 60 49 50 20 39 40 23
is_linear=0
shrinkage=0.05


Tree=2
num_leaves=36
num_cat=0
split_feature=4 4 4 4 4 21 19 21 0 17 2 21 9 2 21 3 10 10 21 3 21 10 10 7 0 16 18 0 0 2 16 0 2 0 10
split_gain=109.685 105.108 80.5699 38.4138 4.31692 2.30592 2.17834 1.95742 1.32376 0.845709 0.552159 0.817114 0.494203 0.74065 0.449464 0.439997 0.282565 0.277929 0.235154 0.100493 0.0705807 0.0387405 0.100653 0.0220164 0.000488866 0.000413533 0.000252789 0.000196438 0.000160303 5.99836e-05 2.34294e-05 2.3885e-06 7.84938e-07 2.24229e-07 2.13672e-08
threshold=2.5000000000000004 -1.0000000180025095e-35 1.0000000180025095e-35 1.5000000000000002 3.5000000000000004 10.506926872997751 2.5000000000000004 11.984934010397415 60.500000000000007 8.5000000000000018 -85.373893499999994 21.848881173123374 27.500000000000004 -85.406350439999997 15.223463158557779 16.500000000000004 2015.5000000000002 1985.5000000000002 14.073587893277137 7.5000000000000009 15.272470095637864 2000.5000000000002 1997.5000000000002 10.500000000000002 373.00000000000006 3.5000000000000004 4.5000000000000009 629.00000000000011 250.50000000000003 -85.665397254999974 42.500000000000007 516.50000000000011 -85.619769499999975 439.50000000000006 2005.5000000000002
decision_type=2 2 2 2 2 2 2 2 2 2 2 2 2 2 2 2 2 2 2 2 2 2 2 2 2 2 2 2 2 2 2 2 2 2 2
left_child=1 28 6 7 12 -5 9 -4 -9 -3 16 -12 13 23 -6 18 19 -16 -10 -7 -20 22 -21 -2 -25 -22 29 -26 -1 -27 31 -23 -33 -31 -35
right_child=4 2 3 5 14 10 -8 8 15 -11 11 -13 -14 -15 17 -17 -18 -19 20 21 25 30 -24 24 27 26 -28 -29 -30 33 -32 32 -34 34 -36
leaf_value=0.056820656061172481 0.036067378222942356 -0.096078599095344511 -0.013040158674120903 0.022109096720814708 0.056593662500381475 -0.00077232882380485536 -0.11100300153096516 -0.020213260439534985 -0.046006213724613193 -0.075515172183513654 -0.015496893023902714 0.0037752507762475449 0.042956635355949402 0.021982661026584752 0.051359796630484705 -0.028603949459890528 -0.0049781638383865363 0.040445928683038805 -0.034176328033208851 0.0037326524362844577 -0.038678950071334844 0.0037216287851333618 0.010054461471736432 0.033161023259162904 0.033481141924858092 -0.038446407914161734 -0.038569343884785973 0.033744906783103948 0.056593662500381475 -0.038304692965287386 0.003621767862485005 0.0037025035545229937 0.0036835361272096602 -0.038310724794864644 -0.038313580186743489
leaf_weight=9.9999999999999982 9.9999999999999982 10.000000000000002 9.9999999999999982 14.999999999999998 23 9.9999999999999982 14.999999999999998 11.999999999999998 9.9999999999999982 9.9999999999999982 11.000000000000002 10.999999999999998 9.9999999999999982 17 14.000000000000002 11.999999999999998 9.9999999999999982 9.9999999999999982 10.999999999999998 17.000000000000004 14.999999999999998 9.9999999999999982 9.9999999999999982 9.9999999999999982 24 9.999999999999984 14.999999999999998 9.9999999999999982 35 13.000000000000012 12.999999999999998 9.9999999999999911 12.000000000000009 10.000000000000002 19
leaf_count=10 10 10 10 15 23 10 15 12 10 10 11 11 10 17 14 12 10 10 11 17 15 10 10 10 24 10 15 10 35 13 13 10 12 10 19
internal_value=0 -0.0146292 -0.0252847 -0.0159011 0.0395446 0.00368 -0.0965995 -0.0343389 -0.0360159 -0.0857969 0.00125512 -0.00586082 0.03255 0.0310843 0.051599 -0.0376649 0.00295676 0.0468124 -0.0387205 0.00392443 -0.0379371 0.00457676 0.00607406 0.0339496 0.0334683 -0.0384416 -0.0383885 0.0335587 0.0566441 -0.0383364 0.00367837 0.00370137 0.00369216 -0.0383101 -0.0383126
internal_weight=0 346 301 266 128 129 35 137 127 20 114 22 81 71 47 115 92 24 103 82 93 72 27 54 44 82 67 34 45 52 45 32 22 42 29
internal_count=474 346 301 266 128 129 35 137 127 20 114 22 81 71 47 115 92 24 103 82 93 72 27 54 44 82 67 34 45 52 45 32 22 42 29
is_linear=0
shrinkage=0.05


Tree=3
num_leaves=36
num_cat=0
split_feature=4 5 4 4 4 0 0 3 2 0 5 21 21 3 2 5 10 21 5 10 10 10 2 8 18 0 21 10 6 10 2 0 0 0 2
split_gain=98.9903 111.058 68.6398 31.5237 3.89602 2.07288 1.11958 0.604085 0.504518 0.750987 0.470091 0.846698 0.405642 0.304465 0.271021 0.26981 0.250831 0.182295 0.0873097 0.0416191 0.0834248 0.0347567 0.00361839 0.000398377 0.000294773 0.000103233 8.21076e-05 5.65266e-05 5.14169e-05 1.46469e-05 1.42874e-05 7.7498e-06 3.16108e-06 2.53034e-07 2.11114e-07
threshold=2.5000000000000004 2.5000000000000004 1.0000000180025095e-35 1.5000000000000002 3.5000000000000004 268.50000000000006 60.500000000000007 17.500000000000004 -85.373893499999994 52.000000000000007 1.5000000000000002 15.272470095637864 15.223463158557779 10.500000000000002 -85.675951499999982 5.5000000000000009 1985.5000000000002 14.409806285310891 1.0000000180025095e-35 2000.5000000000002 1986.5000000000002 1978.5000000000002 -85.376007959999995 1.2500000000000002 4.5000000000000009 520.50000000000011 22.668920690463882 2011.5000000000002 -1.0000000180025095e-35 2004.5000000000002 -85.62916589999999 531.50000000000011 618.50000000000011 254.50000000000003 -85.657454639999983
decision_type=2 2 2 2 2 2 2 2 2 2 2 2 2 2 2 2 2 2 2 2 2 2 2 2 2 2 2 2 2 2 2 2 2 2 2
left_child=1 2 5 6 10 -1 -4 13 14 -10 11 -2 -6 -8 -5 -3 -14 -15 19 20 -16 -13 25 28 26 -23 27 29 31 -19 -26 -21 -27 -17 -28
right_child=4 15 3 8 12 -7 7 -9 9 -11 -12 21 16 17 18 33 -18 24 -20 23 -22 22 -24 -25 30 32 34 -29 -30 -31 -32 -33 -34 -35 -36
leaf_value=-0.080603303172086416 0.015489727156236768 0.044986497001214459 -0.019202597563465439 -0.0050134515389800077 0.053763979673385622 -0.10502943694591522 -0.02808878555893898 -0.025009889728747882 0.0036701559343121255 -0.014805715429511937 0.037803299489774206 0.028880592836702076 0.048791802807578007 -0.043643477261066439 0.0035119489121895561 0.053754900693893437 0.03842363240197301 -0.036516032181680202 0.00031400750158354644 0.0034453207999467837 0.0095864382758736617 0.03163020581007004 0.032821514389731653 0.003857486610385505 -0.036726850867271413 0.031807082891464222 -0.036387280523776995 -0.036610725522041324 0.0036043163388967516 -0.036451103028498202 -0.036647356014985304 0.0035002189791864822 0.031846838891506198 0.053763979673385622 -0.03639731840653853
leaf_weight=19 9.9999999999999982 10.999999999999998 11.999999999999998 9.9999999999999982 23 15.999999999999998 9.9999999999999982 12.999999999999998 11.000000000000002 10.999999999999998 19 10.999999999999998 14.000000000000002 9.9999999999999982 13.000000000000002 9.9999999999999982 9.9999999999999982 15.999999999999998 15.999999999999998 10.000000000000002 9.9999999999999982 9.9999999999999982 11.000000000000002 10.999999999999998 10.000000000000002 10.000000000000002 10.000000000000002 10.999999999999998 11.999999999999998 19 12.999999999999998 18 9.9999999999999982 33 10.999999999999998
leaf_count=19 10 11 12 10 23 16 10 13 11 11 19 11 14 10 13 10 10 16 16 10 10 10 11 11 10 10 10 11 12 19 13 18 10 33 11
internal_value=0 -0.0138977 -0.0260796 -0.0171334 0.0375673 -0.0917695 -0.0337804 -0.0352026 0.00128737 -0.00556778 0.0309225 0.0288139 0.049019 -0.0364072 0.00279551 0.0519743 0.0444717 -0.0372391 0.00366317 0.00438731 0.00615303 0.0313762 0.0320458 0.00359101 -0.0365275 0.0317614 -0.0364745 -0.0365119 0.00351772 -0.0364808 -0.0366819 0.00348061 0.031827 0.0537619 -0.0363925
internal_weight=0 346 292 257 128 35 135 123 122 22 81 62 47 110 100 54 24 100 90 74 23 52 41 51 90 30 67 46 40 35 23 28 20 43 21
internal_count=474 346 292 257 128 35 135 123 122 22 81 62 47 110 100 54 24 100 90 74 23 52 41 51 90 30 67 46 40 35 23 28 20 43 21
is_linear=0
shrinkage=0.05


Tree=4
num_leaves=40
num_cat=0
split_feature=4 5 4 4 4 19 0 17 2 21 5 21 21 5 16 10 5 21 16 0 5 10 10 16 2 12 16 15 0 17 0 16 2 0 2 2 0 0 0
split_gain=89.3388 100.23 61.9474 28.4501 3.51616 1.89311 1.01042 0.763253 0.455328 0.677814 0.424257 0.764145 0.366092 0.287307 0.270063 0.249191 0.243504 0.22275 0.0948565 0.387477 0.0867961 0.0327983 0.0765812 0.0323381 0.00280939 0.000634152 0.000240341 0.00014136 8.92405e-05 8.5961e-05 7.33458e-05 3.48119e-05 5.15648e-05 1.93208e-05 3.26177e-06 2.31529e-07 5.86198e-12 3.55271e-15 3.55271e-15
threshold=2.5000000000000004 2.5000000000000004 1.0000000180025095e-35 1.5000000000000002 3.5000000000000004 2.5000000000000004 60.500000000000007 8.5000000000000018 -85.373893499999994 21.848881173123374 1.5000000000000002 15.272470095637864 15.223463158557779 1.0000000180025095e-35 35.500000000000007 2016.5000000000002 5.5000000000000009 14.073587893277137 12.500000000000002 513.50000000000011 1.0000000180025095e-35 2000.5000000000002 1996.5000000000002 10.500000000000002 -85.376007959999995 8.5000000000000018 6.5000000000000009 1.5000000000000002 481.50000000000006 8.5000000000000018 396.00000000000006 42.500000000000007 -85.601278384999986 618.50000000000011 -85.620802499999982 -85.417723264999992 286.00000000000006 276.00000000000006 322.50000000000006
decision_type=2 2 2 2 2 2 2 2 2 2 2 2 2 2 2 2 2 2 2 2 2 2 2 2 2 2 2 2 2 2 2 2 2 2 2 2 2 2 2
left_child=1 2 5 6 10 7 -4 -1 15 -10 11 -2 37 17 -14 20 -3 -8 19 -19 21 22 -5 -13 28 -20 -21 29 -25 30 -27 32 34 -30 -23 36 -18 -6 -38
right_child=4 16 3 8 12 -7 13 -9 9 -11 -12 23 14 -15 -16 -17 35 18 25 26 -22 31 -24 24 -26 27 -28 -29 33 -31 -32 -33 -34 -35 -36 -37 38 -39 -40
leaf_value=-0.086878116428852056 0.01471524182765279 0.042737171053886414 -0.018242467815677326 0.003490402953078349 0.05107578039169311 -0.10060848395029705 -0.041023237596858636 -0.06734285786747933 -0.014065742899071082 0.0034869618713855746 0.035913134876050447 0.027252079481258989 0.046730776024716231 -0.026413152882686031 0.035972466282546522 -0.0048321195505559448 0.051075826287269588 -0.023652163283391436 -0.035134515166282652 -0.034896478553613018 1.5681994458039602e-05 0.0033598205074667946 0.0087857859547842629 0.030063396692276003 0.031147364377975453 -0.034692169825235999 -0.03460046444088221 -0.034866486489772801 0.030196681889620686 -0.034783263504505162 -0.034535809357961016 0.0032787008831898371 0.0034731495007872559 0.030290395292368807 0.0033224319773060939 0.051067109704017649 0.05107578039169311 0.051075780391693117 0.051075780391693117
leaf_weight=10.000000000000002 9.9999999999999982 10.999999999999998 11.999999999999998 18.000000000000004 12.000000000000002 14.999999999999998 10.999999999999998 9.9999999999999982 11.000000000000002 10.999999999999998 19 9.9999999999999982 14.000000000000002 12.999999999999998 9.9999999999999982 9.9999999999999982 9.9999999999999982 10.999999999999998 9.9999999999999982 12.000000000000002 14.999999999999998 9.9999999999999947 10.999999999999998 9.9999999999999982 10.000000000000002 15.000000000000002 15.999999999999998 9.9999999999999982 11.000000000000002 9.9999999999999982 14.999999999999998 11.999999999999998 10.000000000000005 10.999999999999998 13.999999999999998 9.9999999999999982 13.000000000000002 10.999999999999998 9.9999999999999982
leaf_count=10 10 11 12 18 12 15 11 10 11 11 19 10 14 13 10 10 10 11 10 12 15 10 11 10 10 15 16 10 11 10 15 12 10 11 14 10 13 11 10
internal_value=0 -0.0132029 -0.0247756 -0.0162768 0.035689 -0.0871811 -0.0320914 -0.0771105 0.001223 -0.00528939 0.0293764 0.0273732 0.0465681 -0.0334425 0.0422481 0.00265573 0.0493756 -0.0342732 -0.0335232 -0.0316036 0.00348771 0.00418212 0.005499 0.0298074 0.0304158 -0.034771 -0.0347273 -0.0346983 0.0301872 -0.0346563 -0.034614 0.00335192 0.00337776 0.0302435 0.00333801 0.0510738 0.0510758 0.0510758 0.0510758
internal_weight=0 346 292 257 128 35 135 20 122 22 81 62 47 123 24 100 54 110 99 39 90 75 29 52 42 60 28 50 32 40 30 46 34 22 24 43 33 23 23
internal_count=474 346 292 257 128 35 135 20 122 22 81 62 47 123 24 100 54 110 99 39 90 75 29 52 42 60 28 50 32 40 30 46 34 22 24 43 33 23 23
is_linear=0
shrinkage=0.05


Tree=5
num_leaves=37
num_cat=0
split_feature=4 5 4 4 4 0 0 3 20 0 15 10 9 3 20 5 0 21 0 10 10 11 21 16 0 10 16 18 21 20 20 11 21 11 20 0
split_gain=80.6282 90.4573 55.9076 25.6762 3.17333 1.80286 0.911904 0.517349 0.410933 0.623445 0.408813 0.330455 0.292438 0.265448 0.24162 0.219762 0.155119 0.148519 0.144092 0.0762216 0.0564822 0.0350502 0.00227246 0.00121091 0.00111984 0.00105281 0.000820286 0.000209746 0.000149266 0.000124696 0.000115306 8.56676e-05 3.52628e-06 5.59779e-07 2.08931e-07 5.72342e-12
threshold=2.5000000000000004 2.5000000000000004 1.0000000180025095e-35 1.5000000000000002 3.5000000000000004 268.50000000000006 60.500000000000007 17.500000000000004 -85.373893499999994 52.000000000000007 8.5000000000000018 1986.5000000000002 27.500000000000004 10.500000000000002 -85.675951499999982 5.5000000000000009 220.50000000000003 14.409806285310891 465.00000000000006 1983.5000000000002 2000.5000000000002 4.5000000000000009 13.454143340235911 19.500000000000004 411.50000000000006 2014.5000000000002 3.5000000000000004 4.5000000000000009 13.828219667611434 -85.618286769999983 -85.602618899999982 8.5000000000000018 24.055169102517883 3.5000000000000004 -85.417723264999992 286.00000000000006
decision_type=2 2 2 2 2 2 2 2 2 2 2 2 2 2 2 2 2 2 2 2 2 2 2 2 2 2 2 2 2 2 2 2 2 2 2 2
left_child=1 2 5 6 10 -1 -4 13 14 -10 12 18 16 -8 -5 -3 -2 -15 22 -16 -21 -18 -6 -23 -25 28 -19 29 -22 33 32 -31 -30 -28 35 -17
right_child=4 15 3 8 11 -7 7 -9 9 -11 -12 -13 -14 17 19 34 21 26 -20 20 25 23 -24 24 -26 -27 27 -29 30 31 -32 -33 -34 -35 -36 -37
leaf_value=-0.072408428945039446 0.023162362842748946 0.040600313381715256 -0.017330344145496689 -0.0048502795770764351 0.048521992564201345 -0.095188128948211673 -0.025117967054247861 -0.022337726790171403 0.0033920850943435312 -0.013441927053711632 0.01894686675884507 0.037459408262601267 0.037231833338737488 -0.039442579746246341 8.8525973260402687e-05 0.048522037863731382 0.03180352476510135 -0.033357095122337345 0.041789475753903391 0.0066278054844588043 0.0030053917504847052 0.02890283688902855 0.049508861005306243 0.027945115566253655 0.028693392276763919 0.0037195875394073403 -0.0328460211103613 -0.033112620934844017 0.0031572257272071327 -0.032915264036920314 0.0033682433515787092 -0.033092374693263663 0.0031942572072148328 -0.032831847981402755 0.048513756394386293 0.048521992564201359
leaf_weight=19 12.999999999999998 10.999999999999998 11.999999999999998 9.9999999999999982 14.000000000000002 15.999999999999998 9.9999999999999982 12.999999999999998 11.000000000000002 10.999999999999998 10.999999999999998 12.999999999999998 9.9999999999999982 9.9999999999999982 14.999999999999998 9.9999999999999982 10.999999999999998 14.999999999999998 9.9999999999999982 15.999999999999998 9.9999999999999982 15.999999999999998 9.9999999999999982 10.000000000000002 9.9999999999999982 10.999999999999998 10.999999999999991 15.999999999999998 17.999999999999993 18.000000000000014 10.000000000000009 10.999999999999998 9.9999999999999982 19 9.9999999999999982 23
leaf_count=19 13 11 12 10 14 16 10 13 11 11 11 13 10 10 15 10 11 15 10 16 10 16 10 10 10 11 11 16 18 18 10 11 10 19 10 23
internal_value=0 -0.0125427 -0.0235368 -0.0154629 0.0339045 -0.082822 -0.0304868 -0.0317704 0.00116185 -0.00502492 0.0279076 0.0442397 0.0293157 -0.0328851 0.00252294 0.0469068 0.0279963 -0.0336619 0.0468321 0.00334219 0.00399292 0.0293334 0.0489332 0.0285786 0.0283193 0.00327838 -0.0330196 -0.0329521 0.00317727 -0.0329085 0.0032225 -0.0329824 0.00317045 -0.032837 0.0485201 0.048522
internal_weight=0 346 292 257 128 35 135 123 122 22 81 47 70 110 100 54 60 100 34 90 75 47 24 36 20 59 90 75 48 59 38 29 28 30 43 33
internal_count=474 346 292 257 128 35 135 123 122 22 81 47 70 110 100 54 60 100 34 90 75 47 24 36 20 59 90 75 48 59 38 29 28 30 43 33
is_linear=0
shrinkage=0.05


Tree=6
num_leaves=39
num_cat=0
split_feature=4 5 4 4 4 3 10 5 2 0 15 21 16 9 16 2 5 19 0 18 0 5 10 10 11 10 21 16 0 10 0 10 16 2 10 0 16 21
split_gain=72.767 81.6377 50.4566 23.1728 2.86393 1.71598 0.96044 0.830962 0.370867 0.562659 0.368954 0.310845 0.264864 0.263925 0.244412 0.218062 0.198335 0.175989 0.19633 0.140862 0.139995 0.0714839 0.033048 0.0630841 0.0316328 0.00795487 0.00316825 0.00109285 0.00101066 0.000802597 9.89719e-05 7.52176e-05 2.54268e-05 9.8963e-06 5.11767e-06 1.9117e-07 2.05311e-11 4.9738e-14
threshold=2.5000000000000004 2.5000000000000004 1.0000000180025095e-35 1.5000000000000002 3.5000000000000004 10.500000000000002 1986.5000000000002 1.0000000180025095e-35 -85.373893499999994 52.000000000000007 8.5000000000000018 15.223463158557779 3.5000000000000004 27.500000000000004 35.500000000000007 -85.675951499999982 5.5000000000000009 2.5000000000000004 201.50000000000003 4.5000000000000009 220.50000000000003 1.0000000180025095e-35 2000.5000000000002 1986.5000000000002 4.5000000000000009 1984.5000000000002 15.173955942584376 19.500000000000004 411.50000000000006 2012.5000000000002 513.50000000000011 1982.5000000000002 42.500000000000007 -85.606783274999984 2008.5000000000002 254.50000000000003 12.500000000000002 8.9061946676893928
decision_type=2 2 2 2 2 2 2 2 2 2 2 2 2 2 2 2 2 2 2 2 2 2 2 2 2 2 2 2 2 2 2 2 2 2 2 2 2 2
left_child=1 2 5 7 10 -1 -7 12 15 -10 13 31 -4 20 -13 -5 -3 18 -14 25 -2 22 23 -17 -22 -19 -27 -26 -29 32 -28 -6 33 -24 -32 -18 -37 -38
right_child=4 16 3 8 11 6 -8 -9 9 -11 -12 14 17 -15 -16 21 35 19 -20 -21 24 -23 29 -25 27 26 30 28 -30 -31 34 -33 -34 -35 -36 36 37 -39
leaf_value=-0.061175920963287361 0.022004244605509135 0.038570297848094598 -0.024677422160611435 -0.0046077651903033258 0.046086924184452392 -0.074626779285344197 -0.094369850414139894 -0.018627483792164747 0.0032224808226932172 -0.012769831005822531 0.01799952391196381 0.042311482557228629 -0.040489077866077416 0.035370241701602932 0.032076830938458444 0.0031071027740836137 0.046088028252124789 -0.032625159621238707 -0.031444508234659829 -0.026057758042588832 0.03021334870295091 0.00014462013496086001 0.003018432069155906 0.0083893905393779278 0.02745769452303648 -0.030284320116043092 -0.031380883455276488 0.026547858119010916 0.027258722186088564 0.0034989694980057801 -0.03119995474815368 0.046267935882012057 0.0029519861225377432 0.0030786287886175223 -0.031246132254600524 0.046095979511737828 0.046095895767211903 0.046095890998840337
leaf_weight=9.9999999999999982 12.999999999999998 10.999999999999998 17 9.9999999999999982 11.000000000000002 11.000000000000002 13.999999999999998 17 11.000000000000002 10.999999999999998 10.999999999999998 14.000000000000002 10.000000000000002 9.9999999999999982 9.9999999999999982 13.000000000000002 9.9999999999999982 9.9999999999999982 14.999999999999998 15.999999999999998 10.999999999999998 15.999999999999998 17.999999999999996 9.9999999999999982 15.999999999999998 9.9999999999999982 14.999999999999998 10.000000000000002 9.9999999999999982 10.999999999999998 15.000000000000002 11.999999999999998 10.999999999999998 11.000000000000005 9.9999999999999982 9.9999999999999982 13.000000000000002 9.9999999999999982
leaf_count=10 13 11 17 10 11 11 14 17 11 11 11 14 10 10 10 13 10 10 15 16 11 16 18 10 16 10 15 10 10 11 15 12 11 11 10 10 13 10
internal_value=0 -0.0119156 -0.02236 -0.0146898 0.0322093 -0.0786809 -0.0856829 -0.0289625 0.00110376 -0.00477368 0.0265122 0.0420277 -0.0304514 0.0278499 0.038047 0.0023968 0.0445615 -0.0314233 -0.0350623 -0.0302262 0.0265965 0.00317508 0.00383032 0.00540375 0.0278667 -0.0313378 -0.0310803 0.0271497 0.0269033 0.00312073 -0.0312793 0.0461814 0.00301671 0.00304127 -0.0312184 0.0460941 0.0460959 0.0460959
internal_weight=0 346 292 257 128 35 25 135 122 22 81 47 118 70 24 100 54 101 25 76 60 90 74 23 47 60 50 36 20 51 40 23 40 29 25 43 33 23
internal_count=474 346 292 257 128 35 25 135 122 22 81 47 118 70 24 100 54 101 25 76 60 90 74 23 47 60 50 36 20 51 40 23 40 29 25 43 33 23
is_linear=0
shrinkage=0.05


Tree=7
num_leaves=38
num_cat=0
split_feature=4 4 4 4 4 0 21 3 3 18 0 15 10 9 21 0 16 17 0 0 6 11 8 21 21 16 21 16 21 0 11 18 2 2 10 10 10
split_gain=65.6722 63.1185 48.2188 22.9501 2.5847 1.68524 1.38236 1.24904 0.921267 0.40399 0.419358 0.332981 0.287067 0.238193 0.23443 0.150279 0.168655 0.135198 0.126387 0.126345 0.0317446 0.0285486 0.0147485 0.0116058 0.00839466 0.00214591 0.00111544 0.000986299 0.000920674 0.000912117 0.0008118 0.000615378 0.000123956 9.69142e-05 3.05035e-06 2.43854e-09 6.51887e-11
threshold=2.5000000000000004 -1.0000000180025095e-35 1.0000000180025095e-35 1.5000000000000002 3.5000000000000004 268.50000000000006 9.9699322792419256 10.500000000000002 17.500000000000004 4.5000000000000009 457.50000000000006 8.5000000000000018 1986.5000000000002 27.500000000000004 26.850547024915809 187.50000000000003 35.500000000000007 7.5000000000000009 154.50000000000003 220.50000000000003 1.5000000000000002 4.5000000000000009 1.2500000000000002 16.069766775318417 14.525960397767195 3.5000000000000004 24.164270901346491 19.500000000000004 10.042051769741118 411.50000000000006 10.500000000000002 4.5000000000000009 -85.618286769999983 -85.605842414999998 2000.5000000000002 1979.5000000000002 1964.5000000000002
decision_type=2 2 2 2 2 2 2 2 2 2 2 2 2 2 2 2 2 2 2 2 2 2 2 2 2 2 2 2 2 2 2 2 2 2 2 2 2
left_child=1 28 5 7 11 -3 -5 -4 14 15 -11 13 17 19 18 16 -8 -6 -9 -2 22 -21 26 -20 -19 -25 30 -23 35 -29 33 32 34 -17 -27 36 -1
right_child=4 2 3 6 12 -7 9 8 -10 10 -12 -13 -14 -15 -16 20 -18 24 23 21 -22 27 -24 25 -26 31 -28 29 -30 -31 -32 -33 -34 -35 -36 -37 -38
leaf_value=0.043791266977787006 0.020904032312906707 -0.064678701993666196 -0.011824440726867089 0.018979055356855193 0.038073455045620604 -0.086702796816825869 -0.0037058379117618587 -0.034241121536807015 -0.017302650607684079 0.0019294483773410313 -0.012550853695720435 0.017099547690965913 0.033606816312441459 0.033601730167865752 -0.022543784528970719 0.0028460768002428519 0.0044774281606078147 0.04377955223123231 -0.028103074431419375 0.028702680902047591 0.0061820676042274999 0.026084810122847558 0.0050062660593539476 -0.030455368955930075 0.045741069614887241 -0.029601261019706743 0.0033703455701470375 0.02522046506404876 0.044334864914417266 0.025895786285400391 0.0023899583518505099 -0.030092889318863555 -0.029800253709157287 0.0030383797548711269 -0.029635615008217948 0.043790291746457419 0.043791097173324002
leaf_weight=10.000000000000002 12.999999999999998 19 12.999999999999998 11.999999999999998 11.999999999999998 15.999999999999998 17.000000000000004 19 17 10.000000000000002 9.9999999999999982 10.999999999999998 12.999999999999998 9.9999999999999982 9.9999999999999982 18.999999999999993 9.9999999999999982 12.000000000000002 9.9999999999999982 10.999999999999998 10.999999999999998 15.999999999999998 9.9999999999999982 14.999999999999998 9.9999999999999982 11.999999999999991 9.9999999999999982 10.000000000000002 9.9999999999999982 9.9999999999999982 9.9999999999999982 11.999999999999998 15.000000000000009 10.000000000000009 13.999999999999998 11.999999999999998 12.999999999999998
leaf_count=10 13 19 13 12 12 16 17 19 17 10 10 11 13 10 10 19 10 12 10 11 11 16 10 15 10 12 10 10 10 10 10 12 15 10 14 12 13
internal_value=0 -0.0113198 -0.019577 -0.0123178 0.0305988 -0.0747469 0.00281734 -0.0265692 -0.028115 0.00115973 -0.0053107 0.0251866 0.0399263 0.0264574 -0.0298328 0.00249384 -0.000674999 0.0423426 -0.0305843 0.0252667 0.00371611 0.0264734 0.00325636 -0.0296935 0.0446712 -0.0299274 0.00289923 0.0257922 0.0439118 0.0255581 0.00277843 -0.029778 -0.0296858 0.00291239 -0.0296198 0.0437909 0.0437912
internal_weight=0 346 301 266 128 35 129 137 124 117 20 81 47 70 107 97 27 34 97 60 70 47 59 78 22 68 49 36 45 20 39 53 41 29 26 35 23
internal_count=474 346 301 266 128 35 129 137 124 117 20 81 47 70 107 97 27 34 97 60 70 47 59 78 22 68 49 36 45 20 39 53 41 29 26 35 23
is_linear=0
shrinkage=0.05


Tree=8
num_leaves=41
num_cat=0
split_feature=5 4 4 4 5 3 4 4 21 16 18 16 21 10 18 16 17 10 0 11 18 0 5 6 0 0 21 21 2 14 11 2 16 0 11 16 16 2 0 10
split_gain=59.5476 92.9374 22.9212 14.195 4.80281 2.2455 1.69148 1.30786 0.676434 0.396014 0.348339 0.417642 0.311199 0.280218 0.221745 0.19501 0.144379 0.131748 0.129712 0.117968 0.103369 0.0591532 0.0376878 0.0358729 0.0318725 0.0163243 0.00519058 0.00239384 0.00226595 0.0019895 0.00128154 0.000417582 0.000202461 0.000189333 0.000174472 0.000143943 3.69888e-05 2.62712e-06 2.96865e-11 1.06937e-12
threshold=1.5000000000000002 1.5000000000000002 1.0000000180025095e-35 2.5000000000000004 3.5000000000000004 10.500000000000002 3.5000000000000004 2.5000000000000004 15.272470095637864 35.500000000000007 4.5000000000000009 32.500000000000007 14.073587893277137 1986.5000000000002 4.5000000000000009 3.5000000000000004 7.5000000000000009 2008.5000000000002 187.50000000000003 8.5000000000000018 4.5000000000000009 254.50000000000003 5.5000000000000009 1.5000000000000002 640.50000000000011 83.500000000000014 17.657009297075827 24.164270901346491 -85.62916589999999 9.5000000000000018 10.500000000000002 -85.656283774999977 32.500000000000007 582.50000000000011 8.5000000000000018 13.500000000000002 32.500000000000007 -85.417723264999992 286.00000000000006 1966.5000000000002
decision_type=2 2 2 2 2 2 2 2 2 2 2 2 2 2 2 2 2 2 2 2 2 2 2 2 2 2 2 2 2 2 2 2 2 2 2 2 2 2 2 2
left_child=1 2 5 10 7 -1 8 9 -5 -2 18 -12 17 16 -7 -14 -8 -4 19 -3 25 -9 -6 27 26 -17 -10 30 -28 -27 33 -31 -22 35 36 -20 -33 38 -24 -40
right_child=4 3 12 6 22 14 13 21 24 -11 11 -13 15 -15 -16 20 -18 -19 23 -21 32 -23 37 -25 -26 29 28 -29 -30 31 -32 34 -34 -35 -36 -37 -38 -39 39 -41
leaf_value=-0.054222465455532082 0.018188824419948183 0.0018512448420127234 -0.037704194188117969 0.010284463614225388 0.044268738596062916 -0.087229252854983008 0.035027069747447952 0.032227013856172548 0.026082431375980375 0.0044408469554036859 -0.012372469566762443 0.0020781783573329449 -0.021982736009008744 0.029690309817140756 -0.077617095907529188 -0.030481776866045869 0.043161787837743763 -0.029774517904628407 0.0027861046791076653 -0.0051597024966031305 -0.024482515454292291 0.026788576394319537 0.041601651310920723 0.0058729641986164181 0.021947197727859021 -0.02903028875589371 0.02517260277972503 0.003416880118575963 0.02432946115732192 -0.028546719849109649 0.0021250552794134076 -0.028156000562012191 -0.024800683110952376 0.0028861898130604201 -0.028327786283833641 0.0025239973837001758 -0.028033417165279392 0.041572325229644776 0.041601538658142083 0.041601560413837439
leaf_weight=9.9999999999999982 11.000000000000002 15 10.000000000000002 9.9999999999999982 19 12 10.000000000000002 10.000000000000002 9.9999999999999982 9.9999999999999982 10.000000000000002 9.9999999999999982 17 10.999999999999998 12 10.999999999999998 11.999999999999998 10.999999999999998 10.000000000000002 10 10.000000000000002 9.9999999999999982 9.9999999999999982 10.999999999999998 9.9999999999999982 9.9999999999999982 16.999999999999993 10.999999999999998 15.000000000000005 9.9999999999999982 10.999999999999998 16.000000000000004 9.9999999999999982 13.999999999999998 13.999999999999998 10.999999999999998 9.9999999999999982 9.9999999999999982 13.000000000000002 9.9999999999999982
leaf_count=10 11 15 10 10 19 12 10 10 10 10 10 10 17 11 12 11 12 11 10 10 10 10 10 11 10 10 17 11 15 10 11 16 10 14 14 11 10 10 13 10
internal_value=0 -0.0093378 -0.0376072 0.0128156 0.0336342 -0.0741288 0.0270613 0.0203571 0.0221938 0.0116422 0.000839153 -0.00514715 -0.0279813 0.0362062 -0.0824232 -0.0268984 0.0394642 -0.0335506 0.00212653 -0.000953134 -0.0278167 0.0295078 0.0424142 0.00325876 0.0244841 -0.0287111 0.0250881 0.00275426 0.0247774 -0.0283865 0.00259581 -0.0282577 -0.0246416 0.00274376 -0.0281855 0.00264881 -0.0281089 0.0415948 0.0416016 0.0416015
internal_weight=0 371 163 208 103 34 95 41 62 21 113 20 129 33 24 108 22 21 93 25 91 20 62 68 52 71 42 57 32 60 46 50 20 35 40 21 26 43 33 23
internal_count=474 371 163 208 103 34 95 41 62 21 113 20 129 33 24 108 22 21 93 25 91 20 62 68 52 71 42 57 32 60 46 50 20 35 40 21 26 43 33 23
is_linear=0
shrinkage=0.05


Tree=9
num_leaves=40
num_cat=0
split_feature=4 4 4 4 4 0 21 21 0 18 0 2 0 3 21 16 21 0 16 7 21 13 10 0 16 16 2 15 3 18 0 0 0 19 2 11 19 2 10
split_gain=53.4667 51.406 39.2406 18.6843 2.12281 1.54845 1.14205 1.0686 0.786375 0.336405 0.353734 0.301417 0.64588 0.286219 0.262438 0.219504 0.174857 0.122717 0.149673 0.0654544 0.0646552 0.0294401 0.0460188 0.0248209 0.0191913 0.00348337 0.00264991 0.00229666 0.00217822 0.00116767 0.000756928 0.00061767 0.000257449 0.00025529 0.000134152 0.000102703 2.39832e-05 1.23253e-08 9.61009e-13
threshold=2.5000000000000004 -1.0000000180025095e-35 1.0000000180025095e-35 1.5000000000000002 3.5000000000000004 268.50000000000006 9.9699322792419256 11.984934010397415 60.500000000000007 4.5000000000000009 457.50000000000006 -85.406350439999997 79.500000000000014 16.500000000000004 15.223463158557779 35.500000000000007 14.073587893277137 187.50000000000003 35.500000000000007 10.500000000000002 15.272470095637864 7.5000000000000009 2004.5000000000002 342.50000000000006 40.500000000000007 3.5000000000000004 -85.663494639999982 7.5000000000000009 15.500000000000002 4.5000000000000009 250.50000000000003 396.00000000000006 433.50000000000006 2.5000000000000004 -85.61908056999998 8.5000000000000018 4.5000000000000009 -85.426298694999986 1967.5000000000002
decision_type=2 2 2 2 2 2 2 2 2 2 2 2 2 2 2 2 2 2 2 2 2 2 2 2 2 2 2 2 2 2 2 2 2 2 2 2 2 2 2
left_child=1 30 5 7 11 -3 -5 -4 -9 17 -11 19 -13 16 33 -16 -10 18 -8 -2 -18 26 -23 -21 27 -22 -19 -25 -27 32 -1 -28 -30 -6 -33 36 -34 38 -32
right_child=4 2 3 6 14 -7 9 8 13 10 -12 12 -14 -15 15 -17 20 21 -20 23 25 22 -24 24 -26 28 31 -29 29 -31 37 34 35 -35 -36 -37 -38 -39 -40
leaf_value=0.040014129877090458 0.027994405545971615 -0.057784044624943492 -0.0082390580326318751 0.017229176421339313 0.040038474897543586 -0.078895413875579842 -0.0034687653731773878 -0.013035218728085361 -0.033619929552078251 0.0017776936292648309 -0.011521447375416757 0.026745586991310112 0.009188233485276049 -0.019177990530927978 0.036446124102388101 0.026747001111507421 -0.023062378845431591 0.003433971293270588 0.0042402627132833012 0.021750424926479661 -0.027833464145660403 0.0073741843458265044 0.0025773744285106661 0.023320622917483831 0.02623844027519226 -0.027633780782872982 0.0022049505771561105 0.024275562912225726 -0.026535458998246626 -0.027301367620627088 0.039521461725234991 0.0025669636596974583 -0.026695210337638855 0.039704999598589814 0.0027932144701480846 -0.026939514279365542 -0.026800054560105004 0.039519393444061267 0.039521481503139846
leaf_weight=9.9999999999999982 10.999999999999998 19 9.9999999999999982 11.999999999999998 12.000000000000002 15.999999999999998 17.000000000000004 11.999999999999998 9.9999999999999982 10.000000000000002 9.9999999999999982 10.000000000000002 10.999999999999998 11.999999999999998 14.000000000000002 9.9999999999999982 10.999999999999998 9.9999999999999982 9.9999999999999982 11.999999999999998 14.999999999999998 10.000000000000002 9.9999999999999982 17.000000000000004 9.9999999999999982 10.999999999999998 10.999999999999998 9.9999999999999982 10.999999999999998 11.999999999999998 13.999999999999998 18.999999999999996 10 10.999999999999998 10.000000000000005 10.999999999999998 12 10.000000000000002 10.999999999999998
leaf_count=10 11 19 10 12 12 16 17 12 10 10 10 10 11 12 14 10 11 10 10 12 15 10 10 17 10 11 11 10 11 12 14 19 10 11 10 11 12 10 11
internal_value=0 -0.0102139 -0.0176657 -0.0111171 0.0276093 -0.067435 0.00253923 -0.0239759 -0.0252151 0.00103257 -0.00487188 0.0227045 0.0175489 -0.026486 0.0360624 0.0324048 -0.0273374 0.00224998 -0.00061357 0.0245089 -0.0266619 0.00335449 0.00497578 0.0237264 0.0243673 -0.0271447 0.00270597 0.0236743 -0.0269905 -0.0268642 0.0396305 0.00252397 -0.0267449 0.039879 0.00264498 -0.0268148 -0.0267524 0.0395209 0.0395215
internal_weight=0 346 301 266 128 35 129 137 127 117 20 81 21 115 47 24 103 97 27 60 93 70 20 49 37 82 50 27 67 56 45 40 44 23 29 33 22 35 25
internal_count=474 346 301 266 128 35 129 137 127 117 20 81 21 115 47 24 103 97 27 60 93 70 20 49 37 82 50 27 67 56 45 40 44 23 29 33 22 35 25
is_linear=0
shrinkage=0.05


Tree=10
num_leaves=41
num_cat=0
split_feature=5 4 4 4 5 3 4 4 21 2 21 10 18 3 10 17 0 19 2 0 0 10 0 5 10 10 0 15 21 15 10 17 0 3 11 11 11 0 0 10
split_gain=49.3028 75.8904 18.7075 11.5234 3.81892 2.05594 1.39711 1.01132 0.57514 0.299963 0.29047 0.24657 0.232158 0.193571 0.188553 0.134026 0.133578 0.126361 0.116782 0.0775131 0.445458 0.0598783 0.0560001 0.0453892 0.0339601 0.0718441 0.0235949 0.015948 0.00391209 0.00181935 0.00148135 0.000835734 0.0006408 0.0002466 0.000205817 0.000199828 8.96197e-06 6.98266e-06 2.72159e-10 1.92912e-12
threshold=1.5000000000000002 1.5000000000000002 1.0000000180025095e-35 2.5000000000000004 3.5000000000000004 10.500000000000002 3.5000000000000004 2.5000000000000004 15.272470095637864 -85.373893499999994 14.073587893277137 1986.5000000000002 4.5000000000000009 7.5000000000000009 1998.5000000000002 7.5000000000000009 60.500000000000007 2.5000000000000004 -85.299468429999976 498.50000000000006 524.50000000000011 2014.5000000000002 254.50000000000003 5.5000000000000009 2000.5000000000002 1996.5000000000002 640.50000000000011 7.5000000000000009 17.657009297075827 1.5000000000000002 1984.5000000000002 8.5000000000000018 388.50000000000006 16.500000000000004 8.5000000000000018 8.5000000000000018 4.5000000000000009 254.50000000000003 286.00000000000006 1966.5000000000002
decision_type=2 2 2 2 2 2 2 2 2 2 2 2 2 2 2 2 2 2 2 2 2 2 2 2 2 2 2 2 2 2 2 2 2 2 2 2 2 2 2 2
left_child=1 2 5 9 7 -1 8 14 -5 13 17 15 -7 -3 -2 -8 -11 -4 19 27 -21 24 -9 -6 25 -15 28 30 -10 35 -12 34 -32 36 -22 -30 -26 -25 -39 -40
right_child=4 3 10 6 23 12 11 22 26 16 18 -13 -14 21 -16 -17 -18 -19 -20 20 31 -23 -24 37 33 -27 -28 -29 29 -31 32 -33 -34 -35 -36 -37 -38 38 39 -41
leaf_value=-0.047988800182938579 0.016070710220374162 -0.0037327107248039774 -0.034794369637966151 0.0089522651210427288 0.040468883671258629 -0.079890625178813929 0.03144968718290328 0.029457626044750204 0.023428543508052829 -0.0007374620810151098 -0.02633080244064331 0.026556452025066724 -0.070055361030002428 0.0027742939289001852 0.0065843519267880114 0.039287340144316361 -0.008909902945160867 -0.02702851512215354 -0.01915268883109093 -0.014013101309537888 -0.025533491041925219 -0.00077356543391942983 0.024166119694709779 0.037497802972793585 0.0024462060770019892 0.008115297709591688 0.019862874597311023 -0.028061408996582035 0.02190381785233815 0.022854755073785784 -0.025431590658776895 -0.026133762548367186 -0.025936006605625152 0.0026941744610667231 -0.025808013027364553 0.022206452935934068 0.0023932852200232446 0.037545714080333713 0.037545388936996452 0.037545418143272405
leaf_weight=9.9999999999999982 10.000000000000002 12.999999999999998 10 9.9999999999999982 19 12 10.000000000000002 10.000000000000002 9.9999999999999982 10.000000000000002 9.9999999999999982 10.999999999999998 12 17.000000000000004 10.999999999999998 11.999999999999998 9.9999999999999982 11 9.9999999999999982 9.9999999999999982 18 9.9999999999999982 9.9999999999999982 9.9999999999999982 15.999999999999998 9.9999999999999982 9.9999999999999982 9.9999999999999982 12.000000000000002 9.9999999999999982 17.000000000000004 11.999999999999998 9.9999999999999982 10.999999999999998 11.000000000000002 9.9999999999999982 15.999999999999998 9.9999999999999982 13.000000000000002 9.9999999999999982
leaf_count=10 10 13 10 10 19 12 10 10 10 10 10 11 12 17 11 12 10 11 10 10 18 10 10 10 16 10 10 10 12 10 17 12 10 11 11 10 16 10 13 10
internal_value=0 -0.00849666 -0.0340422 0.0115222 0.0306045 -0.0670365 0.0243575 0.0187652 0.0199338 0.000731409 -0.025346 0.0326687 -0.074973 0.00192605 0.0111017 0.0357248 -0.00482368 -0.0307265 -0.0242998 -0.024825 -0.023475 0.0028456 0.0268119 0.0384337 0.00336263 0.00475244 0.0220456 -0.0262898 0.0225653 0.0222956 -0.0258109 -0.0257828 -0.0256184 0.00248995 -0.0256376 0.0220414 0.00241975 0.0375344 0.0375455 0.0375454
internal_weight=0 371 163 208 103 34 95 41 62 113 129 33 24 93 21 22 20 21 108 98 51 80 20 62 70 27 52 47 42 32 37 41 27 43 29 22 32 43 33 23
internal_count=474 371 163 208 103 34 95 41 62 113 129 33 24 93 21 22 20 21 108 98 51 80 20 62 70 27 52 47 42 32 37 41 27 43 29 22 32 43 33 23
is_linear=0
shrinkage=0.05


Tree=11
num_leaves=42
num_cat=0
split_feature=5 4 4 4 5 3 4 4 21 18 0 21 10 18 10 19 11 10 21 21 0 0 0 0 10 21 5 10 15 2 18 8 2 2 20 10 0 0 2 18 0
split_gain=44.4958 68.4911 16.8835 10.3999 3.44658 1.85549 1.26089 0.912718 0.519063 0.279243 0.299344 0.262149 0.22253 0.209522 0.170169 0.11404 0.112916 0.145634 0.113016 0.110699 0.0991697 0.0672507 0.405769 0.0505401 0.0497386 0.0715901 0.0409637 0.0224022 0.0142479 0.00462739 0.0021831 0.0011938 0.0010491 0.000818798 0.000637804 0.000431879 0.000335066 2.25813e-05 6.33576e-06 4.35055e-10 4.79616e-13
threshold=1.5000000000000002 1.5000000000000002 1.0000000180025095e-35 2.5000000000000004 3.5000000000000004 10.500000000000002 3.5000000000000004 2.5000000000000004 15.272470095637864 4.5000000000000009 457.50000000000006 14.073587893277137 1986.5000000000002 4.5000000000000009 1998.5000000000002 2.5000000000000004 10.500000000000002 1999.5000000000002 12.79988753237596 28.498101823563918 465.00000000000006 498.50000000000006 524.50000000000011 254.50000000000003 1998.5000000000002 22.425849719859539 5.5000000000000009 1978.5000000000002 7.5000000000000009 -85.376007959999995 4.5000000000000009 1.2500000000000002 -85.601278384999986 -85.60565717499999 -85.631524499999983 1996.5000000000002 651.50000000000011 574.50000000000011 -85.417723264999992 4.5000000000000009 318.00000000000006
decision_type=2 2 2 2 2 2 2 2 2 2 2 2 2 2 2 2 2 2 2 2 2 2 2 2 2 2 2 2 2 2 2 2 2 2 2 2 2 2 2 2 2
left_child=1 2 5 9 7 -1 8 14 -5 16 -11 15 20 -7 -2 -4 18 -18 -3 21 -8 28 -23 -9 25 -20 -6 -10 31 33 36 35 34 37 -26 -13 -24 -29 39 -28 -41
right_child=4 3 11 6 26 13 12 23 27 10 -12 19 -14 -15 -16 -17 17 -19 24 -21 -22 22 30 -25 32 -27 38 29 -30 -31 -32 -33 -34 -35 -36 -37 -38 -39 -40 40 -42
leaf_value=-0.045589358620345598 0.01526717447675764 -0.0020750042982399463 -0.03305465161800384 0.008504652008414269 0.038445439307313221 -0.075896094739437092 0.037003017961978905 0.027984744608402241 0.018939741836352785 0.0014520652219653124 -0.010781991370022297 -0.024142080226114814 0.025228629735383118 -0.066552593768574295 0.0062551342556782241 -0.025677089934999286 -0.0057283276773523522 0.0022975824258397691 0.0086900299973785844 -0.018073552399873734 0.030261149704456331 -0.013312445580959321 -0.024410876714520982 0.02295781433582306 0.0027539382688701155 0.0028446918353438378 0.035668524801731112 0.021397071927785876 -0.026658338755369188 0.02235810919241471 -0.025057775584551009 -0.0249321265767018 0.0029989599405477437 0.020789822936058036 0.0022507028544650359 -0.024572302252054215 -0.024060607904737647 0.021290814429521562 0.035622819066047667 0.035668136676152533 0.035668122226541692
leaf_weight=9.9999999999999982 10.000000000000002 9.9999999999999982 10 9.9999999999999982 19 12 12.000000000000002 10.000000000000002 10.999999999999998 10.000000000000002 9.9999999999999982 14.000000000000002 10.999999999999998 12 10.999999999999998 11 10.000000000000002 12.999999999999998 10.000000000000002 9.9999999999999982 9.9999999999999982 9.9999999999999982 18.000000000000004 9.9999999999999982 9.9999999999999982 10.999999999999998 9.9999999999999982 9.9999999999999982 9.9999999999999982 11.000000000000002 12.999999999999998 11.999999999999998 12.000000000000002 10.000000000000002 17 9.9999999999999982 10.999999999999998 9.9999999999999982 9.9999999999999982 12.000000000000002 10.999999999999998
leaf_count=10 10 10 10 10 19 12 12 10 11 10 10 14 11 12 11 11 10 13 10 10 10 10 18 10 10 11 10 10 10 11 13 12 12 10 17 10 11 10 10 12 11
internal_value=0 -0.00807183 -0.03234 0.0109461 0.0290742 -0.0636846 0.0231396 0.0178269 0.0189371 0.000694839 -0.00466496 -0.0240787 0.0310352 -0.0712243 0.0105466 -0.0291902 0.00184748 -0.00119194 0.00284615 -0.0230848 0.0339385 -0.0235961 -0.0223642 0.0254713 0.00366635 0.00562819 0.036512 0.0209433 -0.0249887 0.0214809 -0.0245194 -0.0245249 0.00260997 0.0211592 0.00243709 -0.0243213 -0.024278 0.0213439 0.0356577 0.0356682 0.0356681
internal_weight=0 371 163 208 103 34 95 41 62 113 20 129 33 24 21 21 93 23 70 108 22 98 52 20 60 21 62 52 46 41 42 36 39 30 27 24 29 20 43 33 23
internal_count=474 371 163 208 103 34 95 41 62 113 20 129 33 24 21 21 93 23 70 108 22 98 52 20 60 21 62 52 46 41 42 36 39 30 27 24 29 20 43 33 23
is_linear=0
shrinkage=0.05


Tree=12
num_leaves=42
num_cat=0
split_feature=5 4 4 4 5 3 4 4 21 16 2 16 10 18 3 21 17 0 10 18 19 10 0 10 5 16 2 2 16 10 0 2 2 15 11 16 2 10 0 0 10
split_gain=40.1574 61.8132 15.2374 9.38591 3.11054 1.67458 1.13796 0.823728 0.468455 0.341066 0.265459 0.248023 0.200833 0.189094 0.170697 0.165565 0.118056 0.117685 0.114213 0.0959949 0.0574886 0.0666081 0.0456124 0.0423354 0.0369698 0.021979 0.0208017 0.00431172 0.00305029 0.00142763 0.00121418 0.00170232 0.00159301 0.00105 0.000369811 0.000257394 0.000250207 8.02029e-05 5.76466e-06 7.38254e-10 1.87939e-12
threshold=1.5000000000000002 1.5000000000000002 1.0000000180025095e-35 2.5000000000000004 3.5000000000000004 10.500000000000002 3.5000000000000004 2.5000000000000004 15.272470095637864 35.500000000000007 -85.373893499999994 3.5000000000000004 1986.5000000000002 4.5000000000000009 7.5000000000000009 14.073587893277137 7.5000000000000009 60.500000000000007 2008.5000000000002 4.5000000000000009 4.5000000000000009 2001.5000000000002 254.50000000000003 2008.5000000000002 5.5000000000000009 10.500000000000002 -85.375059999999976 -85.556340339999977 21.500000000000004 1986.5000000000002 524.50000000000011 -85.576920994999981 -85.658158999999984 7.5000000000000009 8.5000000000000018 21.500000000000004 -85.600177859999988 2007.5000000000002 254.50000000000003 286.00000000000006 1966.5000000000002
decision_type=2 2 2 2 2 2 2 2 2 2 2 2 2 2 2 2 2 2 2 2 2 2 2 2 2 2 2 2 2 2 2 2 2 2 2 2 2 2 2 2 2
left_child=1 2 5 10 7 -1 8 9 -5 -2 14 -4 16 -7 -3 18 -8 -12 -13 26 23 -22 -9 29 -6 -10 30 33 37 -16 31 32 -17 35 -32 -27 -21 -23 -26 -40 -41
right_child=4 3 11 6 24 13 12 22 25 -11 17 15 -14 -15 20 19 -18 -19 -20 36 21 28 -24 -25 38 27 -28 -29 -30 -31 34 -33 -34 -35 -36 -37 -38 -39 39 40 -42
leaf_value=-0.043309891633689403 0.016094765693626615 -0.0035299891211952161 -0.017247364801519057 0.0080794191733002656 0.0365231675537009 -0.072101287543773637 0.028229307755827895 0.026585506945848453 0.017789496257901192 0.003336188915418461 -0.00073030002415180179 -0.031598066985607139 0.02396719821474769 -0.063224965473636971 0.0026902084331959478 -0.023266659975051882 0.035585187623898194 -0.0084011872112751008 -0.024214919046922165 -0.019568790495395654 0.0068475956168885417 0.002125165201723575 0.021809923201799392 -0.0016218867804855108 0.033841543793678285 0.020078768581151957 -0.025666106560013516 0.021248220178213983 0.0032336379867047072 0.0019189456454478207 -0.022910275003489328 -0.022959687709808344 -0.024106064438819887 0.020517670363187791 -0.023293467611074439 0.019728273288770158 -0.019922490566968917 0.0023254186473786833 0.033885236978530887 0.033884709844222427 0.033884738683700559
leaf_weight=9.9999999999999982 11.000000000000002 12.999999999999998 17 9.9999999999999982 19 12 10.000000000000002 10.000000000000002 9.9999999999999982 9.9999999999999982 10.000000000000002 10.000000000000002 10.999999999999998 12 10.000000000000002 9.9999999999999982 11.999999999999998 9.9999999999999982 10.999999999999998 10.000000000000002 12.999999999999998 10.000000000000002 9.9999999999999982 9.9999999999999982 9.9999999999999982 10.000000000000002 10.999999999999998 11.000000000000002 11.999999999999998 14.999999999999998 17 10.000000000000002 12.999999999999998 9.9999999999999982 10.000000000000002 10.999999999999998 9.9999999999999982 9.9999999999999982 9.9999999999999982 13.000000000000002 9.9999999999999982
leaf_count=10 11 13 17 10 19 12 10 10 10 10 10 10 11 12 10 10 12 10 11 10 13 10 10 10 10 10 11 11 12 15 17 10 13 10 10 11 10 10 10 13 10
internal_value=0 -0.00766824 -0.030723 0.0103988 0.0276205 -0.0605004 0.0219826 0.0169356 0.0179902 0.0100193 0.000660097 -0.0228747 0.0294835 -0.0676631 0.00178393 -0.0237289 0.0322416 -0.00456574 -0.0277307 -0.0228054 0.00264745 0.00382952 0.0241977 0.00112764 0.0346864 0.0198962 -0.0236673 0.0203978 0.00260342 0.00222745 -0.0233009 -0.0235043 -0.0237411 0.020096 -0.0230522 0.0198952 -0.0197456 0.00222529 0.0338748 0.0338849 0.0338847
internal_weight=0 371 163 208 103 34 95 41 62 21 113 129 33 24 93 112 22 20 21 91 80 45 20 35 62 52 71 42 32 25 60 33 23 31 27 21 20 20 43 33 23
internal_count=474 371 163 208 103 34 95 41 62 21 113 129 33 24 93 112 22 20 21 91 80 45 20 35 62 52 71 42 32 25 60 33 23 31 27 21 20 20 43 33 23
is_linear=0
shrinkage=0.05


Tree=13
num_leaves=39
num_cat=0
split_feature=4 4 4 4 0 4 21 21 0 15 3 18 0 0 16 9 21 11 10 21 0 10 2 21 11 21 16 16 0 8 18 2 16 21 0 0 10 10
split_gain=35.4042 34.0868 25.9383 12.3437 1.48111 1.44224 0.773129 0.766066 0.558304 0.279745 0.268811 0.240437 0.266086 0.211936 0.175274 0.146091 0.112561 0.102988 0.136792 0.0911805 0.0745443 0.0511784 0.0757369 0.0477707 0.039813 0.0178214 0.00527281 0.00495957 0.00381696 0.00250003 0.00158017 0.00138908 0.00194532 0.000476625 0.000151407 0.000138534 2.04901e-08 2.32299e-09
threshold=2.5000000000000004 -1.0000000180025095e-35 1.0000000180025095e-35 1.5000000000000002 268.50000000000006 3.5000000000000004 10.506926872997751 11.984934010397415 60.500000000000007 8.5000000000000018 16.500000000000004 4.5000000000000009 457.50000000000006 484.50000000000006 40.500000000000007 27.500000000000004 14.073587893277137 10.500000000000002 1998.5000000000002 13.828219667611434 220.50000000000003 1998.5000000000002 -85.621593354999973 15.272470095637864 4.5000000000000009 14.283077400393777 3.5000000000000004 19.500000000000004 411.50000000000006 1.2500000000000002 4.5000000000000009 -85.665397254999974 12.500000000000002 10.042051769741118 433.50000000000006 621.50000000000011 1979.5000000000002 1964.5000000000002
decision_type=2 2 2 2 2 2 2 2 2 2 2 2 2 2 2 2 2 2 2 2 2 2 2 2 2 2 2 2 2 2 2 2 2 2 2 2 2 2
left_child=1 33 4 7 -3 9 -5 -4 -9 15 16 17 -13 14 25 20 -10 19 -19 -8 -2 22 -21 -18 -22 -7 -25 -26 -29 35 31 -28 -33 36 -34 -23 37 -1
right_child=5 2 3 6 -6 13 11 8 10 -11 -12 12 -14 -15 -16 -17 23 18 -20 21 24 29 -24 26 27 -27 30 28 -30 -31 -32 32 34 -35 -36 -37 -38 -39
leaf_value=0.032191485762596117 0.015305182509697403 -0.045404353039339186 -0.0061826895177364352 0.012715643004824717 -0.066051540151238444 0.032722312211990345 -0.0017515158839523795 -0.010293452007075151 -0.027492826730012895 0.011011484129862352 -0.014544778317213059 0.0014295639190822834 -0.010104856416583062 0.022975896447896958 0.027012129227320353 0.025183849930763249 -0.018816158581863751 -0.0055932141689117977 0.0020635034257013882 0.0023937372770160429 0.022215719927440994 0.0020372087384263669 0.008547472441568971 -0.023172580301761628 0.019434824120253325 0.035580309927463534 -0.022534690052270923 0.01756303504109382 0.018944512754678729 0.003057530596852303 -0.022587601145108542 -0.022291635678094959 -0.021459559148008168 0.032581447958946234 -0.021707445702382498 0.0022520993649959567 0.032188364118337635 0.032190472116837135
leaf_weight=10.000000000000002 12.999999999999998 19 9.9999999999999982 14.999999999999998 15.999999999999998 12.000000000000002 9.9999999999999982 11.999999999999998 9.9999999999999982 10.999999999999998 11.999999999999998 10.000000000000002 9.9999999999999982 9.9999999999999982 14.999999999999998 9.9999999999999982 10.999999999999998 10.000000000000002 13.999999999999998 10.000000000000002 10.999999999999998 15.000000000000002 9.9999999999999982 14.999999999999998 15.999999999999998 9.9999999999999982 9.999999999999984 10.000000000000002 9.9999999999999982 9.9999999999999982 14.999999999999998 17.000000000000014 11.000000000000002 9.9999999999999982 13.999999999999998 14.999999999999998 11.999999999999998 12.999999999999998
leaf_count=10 13 19 10 15 16 12 10 12 10 11 12 10 10 10 15 10 11 10 14 10 11 15 10 15 16 10 10 10 10 10 15 17 11 10 14 15 12 13
internal_value=0 -0.00831141 -0.0143795 -0.00905529 -0.0548431 0.0224668 0.00204458 -0.019507 -0.0205562 0.0184239 -0.021627 0.00064049 -0.00433765 0.0294343 0.0311798 0.0195887 -0.0224522 0.00169967 -0.0011268 0.00266874 0.0186562 0.00340545 0.0054706 -0.0219102 0.0195831 0.0340214 -0.0223252 0.0187787 0.0182538 0.00237287 -0.0221355 -0.0220051 -0.021879 0.032277 -0.0215984 0.00214465 0.03219 0.0321909
internal_weight=0 346 301 266 35 128 129 137 127 81 115 114 20 47 37 70 103 94 24 70 60 60 20 93 47 22 82 36 20 40 67 52 42 45 25 30 35 23
internal_count=474 346 301 266 35 128 129 137 127 81 115 114 20 47 37 70 103 94 24 70 60 60 20 93 47 22 82 36 20 40 67 52 42 45 25 30 35 23
is_linear=0
shrinkage=0.05


Tree=14
num_leaves=39
num_cat=0
split_feature=4 4 4 4 0 4 3 21 3 15 18 0 21 3 16 9 0 11 10 21 21 21 10 2 2 21 16 19 8 2 21 0 7 2 0 0 19 0
split_gain=31.9523 30.7634 23.4094 11.1402 1.3367 1.30162 0.743003 0.697748 0.58843 0.25247 0.216994 0.240142 0.195767 0.19366 0.186211 0.131848 0.124264 0.0929469 0.123455 0.0822904 0.0744857 0.0717392 0.0461885 0.0683526 0.0259956 0.0182107 0.00313921 0.00247851 0.00225628 0.00160948 0.00087729 0.000433372 0.000402651 0.000358433 0.000125027 2.06418e-05 3.18816e-08 2.11574e-09
threshold=2.5000000000000004 -1.0000000180025095e-35 1.0000000180025095e-35 1.5000000000000002 268.50000000000006 3.5000000000000004 10.500000000000002 10.506926872997751 17.500000000000004 8.5000000000000018 4.5000000000000009 457.50000000000006 15.223463158557779 15.500000000000002 35.500000000000007 27.500000000000004 176.50000000000003 10.500000000000002 1998.5000000000002 13.828219667611434 15.272470095637864 15.199966607355432 1998.5000000000002 -85.621593354999973 -85.377504999999985 17.657009297075827 3.5000000000000004 2.5000000000000004 1.2500000000000002 -85.618621999999974 20.054814400544959 250.50000000000003 17.500000000000004 -85.643409634999983 621.50000000000011 574.50000000000011 2.5000000000000004 307.50000000000006
decision_type=2 2 2 2 2 2 2 2 2 2 2 2 2 2 2 2 2 2 2 2 2 2 2 2 2 2 2 2 2 2 2 2 2 2 2 2 2 2
left_child=1 31 4 6 -3 9 -4 -5 13 15 17 -12 27 -8 -14 21 20 19 -19 -9 -15 -2 23 -21 32 -18 -27 -7 34 33 -31 -1 -23 -28 -24 -34 -33 -38
right_child=5 2 3 7 -6 12 8 10 -10 -11 11 -13 14 16 -16 -17 25 18 -20 22 -22 24 28 -25 -26 26 29 -29 -30 30 -32 36 35 -35 -36 -37 37 -39
leaf_value=0.0309534552693367 0.014973724414320553 -0.0431341340863391 -0.0071594556936850923 0.012079860984134334 -0.062748964875936508 0.031755864868561419 -0.015614332578011923 -0.0016639399714767932 -0.011082696827018963 0.010460909794677389 0.00135808577761054 -0.0095996136218309408 0.028525810369423449 -0.028429479897022238 0.019592460989952088 0.023924657106399537 -0.019062487645582719 -0.0053135537402704339 0.0019603282512564743 0.0022740504983812561 -0.022467099807479168 0.017802623998035085 0.0019353483120600379 0.0081200988031923781 0.020786437392234798 -0.021997526288032532 -0.021025940988745013 0.030716801773418081 0.0029046540707349782 -0.021087161749601343 -0.021734237264503131 0.030578380184514184 0.018128448426723474 -0.020668153677667892 0.0021394943694273633 0.018230040371418 0.030581986904144279 0.030580982024019418
leaf_weight=9.9999999999999982 17 19 12.999999999999998 14.999999999999998 15.999999999999998 12.000000000000002 13.999999999999998 9.9999999999999982 17 10.999999999999998 10.000000000000002 9.9999999999999982 14.000000000000002 10.000000000000002 9.9999999999999982 9.9999999999999982 10.999999999999998 10.000000000000002 13.999999999999998 10.000000000000002 10.999999999999998 10.999999999999998 15.000000000000002 9.9999999999999982 12.000000000000002 11.999999999999998 13.999999999999995 10.999999999999998 9.9999999999999982 10.000000000000009 10.999999999999998 13.999999999999998 10.000000000000002 13.999999999999998 14.999999999999998 9.9999999999999982 10.000000000000002 10.999999999999998
leaf_count=10 17 19 13 15 16 12 14 10 17 11 10 10 14 10 10 10 11 10 14 10 11 11 15 10 12 12 14 11 10 10 11 14 10 14 15 10 10 11
internal_value=0 -0.00789584 -0.0136605 -0.00860253 -0.0521009 0.0213435 -0.0185316 0.00194235 -0.0197239 0.0175027 0.000608465 -0.00412076 0.0279626 -0.0210968 0.0248036 0.0186093 -0.0219221 0.00161468 -0.00107046 0.0025353 -0.0253063 0.0177234 0.00323518 0.00519707 0.0188105 -0.020935 -0.0212727 0.0312589 0.00225423 -0.0210952 -0.0214261 0.0306632 0.0180456 -0.020847 0.00203742 0.0181792 0.0305802 0.0305815
internal_weight=0 346 301 266 35 128 137 129 124 81 114 20 47 107 24 70 93 94 24 70 21 60 60 20 43 72 61 23 40 49 21 45 31 28 30 20 35 21
internal_count=474 346 301 266 35 128 137 129 124 81 114 20 47 107 24 70 93 94 24 70 21 60 60 20 43 72 61 23 40 49 21 45 31 28 30 20 35 21
is_linear=0
shrinkage=0.05


Tree=15
num_leaves=42
num_cat=0
split_feature=5 4 4 4 5 3 4 4 21 16 21 2 10 10 16 10 19 17 0 21 5 0 10 10 2 3 0 2 15 10 0 11 11 11 3 21 16 2 11 21 21
split_gain=30.473 45.7369 11.2531 6.88156 2.21085 1.55991 0.840887 0.520321 0.414698 0.333425 0.246787 0.235086 0.195344 0.175719 0.163819 0.153178 0.10635 0.106294 0.0971205 0.0684002 0.0541419 0.040106 0.0400801 0.0332881 0.0517526 0.030812 0.0217427 0.0204572 0.00448522 0.00301137 0.00267702 0.00186281 0.00129735 0.000561605 0.000430385 0.00031857 0.000294216 1.58517e-05 7.31742e-06 1.13754e-09 2.05738e-11
threshold=1.5000000000000002 1.5000000000000002 1.0000000180025095e-35 2.5000000000000004 3.5000000000000004 10.500000000000002 3.5000000000000004 2.5000000000000004 15.272470095637864 35.500000000000007 14.073587893277137 -85.373893499999994 1986.5000000000002 1986.5000000000002 3.5000000000000004 2016.5000000000002 2.5000000000000004 7.5000000000000009 60.500000000000007 12.095667532676266 5.5000000000000009 254.50000000000003 2015.5000000000002 2000.5000000000002 -85.621593354999973 15.500000000000002 640.50000000000011 -85.372995659999987 7.5000000000000009 1984.5000000000002 373.00000000000006 6.5000000000000009 10.500000000000002 3.5000000000000004 16.500000000000004 20.997634243778684 19.500000000000004 -85.417723264999992 4.5000000000000009 8.9061946676893928 8.730768986775935
decision_type=2 2 2 2 2 2 2 2 2 2 2 2 2 2 2 2 2 2 2 2 2 2 2 2 2 2 2 2 2 2 2 2 2 2 2 2 2 2 2 2 2
left_child=1 2 5 11 7 -1 8 9 -5 -2 16 15 -7 17 -12 19 -4 -8 -13 -3 -6 -9 25 24 -21 -16 28 29 30 -27 -10 33 -33 -31 35 -25 -32 39 -37 40 -22
right_child=4 3 10 6 20 12 13 21 26 -11 14 18 -14 -15 22 -17 -18 -19 -20 23 37 -23 -24 34 -26 27 -28 -29 -30 31 36 32 -34 -35 -36 38 -38 -39 -40 -41 -42
leaf_value=-0.035509613305330277 0.015562632646072992 -0.00090233947682593545 -0.028458094745874404 0.0060231018066406253 0.032240384973977743 -0.05367687053978442 0.024000478908419602 0.023063263148069377 0.018029549419879914 0.002947765742428601 -0.014296945841873394 -0.00091127404011785956 -0.062826669641903463 0.020067894187840551 -0.017597896267067304 -0.0042662422754801812 -0.021333649483594026 0.030980321516593298 -0.0078797942399978643 0.002485414437251165 0.029051982114712389 0.018585208058357238 -0.016951677203178406 0.0021947368700057268 0.0069405577336014677 -0.0208794105052948 0.015045873820781708 -0.022538767009973527 0.018564375042915342 -0.019886313059500282 0.017225756022063162 -0.020696888864040374 -0.019891485273838039 -0.019438458872692924 0.0023365333303809166 0.001880702593674262 0.016860058768229051 0.028980285823345189 0.0018227904383093119 0.029052560708739541 0.029051885008811951
leaf_weight=9.9999999999999982 11.000000000000002 13.999999999999998 10 9.9999999999999982 19 10.000000000000002 10.000000000000002 10.000000000000002 9.9999999999999982 9.9999999999999982 17 10.000000000000002 13.999999999999998 10.999999999999998 10.999999999999998 9.9999999999999982 11 11.999999999999998 9.9999999999999982 16.000000000000004 12.000000000000002 9.9999999999999982 11.999999999999998 9.9999999999999982 10.999999999999998 9.9999999999999982 9.9999999999999982 9.9999999999999982 9.9999999999999982 14 11.000000000000002 10 10 14 9.9999999999999982 12.000000000000002 10.999999999999998 9.9999999999999982 9.9999999999999982 10.999999999999998 9.9999999999999982
leaf_count=10 11 14 10 10 19 10 10 10 10 10 17 10 14 11 11 10 11 12 10 16 12 10 12 10 11 10 10 10 10 14 11 10 10 14 10 12 11 10 10 11 10
internal_value=0 -0.0066799 -0.0265113 0.00886108 0.0240606 -0.0521011 0.0187799 0.0150525 0.015348 0.00955555 -0.0197667 0.000522265 -0.0590143 0.0252277 -0.0188024 0.00157986 -0.0247262 0.0278077 -0.00439553 0.00228421 0.0300176 0.0208242 -0.0196441 0.00293075 0.00430047 -0.020053 0.0171412 -0.0204502 0.0176401 -0.0200901 0.0173512 -0.0199256 -0.0202942 -0.0196624 0.00205022 0.00196074 0.0170429 0.0290354 0.00185438 0.0290521 0.0290519
internal_weight=0 371 163 208 103 34 95 41 62 21 129 113 24 33 108 93 21 22 20 83 62 20 91 69 27 79 52 68 42 58 32 48 20 28 42 32 22 43 22 33 22
internal_count=474 371 163 208 103 34 95 41 62 21 129 113 24 33 108 93 21 22 20 83 62 20 91 69 27 79 52 68 42 58 32 48 20 28 42 32 22 43 22 33 22
is_linear=0
shrinkage=0.05


Tree=16
num_leaves=38
num_cat=0
split_feature=5 4 4 4 5 21 11 4 4 2 16 19 2 16 2 18 2 18 1 2 10 10 5 1 1 21 2 2 1 16 1 16 1 13 1 18 10
split_gain=27.5019 41.2775 10.1559 6.21061 1.99529 1.42699 0.783529 0.82066 0.46959 0.342995 0.300916 0.223886 0.227503 0.219033 0.212165 0.197019 0.148472 0.107762 0.0876513 0.0759997 0.0587012 0.0727265 0.048863 0.0361956 0.00999467 0.0108872 0.00656265 0.00371264 0.00341322 0.00168222 0.0013775 0.00126377 0.000976388 8.75132e-05 1.4458e-05 2.20501e-09 1.61178e-11
threshold=1.5000000000000002 1.5000000000000002 1.0000000180025095e-35 2.5000000000000004 3.5000000000000004 15.223463158557779 10.500000000000002 3.5000000000000004 2.5000000000000004 -85.595183149999983 35.500000000000007 2.5000000000000004 -85.395414904999981 5.5000000000000009 -85.373893499999994 4.5000000000000009 -85.675951499999982 4.5000000000000009 29.913379935000005 -85.406350439999997 1990.5000000000002 2000.5000000000002 5.5000000000000009 29.947171645000005 30.148165500000001 15.436905832667579 -85.600177859999988 -85.399588999999978 30.174044500000004 12.500000000000002 30.195766330000001 32.500000000000007 30.228457500000001 7.5000000000000009 29.947171645000005 4.5000000000000009 1967.5000000000002
decision_type=2 2 2 2 2 2 2 2 2 2 2 2 2 2 2 2 2 2 2 2 2 2 2 2 2 2 2 2 2 2 2 2 2 2 2 2 2
left_child=1 2 5 14 8 -1 7 19 10 -9 -2 12 31 -13 16 -7 -3 24 -16 26 -18 -22 -6 -10 25 -15 28 30 -5 -26 33 -4 -32 -23 -24 -36 -37
right_child=4 3 11 6 22 15 -8 9 23 -11 -12 13 -14 17 18 -17 20 -19 -20 -21 21 27 34 -25 29 -27 -28 -29 -30 -31 32 -33 -34 -35 35 36 -38
leaf_value=-0.03362714722752571 0.014784501357512038 -0.004254719037562609 -0.019268673085249384 0.017577168047428132 0.030628365591952679 -0.060638330380121869 0.0064365250559953544 0.033474930037151678 0.02191010065376758 0.022143835267599891 0.0028003773419186476 -0.01152241791670139 -0.028627250790596012 -0.019408849979701794 -0.00086571026593446716 -0.051577905813852944 -0.00042569654486963854 -0.014952467206646414 -0.0074858045578002942 0.013022447228431704 0.0065804845738140025 0.0017551614137898597 0.027530994415283207 0.01765594780445099 -0.019218335300683977 -0.021447070240974427 0.018314861506223672 0.0029983288608491422 0.01643593468164143 -0.018543808083785206 0.0025865504518151274 -0.020016319155693057 0.0019039060751145536 0.0015614976733922957 0.027600242197513582 0.027599316147657534 0.027599400579929351
leaf_weight=9.9999999999999982 11.000000000000002 9.9999999999999982 13.000000000000002 9.9999999999999982 19 12 12.999999999999998 11.000000000000002 10.000000000000002 17 9.9999999999999982 12.999999999999998 9.9999999999999982 19.000000000000004 10.000000000000002 12 17 17 9.9999999999999982 14.999999999999998 10.999999999999998 14 9.9999999999999982 9.9999999999999982 18 9.9999999999999982 10.000000000000002 9.9999999999999982 19 19 10.000000000000002 9.9999999999999982 10.999999999999998 10 9.9999999999999982 13.000000000000002 9.9999999999999982
leaf_count=10 11 10 13 10 19 12 13 11 10 17 10 13 10 19 10 12 17 17 10 15 11 14 10 10 18 10 10 10 19 19 10 10 11 10 10 13 10
internal_value=0 -0.0063459 -0.0251858 0.00841802 0.0228576 -0.0494961 0.0178409 0.0196489 0.0142998 0.0265953 0.00907778 -0.0187784 -0.0223312 -0.0175571 0.000496152 -0.0561081 0.00150086 -0.0185023 -0.00417576 0.016047 0.00219431 0.00286916 0.0285167 0.019783 -0.0194167 -0.0201117 0.0172103 0.00212689 0.0168295 -0.018872 0.00193324 -0.0195937 0.00222897 0.00167447 0.0275837 0.0275996 0.0275994
internal_weight=0 371 163 208 103 34 95 82 41 28 21 129 33 96 113 24 93 83 20 54 83 66 62 20 66 29 39 55 29 37 45 23 21 24 43 33 23
internal_count=474 371 163 208 103 34 95 82 41 28 21 129 33 96 113 24 93 83 20 54 83 66 62 20 66 29 39 55 29 37 45 23 21 24 43 33 23
is_linear=0
shrinkage=0.05


Tree=17
num_leaves=38
num_cat=0
split_feature=5 4 4 4 5 3 11 4 4 20 18 21 20 3 10 10 20 0 20 21 20 19 10 5 11 0 15 12 21 0 10 8 0 20 20 0 10
split_gain=24.8204 37.253 9.16568 5.60507 1.80075 1.37877 0.707135 0.740645 0.423805 0.309553 0.218632 0.216417 0.191479 0.145524 0.130674 0.0971048 0.0967511 0.0791053 0.0685897 0.0626714 0.258036 0.050434 0.0593902 0.0440989 0.0416175 0.0326666 0.00777025 0.00762659 0.00480067 0.0038964 0.00388601 0.00204101 0.000585973 0.000321585 1.30844e-05 2.41877e-09 2.18474e-11
threshold=1.5000000000000002 1.5000000000000002 1.0000000180025095e-35 2.5000000000000004 3.5000000000000004 10.500000000000002 10.500000000000002 3.5000000000000004 2.5000000000000004 -85.595183149999983 4.5000000000000009 14.073587893277137 -85.373893499999994 7.5000000000000009 1998.5000000000002 2008.5000000000002 -85.299468429999976 60.500000000000007 -85.406350439999997 21.293384559330097 -85.60954765999999 4.5000000000000009 2001.5000000000002 5.5000000000000009 8.5000000000000018 254.50000000000003 7.5000000000000009 8.5000000000000018 15.652441532829494 596.50000000000011 2009.5000000000002 1.2500000000000002 465.00000000000006 -85.630929999999992 -85.417723264999992 286.00000000000006 1966.5000000000002
decision_type=2 2 2 2 2 2 2 2 2 2 2 2 2 2 2 2 2 2 2 2 2 2 2 2 2 2 2 2 2 2 2 2 2 2 2 2 2
left_child=1 2 5 12 8 -1 7 18 14 -9 -7 15 13 -3 -2 -4 19 -14 26 20 -13 24 -23 -6 32 -10 29 -21 -22 -5 -24 33 -15 -29 35 -25 -37
right_child=4 3 11 6 23 10 -8 9 25 -11 -12 16 17 21 -16 -17 -18 -19 -20 27 28 22 30 34 -26 -27 -28 31 -30 -31 -32 -33 -34 -35 -36 36 -38
leaf_value=-0.031422796547412875 0.012760558947920796 -0.0034806534791221987 -0.02604977518320083 0.015268373382943012 0.029096947688805431 -0.058292850852012627 0.0061146986599151902 0.031801182573491869 0.020814595595002167 0.021036643250023621 -0.048748401304086045 -0.010112056365379922 -0.00082242485135793672 0.0023605410931243865 0.0048632755240594801 -0.019242023879831489 -0.012251524180173876 -0.0071115142107009898 0.012371325492858888 -0.019910764694213868 -0.01775303234656652 0.0061801593400769676 0.0017457363102585076 0.026220311224460603 -0.0014433013239445597 0.016773150488734245 0.017292925609009607 -0.01801000071896447 -0.018907812982797624 0.016525883701714605 0.0028838648305584986 -0.018940103731372143 0.0018423029407858848 -0.018363639861345284 0.026154375374317168 0.026219337032391467 0.026219435334205628
leaf_weight=9.9999999999999982 10.000000000000002 12.999999999999998 10.000000000000002 14.000000000000002 19 12 12.999999999999998 11.000000000000002 10.000000000000002 17 12 12.999999999999998 10.000000000000002 12.000000000000002 10.999999999999998 10.999999999999998 9.9999999999999982 9.9999999999999982 14.999999999999998 9.9999999999999982 18 12.999999999999998 20 9.9999999999999982 12.999999999999998 9.9999999999999982 13.999999999999998 18 18 10.999999999999998 11.999999999999998 10.999999999999998 9.9999999999999982 10.000000000000002 9.9999999999999982 13.000000000000002 9.9999999999999982
leaf_count=10 10 13 10 14 19 12 13 11 10 17 12 13 10 12 11 11 10 10 15 10 18 13 20 10 13 10 14 18 18 11 12 11 10 10 10 13 10
internal_value=0 -0.00602861 -0.0239265 0.00799712 0.0217147 -0.0470213 0.0169488 0.0186664 0.0135849 0.0252656 -0.0535206 -0.0178395 0.000471344 0.00142582 0.00862389 -0.0224838 -0.0169364 -0.00396697 0.0152447 -0.0174145 -0.01615 0.00222312 0.00333029 0.0270909 0.000799617 0.0187939 0.0163498 -0.0186789 -0.0183304 0.0158217 0.00217253 -0.018363 0.00212498 -0.0181363 0.0262045 0.0262197 0.0262194
internal_weight=0 371 163 208 103 34 95 82 41 28 24 129 113 93 21 21 108 20 54 98 49 80 45 62 35 20 39 49 36 25 32 39 22 28 43 33 23
internal_count=474 371 163 208 103 34 95 82 41 28 24 129 113 93 21 21 108 20 54 98 49 80 45 62 35 20 39 49 36 25 32 39 22 28 43 33 23
is_linear=0
shrinkage=0.05


Tree=18
num_leaves=39
num_cat=0
split_feature=5 4 4 4 5 21 11 4 4 2 16 19 2 16 2 2 0 2 10 10 5 10 21 0 15 15 2 0 10 11 19 0 0 6 2 0 0 10
split_gain=22.4004 33.6208 8.27203 5.05858 1.62518 1.29065 0.638189 0.668433 0.382484 0.279371 0.258216 0.197119 0.209554 0.193481 0.17281 0.133561 0.0713925 0.0619023 0.0539764 0.0634607 0.0397992 0.0378443 0.0374023 0.0294816 0.00701265 0.00459902 0.00362628 0.0035165 0.00257183 0.002528 0.00271114 0.0010879 0.00109095 0.000126208 6.19168e-05 1.19388e-05 3.66528e-09 1.97797e-11
threshold=1.5000000000000002 1.5000000000000002 1.0000000180025095e-35 2.5000000000000004 3.5000000000000004 17.814504125882234 10.500000000000002 3.5000000000000004 2.5000000000000004 -85.595183149999983 35.500000000000007 2.5000000000000004 -85.395414904999981 5.5000000000000009 -85.373893499999994 -85.675951499999982 60.500000000000007 -85.406350439999997 1990.5000000000002 2000.5000000000002 5.5000000000000009 2015.5000000000002 25.124710702928898 254.50000000000003 7.5000000000000009 1.5000000000000002 -85.399588999999978 596.50000000000011 2007.5000000000002 8.5000000000000018 4.5000000000000009 582.50000000000011 644.50000000000011 -1.0000000180025095e-35 -85.60565717499999 254.50000000000003 286.00000000000006 1966.5000000000002
decision_type=2 2 2 2 2 2 2 2 2 2 2 2 2 2 2 2 2 2 2 2 2 2 2 2 2 2 2 2 2 2 2 2 2 2 2 2 2 2
left_child=1 2 5 14 8 -1 7 17 10 -9 -2 12 25 -13 15 -3 -16 24 -17 -20 -6 22 28 -10 27 -4 31 -5 29 30 -15 33 -33 -21 -30 -22 -37 -38
right_child=4 3 11 6 20 -7 -8 9 23 -11 -12 13 -14 21 16 18 -18 -19 19 26 35 -23 -24 -25 -26 -27 -28 -29 34 -31 -32 32 -34 -35 -36 36 37 -39
leaf_value=-0.033706264197826387 0.013479041680693622 -0.00410439794883132 -0.017033801170495837 0.014504954644611901 0.027642100265151577 -0.053325942158699041 0.0058089635693109954 0.030211124095049766 0.019773865714669221 0.019984811610158752 0.0023777084331959488 -0.010129765593088591 -0.026323751658201219 -0.018004836354936871 -0.00078130360692739475 -0.00050012140623841657 -0.0067559387534856796 0.01175275911887487 0.0061262047950136058 0.0016415339262623868 0.024846395254135133 -0.013958420536734843 -0.014269649535417556 0.015934492647647857 0.01642827923808779 -0.018460048735141756 0.0028272252716124058 0.015699589523402127 -0.017010268121957772 -0.01833572057741029 -0.017020831257104872 0.0024153826199471945 0.0016938016157258642 0.00140896356664598 -0.017186218053102494 0.024909557402133943 0.024908370123459738 0.024908463656902316
leaf_weight=14.999999999999998 11.000000000000002 9.9999999999999982 13.000000000000002 14.000000000000002 19 19 12.999999999999998 11.000000000000002 10.000000000000002 17 9.9999999999999982 12.999999999999998 9.9999999999999982 14 10.000000000000002 17 9.9999999999999982 14.999999999999998 10.999999999999998 14.000000000000002 9.9999999999999982 10.999999999999998 9.9999999999999982 9.9999999999999982 13.999999999999998 9.9999999999999982 9.9999999999999982 10.999999999999998 10.000000000000002 13.999999999999998 14 10.000000000000002 10.999999999999998 9.9999999999999982 9.9999999999999982 9.9999999999999982 13.000000000000002 9.9999999999999982
leaf_count=15 11 10 13 14 19 19 13 11 10 17 10 13 10 14 10 17 10 15 11 14 10 11 10 10 14 10 10 11 10 14 14 10 11 10 10 10 13 10
internal_value=0 -0.00572718 -0.0227302 0.00759727 0.020629 -0.0446702 0.0161014 0.0177331 0.0129056 0.0240023 0.00819269 -0.0169475 -0.0202811 -0.0158016 0.000447777 0.00135453 -0.00376862 0.0144824 0.00201223 0.00265935 0.0257363 -0.0166899 -0.0171072 0.0178542 0.0155323 -0.0176539 0.00196598 0.0150306 -0.0175649 -0.0177871 -0.0175128 0.00177459 0.00203741 0.00154463 -0.0170982 0.0248943 0.0249088 0.0249084
internal_weight=0 371 163 208 103 34 95 82 41 28 21 129 33 96 113 93 20 54 83 66 62 83 72 20 39 23 55 25 62 42 28 45 21 24 20 43 33 23
internal_count=474 371 163 208 103 34 95 82 41 28 21 129 33 96 113 93 20 54 83 66 62 83 72 20 39 23 55 25 62 42 28 45 21 24 20 43 33 23
is_linear=0
shrinkage=0.05


Tree=19
num_leaves=39
num_cat=0
split_feature=5 4 4 4 5 3 11 4 4 2 16 10 21 2 3 16 1 1 8 2 10 10 5 10 3 21 1 16 2 21 11 16 10 11 16 2 1 10
split_gain=20.2164 30.3428 7.46551 4.56537 1.46672 1.23467 0.575966 0.60326 0.345192 0.252133 0.23304 0.204243 0.19205 0.155961 0.132285 0.118883 0.0900453 0.0644318 0.0617906 0.0931943 0.0449465 0.0502963 0.0359188 0.0343838 0.0286269 0.0282012 0.0266071 0.0250632 0.0164499 0.00680615 0.00259486 0.0035388 0.00139201 0.00113538 0.000199574 1.08004e-05 3.64443e-09 1.79385e-11
threshold=1.5000000000000002 1.5000000000000002 1.0000000180025095e-35 2.5000000000000004 3.5000000000000004 10.500000000000002 10.500000000000002 3.5000000000000004 2.5000000000000004 -85.595183149999983 35.500000000000007 1986.5000000000002 14.073587893277137 -85.373893499999994 7.5000000000000009 3.5000000000000004 29.940109545000002 29.913379935000005 1.2500000000000002 -85.595183149999983 2000.5000000000002 1996.5000000000002 5.5000000000000009 2015.5000000000002 15.500000000000002 15.652441532829494 29.947171645000005 28.500000000000004 -85.372995659999987 23.08598139283087 6.5000000000000009 28.500000000000004 1985.5000000000002 2.5000000000000004 11.500000000000002 -85.417723264999992 29.951079355000001 1966.5000000000002
decision_type=2 2 2 2 2 2 2 2 2 2 2 2 2 2 2 2 2 2 2 2 2 2 2 2 2 2 2 2 2 2 2 2 2 2 2 2 2 2
left_child=1 2 5 13 8 -1 7 18 10 -9 -2 -7 16 14 -3 -14 -4 -15 19 -5 21 -16 -6 24 -17 -20 -10 29 30 34 32 -32 -26 -34 -22 36 -24 -38
right_child=4 3 12 6 22 11 -8 9 26 -11 -12 -13 15 17 20 23 -18 -19 25 -21 27 -23 35 -25 28 -27 -28 -29 -30 -31 31 -33 33 -35 -36 -37 37 -39
leaf_value=-0.027675852179527283 0.012805089557712724 -0.0033911666976144681 -0.023909090831875795 0.014244253855002553 0.026259995526389076 -0.043129439800977692 0.0055185155799755692 0.028700568188320497 0.018785172477364536 0.018985571120591724 0.0022588228946551678 -0.052485325932502748 -0.011411339570494261 -0.00074223847128450848 0.0020523055953055834 -0.013978745585138147 -0.017353469268842178 -0.0064181416481733332 0.017474498938430432 0.0082809521257877321 0.0013928050097698963 0.0065211536386050291 0.023664133548736574 -0.013472695524493853 -0.016657096296548844 0.014091407933405468 0.015137768313288689 -0.00031509332669277988 -0.018600916862487795 0.0030832663923501969 -0.01746789758855646 -0.016168291866779327 -0.016329026718934377 -0.015676517287890115 0.0016755728624187984 0.023604021221399308 0.023662951474006353 0.023663040548563004
leaf_weight=9.9999999999999982 11.000000000000002 12.999999999999998 10.000000000000002 19 19 10.000000000000002 12.999999999999998 11.000000000000002 10.000000000000002 17 9.9999999999999982 13.999999999999998 17 10.000000000000002 17.000000000000004 10.999999999999998 10.999999999999998 9.9999999999999982 11.000000000000002 10.000000000000002 12.000000000000002 9.9999999999999982 9.9999999999999982 11.999999999999998 9.9999999999999982 13.999999999999998 9.9999999999999982 18 9.9999999999999982 9.9999999999999982 11.000000000000002 9.9999999999999982 12 15 12.999999999999998 9.9999999999999982 13.000000000000002 9.9999999999999982
leaf_count=10 11 13 10 19 19 10 13 11 10 17 10 14 17 10 17 11 11 10 11 10 12 10 10 12 10 14 10 18 10 10 11 10 12 15 13 10 13 10
internal_value=0 -0.00544082 -0.0215936 0.0072174 0.0195975 -0.0424367 0.0152963 0.0168465 0.0122603 0.0228022 0.00778306 -0.048587 -0.0161001 0.000425388 0.0012868 -0.0152494 -0.0204752 -0.00358019 0.0137583 0.0121879 0.00204697 0.00370743 0.0244495 -0.0159664 -0.0163452 0.01558 0.0169615 0.00120108 -0.016728 0.00198082 -0.0164051 -0.016849 -0.0161532 -0.0159665 0.00153984 0.0236495 0.0236633 0.023663
internal_weight=0 371 163 208 103 34 95 82 41 28 21 24 129 113 93 108 21 20 54 29 80 27 62 91 79 25 20 53 68 35 58 21 37 27 25 43 33 23
internal_count=474 371 163 208 103 34 95 82 41 28 21 24 129 113 93 108 21 20 54 29 80 27 62 91 79 25 20 53 68 35 58 21 37 27 25 43 33 23
is_linear=0
shrinkage=0.05


Tree=20
num_leaves=40
num_cat=0
split_feature=5 4 4 4 5 21 11 4 4 2 16 19 2 18 16 3 2 11 19 21 10 21 8 2 5 21 0 16 21 15 2 11 16 2 10 21 0 16 19
split_gain=18.2453 27.3843 6.73762 4.12024 1.32372 1.17777 0.519809 0.544443 0.311536 0.22755 0.210319 0.177153 0.188897 0.167163 0.2657 0.163634 0.189263 0.0982986 0.112571 0.0848338 0.0574053 0.0760029 0.055766 0.0841078 0.0324167 0.0254642 0.0240129 0.0201342 0.0120637 0.00466686 0.00184053 0.00149951 0.00357837 0.000553056 0.000533573 0.000115586 9.85863e-06 5.39228e-09 2.92024e-11
threshold=1.5000000000000002 1.5000000000000002 1.0000000180025095e-35 2.5000000000000004 3.5000000000000004 17.814504125882234 10.500000000000002 3.5000000000000004 2.5000000000000004 -85.595183149999983 35.500000000000007 2.5000000000000004 -85.395414904999981 4.5000000000000009 32.500000000000007 17.500000000000004 -85.373893499999994 10.500000000000002 4.5000000000000009 12.79988753237596 1998.5000000000002 22.425849719859539 1.2500000000000002 -85.595183149999983 5.5000000000000009 15.602289717851994 254.50000000000003 5.5000000000000009 15.093461422703301 1.5000000000000002 -85.601278384999986 6.5000000000000009 32.500000000000007 -85.63119279499999 2006.5000000000002 24.152993425054756 254.50000000000003 12.500000000000002 2.5000000000000004
decision_type=2 2 2 2 2 2 2 2 2 2 2 2 2 2 2 2 2 2 2 2 2 2 2 2 2 2 2 2 2 2 2 2 2 2 2 2 2 2 2
left_child=1 2 5 13 8 -1 7 22 10 -9 -2 12 29 17 -15 16 27 19 -19 -3 21 -21 23 -5 -6 -24 -10 -13 -29 -4 33 34 -33 -22 35 -30 -26 -38 -39
right_child=4 3 11 6 24 -7 -8 9 26 -11 -12 15 -14 14 -16 -17 -18 18 -20 20 30 -23 25 -25 36 -27 -28 28 31 -31 -32 32 -34 -35 -36 -37 37 38 -40
leaf_value=-0.029841361145178477 0.012164835225452073 -0.002035924782976508 -0.01533638456693062 0.013532041052454397 0.024946995863789009 -0.0485834046414024 0.0052425900330910317 0.027265539900823067 0.017845913618803021 0.018036292109857587 0.0021458817552775142 -0.017741816829551348 -0.024192483723163606 -0.0095058397727552785 0.0020202149730175734 -0.0081550687551498417 -0.0084463228285312653 0.0024483759561553593 -0.0046078842634764998 0.0082007500203326311 0.0018473837693983861 0.0021779503842646428 0.016755355149507517 0.0078669044375419602 0.022423574030399324 0.013498045603434245 0.014380879923701288 -0.013831257522106172 -0.015523108094930639 -0.016773112118244171 0.0023186828553055715 -0.01653189095003264 -0.015293509960174562 0.0013868300477042795 -0.01520976180380041 -0.015763510167598725 0.02248121365904808 0.022479881752621039 0.022479768966635071
leaf_weight=14.999999999999998 11.000000000000002 9.9999999999999982 13.000000000000002 19 19 19 12.999999999999998 11.000000000000002 10.000000000000002 17 9.9999999999999982 10.999999999999998 9.9999999999999982 10.000000000000002 9.9999999999999982 9.9999999999999982 9.9999999999999982 10 13 10.000000000000002 10.999999999999998 10.999999999999998 10.000000000000002 10.000000000000002 9.9999999999999982 14.999999999999998 9.9999999999999982 9.9999999999999982 10.000000000000005 9.9999999999999982 12.000000000000002 14.000000000000002 9.9999999999999982 15.999999999999998 10.999999999999998 9.9999999999999982 9.9999999999999982 11.000000000000002 11.999999999999998
leaf_count=15 11 10 13 19 19 19 13 11 10 17 10 11 10 10 10 10 10 10 13 10 11 11 10 10 10 15 10 10 10 10 12 14 10 16 11 10 10 11 12
internal_value=0 -0.00516878 -0.020514 0.00685653 0.0186176 -0.0403149 0.0145315 0.0160041 0.0116473 0.0216621 0.00739391 -0.0152951 -0.0184554 0.000404119 -0.00374281 -0.0142088 -0.0149127 0.00129593 -0.00153995 0.00222772 0.00293833 0.00504595 0.0130704 0.0115785 0.023227 0.014801 0.0161134 -0.0157635 -0.0154287 -0.015961 0.00180345 -0.0157192 -0.0160159 0.00157446 -0.0154895 -0.0156433 0.0224671 0.0224802 0.0224798
internal_weight=0 371 163 208 103 34 95 82 41 28 21 129 33 113 20 96 86 93 23 70 60 21 54 29 62 25 20 76 65 23 39 55 24 27 31 20 43 33 23
internal_count=474 371 163 208 103 34 95 82 41 28 21 129 33 113 20 96 86 93 23 70 60 21 54 29 62 25 20 76 65 23 39 55 24 27 31 20 43 33 23
is_linear=0
shrinkage=0.05


Tree=21
num_leaves=41
num_cat=0
split_feature=5 4 4 4 5 3 4 21 4 18 16 21 21 15 18 16 16 11 10 1 21 18 10 21 5 1 16 2 2 16 14 2 16 21 2 2 6 2 18 21
split_gain=16.4664 24.7144 6.0807 3.71852 1.19465 1.10554 0.473019 0.350803 0.281161 0.218916 0.189813 0.181222 0.177731 0.169822 0.150864 0.239794 0.112075 0.0887145 0.106715 0.0828407 0.0765625 0.0758952 0.0518082 0.0685926 0.0292561 0.0216717 0.0215492 0.0163067 0.00541372 0.0043153 0.00183853 0.00166108 0.00121253 0.000643905 0.000589238 0.000499134 0.000101485 8.91568e-06 5.74233e-09 2.47882e-11
threshold=1.5000000000000002 1.5000000000000002 1.0000000180025095e-35 2.5000000000000004 3.5000000000000004 10.500000000000002 3.5000000000000004 15.272470095637864 2.5000000000000004 4.5000000000000009 35.500000000000007 15.223463158557779 14.073587893277137 1.5000000000000002 4.5000000000000009 32.500000000000007 3.5000000000000004 10.500000000000002 1999.5000000000002 29.940109545000002 12.79988753237596 4.5000000000000009 1998.5000000000002 22.425849719859539 5.5000000000000009 29.947171645000005 10.500000000000002 -85.375059999999976 -85.556340339999977 19.500000000000004 9.5000000000000018 -85.601278384999986 12.500000000000002 21.880765590885364 -85.643409634999983 -85.63119279499999 -1.0000000180025095e-35 -85.417723264999992 4.5000000000000009 8.730768986775935
decision_type=2 2 2 2 2 2 2 2 2 2 2 2 2 2 2 2 2 2 2 2 2 2 2 2 2 2 2 2 2 2 2 2 2 2 2 2 2 2 2 2
left_child=1 2 5 14 8 -1 7 -5 10 -7 -2 -8 19 -13 17 -16 -14 20 -19 -4 -3 27 23 -22 -6 -10 -9 30 29 -28 -18 35 -32 -23 -34 -24 -36 38 -26 -40
right_child=4 3 12 6 24 9 11 26 25 -11 -12 13 16 -15 15 -17 21 18 -20 -21 22 33 31 -25 37 -27 28 -29 -30 -31 32 -33 34 -35 36 -37 -38 -39 39 -41
leaf_value=-0.024331440329551698 0.011556593599644571 -0.0019341285899281504 -0.022032833173871034 0.0026544857025146487 0.023699645698070527 -0.048894306520620975 0.024260234832763673 0.010794281363487243 0.016953617781400674 -0.039343649024764699 0.0020385877043008808 0.011710335449738932 -0.0099854222115348373 0.020311243723457061 -0.0090305474749766256 0.0019192039594054225 -0.01546897679567337 -0.0053461581468582133 0.0015241368709561917 -0.015744938904588873 0.0077907124556077156 -0.011403814405202863 0.0017550146207213403 0.0020690528887578031 0.021357245296239852 0.013661835715174675 0.013648031850655874 -0.016944244707172568 0.0143298788504167 0.012467573210597039 -0.015054606232378219 0.0022027487323308978 -0.014859877228736884 -0.011971222907304764 -0.014298953488469116 0.001317488553468138 -0.014514624923467638 0.021302352994680404 0.021355859811107311 0.021355755898085509
leaf_weight=9.9999999999999982 11.000000000000002 9.9999999999999982 10.000000000000002 9.9999999999999982 19 12 9.9999999999999982 9.9999999999999982 10.000000000000002 12 9.9999999999999982 11.000000000000002 17 11.999999999999998 10.000000000000002 9.9999999999999982 9.9999999999999982 10.000000000000002 12.999999999999998 10.999999999999998 10.000000000000002 10.000000000000002 10.999999999999998 10.999999999999998 9.9999999999999982 9.9999999999999982 14.999999999999998 10.999999999999998 11.000000000000002 15.999999999999998 18 12.000000000000002 9.9999999999999947 9.9999999999999982 12.000000000000005 15.999999999999998 9.9999999999999982 9.9999999999999982 12.000000000000002 10.999999999999998
leaf_count=10 11 10 10 10 19 12 10 10 10 12 10 11 17 12 10 10 10 10 13 11 10 10 11 11 10 10 15 11 11 16 18 12 10 10 12 16 10 10 12 11
internal_value=0 -0.00491034 -0.0194883 0.00651371 0.0176868 -0.0382991 0.0138049 0.0112309 0.0110649 -0.044119 0.00702421 0.0186409 -0.0145304 0.0161978 0.000383913 -0.00355567 -0.013712 0.00123114 -0.00146295 -0.0187392 0.00211633 -0.0144082 0.00279141 0.00479365 0.0220657 0.0153077 0.0128803 -0.0151745 0.0133769 0.0130388 -0.0148501 0.00171328 -0.0147263 -0.0116875 -0.0145416 0.00149574 -0.014397 0.0213437 0.0213562 0.0213558
internal_weight=0 371 163 208 103 34 95 62 41 24 21 33 129 23 113 20 108 93 23 21 70 91 60 21 62 20 52 71 42 31 60 39 50 20 32 27 22 43 33 23
internal_count=474 371 163 208 103 34 95 62 41 24 21 33 129 23 113 20 108 93 23 21 70 91 60 21 62 20 52 71 42 31 60 39 50 20 32 27 22 43 33 23
is_linear=0
shrinkage=0.05


Tree=22
num_leaves=38
num_cat=0
split_feature=5 4 4 4 5 21 11 4 4 2 16 21 2 19 0 16 19 18 0 2 16 11 0 4 0 21 2 0 0 21 21 0 21 2 21 19 2
split_gain=14.8609 22.3047 5.48783 3.35596 1.07818 1.06826 0.467786 0.446967 0.253748 0.211709 0.171306 0.160402 0.139542 0.117075 0.110692 0.101148 0.0835657 0.0684954 0.0537523 0.0537039 0.0409916 0.0534615 0.0287545 0.0264101 0.0195587 0.0153322 0.00962939 0.00350064 0.00284266 0.0018181 0.00263541 0.00300312 0.000581124 0.000465201 0.000100255 3.03659e-08 1.92204e-08
threshold=1.5000000000000002 1.5000000000000002 1.0000000180025095e-35 2.5000000000000004 3.5000000000000004 17.814504125882234 10.500000000000002 3.5000000000000004 2.5000000000000004 -85.595183149999983 35.500000000000007 14.073587893277137 -85.373893499999994 4.5000000000000009 574.50000000000011 3.5000000000000004 2.5000000000000004 4.5000000000000009 60.500000000000007 -85.406350439999997 21.500000000000004 8.5000000000000018 204.50000000000003 1.0000000180025095e-35 254.50000000000003 24.911168956561692 -85.600177859999988 429.00000000000006 481.50000000000006 22.425849719859539 15.652441532829494 524.50000000000011 21.880765590885364 -85.606783274999984 10.042051769741118 2.5000000000000004 -85.427878349999986
decision_type=2 2 2 2 2 2 2 2 2 2 2 2 2 2 2 2 2 2 2 2 2 2 2 2 2 2 2 2 2 2 2 2 2 2 2 2 2
left_child=1 2 5 12 8 -1 7 19 10 -9 -2 16 13 14 22 -13 -4 25 -14 26 33 -22 -3 34 -10 29 28 -24 -5 30 -17 -32 -19 -15 35 -6 -37
right_child=4 3 11 6 23 -7 -8 9 24 -11 -12 15 18 20 -16 17 -18 32 -20 -21 21 -23 27 -25 -26 -27 -28 -29 -30 -31 31 -33 -34 -35 -36 36 -38
leaf_value=-0.02640946596860886 0.010978763753717593 -0.0015931500401347876 -0.021110256239771839 0.013052404150366785 0.020286436485392707 -0.044258915436895273 0.0043028359229748065 0.025043080476197323 0.016105937026441093 0.016140867584823249 0.001936658280901611 -0.0094861511798465959 -0.00083204208873212306 0.0012500175374693103 -0.0052920055203139783 -0.013680087526639304 -0.014794905957850541 -0.010833623781800267 -0.0060162632167339329 0.0093110089004039762 0.0021876286936905946 0.0069238100200891481 0.001096150983745853 0.022641370314009049 0.012978744208812716 -0.015835488140583037 0.014169345125555989 0.002303876276127994 0.012010914479431353 -0.013564522862434387 -0.014937161747366187 -0.013832617700099945 -0.011372661590576172 0.0016965285222977401 0.020467753261327742 0.020288000459020791 0.020291029214859004
leaf_weight=14.999999999999998 11.000000000000002 9.9999999999999982 10 9.9999999999999982 13.999999999999998 19 12.999999999999998 11.000000000000002 10.000000000000002 17 9.9999999999999982 17 10.000000000000002 14.000000000000002 9.9999999999999982 14.999999999999998 11 10.000000000000002 9.9999999999999982 14.999999999999998 13 11 15.000000000000002 17 9.9999999999999982 14.999999999999998 10.000000000000002 9.9999999999999982 19 14.999999999999998 16.000000000000004 9.9999999999999982 9.9999999999999982 9.9999999999999982 9.9999999999999982 10.999999999999998 10.000000000000002
leaf_count=15 11 10 10 10 14 19 13 11 10 17 10 17 10 14 10 15 11 10 10 15 13 11 15 17 10 15 10 10 19 15 16 10 10 10 10 11 10
internal_value=0 -0.00466482 -0.0185139 0.00618802 0.0168024 -0.0363842 0.0131147 0.0145117 0.0105117 0.0196382 0.006673 -0.0138038 0.000364717 0.00117953 -0.000652678 -0.0130264 -0.0178022 -0.0136877 -0.00342415 0.0118535 0.00289722 0.00435838 0.000672844 0.0209624 0.0145423 -0.0144158 0.0128314 0.00157924 0.01237 -0.0140355 -0.0142079 -0.0145123 -0.0111031 0.00143606 0.0203281 0.0202882 0.0202894
internal_weight=0 371 163 208 103 34 95 82 41 28 21 129 113 93 45 108 21 91 20 54 48 24 35 62 20 71 39 25 29 56 41 26 20 24 45 35 21
internal_count=474 371 163 208 103 34 95 82 41 28 21 129 113 93 45 108 21 91 20 54 48 24 35 62 20 71 39 25 29 56 41 26 20 24 45 35 21
is_linear=0
shrinkage=0.05


Tree=23
num_leaves=39
num_cat=0
split_feature=5 4 4 4 3 5 11 4 4 10 2 16 6 0 5 2 16 16 2 19 10 2 8 14 11 3 5 2 0 14 10 17 16 16 11 0 16 19
split_gain=13.412 20.13 4.95277 3.02876 0.989874 0.973053 0.422177 0.403388 0.229007 0.220339 0.191067 0.154604 0.153287 0.169866 0.153609 0.185047 0.178753 0.133285 0.203466 0.146527 0.137089 0.069338 0.0505212 0.075764 0.0395147 0.0269599 0.0239945 0.0227369 0.0176517 0.00394476 0.00314175 0.00287409 0.00274578 0.00149375 0.00120964 1.05729e-05 6.94935e-09 1.38432e-10
threshold=1.5000000000000002 1.5000000000000002 1.0000000180025095e-35 2.5000000000000004 10.500000000000002 3.5000000000000004 10.500000000000002 3.5000000000000004 2.5000000000000004 1986.5000000000002 -85.595183149999983 35.500000000000007 -1.0000000180025095e-35 385.00000000000006 1.0000000180025095e-35 -85.619281999999984 14.500000000000002 39.500000000000007 -85.395835504999994 4.5000000000000009 2014.5000000000002 -85.396189224999986 1.2500000000000002 12.500000000000002 8.5000000000000018 16.500000000000004 5.5000000000000009 -85.535376644999985 254.50000000000003 12.500000000000002 2006.5000000000002 8.5000000000000018 12.500000000000002 32.500000000000007 8.5000000000000018 254.50000000000003 12.500000000000002 2.5000000000000004
decision_type=2 2 2 2 2 2 2 2 2 2 2 2 2 2 2 2 2 2 2 2 2 2 2 2 2 2 2 2 2 2 2 2 2 2 2 2 2 2
left_child=1 2 4 17 -1 8 7 22 11 -6 -9 -2 14 -14 15 32 -17 18 20 -20 25 30 23 -5 -18 29 -7 -24 -10 -3 -19 33 -4 -15 -31 -28 -37 -38
right_child=5 3 12 6 9 26 -8 10 28 -11 -12 -13 13 31 -16 16 24 21 19 -21 -22 -23 27 -25 -26 -27 35 -29 -30 34 -32 -33 -34 -35 -36 36 37 -39
leaf_value=-0.021348158419132235 0.010429825701496816 0.0023497584834694866 -0.014344291301334605 0.012882706709206103 -0.034403367936611161 0.02139403506329185 0.004087693874652569 0.023790926283056079 0.015300640426576133 -0.044120931412492487 0.015333823969258982 0.001839825385250151 -0.02130521595478058 -0.013885916173458092 -0.01777142681181431 -0.0045875535408655809 -0.01275161649617884 0.00081094402968036837 -0.00080570501203720368 -0.0084676191327162087 -0.0040621320674703882 0.0062943740409206264 0.011571426317095755 0.0076936858103555791 -0.0088315603137016276 0.0044542116392403842 0.019215405285358429 0.014609127220782368 0.012329806685447694 0.00148303093987384 0.0020354725234210491 -0.014460018683563581 -0.01345820406244861 -0.013021697103977204 0.00078237056732177734 0.019275193065404893 0.019273742356083604 0.019273496791720392
leaf_weight=9.9999999999999982 11.000000000000002 9.9999999999999982 17 12.000000000000002 10.000000000000002 19 12.999999999999998 11.000000000000002 10.000000000000002 13.999999999999998 17 9.9999999999999982 9.9999999999999982 10.000000000000005 9.9999999999999982 14.999999999999998 18 11.000000000000002 13.000000000000002 11.999999999999998 10.999999999999998 10.999999999999998 14.000000000000002 17 10.000000000000002 9.9999999999999982 9.9999999999999982 10.999999999999998 9.9999999999999982 14.000000000000002 9.9999999999999982 10.999999999999998 18 9.9999999999999982 10.999999999999998 9.9999999999999982 11.000000000000002 11.999999999999998
leaf_count=10 11 10 17 12 10 19 13 11 10 14 17 10 10 10 10 15 18 11 13 12 11 11 14 17 10 10 10 11 10 14 10 11 18 10 11 10 11 12
internal_value=0 -0.00443158 -0.0175882 0.00587862 -0.034565 0.0159623 0.012459 0.0137861 0.00998612 -0.0400719 0.0186563 0.00633935 -0.0131137 -0.0156387 -0.0119372 -0.0111892 -0.00899205 0.000346481 -0.00073285 -0.00448342 0.000941514 0.00307854 0.0112608 0.00984087 -0.0113516 0.00216463 0.0199143 0.012908 0.0138152 0.00151046 0.00139405 -0.0138108 -0.0138886 -0.0134538 0.00117474 0.0192604 0.0192741 0.0192736
internal_weight=0 371 163 208 34 103 95 82 41 24 28 21 129 41 88 78 43 113 81 25 56 32 54 29 28 45 62 25 20 35 21 31 35 20 25 43 33 23
internal_count=474 371 163 208 34 103 95 82 41 24 28 21 129 41 88 78 43 113 81 25 56 32 54 29 28 45 62 25 20 35 21 31 35 20 25 43 33 23
is_linear=0
shrinkage=0.05


Tree=24
num_leaves=40
num_cat=0
split_feature=5 4 4 4 21 5 11 4 4 2 19 2 3 0 16 18 16 11 19 21 2 10 10 16 4 17 21 0 2 11 10 15 18 0 2 16 21 21 10
split_gain=12.1043 18.1673 4.46987 2.73345 0.97755 0.878181 0.381015 0.364058 0.206679 0.172438 0.142506 0.168961 0.159549 0.168757 0.13953 0.125055 0.204217 0.0808027 0.101755 0.0697243 0.0503479 0.0465671 0.0700072 0.026619 0.0224768 0.0245785 0.0168151 0.0159307 0.00783694 0.00385117 0.00659286 0.0037804 0.0035524 0.00228586 0.00211339 0.00176278 0.000475118 0.000100738 3.01638e-05
threshold=1.5000000000000002 1.5000000000000002 1.0000000180025095e-35 2.5000000000000004 17.814504125882234 3.5000000000000004 10.500000000000002 3.5000000000000004 2.5000000000000004 -85.595183149999983 2.5000000000000004 -85.395414904999981 17.500000000000004 96.500000000000014 35.500000000000007 4.5000000000000009 32.500000000000007 10.500000000000002 4.5000000000000009 12.79988753237596 -85.406350439999997 1998.5000000000002 1983.5000000000002 5.5000000000000009 3.5000000000000004 8.5000000000000018 15.093461422703301 254.50000000000003 -85.600177859999988 10.500000000000002 1965.5000000000002 1.5000000000000002 4.5000000000000009 481.50000000000006 -85.601278384999986 12.500000000000002 23.754436924215877 22.668920690463882 1978.5000000000002
decision_type=2 2 2 2 2 2 2 2 2 2 2 2 2 2 2 2 2 2 2 2 2 2 2 2 2 2 2 2 2 2 2 2 2 2 2 2 2 2 2
left_child=1 2 4 15 -1 8 7 20 14 -9 11 31 13 -12 -2 17 -17 19 -19 -3 28 22 -21 -15 25 -7 -25 -10 33 38 -31 -4 35 -5 36 -28 -23 -37 -27
right_child=5 3 10 6 -6 24 -8 9 27 -11 12 -13 -14 23 -16 16 -18 18 -20 21 -22 34 -24 26 -26 29 32 -29 -30 30 -32 -33 -34 -35 -36 37 -38 -39 -40
leaf_value=-0.023294884562492374 0.0099083344367417395 -0.0019200285011902454 -0.012371142093951883 0.011840321198105812 -0.040369717070930886 0.021563828438520435 0.003883308802659695 0.022601379995996297 0.014535608664155 0.014567132951582179 -0.0060726859420537948 -0.020718307644128801 -0.005505973249673844 -0.015256797454573893 0.0017478341003879906 -0.0083100909600034335 0.0017947834637016059 0.002321262806653976 -0.0043874723469623572 0.0014600027736742045 0.0082360142469406119 0.00111990882682481 0.0072403599592772401 -0.010711165219545364 0.016747657805681229 0.018413263559341427 -0.01309056551092201 0.011713316589593889 0.012851649075746534 0.01839998602867126 0.020215593129396442 -0.013664238676428795 -0.013662365422799036 0.010906385002951872 0.0021195024950429789 -0.012349426427057809 0.0015396841228581392 -0.01255720876157284 0.018295683463414512
leaf_weight=14.999999999999998 11.000000000000002 9.9999999999999982 13.000000000000002 9.9999999999999982 19 9.9999999999999982 12.999999999999998 11.000000000000002 10.000000000000002 17 9.9999999999999982 9.9999999999999982 9.9999999999999982 10.999999999999998 9.9999999999999982 10.000000000000002 9.9999999999999982 10 13 10.000000000000002 14.999999999999998 13.999999999999998 10.999999999999998 9.9999999999999982 9.9999999999999982 10.000000000000002 18 9.9999999999999982 10.000000000000002 10.000000000000002 9.9999999999999982 9.9999999999999982 12.999999999999998 19 12.000000000000002 14.000000000000002 12.999999999999998 9.9999999999999982 11.999999999999998
leaf_count=15 11 10 13 10 19 10 13 11 10 17 10 10 10 11 10 10 10 10 13 10 15 14 11 10 10 10 18 10 10 10 10 10 13 19 12 14 13 10 12
internal_value=0 -0.00421 -0.0167087 0.00558469 -0.0328367 0.0151642 0.011836 0.0130968 0.00948681 0.0177234 -0.012458 -0.0152924 -0.0114836 -0.0121787 0.00602238 0.000329157 -0.00325765 0.00110051 -0.00147063 0.00194532 0.0106978 0.00258954 0.00448781 -0.0129821 0.0189186 0.0193361 -0.0125972 0.0131245 0.0116446 0.0188056 0.0193078 -0.0129334 -0.0129401 0.0112284 0.0015674 -0.0127165 0.00132202 -0.012436 0.0183491
internal_weight=0 371 163 208 34 103 95 82 41 28 129 33 96 86 21 113 20 93 23 70 54 60 21 76 62 52 65 20 39 42 20 23 55 29 39 42 27 24 22
internal_count=474 371 163 208 34 103 95 82 41 28 129 33 96 86 21 113 20 93 23 70 54 60 21 76 62 52 65 20 39 42 20 23 55 29 39 42 27 24 22
is_linear=0
shrinkage=0.05


Tree=25
num_leaves=37
num_cat=0
split_feature=5 4 4 4 21 5 11 4 18 4 2 21 16 2 3 21 10 21 2 8 2 0 21 15 6 21 5 0 12 16 21 10 21 2 2 21
split_gain=10.9241 16.396 4.03406 2.46694 0.889742 0.792558 0.343866 0.328562 0.192563 0.186528 0.155626 0.140046 0.125926 0.118108 0.113269 0.0954142 0.0780003 0.052432 0.202882 0.0458846 0.0676891 0.0440748 0.040841 0.0303674 0.0401223 0.0264818 0.02233 0.0143774 0.00709992 0.00697991 0.00383544 0.00232844 0.0019645 0.000395221 3.17989e-05 5.43713e-06
