tree
version=v3
num_class=1
num_tree_per_iteration=1
label_index=0
max_feature_idx=236
objective=regression
feature_names=Column_0 Column_1 Column_2 Column_3 Column_4 Column_5 Column_6 Column_7 Column_8 Column_9 Column_10 Column_11 Column_12 Column_13 Column_14 Column_15 Column_16 Column_17 Column_18 Column_19 Column_20 Column_21 Column_22 Column_23 Column_24 Column_25 Column_26 Column_27 Column_28 Column_29 Column_30 Column_31 Column_32 Column_33 Column_34 Column_35 Column_36 Column_37 Column_38 Column_39 Column_40 Column_41 Column_42 Column_43 Column_44 Column_45 Column_46 Column_47 Column_48 Column_49 Column_50 Column_51 Column_52 Column_53 Column_54 Column_55 Column_56 Column_57 Column_58 Column_59 Column_60 Column_61 Column_62 Column_63 Column_64 Column_65 Column_66 Column_67 Column_68 Column_69 Column_70 Column_71 Column_72 Column_73 Column_74 Column_75 Column_76 Column_77 Column_78 Column_79 Column_80 Column_81 Column_82 Column_83 Column_84 Column_85 Column_86 Column_87 Column_88 Column_89 Column_90 Column_91 Column_92 Column_93 Column_94 Column_95 Column_96 Column_97 Column_98 Column_99 Column_100 Column_101 Column_102 Column_103 Column_104 Column_105 Column_106 Column_107 Column_108 Column_109 Column_110 Column_111 Column_112 Column_113 Column_114 Column_115 Column_116 Column_117 Column_118 Column_119 Column_120 Column_121 Column_122 Column_123 Column_124 Column_125 Column_126 Column_127 Column_128 Column_129 Column_130 Column_131 Column_132 Column_133 Column_134 Column_135 Column_136 Column_137 Column_138 Column_139 Column_140 Column_141 Column_142 Column_143 Column_144 Column_145 Column_146 Column_147 Column_148 Column_149 Column_150 Column_151 Column_152 Column_153 Column_154 Column_155 Column_156 Column_157 Column_158 Column_159 Column_160 Column_161 Column_162 Column_163 Column_164 Column_165 Column_166 Column_167 Column_168 Column_169 Column_170 Column_171 Column_172 Column_173 Column_174 Column_175 Column_176 Column_177 Column_178 Column_179 Column_180 Column_181 Column_182 Column_183 Column_184 Column_185 Column_186 Column_187 Column_188 Column_189 Column_190 Column_191 Column_192 Column_193 Column_194 Column_195 Column_196 Column_197 Column_198 Column_199 Column_200 Column_201 Column_202 Column_203 Column_204 Column_205 Column_206 Column_207 Column_208 Column_209 Column_210 Column_211 Column_212 Column_213 Column_214 Column_215 Column_216 Column_217 Column_218 Column_219 Column_220 Column_221 Column_222 Column_223 Column_224 Column_225 Column_226 Column_227 Column_228 Column_229 Column_230 Column_231 Column_232 Column_233 Column_234 Column_235 Column_236
feature_infos=[4:739] [0:1] [0:1] none none none none none [0:1] none none none none none none none none none none none none none none none none [0:12] [0:100] [0:2018] [0:1] [0:1] [0:1] [0:1] [0:1] [0:1] none none none none none none none none none none none none none none none [0:1] [0:1] none none none none none none [0:1] [0:1] none none none none none none [0:1] none none none none none none none [0:1] [0:1] [0:1] none [0:1] none none [0:1] none [0:1] none none none none none none none [0:1] [0:1] [0:1] [0:1] none none none none none none none none none none none none none none none none none none [0:1] [0:1] [0:1] [0:1] none none none none none none none none none [0:1] [0:1] [0:1] [0:1] none [0:1] [0:1] none none none none none none [0:1] none [0:1] [0:1] none none none none none none none none none none none none none none none none none none none none none none none none none none none none none none none none none none none none none none none none none none none none none none none none none none none none [0:1] [0:1] none [0:1] none [0:1] [0:1] none none none none none none [0:1] [0:1] [0:1] none none none [0:1] [0:1] none [0:1] [0:1] none [0:1] none none none none none none none none none none none none none none none none [8.5941493260000001:42.129650480000002]
tree_sizes=3559 2663 3534 3672 3580 3656 3445 3526 3800 3647 3696 3828 3979

Tree=0
num_leaves=35
num_cat=0
split_feature=236 2 25 27 27 90 27 29 27 236 27 195 50 27 27 31 217 31 236 236 77 27 236 236 236 236 77 29 236 27 236 25 50 236
split_gain=114.34 16.2373 13.5913 11.1681 8.66912 9.29482 8.05897 4.76222 8.68428 4.57647 7.34776 3.59253 2.956 2.91854 2.65017 2.59812 1.96849 1.82781 1.60644 1.49604 1.43012 1.297 1.62361 1.08988 1.03626 0.822733 0.766527 0.760356 1.28668 0.676079 0.471159 0.256153 0.1731 0.00601454
threshold=10.467710685000002 1.0000000180025095e-35 1.7500000000000002 2003.5000000000002 2012.5000000000002 1.0000000180025095e-35 2009.5000000000002 1.0000000180025095e-35 1983.5000000000002 25.257141755000003 1973.5000000000002 1.0000000180025095e-35 1.0000000180025095e-35 2004.5000000000002 1980.5000000000002 1.0000000180025095e-35 1.0000000180025095e-35 1.0000000180025095e-35 14.283077400000002 15.365687895000002 1.0000000180025095e-35 2008.5000000000002 20.955927850000005 21.966279380000003 8.8903473320000028 26.847577390000001 1.0000000180025095e-35 1.0000000180025095e-35 18.451792440000002 1936.5000000000002 10.027078870000002 1.7500000000000002 1.0000000180025095e-35 21.756209710000004
decision_type=2 2 2 2 2 2 2 2 2 2 2 2 2 2 2 2 2 2 2 2 2 2 2 2 2 2 2 2 2 2 2 2 2 2
left_child=6 11 4 14 5 7 24 9 -9 10 29 17 -12 26 -4 27 32 23 -14 -16 21 22 -20 -2 -1 -25 -10 28 -6 -3 31 -26 -5 -24
right_child=1 2 3 16 15 -7 -8 8 13 -11 12 -13 18 -15 19 -17 -18 -19 20 -21 -22 -23 33 25 30 -27 -28 -29 -30 -31 -32 -33 -34 -35
leaf_value=0.24871211007554481 0.090572573173236345 0.036822009089779333 -0.010708788332152875 -0.094769219007897892 -0.16753566444957738 -0.24308485780836001 0.034945641610216585 -0.28126125752608827 0.0089257317813152947 -0.15395665797732663 -0.1505928947541654 -0.045722731181043898 -0.1020294354611436 -0.1419659597714259 0.14464539874248186 -0.24598097570496574 -0.014867217324696775 0.12147373383560926 -0.015306851016291491 0.053478875560752044 0.01898354569080829 0.0061790314987075368 -0.10468627529748402 -0.0074291637673727434 0.20263587692271245 0.06199744692219987 -0.066048928347039723 -0.1856805425850635 -0.070800738074101616 0.10723448090572307 0.22948078543264816 0.16072548315246052 -0.12976940616648244 -0.097909167852807552
leaf_weight=39 11.999999999999998 10.000000000000002 9.9999999999999982 12.999999999999998 11.000000000000002 11.999999999999998 9.9999999999999982 9.9999999999999982 12 12.999999999999998 10.999999999999998 15.999999999999998 13.999999999999998 13.999999999999998 18.000000000000004 12.999999999999998 13.999999999999998 14.999999999999998 14.999999999999998 11.999999999999998 19 13.999999999999998 11.000000000000002 18.000000000000004 14 10.999999999999998 10 9.9999999999999982 10.999999999999998 11.999999999999998 15.999999999999998 10 10.000000000000002 9.9999999999999982
leaf_count=39 12 10 10 13 11 12 10 10 12 13 11 16 14 14 18 13 14 15 15 12 19 14 11 18 14 11 10 10 11 12 16 10 10 10
internal_value=-4.43864e-10 -0.0476774 -0.0676076 0.00520053 -0.0917723 -0.0728071 0.204102 -0.0611309 -0.116381 -0.0414294 -0.0288185 0.0378564 -0.05317 -0.0705807 0.0784569 -0.170584 -0.0739955 0.0617361 -0.0402586 0.108179 -0.0277254 -0.0454747 -0.0655623 0.0398809 0.225514 0.0189051 -0.0251537 -0.139953 -0.119168 0.0752288 0.202896 0.185173 -0.109987 -0.101459
internal_weight=0 381 309 77 232 187 89 175 46 129 116 72 94 36 40 45 37 56 83 30 69 50 36 41 79 29 22 32 22 22 40 24 23 21
internal_count=470 381 309 77 232 187 89 175 46 129 116 72 94 36 40 45 37 56 83 30 69 50 36 41 79 29 22 32 22 22 40 24 23 21
is_linear=0
shrinkage=1


Tree=1
num_leaves=27
num_cat=0
split_feature=26 197 90 213 115 214 2 8 50 115 214 195 2 31 208 26 209 31 216 31 31 128 209 31 128 127
split_gain=15.721 9.61996 8.66297 9.18666 7.28536 5.41117 4.80933 3.97495 4.2249 5.93347 3.43873 3.36596 7.42842 2.78731 2.77469 1.65805 1.60959 1.37386 0.784276 0.71238 0.527605 0.475061 0.222065 0.210988 0.0861709 0.0305507
threshold=24.000000000000004 1.0000000180025095e-35 1.0000000180025095e-35 1.0000000180025095e-35 1.0000000180025095e-35 1.0000000180025095e-35 1.0000000180025095e-35 1.0000000180025095e-35 1.0000000180025095e-35 1.0000000180025095e-35 1.0000000180025095e-35 1.0000000180025095e-35 1.0000000180025095e-35 1.0000000180025095e-35 1.0000000180025095e-35 77.500000000000014 1.0000000180025095e-35 1.0000000180025095e-35 1.0000000180025095e-35 1.0000000180025095e-35 1.0000000180025095e-35 1.0000000180025095e-35 1.0000000180025095e-35 1.0000000180025095e-35 1.0000000180025095e-35 1.0000000180025095e-35
decision_type=2 2 2 2 2 2 2 2 2 2 2 2 2 2 2 2 2 2 2 2 2 2 2 2 2 2
left_child=1 2 7 -4 6 -6 -3 8 11 13 18 12 19 21 15 -2 -15 -12 23 -1 -20 22 -10 24 25 -8
right_child=14 4 3 -5 5 -7 10 -9 9 -11 17 -13 -14 16 -16 -17 -18 -19 20 -21 -22 -23 -24 -25 -26 -27
leaf_value=0.018270376484308924 0.12158428546455172 0.08139037688573203 -0.17460235567653881 0.059964716934006304 -0.21818090081214903 -0.033500667390498243 -0.043750685002182571 -0.084272007867693899 0.047519553899765005 0.1769536502038439 -0.021607023816217076 0.087443691911175847 -0.12073482889682055 -0.047498353799948323 0.1854975391465884 0.036877790681625666 0.041266044500199238 0.049910859054043182 -0.11263209426154691 0.081098605082793679 -0.057858879097244326 0.11665241633142745 0.088699252801862624 -0.062389976475387812 -0.02530015515429633 -0.031943298391997818
leaf_weight=21 18 14.999999999999998 17 11.000000000000002 15 11 71 9.9999999999999982 10 18 22 15.999999999999998 18 12.999999999999998 12.999999999999998 19 22 21 12.000000000000002 10.999999999999998 17 13.999999999999998 11 20 13.999999999999998 9.9999999999999982
leaf_count=21 18 15 17 11 15 11 71 10 10 18 22 16 18 13 13 19 22 21 12 11 17 14 11 20 14 10
internal_value=0 -0.0126206 0.0203638 -0.082451 -0.040397 -0.140047 -0.0275707 0.0379175 0.0458519 0.0745405 -0.0363109 0.00760053 -0.0179493 0.0482057 0.106013 0.0780864 0.00829641 0.0133203 -0.0511314 0.0398676 -0.0805237 0.0881149 0.0690899 -0.0437194 -0.0397888 -0.042293
internal_weight=0 420 192 28 228 26 202 164 154 88 187 66 50 70 50 37 35 43 144 32 29 35 21 115 95 81
internal_count=470 420 192 28 228 26 202 164 154 88 187 66 50 70 50 37 35 43 144 32 29 35 21 115 95 81
is_linear=0
shrinkage=0.2


Tree=2
num_leaves=36
num_cat=0
split_feature=236 2 0 27 0 27 26 49 0 0 0 219 75 27 236 31 32 214 75 27 27 33 0 236 31 127 27 217 0 219 27 0 236 0 236
split_gain=59.3317 7.35198 6.30403 7.94072 6.56873 4.40515 3.49953 3.66179 3.73992 8.19802 4.52947 2.85723 2.61389 3.36932 2.5629 2.399 2.06351 3.3774 2.03706 1.68799 1.71353 1.32053 2.00213 1.27808 1.22698 1.12918 0.882055 1.46137 1.19663 0.83299 0.47718 0.0744477 0.147333 0.046208 0.00739932
threshold=10.467710685000002 1.0000000180025095e-35 693.50000000000011 2012.5000000000002 388.50000000000006 2009.5000000000002 45.000000000000007 1.0000000180025095e-35 125.50000000000001 154.50000000000003 77.500000000000014 1.0000000180025095e-35 1.0000000180025095e-35 1986.5000000000002 21.814731935000001 1.0000000180025095e-35 1.0000000180025095e-35 1.0000000180025095e-35 1.0000000180025095e-35 1957.5000000000002 1984.5000000000002 1.0000000180025095e-35 466.50000000000006 15.575746710000002 1.0000000180025095e-35 1.0000000180025095e-35 2005.5000000000002 1.0000000180025095e-35 542.50000000000011 1.0000000180025095e-35 2016.5000000000002 269.50000000000006 8.8510656250000022 325.50000000000006 8.7134246460000018
decision_type=2 2 2 2 2 2 2 2 2 2 2 2 2 2 2 2 2 2 2 2 2 2 2 2 2 2 2 2 2 2 2 2 2 2 2
left_child=5 11 3 6 15 29 7 8 10 -10 23 12 19 -14 30 -5 17 25 -18 -2 -21 22 -19 -3 -9 26 27 -11 -28 31 -6 -1 33 34 -33
right_child=1 2 -4 4 14 -7 -8 24 9 16 -12 -13 13 -15 -16 -17 18 21 -20 20 -22 -23 -24 -25 -26 -27 28 -29 -30 -31 -32 32 -34 -35 -36
leaf_value=0.18133136849654349 -0.027370402310043576 0.01627754438668489 -0.15935995891984356 -0.11675344725449879 0.018275714264466208 0.021962177562527357 0.074662082056914061 -0.1444169168288891 0.16182155179029162 -0.06367768838203379 -0.18961938774678858 0.11229894428203505 -0.11469098459929226 0.039725314974784855 -0.11515103770153863 -0.23186921647616796 0.080557315349578856 0.0004275250145130687 -0.035977788269519799 0.12154903262853618 0.018555977607944182 -0.041492894020947545 0.11204147368669511 -0.067094837207543223 -0.051232813149690616 -0.11516037854281339 -0.11158678329416681 0.029445129976822776 -0.032627526539213518 0.10890978071838618 -0.037031148870786033 0.17324441909790028 0.15275701592235191 0.18553583730350842 0.16555061697959902
leaf_weight=19 10.999999999999998 12.000000000000002 19 15 13.000000000000002 9.9999999999999982 13.999999999999998 13 10.999999999999998 14 9.9999999999999982 11.999999999999998 13.000000000000002 9.9999999999999982 13.999999999999998 14 15 18.000000000000004 10 12.000000000000002 13.999999999999998 10.999999999999998 9.9999999999999982 19 10 10.999999999999998 14.000000000000002 13 17 9.9999999999999982 11.999999999999998 10.000000000000005 19 10.999999999999998 9.9999999999999982
leaf_count=19 11 12 19 15 13 10 14 13 11 14 10 12 13 10 14 14 15 18 10 12 14 11 10 19 10 11 14 13 17 10 12 10 19 11 10
internal_value=0 -0.0343445 -0.0477553 -0.0404433 -0.100241 0.147025 -0.022127 -0.0286416 -0.0192849 -0.00411139 -0.0725772 0.0232105 0.0053928 -0.0475535 -0.0466386 -0.172327 -0.0178352 -0.0298209 0.0339433 0.0383053 0.0660912 0.0172228 0.0402896 -0.0348217 -0.103902 -0.0564108 -0.0452687 -0.0188408 -0.0682865 0.162856 -0.00827158 0.170674 0.166625 0.175124 0.169398
internal_weight=0 381 309 290 68 89 222 208 185 144 41 72 60 23 39 29 133 108 25 37 26 39 28 31 23 69 58 27 31 79 25 69 50 31 20
internal_count=470 381 309 290 68 89 222 208 185 144 41 72 60 23 39 29 133 108 25 37 26 39 28 31 23 69 58 27 31 79 25 69 50 31 20
is_linear=0
shrinkage=0.2


Tree=3
num_leaves=36
num_cat=0
split_feature=236 208 2 217 236 31 236 236 31 194 217 32 195 214 214 75 236 236 236 236 236 236 236 31 236 236 2 236 197 236 236 214 236 195 216
split_gain=37.9723 9.63209 7.05928 5.52974 2.90076 2.05058 1.73622 1.392 1.94347 1.35207 1.28604 1.82536 1.44542 4.57962 3.30851 3.29515 2.55322 3.00365 0.991945 1.16575 0.978452 0.805791 1.20485 2.10661 0.749583 0.621766 0.565309 0.442911 0.354288 0.242744 0.147856 0.0829025 0.0687272 0.153889 0.191608
threshold=10.467710685000002 1.0000000180025095e-35 1.0000000180025095e-35 1.0000000180025095e-35 25.124710705000002 1.0000000180025095e-35 21.756209710000004 25.649898470000004 1.0000000180025095e-35 1.0000000180025095e-35 1.0000000180025095e-35 1.0000000180025095e-35 1.0000000180025095e-35 1.0000000180025095e-35 1.0000000180025095e-35 1.0000000180025095e-35 15.463748590000002 14.094861020000002 19.158619325000004 20.955927850000005 22.120829060000002 14.695940550000001 15.263221440000001 1.0000000180025095e-35 18.876736930000003 29.088677310000005 1.0000000180025095e-35 21.113901485000003 1.0000000180025095e-35 22.933711120000002 21.814731935000001 1.0000000180025095e-35 9.4770175100000014 1.0000000180025095e-35 1.0000000180025095e-35
decision_type=2 2 2 2 2 2 2 2 2 2 2 2 2 2 2 2 2 2 2 2 2 2 2 2 2 2 2 2 2 2 2 2 2 2 2
left_child=26 2 7 5 9 6 -3 8 30 10 12 21 14 -14 16 -16 17 -4 -13 -20 -17 -12 -23 24 -24 -6 -1 -26 31 -29 -2 32 33 -28 -35
right_child=1 3 4 -5 25 -7 -8 -9 -10 -11 11 18 13 -15 15 20 -18 -19 19 -21 -22 22 23 -25 27 -27 28 29 -30 -31 -32 -33 -34 34 -36
leaf_value=0.080727103139672962 0.055354522665341681 0.0318279731273651 -0.099825417385859899 -0.21990368297466867 -0.13576815307140347 -0.12242777137195363 -0.079019262068546745 0.0024247948701183004 0.13293025470696962 -0.07506730357805888 -0.0089762357885346707 -0.041685257784344933 0.11187722998360793 -0.050306113755616999 0.10207152057971275 0.014054363076057697 -0.12638265384095057 0.037768624275922778 0.082304196469485738 -0.010155591430763404 -0.059673806900779405 -0.12178258836269379 -0.11607791274785995 0.021046993415802719 -0.020756749537858096 -0.066862217946486044 0.10132888540625573 -0.087723069466077344 0.094487470617661107 -0.047354663231156092 0.025569680160842836 0.14320169240236283 0.14115592360496521 0.14641880052430287 0.1119783120850722
leaf_weight=13.999999999999998 12.000000000000002 10.000000000000002 11.000000000000002 12.999999999999998 10.000000000000002 17 12.999999999999998 18 12.999999999999998 18 17 10.999999999999998 15 13 13.999999999999998 18.000000000000004 13.999999999999998 14.999999999999998 10.000000000000002 11.999999999999998 11.999999999999998 9.9999999999999982 9.9999999999999982 13.999999999999998 10.999999999999998 10.999999999999998 9.9999999999999982 13.000000000000002 12.999999999999998 10.999999999999998 14.999999999999998 15.999999999999998 9.9999999999999982 14 12
leaf_count=14 12 10 11 13 10 17 13 18 13 18 17 11 15 13 14 18 14 15 10 12 12 10 10 14 11 11 10 13 13 11 15 16 10 14 12
internal_value=0 -0.0274756 -0.0146927 -0.106585 -0.0282916 -0.0697561 -0.0308248 0.0486127 0.0693973 -0.0222714 -0.0181574 -0.0326347 -0.00277531 0.0365778 -0.015893 0.0219521 -0.0575227 -0.0204442 0.00735264 0.0318716 -0.0154369 -0.0479787 -0.057588 -0.0467076 -0.0677868 -0.0996746 0.11762 -0.0539893 0.124507 -0.0692209 0.0388074 0.130801 0.126488 0.122414 0.130523
internal_weight=0 381 328 53 270 40 23 58 40 249 231 119 112 28 84 44 40 26 33 22 30 86 69 59 45 21 89 35 75 24 27 62 46 36 26
internal_count=470 381 328 53 270 40 23 58 40 249 231 119 112 28 84 44 40 26 33 22 30 86 69 59 45 21 89 35 75 24 27 62 46 36 26
is_linear=0
shrinkage=0.2


Tree=4
num_leaves=36
num_cat=0
split_feature=25 0 0 0 0 0 0 0 209 197 0 0 26 0 0 0 0 0 197 0 32 0 75 0 0 209 0 26 195 26 0 31 0 0 0
split_gain=5.88282 7.48282 10.3723 11.0401 4.27827 3.0881 2.97996 2.66335 2.11578 3.13829 2.00634 1.83951 1.76723 1.29102 1.85545 1.23208 2.44115 1.30132 0.993878 0.856963 0.774406 0.757059 0.730273 0.684501 0.653072 0.559696 0.398091 0.376016 0.406513 0.314552 0.136118 0.129747 0.208959 0.112418 0.0143754
threshold=1.7500000000000002 120.00000000000001 379.00000000000006 227.00000000000003 146.50000000000003 449.50000000000006 88.000000000000014 611.50000000000011 1.0000000180025095e-35 1.0000000180025095e-35 430.50000000000006 172.50000000000003 45.000000000000007 492.50000000000006 516.00000000000011 191.50000000000003 379.00000000000006 449.50000000000006 1.0000000180025095e-35 108.00000000000001 1.0000000180025095e-35 681.50000000000011 1.0000000180025095e-35 545.50000000000011 199.50000000000003 1.0000000180025095e-35 649.50000000000011 7.5000000000000009 1.0000000180025095e-35 82.500000000000014 350.00000000000006 1.0000000180025095e-35 295.50000000000006 564.50000000000011 311.50000000000006
decision_type=2 2 2 2 2 2 2 2 2 2 2 2 2 2 2 2 2 2 2 2 2 2 2 2 2 2 2 2 2 2 2 2 2 2 2
left_child=1 6 3 4 -3 10 22 13 9 -9 25 -6 15 -7 -15 19 27 -18 -19 -2 23 26 -1 -16 -13 -4 -10 28 -17 -14 31 32 -5 -22 -33
right_child=12 2 5 30 11 7 -8 8 21 -11 -12 24 29 14 20 16 17 18 -20 -21 33 -23 -24 -25 -26 -27 -28 -29 -30 -31 -32 34 -34 -35 -36
leaf_value=-0.016646785117112671 0.022272799577977925 0.089892202615737923 -0.02508656689897179 0.081069494996752034 -0.13082280293107035 0.050431395380904798 -0.15937487427145244 -0.032188101963899839 -0.010250716859644106 -0.15698178868208612 -0.16225012473762035 -0.0046165542968083168 0.11190136264670976 -0.070445297118276365 0.016219331870476399 0.12010608669370411 -0.047128857773107789 -0.0062100317110033599 0.06035506521400652 -0.042454305042823159 0.054292756170034387 0.023721690819813655 -0.080464330129325398 -0.047866572688023253 -0.06792126243764704 -0.089152437299489962 -0.06405781778422269 0.048194669038057331 0.066877623410387471 0.06289083402603865 0.08265840694816276 0.1250719833374023 0.11452728062868119 0.024993225932121277 0.11434804499149323
leaf_weight=13.000000000000002 18 9.9999999999999982 12 14.000000000000002 9.9999999999999982 19 15.999999999999998 19 11.000000000000002 13.999999999999998 9.9999999999999982 16.000000000000004 11.000000000000002 14.999999999999998 15.000000000000002 12 11.999999999999998 17 19 14.999999999999998 10.000000000000002 12.999999999999998 15.999999999999998 11.999999999999998 10.999999999999998 10 10.999999999999998 9.9999999999999982 11 9.9999999999999982 10.999999999999998 10.000000000000002 15.999999999999998 10.999999999999998 9.9999999999999982
leaf_count=13 18 10 12 14 10 19 16 19 11 14 10 16 11 15 15 12 12 17 19 15 10 13 16 12 11 10 11 10 11 10 11 10 16 11 10
internal_value=0 -0.0142042 -0.00242961 0.0466717 -0.0261767 -0.0315667 -0.0900852 -0.0195338 -0.048799 -0.0851309 -0.0879708 -0.0575467 0.0352476 0.00473489 -0.00904659 0.0254263 0.0386976 0.00990895 0.0289215 -0.00714861 0.0101405 -0.0145432 -0.0518565 -0.0122633 -0.0304074 -0.0542074 -0.0371543 0.0805719 0.094649 0.088563 0.102801 0.107232 0.0989136 0.0389454 0.11971
internal_weight=0 335 290 108 47 182 45 150 68 33 32 37 135 82 63 114 81 48 36 33 48 35 29 27 27 22 22 33 23 21 61 50 30 21 20
internal_count=470 335 290 108 47 182 45 150 68 33 32 37 135 82 63 114 81 48 36 33 48 35 29 27 27 22 22 33 23 21 61 50 30 21 20
is_linear=0
shrinkage=0.2


Tree=5
num_leaves=36
num_cat=0
split_feature=25 0 0 0 208 2 90 114 0 0 73 73 0 29 0 126 0 0 130 2 197 197 0 114 0 0 0 0 31 0 0 31 0 29 0
split_gain=3.765 4.789 6.6383 7.06565 3.22821 3.39986 3.40564 3.14463 2.73809 1.66149 1.59211 1.49808 1.45674 1.27057 1.2191 1.10204 1.00259 1.05735 0.79968 0.730782 1.52135 0.632567 0.485458 0.439158 0.430631 0.264655 0.707159 0.488703 0.224996 0.202102 0.169183 0.0278713 0.0267729 0.0519248 0.0220689
threshold=1.7500000000000002 120.00000000000001 379.00000000000006 227.00000000000003 1.0000000180025095e-35 1.0000000180025095e-35 1.0000000180025095e-35 1.0000000180025095e-35 146.50000000000003 430.50000000000006 1.0000000180025095e-35 1.0000000180025095e-35 553.00000000000011 1.0000000180025095e-35 176.00000000000003 1.0000000180025095e-35 385.50000000000006 230.50000000000003 1.0000000180025095e-35 1.0000000180025095e-35 1.0000000180025095e-35 1.0000000180025095e-35 199.50000000000003 1.0000000180025095e-35 88.000000000000014 624.50000000000011 522.00000000000011 681.50000000000011 1.0000000180025095e-35 553.00000000000011 549.50000000000011 1.0000000180025095e-35 325.50000000000006 1.0000000180025095e-35 549.50000000000011
decision_type=2 2 2 2 2 2 2 2 2 2 2 2 2 2 2 2 2 2 2 2 2 2 2 2 2 2 2 2 2 2 2 2 2 2 2
left_child=1 7 3 8 5 11 9 -1 -3 -7 13 -4 -6 25 -10 16 17 18 21 -18 -21 -2 -16 31 -9 26 -11 -27 -19 -13 -15 -5 33 -25 -28
right_child=15 2 4 23 12 6 -8 24 14 10 -12 29 -14 30 22 -17 19 28 -20 20 -22 -23 -24 32 -26 27 34 -29 -30 -31 -32 -33 -34 -35 -36
leaf_value=0.015606624695161978 0.080223729833960519 0.071913758516311641 0.10244777141646906 0.070947576652873628 -0.028502906262874595 -0.095853441581130031 -0.12654894976876677 -0.081785264085320872 -0.10185082527724179 -0.02821485124528408 0.065349097549915316 -0.0052399108535610131 -0.12470349529210259 -0.042963818535208691 0.00097898278385400751 -0.021082368865609172 0.052946789997319381 0.055191663251473358 -0.018493010713295503 -0.051352035005887357 0.03603561634526533 0.02156985752088459 -0.054337005181746049 0.10386185258626937 -0.12749989777803422 -0.041613520243588609 0.034666314534842958 0.011101736376682918 0.088989436030387892 0.032291259784886443 -0.078907373818484228 0.057869792729616169 0.10496203564107419 0.084348228946328152 0.022169123274775653
leaf_weight=11.999999999999998 12.000000000000002 9.9999999999999982 10.999999999999998 11.000000000000002 10.000000000000002 9.9999999999999982 12.999999999999998 17 10.999999999999998 14.999999999999998 9.9999999999999982 12.000000000000002 17 10.000000000000002 15.000000000000002 15.999999999999998 11.999999999999998 12.999999999999998 10.999999999999998 14.999999999999998 17 19 10.999999999999998 10 15.999999999999998 17.000000000000004 10.000000000000002 11.999999999999998 20 10.999999999999998 10.999999999999998 15.999999999999998 11.999999999999998 12 12.999999999999998
leaf_count=12 12 10 11 11 10 10 13 17 11 15 10 12 17 10 15 16 12 13 11 15 17 19 11 10 16 17 10 12 20 11 11 16 12 12 13
internal_value=0 -0.0113634 -0.00194369 0.0373374 -0.0252533 -0.0141362 -0.0298378 -0.0720682 -0.0209414 -0.0181966 -0.0102724 0.0417427 -0.0890736 -0.0188658 -0.0460373 0.0281981 0.034824 0.0488849 0.0278355 0.0108565 -0.00492735 0.0442746 -0.0224239 0.0822407 -0.10395 -0.00541149 0.00556945 -0.0198003 0.0756752 0.0127098 -0.0617914 0.0631978 0.097363 0.0932181 0.0276027
internal_weight=0 335 290 108 182 155 121 45 47 108 98 34 27 88 37 135 119 75 42 44 32 31 26 61 33 67 38 29 33 23 21 27 34 22 23
internal_count=470 335 290 108 182 155 121 45 47 108 98 34 27 88 37 135 119 75 42 44 32 31 26 61 33 67 38 29 33 23 21 27 34 22 23
is_linear=0
shrinkage=0.2


Tree=6
num_leaves=35
num_cat=0
split_feature=236 25 2 236 236 236 236 214 91 25 91 195 114 236 236 130 31 236 236 236 236 236 236 236 236 236 236 25 130 236 75 114 195 236
split_gain=10.1766 2.57341 1.55894 3.6443 1.471 4.15471 1.30155 1.03379 1.60383 0.826289 1.37688 1.33188 0.799559 2.76892 1.56491 2.10763 2.145 1.58222 0.942342 0.610644 0.697149 0.374563 0.306262 0.327366 0.255813 0.226687 0.201231 0.266421 0.261529 0.193839 0.111962 0.0525751 0.0433715 0.0263461
threshold=10.252579550000002 1.7500000000000002 1.0000000180025095e-35 25.124710705000002 21.966279380000003 25.098527000000001 24.308573915 1.0000000180025095e-35 1.0000000180025095e-35 2.5000000000000004 1.0000000180025095e-35 1.0000000180025095e-35 1.0000000180025095e-35 21.698399180000003 18.451792440000002 1.0000000180025095e-35 1.0000000180025095e-35 20.955927850000005 21.185753980000005 23.114959740000003 14.695940550000001 15.078047380000003 18.451792440000002 15.263221440000001 26.889742635000001 22.933711120000002 8.8510656250000022 1.7500000000000002 1.0000000180025095e-35 21.873807495000005 1.0000000180025095e-35 1.0000000180025095e-35 1.0000000180025095e-35 19.641922770000004
decision_type=2 2 2 2 2 2 2 2 2 2 2 2 2 2 2 2 2 2 2 2 2 2 2 2 2 2 2 2 2 2 2 2 2 2
left_child=26 2 4 6 -2 -6 7 12 -9 10 -3 22 13 -4 15 16 -14 33 -19 20 -10 -18 23 -12 -7 30 31 32 -29 -24 -20 -1 -28 -16
right_child=1 9 3 -5 5 24 -8 8 19 -11 11 -13 14 -15 17 -17 21 18 25 -21 -22 -23 29 -25 -26 -27 27 28 -30 -31 -32 -33 -34 -35
leaf_value=0.067547027601136109 0.066588429992015544 0.074361877876799556 -0.011001724536929811 -0.11426824299912704 -0.12145686209201814 0.011869157296106483 0.044124348901889543 -0.074615620821714398 -0.008800362217748027 -0.025692377487818403 0.016258229827508332 -0.039379681822131668 -0.07998630180954934 -0.14879457890987396 0.030102067142724981 -0.11203349811189317 0.036629582693179438 -0.074268855956884525 -0.0084461153795321771 -0.019995197015149253 0.055108203283614592 -0.014464329487898135 -0.014263011515140528 0.056116602569818499 0.051663683374257141 0.0125653089447455 0.06002163738012313 0.019033972748244799 0.062827599048614499 0.025116077810525897 -0.035766651729742686 0.083056365041171809 0.07640731723180838 0.044286150823939933
leaf_weight=18 12.999999999999998 15.999999999999998 14.000000000000002 19 9.9999999999999982 14.000000000000002 10.999999999999998 9.9999999999999982 11.000000000000002 18 15.999999999999998 17 18 9.9999999999999982 10.000000000000002 17 12.000000000000002 12.999999999999998 12 13.999999999999998 18 10.999999999999998 10.000000000000002 17 11.999999999999998 10.999999999999998 12 12 10 9.9999999999999982 12 17 14 10.999999999999998
leaf_count=18 13 16 14 19 10 14 11 10 11 18 16 17 18 10 10 17 12 13 12 14 18 11 10 17 12 11 12 12 10 10 12 17 14 11
internal_value=0 -0.0136291 -0.0235158 -0.0303085 0.00892272 -0.011901 -0.0228888 -0.0265022 -0.00247067 0.0132742 0.02143 0.00933129 -0.0349371 -0.0684154 -0.0286105 -0.0528254 -0.0282758 -0.00825597 -0.0282881 0.0143072 0.030867 0.0121934 0.0249556 0.0367913 0.0302359 -0.0112096 0.0635476 0.0551385 0.0389402 0.00542653 -0.0221064 0.0750801 0.0688447 0.0375318
internal_weight=0 387 283 234 49 36 215 204 53 104 86 70 151 24 127 58 41 69 48 43 29 23 53 33 26 35 83 48 22 20 24 35 26 21
internal_count=470 387 283 234 49 36 215 204 53 104 86 70 151 24 127 58 41 69 48 43 29 23 53 33 26 35 83 48 22 20 24 35 26 21
is_linear=0
shrinkage=0.2


Tree=7
num_leaves=35
num_cat=0
split_feature=74 0 0 29 127 209 128 0 0 208 0 0 0 0 2 0 197 209 0 209 130 112 0 0 0 130 0 0 0 128 0 26 0 0
split_gain=2.98077 2.50207 5.37095 2.54213 2.08022 1.65621 1.7568 1.61221 1.30234 1.31386 1.24952 0.848872 1.03163 2.19152 0.76446 1.21595 1.00998 1.52705 1.00034 0.685363 0.608225 0.548506 0.439144 0.39298 0.380329 0.32232 0.414343 0.185012 0.253721 0.179521 0.262368 0.197722 0.159428 0.0899814
threshold=1.0000000180025095e-35 191.50000000000003 379.00000000000006 1.0000000180025095e-35 1.0000000180025095e-35 1.0000000180025095e-35 1.0000000180025095e-35 19.500000000000004 38.500000000000007 1.0000000180025095e-35 240.50000000000003 71.500000000000014 125.50000000000001 146.50000000000003 1.0000000180025095e-35 492.50000000000006 1.0000000180025095e-35 1.0000000180025095e-35 593.50000000000011 1.0000000180025095e-35 1.0000000180025095e-35 1.0000000180025095e-35 522.00000000000011 223.50000000000003 108.00000000000001 1.0000000180025095e-35 567.50000000000011 649.50000000000011 604.00000000000011 1.0000000180025095e-35 355.50000000000006 17.500000000000004 304.50000000000006 542.50000000000011
decision_type=2 2 2 2 2 2 2 2 2 2 2 2 2 2 2 2 2 2 2 2 2 2 2 2 2 2 2 2 2 2 2 2 2 2
left_child=1 7 10 4 14 6 -5 -1 -9 11 23 -10 24 -14 15 -4 17 21 -17 -18 -15 -16 -21 -3 -13 26 -24 28 -28 30 31 32 -12 -7
right_child=-2 2 3 5 -6 33 -8 8 9 -11 29 12 13 20 16 18 19 -19 -20 22 -22 -23 25 -25 -26 -27 27 -29 -30 -31 -32 -33 -34 -35
leaf_value=0.044150021672248844 0.098398321308195591 0.02206092576185862 0.071174242068082094 -0.14966302238066084 -0.078587360106981724 -0.027963985367254768 -0.039008906607826549 -0.10144090950489044 0.022010084288194776 -0.090147968257466959 0.075615099072456365 -0.03863094262778758 0.070887890160083775 -0.060331001339687246 -0.031501284168500981 -0.038354763825638932 0.050950486671466094 0.023533160345894949 0.03869118512208973 -0.027071901629952821 -0.00063730209049853398 -0.08977232627221382 0.033002504706382753 -0.027388119995594026 -0.09011667505837978 0.040281480279835788 -0.021825584471225734 -0.027725076675415041 0.020548496338037348 0.070162724742763916 0.019893653250553395 0.036972170283919886 0.049670164640992887 -0.0023825427347963506
leaf_weight=10.999999999999998 11.999999999999998 18.000000000000004 15.999999999999998 11 12.999999999999998 11.000000000000002 12 10.999999999999998 15.999999999999998 11.999999999999998 18 12.000000000000002 9.9999999999999982 18 14 13.000000000000002 12.999999999999998 13.999999999999998 13.999999999999998 17 11.000000000000002 12 12.999999999999998 9.9999999999999982 10.999999999999998 10.999999999999998 10.000000000000002 12.999999999999998 12.999999999999998 19 10.999999999999998 19 20 10.999999999999998
leaf_count=11 12 18 16 11 13 11 12 11 16 12 18 12 10 18 14 13 13 14 14 17 11 12 13 10 11 11 10 13 13 19 11 19 20 11
internal_value=0 -0.00257812 0.00583231 -0.0117494 -0.00142953 -0.0544047 -0.0919304 -0.0285603 -0.0364793 -0.0285395 0.0411486 -0.0190613 -0.0296604 -0.00984845 0.00436845 0.0274849 -0.00327777 -0.0297205 0.00159499 0.00847457 -0.0376886 -0.0583956 0.00130331 0.00440055 -0.0632546 0.00934296 0.00239757 -0.00865421 0.00212498 0.0529755 0.0481732 0.0536306 0.0619599 -0.0151733
internal_weight=0 458 346 231 186 45 23 112 101 90 115 78 62 39 173 43 130 40 27 90 29 26 77 28 23 60 49 36 23 87 68 57 38 22
internal_count=470 458 346 231 186 45 23 112 101 90 115 78 62 39 173 43 130 40 27 90 29 26 77 28 23 60 49 36 23 87 68 57 38 22
is_linear=0
shrinkage=0.2


Tree=8
num_leaves=37
num_cat=0
split_feature=27 0 0 27 208 27 27 0 115 49 216 112 25 0 27 0 216 0 0 0 0 197 216 0 27 0 27 27 128 0 27 27 128 216 0 0
split_gain=6.4126 4.72129 3.54136 2.88324 4.31891 2.66184 2.04144 1.93936 1.80434 1.22396 1.18709 0.754131 0.688874 0.683821 0.869609 0.591016 0.561784 0.979448 0.750123 0.835951 0.52317 0.512939 0.746345 0.553602 0.370818 0.306098 0.261997 0.670837 0.50348 0.245915 0.164493 0.0935168 0.0549075 0.0531288 0.0298125 0.0151278
threshold=2001.5000000000002 240.50000000000003 385.50000000000006 1965.5000000000002 1.0000000180025095e-35 1941.5000000000002 1974.5000000000002 97.500000000000014 1.0000000180025095e-35 1.0000000180025095e-35 1.0000000180025095e-35 1.0000000180025095e-35 1.7500000000000002 149.50000000000003 1950.5000000000002 681.50000000000011 1.0000000180025095e-35 424.00000000000006 639.00000000000011 656.50000000000011 165.50000000000003 1.0000000180025095e-35 1.0000000180025095e-35 234.50000000000003 1986.5000000000002 449.50000000000006 2016.5000000000002 2007.5000000000002 1.0000000180025095e-35 549.50000000000011 2009.5000000000002 1986.5000000000002 1.0000000180025095e-35 1.0000000180025095e-35 318.50000000000006 295.50000000000006
decision_type=2 2 2 2 2 2 2 2 2 2 2 2 2 2 2 2 2 2 2 2 2 2 2 2 2 2 2 2 2 2 2 2 2 2 2 2
left_child=2 10 7 5 6 25 -5 12 15 11 30 -8 24 -9 -15 16 17 -3 26 -20 -12 23 31 -16 -1 -4 27 28 29 -19 -2 -23 33 34 35 -25
right_child=1 8 3 4 -6 -7 9 13 -10 -11 20 -13 -14 14 21 -17 -18 18 19 -21 -22 22 -24 32 -26 -27 -28 -29 -30 -31 -32 -33 -34 -35 -36 -37
leaf_value=-0.035154134733602405 -0.039415488863984743 -0.071214590892195714 -0.028844536955539991 0.12394989207386971 -0.078930354844778783 -0.11150633477989365 0.027031180791948974 0.094121506580939665 -0.090215528905391695 0.075352388391127956 -0.14580997228622433 -0.037011084255451951 0.034451957007772045 -0.010612331815063955 -0.0019441571831703187 0.042353755235672003 0.028512533614411951 -0.043820151381871904 -0.079751361608505225 -0.0014550904432932537 -0.082603060305118561 0.079990582317113854 0.027603265810757865 0.057404335520484219 0.0079050043597817428 0.016486731916666032 -0.019713940471410753 0.041967676776020153 0.029729748449542306 -0.0015298232436180116 -0.067773687260018464 0.10671376128765671 0.037654538108752328 0.041099639236927034 0.065139012445103048 0.046656241416931157
leaf_weight=15.999999999999998 14.999999999999998 9.9999999999999982 13.000000000000002 9.9999999999999982 14.999999999999998 17 19 12.999999999999998 9.9999999999999982 12.999999999999998 11.000000000000002 12.000000000000002 19 9.9999999999999982 9.9999999999999982 10.999999999999998 15.999999999999998 11.000000000000002 10.000000000000002 11.999999999999998 9.9999999999999982 10.000000000000002 10.000000000000002 11.000000000000002 15.999999999999998 10.999999999999998 12.999999999999998 19 10.999999999999998 10.999999999999998 18 10.999999999999998 12.999999999999998 11.999999999999998 10.999999999999998 9.9999999999999982
leaf_count=16 15 10 13 10 15 17 19 13 10 13 11 12 19 10 10 11 16 11 10 12 10 10 10 11 16 11 13 19 11 11 18 11 13 12 11 10
internal_value=0 -0.0286117 0.0190745 -0.00895135 0.0160085 -0.0509569 0.0423804 0.036998 -0.00849181 0.0238418 -0.0785389 0.00224063 0.0042863 0.0507855 0.0455692 -0.00190118 -0.00620919 -0.0119365 -0.0051229 -0.0370443 -0.115711 0.051302 0.0725739 0.0414597 -0.0136246 -0.00806771 0.00568126 0.0120301 -0.00520674 -0.022675 -0.0548836 0.0939884 0.0490745 0.0524485 0.0567044 0.0522862
internal_weight=0 188 282 110 69 41 54 172 134 44 54 31 51 121 108 124 113 97 87 22 21 98 31 67 32 24 65 52 33 22 33 21 57 44 32 21
internal_count=470 188 282 110 69 41 54 172 134 44 54 31 51 121 108 124 113 97 87 22 21 98 31 67 32 24 65 52 33 22 33 21 57 44 32 21
is_linear=0
shrinkage=0.2


Tree=9
num_leaves=36
num_cat=0
split_feature=27 25 27 31 216 27 27 217 27 27 208 27 27 216 209 27 91 207 126 27 25 27 27 27 27 114 91 73 2 27 27 77 127 27 27
split_gain=4.15034 1.90372 0.985375 0.899956 0.997432 1.39065 0.78784 0.762147 1.23852 0.75759 2.03112 1.76388 1.19105 1.26212 0.538919 0.501533 0.411159 0.377242 0.57447 0.464507 0.365275 1.10305 0.665552 0.259659 0.712901 1.12573 2.5342 0.167492 0.222652 0.213746 0.277629 0.137046 0.0224459 0.016811 0.00646266
threshold=1999.5000000000002 1.2500000000000002 1950.5000000000002 1.0000000180025095e-35 1.0000000180025095e-35 2011.5000000000002 2003.5000000000002 1.0000000180025095e-35 1977.5000000000002 1965.5000000000002 1.0000000180025095e-35 1948.5000000000002 1970.5000000000002 1.0000000180025095e-35 1.0000000180025095e-35 1985.5000000000002 1.0000000180025095e-35 1.0000000180025095e-35 1.0000000180025095e-35 2015.5000000000002 1.7500000000000002 2015.5000000000002 2009.5000000000002 1977.5000000000002 1984.5000000000002 1.0000000180025095e-35 1.0000000180025095e-35 1.0000000180025095e-35 1.0000000180025095e-35 1984.5000000000002 1981.5000000000002 1.0000000180025095e-35 1.0000000180025095e-35 2006.5000000000002 2011.5000000000002
decision_type=2 2 2 2 2 2 2 2 2 2 2 2 2 2 2 2 2 2 2 2 2 2 2 2 2 2 2 2 2 2 2 2 2 2 2
left_child=1 7 -3 6 5 -5 -2 9 -9 10 11 14 -11 23 -1 -15 -13 18 20 -19 21 22 31 -14 -25 26 -26 28 -4 30 -30 33 -10 -8 -24
right_child=3 2 27 4 -6 -7 17 8 32 12 -12 16 13 15 -16 -17 -18 19 -20 -21 -22 -23 34 24 25 -27 -28 -29 29 -31 -32 -33 -34 -35 -36
leaf_value=-0.017436338239349425 0.026017413069220154 -0.014233814477920532 0.035312536358833316 -0.075033086538314822 -0.093452350279459584 0.0090123944967571232 -0.016096492158249022 -0.076655633883042751 0.013595546483993529 0.069266552384942767 0.051353129568068603 -0.043001367151737212 0.00035994560881094499 -0.055997674842365078 0.037386186392261427 0.0046480995416641234 -0.097911889404058441 -0.015933903916315596 -0.053194894641637805 -0.075491811633110056 0.013519503916835502 -0.063155152834951878 0.029432039335370055 0.068658336903899914 -0.027415403127670282 -0.038407777845859518 0.11497002184391021 0.029716789722442627 0.076136995693245377 0.083287930907681593 0.032148455704251927 -0.036240155311922234 0.00019526779651641841 -0.0071866571696268186 0.022241681814193726
leaf_weight=15.999999999999998 17 9.9999999999999982 12.999999999999998 13.999999999999998 12.999999999999998 18 15.999999999999998 11.000000000000002 10 18 19 12 10.999999999999998 12.000000000000002 13.000000000000002 9.9999999999999982 10 11.000000000000002 13.999999999999998 9.9999999999999982 21 15.999999999999998 10.000000000000002 15.999999999999998 10.000000000000002 10.000000000000002 9.9999999999999982 9.9999999999999982 11.000000000000002 15.999999999999998 11.999999999999998 11.999999999999998 10 18 9.9999999999999982
leaf_count=16 17 10 13 14 13 18 16 11 10 18 19 12 11 12 13 10 10 11 14 10 21 16 10 16 10 10 10 10 11 16 12 12 10 18 10
internal_value=0 0.0161754 0.0440248 -0.0218368 -0.046736 -0.0277575 -0.014608 0.00604837 -0.0227517 0.0113945 -0.00446267 -0.0252568 0.0228378 0.0122591 0.00713928 -0.0284314 -0.0679607 -0.0196126 -0.0151825 -0.0442948 -0.0100157 -0.0160431 -0.00462194 0.0279642 0.0345653 0.0163823 0.0437773 0.0534214 0.05798 0.0655358 0.0531865 -0.0178649 0.00689541 -0.0113795 0.0258369
internal_weight=0 270 72 200 45 32 155 198 31 167 70 51 97 79 29 22 22 138 117 21 103 82 66 57 46 30 20 62 52 39 23 46 20 34 20
internal_count=470 270 72 200 45 32 155 198 31 167 70 51 97 79 29 22 22 138 117 21 103 82 66 57 46 30 20 62 52 39 23 46 20 34 20
is_linear=0
shrinkage=0.2


Tree=10
num_leaves=37
num_cat=0
split_feature=27 236 0 208 236 27 27 214 236 27 27 236 27 77 209 0 0 0 236 209 25 0 0 27 27 27 236 209 27 27 0 236 236 27 29 0
split_gain=2.69006 3.81474 3.74078 2.3251 3.14624 2.92662 2.67814 2.52873 1.70279 1.2503 1.55863 1.08794 1.01342 0.823201 0.997332 0.777022 0.702268 1.38425 0.906978 0.672667 0.623342 0.600027 0.681804 0.591139 0.533682 0.510511 0.405094 0.625208 0.379905 0.597662 0.298657 0.277302 0.165929 0.0546089 0.0255399 0.0016727
threshold=2003.5000000000002 15.280510850000001 419.50000000000006 1.0000000180025095e-35 24.423113820000001 1966.5000000000002 1941.5000000000002 1.0000000180025095e-35 17.779523195000003 1984.5000000000002 1985.5000000000002 20.955927850000005 1995.5000000000002 1.0000000180025095e-35 1.0000000180025095e-35 535.50000000000011 549.50000000000011 681.50000000000011 21.158397020000006 1.0000000180025095e-35 1.7500000000000002 149.50000000000003 191.50000000000003 1987.5000000000002 2009.5000000000002 1984.5000000000002 10.027078870000002 1.0000000180025095e-35 2005.5000000000002 2015.5000000000002 391.50000000000006 22.933711120000002 9.2488978485000022 1979.5000000000002 1.0000000180025095e-35 321.50000000000006
decision_type=2 2 2 2 2 2 2 2 2 2 2 2 2 2 2 2 2 2 2 2 2 2 2 2 2 2 2 2 2 2 2 2 2 2 2 2
left_child=1 21 8 5 25 6 19 -8 13 20 -11 28 30 14 -2 -14 18 31 -13 -3 -7 23 -23 -1 -16 -5 32 -28 -4 -30 -12 -18 33 34 35 -24
right_child=2 3 11 4 -6 9 7 -9 -10 10 12 16 15 -15 24 -17 17 -19 -20 -21 -22 22 26 -25 -26 -27 27 -29 29 -31 -32 -33 -34 -35 -36 -37
leaf_value=0.097772390643755577 -0.079944434287873178 -0.02660303749144077 -0.0029013057053089144 -0.12375127791116632 0.034586948630484664 0.085718283522874097 -0.020311760604381557 -0.1625432753562927 -0.13186548203229906 -0.063408450484275819 0.03308847424658861 -0.029450928487560958 -0.043334207141941229 -0.079980992503902504 -0.039421760769827029 0.030256620879905924 -0.075984090160239812 0.032357875697992068 0.046157987341284755 0.03539542446711233 0.028967954317728681 -0.0051483070916112737 0.033811161965131752 0.031931523829698563 0.012643228476453159 -0.06541254247228305 0.095825035666877556 0.032108551689556668 0.074157942258394657 0.016424801974790171 0.080844664275646211 -0.03567776853839557 0.0099251343653752253 0.04538476576407751 0.024722954630851748 0.037469252422451971
leaf_weight=12.000000000000002 10.999999999999998 14 9.9999999999999982 12.000000000000002 10.999999999999998 16.000000000000004 10 10 9.9999999999999982 9.9999999999999982 11.000000000000002 11.000000000000002 11.000000000000002 17 13.999999999999998 11.999999999999998 11.000000000000002 10.999999999999998 14.999999999999998 14 14.999999999999998 17 10.000000000000002 9.9999999999999982 18 11.999999999999998 11 14 13.000000000000002 15.999999999999998 9.9999999999999982 18 12.999999999999998 14.999999999999998 14.999999999999998 9.9999999999999982
leaf_count=12 11 14 10 12 11 16 10 10 10 10 11 11 11 17 14 12 11 11 15 14 15 17 10 10 18 12 11 14 13 16 10 18 13 15 15 10
internal_value=0 0.0116539 -0.0196451 -0.00812033 -0.053986 0.00394957 -0.0355304 -0.0914275 -0.0554578 0.0262441 0.00786553 0.00423008 0.0240642 -0.0427232 -0.0279934 -0.00493899 -0.0114194 -0.0280522 0.0141696 0.00439619 0.0582584 0.0378118 0.0315192 0.0678447 -0.0101352 -0.0945819 0.0386027 0.0601438 0.0307138 0.0423052 0.0558295 -0.0509664 0.0300547 0.0352884 0.0309614 0.0356402
internal_weight=0 295 175 168 35 133 48 20 70 85 54 105 44 60 43 23 66 40 26 28 31 127 105 22 32 24 88 25 39 29 21 29 63 50 35 20
internal_count=470 295 175 168 35 133 48 20 70 85 54 105 44 60 43 23 66 40 26 28 31 127 105 22 32 24 88 25 39 29 21 29 63 50 35 20
is_linear=0
shrinkage=0.2


Tree=11
num_leaves=38
num_cat=0
split_feature=27 0 236 25 75 27 27 207 114 27 197 127 0 0 236 217 0 27 27 236 130 0 130 236 236 236 0 0 0 236 27 0 208 2 27 27 29
split_gain=1.77208 2.84751 1.81568 1.37193 1.26138 1.4234 2.24993 1.36514 1.34814 1.06343 1.05236 0.947053 0.896559 0.623387 0.768586 0.473543 0.617077 0.458722 0.834105 1.4819 1.0625 1.04137 0.437879 0.461905 1.0313 0.43584 0.371755 0.356324 0.295424 0.242301 0.240151 0.604048 0.216148 0.155081 0.130094 0.0417293 0.028097
threshold=1999.5000000000002 112.50000000000001 15.280510850000001 1.7500000000000002 1.0000000180025095e-35 1979.5000000000002 1948.5000000000002 1.0000000180025095e-35 1.0000000180025095e-35 1961.0000000000002 1.0000000180025095e-35 1.0000000180025095e-35 545.50000000000011 419.50000000000006 20.955927850000005 1.0000000180025095e-35 611.50000000000011 2003.5000000000002 2009.5000000000002 12.056053500000003 1.0000000180025095e-35 230.50000000000003 1.0000000180025095e-35 13.560359140000001 11.974646025000002 16.891966450000002 259.50000000000006 677.00000000000011 571.50000000000011 19.041120585000005 2010.5000000000002 532.50000000000011 1.0000000180025095e-35 1.0000000180025095e-35 1964.5000000000002 1979.5000000000002 1.0000000180025095e-35
decision_type=2 2 2 2 2 2 2 2 2 2 2 2 2 2 2 2 2 2 2 2 2 2 2 2 2 2 2 2 2 2 2 2 2 2 2 2 2
left_child=2 -2 22 4 7 6 -6 8 -4 -9 -7 13 -11 17 28 16 -16 -3 19 -19 21 -20 23 24 26 -5 -1 -18 -15 -30 31 -17 -8 -27 -28 36 -36
right_child=1 11 3 25 5 10 32 9 -10 12 -12 -13 -14 14 15 30 27 18 20 -21 -22 -23 -24 -25 -26 33 34 -29 29 -31 -32 -33 -34 -35 35 -37 -38
leaf_value=0.060806478715191285 -0.11318842380900274 0.017377670515667309 0.094853214919567108 -0.00010288533521816135 -0.0022244620486162603 -0.042403497397899621 -0.080494424700736991 -0.061305252356188639 -0.00028070486508882962 0.049257894063537755 0.045444826036691664 -0.068409676514565948 -0.033485374450683593 0.052553023894627897 0.050886693261563767 -0.052695558965206127 -0.034316020425070405 -0.0059429064393043502 0.058156623660276324 -0.10975744915618138 -0.054122096070876494 -0.02703759873455221 0.060431837732903664 0.052744968941337192 -0.029188147882620492 0.031082878793988911 0.0052723032821502007 0.017847384810447692 0.031158283189870413 -0.0064372025119761632 -0.048160282996567813 0.0086112145282742063 -0.12112185316668314 0.062816483866084682 0.016221279821669061 0.037580928206443792 0.029409670084714887
leaf_weight=11.999999999999998 10.999999999999998 10.999999999999998 11 12.999999999999998 15.999999999999998 10 10 13.999999999999998 13 11.000000000000002 12 9.9999999999999982 9.9999999999999982 11.999999999999998 10.000000000000002 10.000000000000002 11.000000000000002 11.000000000000002 12.000000000000002 10.999999999999998 12.999999999999998 10.999999999999998 15.999999999999998 19 14.999999999999998 13.999999999999998 13.999999999999998 9.9999999999999982 16.000000000000004 11.999999999999998 10.999999999999998 18 11 11.000000000000002 12 11.999999999999998 14
leaf_count=12 11 11 11 13 16 10 10 14 13 11 12 10 10 12 10 10 11 11 12 11 13 11 16 19 15 14 14 10 16 12 11 18 11 11 12 12 14
internal_value=0 -0.0142689 0.0105695 -0.00345079 -0.0140943 -0.0347724 -0.0587264 0.00658383 0.0433223 -0.0186083 0.00551377 -0.00851163 0.00985634 -0.00516537 0.00418246 -0.00845503 0.00999563 -0.0200677 -0.0271694 -0.0578502 -0.00842004 0.0174116 0.0297552 0.0247468 0.018013 0.0296001 0.0290758 -0.0094763 0.0262981 0.0150459 -0.0231209 -0.0132841 -0.101775 0.0450457 0.0217533 0.0278253 0.0233227
internal_weight=0 200 270 156 118 59 37 59 24 35 22 189 21 179 110 70 31 69 58 22 36 23 114 98 79 38 64 21 40 28 39 28 21 25 52 38 26
internal_count=470 200 270 156 118 59 37 59 24 35 22 189 21 179 110 70 31 69 58 22 36 23 114 98 79 38 64 21 40 28 39 28 21 25 52 38 26
is_linear=0
shrinkage=0.2


Tree=12
num_leaves=39
num_cat=0
split_feature=27 236 217 209 25 2 236 236 214 214 27 236 236 27 27 236 27 236 73 214 29 50 27 112 29 32 131 236 27 236 236 236 236 27 27 236 236 50
split_gain=1.16727 1.66481 1.23661 3.69782 0.963738 1.0326 0.922275 1.40491 2.58473 0.759447 0.703726 0.701855 1.23466 0.633143 0.487405 0.438245 0.648168 0.355356 0.699772 0.627533 0.341558 0.282466 0.717538 0.467374 0.372949 0.326436 0.251948 0.284038 0.236884 0.232291 0.210218 0.0544739 0.0479481 0.0824642 0.0345699 0.0259994 0.0048658 0.00210903
threshold=2003.5000000000002 15.280510850000001 1.0000000180025095e-35 1.0000000180025095e-35 1.7500000000000002 1.0000000180025095e-35 25.124710705000002 21.833248975000004 1.0000000180025095e-35 1.0000000180025095e-35 1948.5000000000002 15.989944045000001 15.078047380000003 2015.5000000000002 2011.5000000000002 24.868129475000003 1955.5000000000002 12.093165160000002 1.0000000180025095e-35 1.0000000180025095e-35 1.0000000180025095e-35 1.0000000180025095e-35 2013.5000000000002 1.0000000180025095e-35 1.0000000180025095e-35 1.0000000180025095e-35 1.0000000180025095e-35 10.027078870000002 2007.5000000000002 21.359043985000003 14.532767825000002 10.327110775000001 8.7903998035000015 1973.5000000000002 1970.5000000000002 21.069351280000003 24.063505800000005 1.0000000180025095e-35
decision_type=2 2 2 2 2 2 2 2 2 2 2 2 2 2 2 2 2 2 2 2 2 2 2 2 2 2 2 2 2 2 2 2 2 2 2 2 2 2
left_child=1 17 4 -4 5 15 7 8 -7 37 -9 12 13 14 -2 -3 -17 18 26 30 -15 23 24 -13 28 -24 27 32 35 -5 -19 -29 34 -34 -1 -23 -30 -6
right_child=11 2 3 29 9 6 -8 10 -10 -11 -12 21 -14 20 -16 16 -18 19 -20 -21 -22 22 25 -25 -26 -27 -28 31 36 -31 -32 -33 33 -35 -36 -37 -38 -39
leaf_value=0.020829193829558786 -0.013270380304140201 -0.011352302985531944 -0.14155806787312028 -0.015853536799550049 0.0060396985709667214 -0.11276851553808559 -0.062762487827635868 -0.0042040629670597029 0.024337351593104274 0.07018738182691428 0.066366579849272966 0.039191058490957525 -0.087752939760684975 0.037337555438280101 -0.065915585992236944 -0.0088396218046545953 0.054666618837250602 0.077767865302470998 -0.031324332207441331 0.00098556518554687505 -0.01493544922210276 -0.0091565684630320592 -0.052315380468088035 -0.017420351058244701 0.037090612541545519 -0.010214264289690897 -0.0035742665895006874 0.038765385821461662 0.0094943346625024592 0.026263650337403473 0.039197190701961517 0.059640997797250753 0.027823355201293115 0.0046828697834696087 0.035029819297293825 -0.021376624926924707 0.015589991658926012 0.010147278786171225
leaf_weight=16.000000000000004 17.000000000000004 13.999999999999998 10.000000000000002 10.000000000000002 9.9999999999999982 11 17 13.000000000000002 11 12.999999999999998 9.9999999999999982 14 11.999999999999998 10 11.999999999999998 10.000000000000002 18 13.000000000000002 9.9999999999999982 9.9999999999999982 10 13.000000000000002 17 10 10.999999999999998 13.000000000000002 10.999999999999998 10.000000000000002 11.000000000000002 10.999999999999998 9.9999999999999982 9.9999999999999982 11.000000000000002 13.999999999999998 11.999999999999998 14.999999999999998 9.9999999999999982 10.000000000000002
leaf_count=16 17 14 10 10 10 11 17 13 11 13 10 14 12 10 12 10 18 13 10 10 10 13 17 10 11 13 11 10 11 11 10 10 11 14 12 15 10 10
internal_value=0 0.00767669 -0.0053865 -0.0414586 0.0027758 -0.00667328 -0.0230757 -0.00808288 -0.0442156 0.0325547 0.0264788 -0.0129407 -0.0302557 -0.0161747 -0.0350546 0.0175398 0.0319858 0.0249571 0.0186888 0.0428124 0.0112011 -0.00367567 -0.00881664 0.015603 0.00381083 -0.0340716 0.0246427 0.0288946 -0.00366015 0.00620785 0.060998 0.0492032 0.021231 0.0148647 0.0269152 -0.015703 0.012397 0.00809349
internal_weight=0 295 168 31 137 104 62 45 22 33 23 175 61 49 29 42 28 127 94 33 20 114 90 24 60 30 84 73 49 21 23 20 53 25 28 28 21 20
internal_count=470 295 168 31 137 104 62 45 22 33 23 175 61 49 29 42 28 127 94 33 20 114 90 24 60 30 84 73 49 21 23 20 53 25 28 28 21 20
is_linear=0
shrinkage=0.2


end of trees

feature_importances:
Column_0=100
Column_236=81
Column_27=74
Column_31=17
Column_2=13
Column_25=13
Column_209=12
Column_214=11
Column_29=9
Column_197=9
Column_208=8
Column_216=8
Column_26=7
Column_130=7
Column_195=7
Column_217=7
Column_75=6
Column_114=6
Column_128=6
Column_50=5
Column_127=5
Column_32=4
Column_73=4
Column_77=4
Column_91=4
Column_90=3
Column_112=3
Column_115=3
Column_49=2
Column_126=2
Column_207=2
Column_219=2
Column_8=1
Column_33=1
Column_74=1
Column_131=1
Column_194=1
Column_213=1

parameters:
[boosting: gbdt]
[objective: regression]
[metric: rmse]
[tree_learner: serial]
[device_type: cpu]
[data: ]
[valid: ]
[num_iterations: 10000]
[learning_rate: 0.2]
[num_leaves: 63]
[num_threads: 0]
[deterministic: 0]
[force_col_wise: 0]
[force_row_wise: 0]
[histogram_pool_size: -1]
[max_depth: -1]
[min_data_in_leaf: 10]
[min_sum_hessian_in_leaf: 0.001]
[bagging_fraction: 1]
[pos_bagging_fraction: 1]
[neg_bagging_fraction: 1]
[bagging_freq: 0]
[bagging_seed: 21709]
[feature_fraction: 0.5]
[feature_fraction_bynode: 1]
[feature_fraction_seed: 24116]
[extra_trees: 0]
[extra_seed: 15571]
[early_stopping_round: 0]
[first_metric_only: 0]
[max_delta_step: 0]
[lambda_l1: 0]
[lambda_l2: 0]
[linear_lambda: 0]
[min_gain_to_split: 0]
[drop_rate: 0.1]
[max_drop: 50]
[skip_drop: 0.5]
[xgboost_dart_mode: 0]
[uniform_drop: 0]
[drop_seed: 15722]
[top_rate: 0.2]
[other_rate: 0.1]
[min_data_per_group: 100]
[max_cat_threshold: 32]
[cat_l2: 10]
[cat_smooth: 10]
[max_cat_to_onehot: 4]
[top_k: 20]
[monotone_constraints: ]
[monotone_constraints_method: basic]
[monotone_penalty: 0]
[feature_contri: ]
[forcedsplits_filename: ]
[refit_decay_rate: 0.9]
[cegb_tradeoff: 1]
[cegb_penalty_split: 0]
[cegb_penalty_feature_lazy: ]
[cegb_penalty_feature_coupled: ]
[path_smooth: 0]
[interaction_constraints: ]
[verbosity: -1]
[saved_feature_importance_type: 0]
[linear_tree: 0]
[max_bin: 255]
[max_bin_by_feature: ]
[min_data_in_bin: 3]
[bin_construct_sample_cnt: 200000]
[data_random_seed: 4074]
[is_enable_sparse: 1]
[enable_bundle: 1]
[use_missing: 1]
[zero_as_missing: 0]
[feature_pre_filter: 1]
[pre_partition: 0]
[two_round: 0]
[header: 0]
[label_column: ]
[weight_column: ]
[group_column: ]
[ignore_column: ]
[categorical_feature: ]
[forcedbins_filename: ]
[precise_float_parser: 0]
[objective_seed: 10917]
[num_class: 1]
[is_unbalance: 0]
[scale_pos_weight: 1]
[sigmoid: 1]
[boost_from_average: 1]
[reg_sqrt: 0]
[alpha: 0.9]
[fair_c: 1]
[poisson_max_delta_step: 0.7]
[tweedie_variance_power: 1.5]
[lambdarank_truncation_level: 30]
[lambdarank_norm: 1]
[label_gain: ]
[eval_at: ]
[multi_error_top_k: 1]
[auc_mu_weights: ]
[num_machines: 1]
[local_listen_port: 12400]
[time_out: 120]
[machine_list_filename: ]
[machines: ]
[gpu_platform_id: -1]
[gpu_device_id: -1]
[gpu_use_dp: 0]
[num_gpu: 1]

end of parameters

pandas_categorical:null
