tree
version=v3
num_class=1
num_tree_per_iteration=1
label_index=0
max_feature_idx=236
objective=regression
feature_names=Column_0 Column_1 Column_2 Column_3 Column_4 Column_5 Column_6 Column_7 Column_8 Column_9 Column_10 Column_11 Column_12 Column_13 Column_14 Column_15 Column_16 Column_17 Column_18 Column_19 Column_20 Column_21 Column_22 Column_23 Column_24 Column_25 Column_26 Column_27 Column_28 Column_29 Column_30 Column_31 Column_32 Column_33 Column_34 Column_35 Column_36 Column_37 Column_38 Column_39 Column_40 Column_41 Column_42 Column_43 Column_44 Column_45 Column_46 Column_47 Column_48 Column_49 Column_50 Column_51 Column_52 Column_53 Column_54 Column_55 Column_56 Column_57 Column_58 Column_59 Column_60 Column_61 Column_62 Column_63 Column_64 Column_65 Column_66 Column_67 Column_68 Column_69 Column_70 Column_71 Column_72 Column_73 Column_74 Column_75 Column_76 Column_77 Column_78 Column_79 Column_80 Column_81 Column_82 Column_83 Column_84 Column_85 Column_86 Column_87 Column_88 Column_89 Column_90 Column_91 Column_92 Column_93 Column_94 Column_95 Column_96 Column_97 Column_98 Column_99 Column_100 Column_101 Column_102 Column_103 Column_104 Column_105 Column_106 Column_107 Column_108 Column_109 Column_110 Column_111 Column_112 Column_113 Column_114 Column_115 Column_116 Column_117 Column_118 Column_119 Column_120 Column_121 Column_122 Column_123 Column_124 Column_125 Column_126 Column_127 Column_128 Column_129 Column_130 Column_131 Column_132 Column_133 Column_134 Column_135 Column_136 Column_137 Column_138 Column_139 Column_140 Column_141 Column_142 Column_143 Column_144 Column_145 Column_146 Column_147 Column_148 Column_149 Column_150 Column_151 Column_152 Column_153 Column_154 Column_155 Column_156 Column_157 Column_158 Column_159 Column_160 Column_161 Column_162 Column_163 Column_164 Column_165 Column_166 Column_167 Column_168 Column_169 Column_170 Column_171 Column_172 Column_173 Column_174 Column_175 Column_176 Column_177 Column_178 Column_179 Column_180 Column_181 Column_182 Column_183 Column_184 Column_185 Column_186 Column_187 Column_188 Column_189 Column_190 Column_191 Column_192 Column_193 Column_194 Column_195 Column_196 Column_197 Column_198 Column_199 Column_200 Column_201 Column_202 Column_203 Column_204 Column_205 Column_206 Column_207 Column_208 Column_209 Column_210 Column_211 Column_212 Column_213 Column_214 Column_215 Column_216 Column_217 Column_218 Column_219 Column_220 Column_221 Column_222 Column_223 Column_224 Column_225 Column_226 Column_227 Column_228 Column_229 Column_230 Column_231 Column_232 Column_233 Column_234 Column_235 Column_236
feature_infos=[4:739] [0:1] [0:1] none none none none [0:1] [0:1] none none none none none none none none none none none none none none none none [0:25] [0:100] [0:2018] [0:1] [0:1] [0:1] [0:1] [0:1] [0:1] none none none none none none none none none none none none none none none [0:1] [0:1] none none none none none none [0:1] none none none none none none none none none none none none none none none [0:1] [0:1] [0:1] none [0:1] none none [0:1] none none none none none none none none none [0:1] [0:1] [0:1] [0:1] [0:1] none none none none none none none none none none none none none none none none none [0:1] [0:1] [0:1] [0:1] none none none none none none none none none [0:1] [0:1] [0:1] [0:1] none [0:1] [0:1] none none none [0:1] none none [0:1] none [0:1] [0:1] none none none none none none none none none none none none none none none none none none none none none none none none none none none none none none none none none none none none none none none none none none none none none none none none none none none none [0:1] [0:1] none [0:1] none [0:1] [0:1] none none [0:1] none none none [0:1] [0:1] [0:1] none none none [0:1] [0:1] [0:1] [0:1] [0:1] none [0:1] none none none none none none none none none none none none none none none none [8.6144111480000003:42.129650480000002]
tree_sizes=3494 3698 3698 3614 3356 3964 2554 3942 3778 3998 3991 3569

Tree=0
num_leaves=35
num_cat=0
split_feature=236 2 26 209 90 0 0 236 0 236 0 236 0 236 0 75 0 236 219 209 236 236 130 0 236 236 130 236 0 0 236 236 0 195
split_gain=90.6172 24.7944 13.2801 7.855 7.08476 6.2728 7.18203 6.71514 5.27172 4.70269 4.19484 3.77527 4.59142 3.59971 5.06946 4.82335 3.59672 3.47577 3.11854 3.12548 2.21994 2.40176 2.2018 1.41058 1.12769 0.969837 0.954929 0.864505 0.521181 0.933861 0.808386 0.367511 0.0828118 0.0126303
threshold=10.428864865000003 1.0000000180025095e-35 17.500000000000004 1.0000000180025095e-35 1.0000000180025095e-35 128.50000000000003 76.000000000000014 15.633209695000003 703.00000000000011 15.717522090000001 447.50000000000006 9.2624812775000027 258.50000000000006 12.027414115000001 377.50000000000006 1.0000000180025095e-35 441.50000000000006 14.510903420000002 1.0000000180025095e-35 1.0000000180025095e-35 22.191999835000004 26.879776300000003 1.0000000180025095e-35 154.50000000000003 20.972849445000005 21.332003140000005 1.0000000180025095e-35 8.8740669195000024 645.50000000000011 677.50000000000011 21.127511120000005 19.048959165000003 300.50000000000006 1.0000000180025095e-35
decision_type=2 2 2 2 2 2 2 2 2 2 2 2 2 2 2 2 2 2 2 2 2 2 2 2 2 2 2 2 2 2 2 2 2 2
left_child=11 9 3 4 8 6 7 -5 10 -2 22 27 -13 -7 -15 24 -17 -4 19 20 -11 -22 23 -3 31 -26 28 32 30 -30 -18 -16 -1 -29
right_child=1 2 17 5 -6 13 -8 -9 -10 18 -12 12 -14 14 15 16 26 -19 -20 -21 21 -23 -24 -25 25 -27 -28 33 29 -31 -32 -33 -34 -35
leaf_value=0.22835413736635296 -0.062037022774985046 -0.044232081510919209 0.0081689090646327803 0.057457655982422397 -0.24492746225473133 -0.13186289860635783 -0.22611950900923178 -0.16353415490292028 -0.22165320728053439 0.11578771720137772 0.019330159259965719 0.19246706608995742 0.030102674299905107 0.067270267238341938 0.016545534989935284 -0.16871228224175652 -0.086568615130726501 0.15421198908837669 0.18206227149735105 0.15202875918319042 -0.038130463300444561 0.066695300425322387 -0.17942251179446567 -0.12973010362706677 -0.066104822494882198 0.021978635451895129 -0.01113079626192438 0.19533248271713863 -0.13548496875991209 -0.05273042930990246 -0.019424678274291628 0.069521484364047509 0.24977539863358153 0.18551161483189582
leaf_weight=10.999999999999998 10.999999999999998 19 16.000000000000004 11.000000000000002 17 14.999999999999998 17 10.999999999999998 11.999999999999998 10.999999999999998 13.999999999999998 19.000000000000004 10.999999999999998 19 10.000000000000002 12.999999999999998 13.000000000000002 10.999999999999998 9.9999999999999982 11.999999999999998 18 17 11.999999999999998 12.999999999999998 10.000000000000002 9.9999999999999982 15.999999999999998 10 10.000000000000002 11.999999999999998 15.999999999999998 10.999999999999998 21 11
leaf_count=11 11 19 16 11 17 15 17 11 12 11 14 19 11 19 10 13 13 11 10 12 18 17 12 13 10 10 16 10 10 12 16 11 21 11
internal_value=1.2777e-08 -0.0406696 -0.0663079 -0.079181 -0.129114 -0.0567882 -0.128484 -0.0530382 -0.100988 0.0592873 -0.0760233 0.189628 0.132933 -0.0387486 -0.0287721 -0.0438531 -0.0724394 0.0676679 0.0789133 0.061129 0.037416 0.0127849 -0.106363 -0.0789657 0.0119251 -0.0220631 -0.0537596 0.221719 -0.0671334 -0.0903461 -0.0495237 0.0442948 0.242412 0.190188
internal_weight=0 387 308 281 87 194 39 22 70 79 58 83 30 155 140 121 80 27 68 58 46 35 44 32 41 20 67 53 51 22 29 21 32 21
internal_count=470 387 308 281 87 194 39 22 70 79 58 83 30 155 140 121 80 27 68 58 46 35 44 32 41 20 67 53 51 22 29 21 32 21
is_linear=0
shrinkage=1


Tree=1
num_leaves=36
num_cat=0
split_feature=236 208 26 1 203 236 236 236 207 31 73 214 197 236 214 75 236 236 236 91 236 236 31 236 31 197 31 236 236 236 236 91 236 236 236
split_gain=57.995 6.71681 6.30295 5.48798 5.92234 3.93669 3.53216 2.43947 2.43074 6.38235 4.47033 4.16695 2.78367 2.49282 5.29196 2.4742 2.14126 2.12247 2.05161 1.44624 1.42276 1.25807 0.933097 0.924151 0.885829 0.816929 0.775461 0.400864 0.290606 0.217357 0.580391 0.196697 0.349612 0.150193 0.0560953
threshold=10.428864865000003 1.0000000180025095e-35 17.500000000000004 1.0000000180025095e-35 1.0000000180025095e-35 24.251441005000004 14.510903420000002 8.914933437000002 1.0000000180025095e-35 1.0000000180025095e-35 1.0000000180025095e-35 1.0000000180025095e-35 1.0000000180025095e-35 18.901970120000005 1.0000000180025095e-35 1.0000000180025095e-35 14.950350935000001 24.320864235000002 24.171526525000001 1.0000000180025095e-35 21.448302190000003 24.391020765000004 1.0000000180025095e-35 19.681908650000004 1.0000000180025095e-35 1.0000000180025095e-35 1.0000000180025095e-35 17.877367230000001 21.127511120000005 24.021313535000001 21.756209710000004 1.0000000180025095e-35 8.7025893310000022 25.002098935000003 15.633209695000003
decision_type=2 2 2 2 2 2 2 2 2 2 2 2 2 2 2 2 2 2 2 2 2 2 2 2 2 2 2 2 2 2 2 2 2 2 2
left_child=7 2 3 4 8 20 -4 31 10 11 12 21 18 14 16 23 -14 -11 27 -9 25 -10 -21 -15 29 -3 34 -2 -25 30 -17 -1 -33 -31 -18
right_child=1 5 6 -5 -6 -7 -8 19 9 17 -12 -13 13 15 -16 24 26 -19 -20 22 -22 -23 -24 28 -26 -27 -28 -29 -30 33 -32 32 -34 -35 -36
leaf_value=0.20286542107077207 0.024091851664707061 -0.14829615533351898 0.0065351130440831177 0.091396166909752163 0.11459640090353787 9.0306768701835108e-05 0.1500769426425298 0.18012854423035274 -0.12503876795371371 -0.041187464092907147 0.092750069475732749 -0.22353053291638694 -0.052279509123610825 0.067456593264359974 0.024085868109250442 -0.05383116367616151 -0.17211450159549707 0.072646894901990888 -0.061885837763547905 0.06622965054379569 -0.18953157296547524 -0.043125988480945426 0.13654763624072072 -0.028851571590216313 -0.010252193142386045 -0.070895800242821369 -0.10244987532496452 0.076520668566226968 0.016153302664558094 -0.034147881773801944 -0.11335796594619751 0.20098873918706717 0.15254244185411014 -0.066750102192163471 -0.15093048721551897
leaf_weight=17 14.000000000000002 10 16.000000000000004 13.999999999999998 9.9999999999999982 10.999999999999998 11.999999999999998 10.999999999999998 15.000000000000002 19.000000000000004 10.999999999999998 11.999999999999998 19 9.9999999999999982 15.999999999999998 19.000000000000004 10.000000000000002 9.9999999999999982 9.9999999999999982 18 12.999999999999998 14.999999999999998 13.000000000000002 11.000000000000002 17 12 15.999999999999998 9.9999999999999982 11.999999999999998 13.000000000000002 9.9999999999999982 11.000000000000002 12.999999999999998 9.9999999999999982 9.9999999999999982
leaf_count=17 14 10 16 14 10 11 12 11 15 19 11 12 19 10 16 19 10 10 10 18 13 15 13 11 17 12 16 10 12 13 10 11 13 10 10
internal_value=0 -0.0325357 -0.0228583 -0.0309909 -0.0367214 -0.104275 0.068053 0.151702 -0.0419574 -0.0740976 -0.0314897 -0.123925 -0.0380918 -0.0483736 -0.0771491 -0.0283436 -0.106599 -0.00193424 0.0142245 0.117825 -0.137075 -0.0840824 0.0957178 0.0166981 -0.0498853 -0.106078 -0.135268 0.0459372 -0.00537077 -0.0628422 -0.0743576 0.186406 0.174747 -0.0483228 -0.161522
internal_weight=0 387 341 313 299 46 28 83 289 71 218 42 207 173 71 102 55 29 34 42 35 30 31 33 69 22 36 24 23 52 29 41 24 23 20
internal_count=470 387 341 313 299 46 28 83 289 71 218 42 207 173 71 102 55 29 34 42 35 30 31 33 69 22 36 24 23 52 29 41 24 23 20
is_linear=0
shrinkage=0.2


Tree=2
num_leaves=37
num_cat=0
split_feature=236 25 2 236 27 27 27 0 0 0 27 236 27 27 27 27 0 32 236 0 27 0 236 236 0 236 236 236 236 0 236 27 0 27 236 0
split_gain=37.4153 11.8972 12.3351 9.42663 9.65996 8.96489 8.59188 3.59062 3.23695 6.96628 3.12627 5.80928 2.14398 2.41064 1.88714 1.8237 1.84057 2.19199 1.60914 1.55813 1.65721 1.40366 1.36666 1.14575 0.94618 1.82427 0.902431 0.525933 0.382767 1.28515 0.371667 0.234789 0.205149 0.118333 0.0317675 0.00120148
threshold=10.757436745000001 1.7500000000000002 1.0000000180025095e-35 25.121987090000001 2013.5000000000002 1995.5000000000002 1996.5000000000002 21.500000000000004 120.50000000000001 154.50000000000003 1982.5000000000002 24.251441005000004 1984.5000000000002 1961.0000000000002 2008.5000000000002 1995.5000000000002 516.50000000000011 1.0000000180025095e-35 14.693667950000002 85.000000000000014 1966.5000000000002 384.50000000000006 18.458514390000001 21.853760580000003 419.50000000000006 19.446183065000003 12.147864815000002 15.114384005000002 8.914933437000002 288.50000000000006 21.363255710000001 1976.5000000000002 555.50000000000011 2010.5000000000002 8.8237806930000016 306.50000000000006
decision_type=2 2 2 2 2 2 2 2 2 2 2 2 2 2 2 2 2 2 2 2 2 2 2 2 2 2 2 2 2 2 2 2 2 2 2 2
left_child=6 2 12 4 8 19 28 -5 -4 -10 11 23 13 -2 15 -12 26 30 -7 -3 -21 -22 27 -11 -20 -26 -17 -6 34 31 -18 -30 -15 -16 35 -1
right_child=1 5 3 7 22 18 -8 -9 9 10 14 -13 -14 32 33 16 17 -19 24 20 21 -23 -24 -25 25 -27 -28 -29 29 -31 -32 -33 -34 -35 -36 -37
leaf_value=0.1634242385625839 0.0044826437160372734 0.046350920117563671 -0.11239276886182398 -0.11522340811789032 -0.14893235191702842 0.027364406340262472 -0.0036291268136766225 -0.28470772624015811 0.13647561870515346 -0.19026393188784516 0.047357907295227056 0.035247467570006845 -0.01881871564934651 0.13019161403179166 0.020168095678091042 -0.046250955822567136 -0.07003010318148882 0.046179076683308395 -0.087997397727199972 0.053319415599107724 0.2015415798534046 0.098009574115276332 -0.093913364383791179 -0.098600722253322615 0.037892864542928596 -0.07094613320327231 -0.12099371978214808 -0.20740082800388338 0.1412921229004859 0.076359638869762436 -0.028136233654287125 0.18363513296300715 0.090611437581140888 0.050935951322317125 0.17512854218482973 0.16073930342992149
leaf_weight=12.000000000000002 14.999999999999998 18 19 10.000000000000002 16.000000000000004 17 18 9.9999999999999982 9.9999999999999982 12.000000000000002 9.9999999999999982 9.9999999999999982 18 10.000000000000002 10.000000000000002 12.000000000000002 15.999999999999998 13.999999999999998 13.999999999999998 10.000000000000002 11.000000000000002 9.9999999999999982 13.999999999999998 9.9999999999999982 11.000000000000002 13.999999999999998 13.999999999999998 9.9999999999999982 10.000000000000005 9.9999999999999982 18 10.999999999999998 10.999999999999998 9.9999999999999982 9.9999999999999982 14.999999999999998
leaf_count=12 15 18 19 10 16 17 18 10 10 12 10 10 18 10 10 12 16 14 14 10 11 10 14 10 11 14 14 10 10 10 18 11 11 10 10 15
internal_value=0 -0.0267048 -0.0483011 -0.0689029 -0.0561163 0.0306797 0.11924 -0.199966 -0.0347402 -0.0246348 -0.0364811 -0.0911469 0.0375397 0.0657189 -0.0196609 -0.0328068 -0.0436399 -0.0204256 -0.0239856 0.0931544 0.120331 0.152241 -0.144293 -0.148599 -0.0463689 -0.023057 -0.0864971 -0.17142 0.151764 0.135371 -0.047851 0.163472 0.109459 0.035552 0.165499 0.161933
internal_weight=0 384 279 225 205 105 86 20 165 146 136 32 54 36 104 84 74 48 56 49 31 21 40 22 39 25 26 26 68 31 34 21 21 20 37 27
internal_count=470 384 279 225 205 105 86 20 165 146 136 32 54 36 104 84 74 48 56 49 31 21 40 22 39 25 26 26 68 31 34 21 21 20 37 27
is_linear=0
shrinkage=0.2


Tree=3
num_leaves=36
num_cat=0
split_feature=236 27 0 27 236 2 236 0 27 207 27 27 236 27 27 236 27 27 236 31 0 0 236 0 27 0 236 236 0 0 77 236 0 236 195
split_gain=23.9458 8.0249 7.32196 5.4988 4.27915 6.19016 5.0747 4.67951 3.61775 3.20927 3.12897 3.08379 2.17442 1.98459 3.36722 1.97275 1.65468 1.61383 1.37064 1.31847 1.26857 1.77338 1.19281 1.11658 1.03643 1.02569 0.699111 0.665632 0.547854 0.418222 0.333797 0.244971 0.864284 0.0203312 0.000996423
threshold=10.757436745000001 2003.5000000000002 419.50000000000006 1996.5000000000002 15.280392605000001 1.0000000180025095e-35 13.730196790000003 692.50000000000011 1964.5000000000002 1.0000000180025095e-35 1985.5000000000002 1984.5000000000002 16.566666695000006 1984.5000000000002 1988.5000000000002 15.231248135000001 1982.5000000000002 1937.5000000000002 21.018297865000005 1.0000000180025095e-35 684.00000000000011 548.00000000000011 12.013365445000002 90.000000000000014 1966.5000000000002 520.50000000000011 24.021313535000001 25.574956140000001 538.50000000000011 578.50000000000011 1.0000000180025095e-35 8.914933437000002 271.50000000000006 8.8237806930000016 1.0000000180025095e-35
decision_type=2 2 2 2 2 2 2 2 2 2 2 2 2 2 2 2 2 2 2 2 2 2 2 2 2 2 2 2 2 2 2 2 2 2 2
left_child=3 4 15 31 6 13 16 8 9 17 -8 -10 23 24 -15 19 -2 -7 29 22 21 25 -3 -13 -6 -20 -23 -26 -14 -4 -31 33 -33 34 -1
right_child=1 2 18 -5 5 7 10 -9 11 -11 -12 12 28 14 -16 -17 -18 -19 20 -21 -22 26 -24 -25 27 -27 -28 -29 -30 30 -32 32 -34 -35 -36
leaf_value=0.12828524112701414 -0.073810414671897862 -0.0061822957613251409 0.034055585307734358 -0.0029033022208346266 0.02610171896624653 0.014794549252837892 0.19252377748489374 -0.14764923751354217 0.080564472451806077 -0.17164235182106496 0.050899301125453073 -0.023560415506362908 -0.0085849818906613747 -0.096136114597320521 0.058232105752596491 -0.16256764586034575 0.041243494581431152 -0.091261550479314557 -0.062535553127527219 -0.12645652525954776 0.02427446112036705 -0.12164928143700725 -0.094191111517804016 -0.11807314187288286 0.12146342809383684 0.021329066915703673 -0.05828206419944764 0.056142119038850073 0.051059724754569207 -0.024557245398561162 0.021016436815261833 0.14278676430384316 0.075962614081799995 0.14010283350944519 0.13071687391826084
leaf_weight=13 10.000000000000002 11.000000000000002 13.999999999999998 18 17 12.000000000000002 12.000000000000002 13.999999999999998 15.999999999999998 9.9999999999999982 12.999999999999998 10.000000000000002 14.000000000000002 10.000000000000002 12.999999999999998 19 9.9999999999999982 10.999999999999998 10.000000000000002 18 9.9999999999999982 13.000000000000002 13.999999999999998 9.9999999999999982 13.000000000000002 13.999999999999998 14.999999999999998 11.999999999999998 10.999999999999998 18 10.000000000000002 15.000000000000002 15.999999999999998 9.9999999999999982 14
leaf_count=13 10 11 14 18 17 12 12 14 16 10 13 10 14 10 13 19 10 11 10 18 10 13 14 10 13 14 15 12 11 18 10 15 16 10 14
internal_value=0 -0.0213638 -0.0544967 0.0953921 0.00386574 -0.0104253 0.0588068 -0.0397749 -0.0237085 -0.0770535 0.118879 0.00515022 -0.0216637 0.0383402 -0.00888451 -0.108898 -0.0162835 -0.0359279 -0.022065 -0.0851837 -0.0409625 -0.0535081 -0.0554672 -0.0708168 0.0642014 -0.0136145 -0.0877026 0.0901092 0.0176587 0.00583124 -0.00828093 0.121411 0.108297 0.132399 0.129546
internal_weight=0 384 166 86 218 173 45 108 94 33 25 61 45 65 23 62 20 23 104 43 62 52 25 20 42 24 28 25 25 42 28 68 31 37 27
internal_count=470 384 166 86 218 173 45 108 94 33 25 61 45 65 23 62 20 23 104 43 62 52 25 20 42 24 28 25 25 42 28 68 31 37 27
is_linear=0
shrinkage=0.2


Tree=4
num_leaves=34
num_cat=0
split_feature=27 0 0 29 2 25 0 0 0 80 0 25 31 31 27 30 209 25 0 0 209 0 32 27 0 0 27 0 0 31 27 0 0
split_gain=13.7089 4.63723 9.58852 7.16575 3.80556 3.37187 3.10363 1.99009 1.97878 1.80089 1.69654 1.88549 2.93116 1.17013 1.14812 1.03502 0.957415 0.9486 1.48739 0.835165 1.28359 0.52729 0.520537 0.762079 0.690797 0.532082 0.368547 0.328023 0.251508 0.19612 0.346875 0.130574 0.0312859
threshold=1995.5000000000002 377.50000000000006 98.500000000000014 1.0000000180025095e-35 1.0000000180025095e-35 1.7500000000000002 125.50000000000001 453.50000000000006 94.000000000000014 1.0000000180025095e-35 516.50000000000011 1.7500000000000002 1.0000000180025095e-35 1.0000000180025095e-35 1950.5000000000002 1.0000000180025095e-35 1.0000000180025095e-35 1.2500000000000002 228.00000000000003 233.00000000000003 1.0000000180025095e-35 264.50000000000006 1.0000000180025095e-35 2010.5000000000002 541.50000000000011 638.00000000000011 1970.5000000000002 249.50000000000003 591.00000000000011 1.0000000180025095e-35 1973.5000000000002 650.00000000000011 303.50000000000006
decision_type=2 2 2 2 2 2 2 2 2 2 2 2 2 2 2 2 2 2 2 2 2 2 2 2 2 2 2 2 2 2 2 2 2
left_child=1 2 5 4 15 13 8 -6 -2 10 11 12 19 -1 -4 26 -12 18 -16 -8 -21 -13 23 24 -18 -26 -3 -19 -24 32 -31 -25 -20
right_child=6 3 14 -5 7 -7 9 -9 -10 -11 16 21 -14 -15 17 -17 22 27 29 20 -22 -23 28 31 25 -27 -28 -29 -30 30 -32 -33 -34
leaf_value=-0.027910139895975586 -0.045582922548055654 0.054106854088604453 0.036185385543753265 -0.13847546184148926 -0.074006986452473542 0.03658141333021616 -0.010240029675119064 0.020040018101119335 -0.14524596512317658 0.057496459931135183 -0.059722570696224768 0.012005731068989807 -0.14528511110693218 -0.12054346551497777 0.02681068027658122 0.0035126067325472834 -0.071160216505328819 0.15780146360397335 0.1078052786680368 -0.019867197573184964 -0.12120179712772368 -0.040408232701676233 0.032916019287179493 0.032228001952171313 0.012416885594526923 -0.040014891605824235 0.095304629206657415 0.11215156386880315 -0.0070566570758819587 0.11247434218724567 0.064385868360598883 0.0012838187317053477 0.12268506050109865
leaf_weight=10 17 15.999999999999998 13.999999999999998 12.999999999999998 18 19 17 18 14.999999999999998 9.9999999999999982 14.999999999999998 17.000000000000004 15.999999999999998 12 13.999999999999998 9.9999999999999982 11.999999999999998 10.000000000000002 13.000000000000002 10 10 13.999999999999998 17.000000000000004 10.000000000000002 15.000000000000002 15.999999999999998 19 17 9.9999999999999982 12.000000000000002 11.999999999999998 11.999999999999998 9.9999999999999982
leaf_count=10 17 16 14 13 18 19 17 18 15 10 15 17 16 12 14 10 12 10 13 10 10 14 17 10 15 16 19 17 10 12 12 12 10
internal_value=0 0.0338677 0.0565497 -0.000637902 0.0214842 -0.025136 -0.0344491 -0.0269835 -0.0923 -0.025239 -0.0295707 -0.0508446 -0.073761 -0.0784374 0.0893841 0.0602583 -0.0128697 0.0978475 0.0840326 -0.0428316 -0.0705345 -0.0116651 -0.00523061 -0.0149265 -0.0304165 -0.0146447 0.0764714 0.129059 0.0181113 0.101077 0.0884301 0.0153494 0.114275
internal_weight=0 237 143 94 81 41 233 36 32 201 191 84 53 22 102 45 107 88 61 37 20 31 92 65 43 31 35 27 27 47 24 22 23
internal_count=470 237 143 94 81 41 233 36 32 201 191 84 53 22 102 45 107 88 61 37 20 31 92 65 43 31 35 27 27 47 24 22 23
is_linear=0
shrinkage=0.2


Tree=5
num_leaves=38
num_cat=0
split_feature=236 25 113 130 236 236 112 31 126 236 236 26 236 236 236 236 236 236 25 236 236 236 130 236 29 236 73 236 236 25 138 236 31 236 236 236 236
split_gain=9.62508 4.68395 3.04732 2.53058 3.34615 1.51737 3.2325 1.4328 1.99242 1.39329 1.02038 0.995153 0.992916 0.893801 1.26965 0.892031 0.854355 0.958955 0.713966 1.07405 1.03291 1.01303 1.24855 0.964294 0.605894 0.537609 0.462516 1.91452 0.392277 0.327282 0.200056 0.132052 0.0869943 0.172216 0.0272845 0.0165284 0.00180581
threshold=11.915349075000002 1.7500000000000002 1.0000000180025095e-35 1.0000000180025095e-35 18.615384775000006 25.121987090000001 1.0000000180025095e-35 1.0000000180025095e-35 1.0000000180025095e-35 14.307988725000003 26.879776300000003 55.000000000000007 9.2624812775000027 20.972849445000005 19.048959165000003 9.8764291715000017 14.175083480000001 15.167658070000002 2.5000000000000004 23.436456085000003 19.048959165000003 17.877367230000001 1.0000000180025095e-35 15.421143530000002 1.0000000180025095e-35 17.657009300000002 1.0000000180025095e-35 21.853760580000003 21.363255710000001 1.7500000000000002 1.0000000180025095e-35 23.389920985000003 1.0000000180025095e-35 8.7025893310000022 24.171526525000001 15.633209695000003 8.8237806930000016
decision_type=2 2 2 2 2 2 2 2 2 2 2 2 2 2 2 2 2 2 2 2 2 2 2 2 2 2 2 2 2 2 2 2 2 2 2 2 2
left_child=12 2 3 5 -5 7 -7 8 9 -2 -8 18 32 14 25 -14 -9 -18 19 20 21 22 23 -3 30 -11 27 35 -26 -17 -15 -32 33 -1 -6 -19 -34
right_child=1 11 -4 4 34 6 10 16 -10 13 -12 -13 15 24 -16 29 17 26 -20 -21 -22 -23 -24 -25 28 -27 -28 -29 -30 -31 31 -33 36 -35 -36 -37 -38
leaf_value=0.087409793246876089 -0.09380558907985688 0.028905593431912929 0.080295891081914317 -0.15788815574986595 -0.025767441229386758 -0.13716700545379096 -0.061415652930736524 -0.042061950266361239 -0.11560777015984058 0.0062041501813967295 0.025087595203270516 0.078982258655808199 -0.012190439055363338 0.00040717849300967324 0.053808328360319138 0.035273111621952714 0.07285936176776886 -0.020673672854900356 -0.024581586768229802 0.075504533602641186 -0.031527472147718075 0.083785689622163775 0.072409967780113216 -0.046739545358078824 -0.085679843425750704 -0.052880273082039575 -0.027423212619928212 0.089872182272374646 -0.033815616651970359 0.077913889040549605 -0.0138786398495237 -0.04499745860695839 0.082086628133600389 0.055645968682236147 -0.039854066514156086 -0.0096642255783081065 0.085568429415042585
leaf_weight=11.000000000000002 9.9999999999999982 13.000000000000002 9.9999999999999982 13.999999999999998 11.000000000000002 13.999999999999998 10.000000000000002 11.999999999999998 9.9999999999999982 14.000000000000002 11.999999999999998 10.999999999999998 11.999999999999998 18 14.999999999999998 18.000000000000004 9.9999999999999982 12.000000000000002 14.999999999999998 12.999999999999998 15.999999999999998 9.9999999999999982 9.9999999999999982 13.999999999999998 10.000000000000002 10.999999999999998 12.999999999999998 9.9999999999999982 13.999999999999998 11.999999999999998 12.000000000000002 9.9999999999999982 11.000000000000002 18 10.999999999999998 9.9999999999999982 12.999999999999998
leaf_count=11 10 13 10 14 11 14 10 12 10 14 12 11 12 18 15 18 10 12 15 13 16 10 10 14 10 11 13 10 14 12 12 10 11 18 11 10 13
internal_value=0 -0.0144055 -0.0280683 -0.0321886 -0.081452 -0.0243759 -0.0620401 -0.0172769 -0.03001 -0.0225014 -0.0142321 0.0221625 0.0568639 -0.0156453 0.0078075 0.0338952 0.00628872 0.016838 0.0152942 0.0231644 0.0123641 0.0273059 0.012041 -0.0103178 -0.0303032 -0.019793 0.00438875 0.0173124 -0.0554257 0.0523294 -0.0152297 -0.0280236 0.0750656 0.0676943 -0.0328108 -0.0156694 0.0839726
internal_weight=0 375 273 263 36 227 36 191 124 114 22 102 95 104 40 42 67 55 91 76 63 47 37 27 64 25 45 32 24 30 40 22 53 29 22 22 24
internal_count=470 375 273 263 36 227 36 191 124 114 22 102 95 104 40 42 67 55 91 76 63 47 37 27 64 25 45 32 24 30 40 22 53 29 22 22 24
is_linear=0
shrinkage=0.2


Tree=6
num_leaves=25
num_cat=0
split_feature=74 90 1 112 141 197 209 31 75 195 92 26 195 115 31 75 31 208 33 31 199 130 194 130
split_gain=2.99892 1.03341 2.56669 1.81439 1.65549 1.07687 1.12657 0.986481 0.720481 0.711218 0.412701 0.37829 0.283213 0.15277 0.309626 0.134243 0.333867 0.265623 0.125659 0.0425442 0.0358033 0.0284239 0.0240945 0.00701049
threshold=1.0000000180025095e-35 1.0000000180025095e-35 1.0000000180025095e-35 1.0000000180025095e-35 1.0000000180025095e-35 1.0000000180025095e-35 1.0000000180025095e-35 1.0000000180025095e-35 1.0000000180025095e-35 1.0000000180025095e-35 1.0000000180025095e-35 82.500000000000014 1.0000000180025095e-35 1.0000000180025095e-35 1.0000000180025095e-35 1.0000000180025095e-35 1.0000000180025095e-35 1.0000000180025095e-35 1.0000000180025095e-35 1.0000000180025095e-35 1.0000000180025095e-35 1.0000000180025095e-35 1.0000000180025095e-35 1.0000000180025095e-35
decision_type=2 2 2 2 2 2 2 2 2 2 2 2 2 2 2 2 2 2 2 2 2 2 2 2
left_child=1 3 22 4 5 6 8 -8 -1 10 -5 15 20 14 -14 16 -7 18 19 -17 -10 -20 -3 -21
right_child=-2 2 -4 9 -6 11 7 -9 12 -11 -12 -13 13 -15 -16 17 -18 -19 21 23 -22 -23 -24 -25
leaf_value=0.025752414998255282 0.091176282720906401 -0.062978432150557623 0.035537677577563695 0.038045105923499384 0.062896528786846581 -0.017987064955904599 0.074183566272258764 0.012611002891379244 0.0078169934451580037 0.074935057865721841 -0.0084497267069915932 0.021011044609953056 -0.017692762613296508 -0.011253179203380238 -0.064147019386291498 -0.0070638905991526214 0.0119793563708663 -0.041393984215600151 -0.029032975435256958 -0.018106331724312998 -0.0091071313619613629 -0.017199316349896517 -0.075493006431497645 -0.012951525743119419
leaf_weight=19 13.999999999999998 10.000000000000002 13.999999999999998 21 13.999999999999998 58 14.999999999999998 34 10 13.999999999999998 11.999999999999998 10.999999999999998 12 10.999999999999998 11 34 20 21 31 31 10 10.999999999999998 15.999999999999998 15.999999999999998
leaf_count=19 14 10 14 21 14 58 15 34 10 14 12 11 12 11 11 34 20 21 31 31 10 11 16 16
internal_value=0 -0.00279927 -0.0335036 0.00015307 -0.00456088 -0.00722117 0.00800169 0.0314597 -0.00774412 0.0371626 0.0211379 -0.0151919 -0.0195299 -0.0306387 -0.03991 -0.0169858 -0.0103034 -0.0206054 -0.0170562 -0.012453 -0.000645069 -0.0259337 -0.0706797 -0.0163515
internal_weight=0 456 40 416 369 355 122 49 73 47 33 233 54 34 23 222 78 144 123 81 20 42 26 47
internal_count=470 456 40 416 369 355 122 49 73 47 33 233 54 34 23 222 78 144 123 81 20 42 26 47
is_linear=0
shrinkage=0.2


Tree=7
num_leaves=39
num_cat=0
split_feature=0 114 0 0 0 125 90 0 0 31 77 0 0 216 31 50 130 0 128 112 50 214 0 32 0 114 0 0 114 26 0 0 0 0 0 31 0 31
split_gain=2.76626 3.80627 2.69302 2.85854 2.63801 1.66715 4.05888 1.68386 1.82564 1.34424 1.16722 2.57054 1.00119 0.842765 0.829528 1.03131 0.962056 0.64258 0.633179 0.408352 0.46988 0.374701 0.65519 0.353306 0.498845 2.36606 1.09902 0.329136 0.281193 0.460281 0.212568 0.393686 0.135526 0.299682 0.100479 0.0461584 0.0145445 0.000116385
threshold=120.50000000000001 1.0000000180025095e-35 377.50000000000006 239.00000000000003 146.50000000000003 1.0000000180025095e-35 1.0000000180025095e-35 703.00000000000011 396.50000000000006 1.0000000180025095e-35 1.0000000180025095e-35 90.000000000000014 29.500000000000004 1.0000000180025095e-35 1.0000000180025095e-35 1.0000000180025095e-35 1.0000000180025095e-35 64.000000000000014 1.0000000180025095e-35 1.0000000180025095e-35 1.0000000180025095e-35 1.0000000180025095e-35 638.00000000000011 1.0000000180025095e-35 524.50000000000011 1.0000000180025095e-35 568.50000000000011 650.00000000000011 1.0000000180025095e-35 1.0000000180025095e-35 544.50000000000011 591.00000000000011 292.50000000000006 271.50000000000006 578.50000000000011 1.0000000180025095e-35 194.50000000000003 1.0000000180025095e-35
decision_type=2 2 2 2 2 2 2 2 2 2 2 2 2 2 2 2 2 2 2 2 2 2 2 2 2 2 2 2 2 2 2 2 2 2 2 2 2 2
left_child=1 12 3 4 13 6 7 8 -4 21 17 -12 -1 -2 15 -6 -16 -3 28 20 -11 23 -23 24 25 -10 -26 -28 29 -5 -25 -32 33 -30 -22 -20 -17 -9
right_child=2 10 5 18 14 -7 -8 37 9 19 11 -13 -14 -15 16 36 -18 -19 35 -21 34 22 -24 30 26 -27 27 -29 32 -31 31 -33 -34 -35 -36 -37 -38 -39
leaf_value=0.073189360400040926 0.022147608345205131 -0.13293956355615091 -0.082136967480182649 0.0014442693708198407 -0.052131035402417175 0.051140895071956849 -0.12053524611087947 -0.060743273571133606 0.068326857561866433 0.081095020025968564 0.01915806065003077 -0.10234960727393627 -0.012496634870767595 0.10237016471102832 -0.017849859678082999 0.031425487641245115 -0.092925090050663434 -0.067259860353974202 0.091907662153244016 0.0028547775286894578 0.045058936828916707 0.055632097306661292 -0.015101693977009167 -0.016520514488220211 -0.077951784857681825 -0.052698194767747598 0.01392052127764775 -0.028922967799007895 0.065022308390083092 0.056114550070329151 0.047252468019723881 -0.0088678023219108584 0.067600372234980263 0.019320121678439054 0.02022797390818596 0.073133159090172151 0.020886655490506778 -0.059778350591659535
leaf_weight=12.000000000000002 11 11.000000000000002 9.9999999999999982 14.000000000000002 10.000000000000002 18 12.999999999999998 10 12 9.9999999999999982 15.000000000000002 12.999999999999998 9.9999999999999982 10 18 10.000000000000002 11.000000000000002 12.999999999999998 10 12.999999999999998 11.000000000000002 10.000000000000002 10.999999999999998 10.000000000000002 13.999999999999998 14 13.000000000000002 15.999999999999998 12.000000000000002 10.999999999999998 10.000000000000002 9.9999999999999982 14.999999999999998 10.999999999999998 15.999999999999998 11 10.999999999999998 10
leaf_count=12 11 11 10 14 10 18 13 10 12 10 15 13 10 10 18 10 11 13 10 13 11 10 11 10 14 14 13 16 12 11 10 10 15 11 16 11 11 10
internal_value=0 -0.0354943 0.00663278 0.0261477 -0.000659881 -0.00730642 -0.0122456 -0.00520681 0.000910301 0.00579543 -0.0649978 -0.0372562 0.0342412 0.0603488 -0.0220129 0.000732185 -0.0463267 -0.0973631 0.0519978 0.0333472 0.0440607 -0.00568445 0.0185811 -0.0108317 -0.0187098 0.00315952 -0.0319332 -0.00971727 0.0419726 0.0254992 0.00728805 0.0191923 0.0528104 0.0431647 0.0303443 0.0820734 0.0259051 -0.0602608
internal_weight=0 74 396 165 81 231 213 200 180 170 52 28 22 21 60 31 29 24 84 50 37 120 21 99 69 26 43 29 63 25 30 20 38 23 27 21 21 20
internal_count=470 74 396 165 81 231 213 200 180 170 52 28 22 21 60 31 29 24 84 50 37 120 21 99 69 26 43 29 63 25 30 20 38 23 27 21 21 20
is_linear=0
shrinkage=0.2


Tree=8
num_leaves=38
num_cat=0
split_feature=236 236 236 236 236 208 236 236 0 0 207 236 236 197 126 138 0 217 236 236 0 236 236 29 0 127 236 0 236 197 236 75 0 29 207 0 236
split_gain=3.7811 1.36998 1.11485 1.98242 1.80085 1.59219 1.35042 1.18855 1.16688 1.14591 1.10146 1.09594 1.24959 1.20788 0.893007 0.7527 0.93396 1.39215 1.86007 1.33552 0.755852 0.709945 0.534387 0.754521 0.536292 0.490967 0.562403 0.956476 0.484548 0.308968 0.305851 0.182769 0.154228 0.274025 0.143867 0.0453987 0.0390332
threshold=11.915349075000002 12.027414115000001 29.088677310000005 25.574956140000001 25.121987090000001 1.0000000180025095e-35 29.501606895000005 16.566666695000006 560.50000000000011 684.00000000000011 1.0000000180025095e-35 14.950350935000001 13.730196790000003 1.0000000180025095e-35 1.0000000180025095e-35 1.0000000180025095e-35 447.50000000000006 1.0000000180025095e-35 17.978478955000003 15.487986475000001 90.000000000000014 21.018297865000005 21.127511120000005 1.0000000180025095e-35 568.50000000000011 1.0000000180025095e-35 9.2624812775000027 258.50000000000006 22.689617085000005 1.0000000180025095e-35 10.428864865000003 1.0000000180025095e-35 330.50000000000006 1.0000000180025095e-35 1.0000000180025095e-35 625.00000000000011 8.9035504335000031
decision_type=2 2 2 2 2 2 2 2 2 2 2 2 2 2 2 2 2 2 2 2 2 2 2 2 2 2 2 2 2 2 2 2 2 2 2 2 2
left_child=25 -2 3 4 5 9 -4 -7 -9 11 -5 12 29 -14 15 16 17 18 20 -19 -13 -17 24 28 -18 26 32 30 -24 -3 -28 -26 33 36 -30 -23 -1
right_child=1 2 6 10 -6 7 -8 8 -10 -11 -12 14 13 -15 -16 21 22 19 -20 -21 -22 35 23 -25 31 -27 27 -29 34 -31 -32 -33 -34 -35 -36 -37 -38
leaf_value=0.055687790364027018 -0.075515498469273246 -0.037736295908689495 -0.0958862223351995 0.10390555299818514 -0.083588511745134986 -0.084516679495573052 -0.0071310876868665224 0.037284541502594935 -0.057112150571563026 0.048163169779275594 0.012193073298443446 0.079266097843646979 0.10005144681781529 0.014920476774374643 -0.050614032815945779 0.010510834082961079 -0.037524324655532841 -0.0063151073455810537 -0.047226269367254443 -0.10730267559940165 0.010687092277738784 -0.063988253884017451 0.081077272174033224 -0.0072796803216139475 0.030269089183555198 0.07537229751998728 0.049011204545112208 -0.037279721688140526 0.045780191607773302 0.010837278040972622 0.0049311089143157004 -0.0056953714042901988 0.02333882659673691 0.026738246281941731 0.011854738146066664 -0.045368872447447348 0.071819166342417404
leaf_weight=12.000000000000002 11.999999999999998 10 12.000000000000002 10 11.999999999999998 15.999999999999998 15.999999999999998 10.000000000000002 10.999999999999998 19 11 10.000000000000002 12 15 19 10.000000000000002 11.999999999999998 10.000000000000002 18 10.999999999999998 18 10.000000000000002 11.000000000000002 14.999999999999998 13 10.999999999999998 17.000000000000004 10.999999999999998 10 11 9.9999999999999982 10 9.9999999999999982 11.999999999999998 10 10.999999999999998 11.999999999999998
leaf_count=12 12 10 12 10 12 16 16 10 11 19 11 10 12 15 19 10 12 10 18 11 18 10 11 15 13 11 17 11 10 11 10 10 10 12 10 11 12
internal_value=0 -0.00902894 -0.00683103 -0.00362666 -0.00760545 -0.00458626 -0.045169 -0.0434501 -0.0121613 0.00084002 0.0558657 -0.00281502 0.0242973 0.0527565 -0.00938771 -0.00501173 0.000923864 -0.0165451 0.00293382 -0.0592134 0.0351796 -0.0333494 0.0153735 0.0295436 -0.00324993 0.0356405 0.0304376 0.0124322 0.0473613 -0.012293 0.0326852 0.0146324 0.0453115 0.0514151 0.0288175 -0.0542352 0.0637535
internal_weight=0 375 363 335 314 302 28 37 21 265 21 246 48 27 198 179 148 67 46 21 28 31 81 46 35 95 84 38 31 21 27 23 46 36 20 21 24
internal_count=470 375 363 335 314 302 28 37 21 265 21 246 48 27 198 179 148 67 46 21 28 31 81 46 35 95 84 38 31 21 27 23 46 36 20 21 24
is_linear=0
shrinkage=0.2


Tree=9
num_leaves=39
num_cat=0
split_feature=27 236 115 27 25 27 91 236 30 27 27 49 27 27 27 25 27 126 236 236 75 49 26 236 236 236 236 27 27 236 236 236 27 25 236 27 91 27
split_gain=4.81291 2.74212 2.46481 1.64295 3.41489 2.02009 1.59556 1.40561 0.68921 0.706578 0.851608 0.784417 1.72466 0.661946 0.589725 1.79737 1.33509 0.923514 0.654332 0.868553 0.624874 0.516405 0.533203 0.75151 0.466692 0.399591 0.37591 0.466287 0.332125 0.2898 0.190834 0.242868 0.187058 0.165726 0.0281254 0.0236767 0.0509351 0.00241457
threshold=2003.5000000000002 15.280392605000001 1.0000000180025095e-35 1965.5000000000002 1.7500000000000002 1937.5000000000002 1.0000000180025095e-35 15.532094640000002 1.0000000180025095e-35 1995.5000000000002 1998.5000000000002 1.0000000180025095e-35 1977.5000000000002 1985.5000000000002 2013.5000000000002 1.7500000000000002 2010.5000000000002 1.0000000180025095e-35 19.183431370000005 12.235804670000002 1.0000000180025095e-35 1.0000000180025095e-35 77.500000000000014 13.730196790000003 19.013538255000004 14.547651495000002 11.992615885000001 1983.5000000000002 2005.5000000000002 24.320864235000002 21.018297865000005 21.260575525000004 1980.5000000000002 1.2500000000000002 23.436456085000003 1966.5000000000002 1.0000000180025095e-35 1974.5000000000002
decision_type=2 2 2 2 2 2 2 2 2 2 2 2 2 2 2 2 2 2 2 2 2 2 2 2 2 2 2 2 2 2 2 2 2 2 2 2 2 2
left_child=1 21 14 4 5 29 -7 -5 9 11 -11 12 -9 -14 16 17 18 20 19 -2 -16 22 23 26 -17 -25 27 33 -20 -3 -30 -32 -13 35 -33 36 -1 -37
right_child=2 3 -4 7 -6 6 -8 8 -10 10 -12 32 13 -15 15 24 -18 -19 28 -21 -22 -23 -24 25 -26 -27 -28 -29 30 -31 31 34 -34 -35 -36 37 -38 -39
leaf_value=0.042175514860586683 -0.013246066925617361 -0.034353355169296253 -0.10369914571444194 -0.037014799917999074 0.076673998534679419 -0.047777868788062519 -0.15404007639735937 -0.033569653332233433 -0.02740862898528576 -0.024332187283370225 0.048461328893899924 0.085858497458199637 0.094149625897407496 0.02570593817732655 -0.1148103461290399 0.025978137048728325 0.048107676899858884 -0.0095054353214800366 -0.038910029557618228 -0.091646847128868114 -0.054435703158378604 0.0026336972202573505 -0.00049050658941268927 0.10780812088738785 -0.028472479283809662 0.052568444013595589 0.0045682693577625538 0.0089469060301780711 0.022747357528318059 0.01174656581133604 -0.029273250799339554 0.012111844867467877 0.050544900198777526 0.07579810321331025 -0.0016291072735419639 0.04016097553074359 0.061422248049215825 0.044454985586079687
leaf_weight=11 13.000000000000002 10.000000000000002 14.999999999999998 19 9.9999999999999982 13 10 13.999999999999998 9.9999999999999982 18.000000000000004 9.9999999999999982 12.000000000000002 10.000000000000002 12.999999999999998 12.000000000000002 17.000000000000004 13.999999999999998 9.9999999999999982 10.999999999999998 9.9999999999999982 15.999999999999998 13.999999999999998 9.9999999999999982 11.000000000000002 9.9999999999999982 9.9999999999999982 10.999999999999998 11.999999999999998 10.999999999999998 11.999999999999998 12.999999999999998 11.000000000000002 11.999999999999998 9.9999999999999982 12.999999999999998 10.000000000000002 11 10.999999999999998
leaf_count=11 13 10 15 19 10 13 10 14 10 18 10 12 10 13 12 17 14 10 11 10 16 14 10 11 10 10 11 12 11 12 13 11 12 10 13 10 11 11
internal_value=0 0.0156591 -0.0261579 -0.000494464 -0.0290427 -0.0525353 -0.0939788 0.0128119 0.0223746 0.0279682 0.0016655 0.0400416 0.0217756 0.0554641 -0.0189335 -0.0336438 -0.00897343 -0.0616776 -0.018719 -0.0473334 -0.0803106 0.0387548 0.0434809 0.048014 0.00581124 0.0815035 0.0387603 0.0445467 -0.00756423 -0.00920794 -0.000380821 -0.00725677 0.0682017 0.052607 0.00466883 0.0472137 0.0517989 0.0424102
internal_weight=0 294 176 173 55 45 23 118 99 89 28 61 37 23 161 65 96 38 82 23 28 121 107 97 27 21 76 65 59 22 48 37 24 53 24 43 22 21
internal_count=470 294 176 173 55 45 23 118 99 89 28 61 37 23 161 65 96 38 82 23 28 121 107 97 27 21 76 65 59 22 48 37 24 53 24 43 22 21
is_linear=0
shrinkage=0.2


Tree=10
num_leaves=39
num_cat=0
split_feature=27 0 236 216 27 27 0 27 27 73 73 128 236 0 0 236 31 114 0 27 236 0 236 27 236 207 236 27 27 216 75 27 27 75 236 236 236 128
split_gain=3.08026 1.856 1.75496 1.29502 1.3092 1.08065 1.58128 2.01173 1.56506 1.4926 1.28627 1.20738 1.21339 0.973903 1.70011 0.731696 0.68672 0.656464 0.652064 0.935279 0.545243 0.978926 0.689117 0.539249 0.481447 0.470486 0.51006 0.436333 0.664225 0.491513 0.341499 0.302422 0.635927 0.263234 0.219054 0.204493 0.170209 0.0142099
threshold=2003.5000000000002 419.50000000000006 15.280392605000001 1.0000000180025095e-35 2015.5000000000002 1966.5000000000002 722.50000000000011 1974.5000000000002 1937.5000000000002 1.0000000180025095e-35 1.0000000180025095e-35 1.0000000180025095e-35 15.475528740000001 60.500000000000007 487.00000000000006 15.301879720000001 1.0000000180025095e-35 1.0000000180025095e-35 548.00000000000011 2007.5000000000002 19.681908650000004 607.00000000000011 24.021313535000001 1985.5000000000002 21.094255295000004 1.0000000180025095e-35 12.085990065000003 1956.5000000000002 1984.5000000000002 1.0000000180025095e-35 1.0000000180025095e-35 1979.5000000000002 1973.5000000000002 1.0000000180025095e-35 12.339584265000001 24.161262055000005 9.1708614295000022 1.0000000180025095e-35
decision_type=2 2 2 2 2 2 2 2 2 2 2 2 2 2 2 2 2 2 2 2 2 2 2 2 2 2 2 2 2 2 2 2 2 2 2 2 2 2
left_child=2 3 25 15 -5 8 7 -7 10 -10 -4 12 -9 -14 23 30 17 -16 19 24 33 -22 -23 -15 -3 27 -27 -1 31 -30 34 32 36 -20 -2 -24 37 -29
right_child=1 18 5 4 -6 6 -8 11 9 -11 -12 -13 13 14 16 -17 -18 -19 20 -21 21 22 35 -25 -26 26 -28 28 29 -31 -32 -33 -34 -35 -36 -37 -38 -39
leaf_value=-0.014200948160141709 0.028515532612800588 -0.034966209232807133 0.047602776344865566 -0.11668688552454112 -0.029297062692542869 0.094808524008840322 -0.06551573902368546 -0.066357120275497436 -0.093626361778553796 -0.0014997811367114381 -0.041239887205037191 0.064528938726736956 0.051507732132449746 -0.01645146019079468 -0.03524863954633474 -0.066329673926035559 0.062075046201546996 0.034134855121374125 0.024142921552993357 0.070975455865263937 -0.083315934296697383 -0.052758475596254517 -0.010731510953469707 -0.079075813428922143 0.027094868328422308 0.027090164721012108 0.090968825370073322 0.042566478550434092 -0.016939804198987343 0.034721120504232546 -0.035092480604847272 0.062732035235354783 -0.0065884049050509933 -0.012735825379689531 -0.013346487469971181 0.027832966162399816 0.069192497581243517 0.03190443873405456
leaf_weight=9.9999999999999982 10.000000000000002 10.000000000000005 15.999999999999998 16.000000000000004 11.999999999999998 11.999999999999998 9.9999999999999982 9.9999999999999982 17 12.000000000000002 11.000000000000002 12.999999999999998 15.999999999999998 11.000000000000002 10 11.999999999999998 11.999999999999998 12 15.999999999999998 9.9999999999999982 9.9999999999999982 10.999999999999998 11.000000000000002 10.999999999999998 9.9999999999999982 10.000000000000002 9.9999999999999982 10.000000000000004 17 13.000000000000002 11.999999999999998 19 11.999999999999998 15.000000000000002 9.9999999999999982 10.999999999999998 9.9999999999999982 10
leaf_count=10 10 10 16 16 12 12 10 10 17 12 11 13 16 11 10 12 12 12 16 10 10 11 11 11 10 10 10 10 17 13 12 19 12 15 10 11 10 10
internal_value=0 -0.0209263 0.0125273 -0.0456101 -0.0792341 -0.000395571 0.0105402 0.0176483 -0.0232436 -0.055505 0.0114076 0.0079017 -0.00107579 0.00799106 -0.00444228 -0.0242131 0.0235892 0.0025969 -0.00383746 0.0210347 -0.0139208 -0.0284974 -0.0118857 -0.0477636 -0.00393567 0.0310038 0.0590295 0.0254542 0.0298119 0.0054466 -0.00841935 0.0417948 0.0323232 0.00629837 0.00758452 0.00855073 0.0478878 0.0372355
internal_weight=0 176 294 72 28 173 117 107 56 29 27 95 82 72 56 44 34 22 104 30 74 43 33 22 20 121 20 101 91 30 32 61 42 31 20 22 30 20
internal_count=470 176 294 72 28 173 117 107 56 29 27 95 82 72 56 44 34 22 104 30 74 43 33 22 20 121 20 101 91 30 32 61 42 31 20 22 30 20
is_linear=0
shrinkage=0.2


Tree=11
num_leaves=35
num_cat=0
split_feature=27 115 0 0 0 0 29 209 91 0 213 0 27 207 130 0 209 27 197 0 209 0 27 27 50 27 0 27 27 0 0 216 0 27
split_gain=1.97137 1.49791 1.56992 0.648177 2.17203 1.04903 1.81908 2.04258 0.755313 1.3372 1.09928 0.784638 0.59998 0.576926 0.633469 0.669016 0.570288 0.562586 0.443025 0.390815 0.367998 0.345346 0.334832 0.484792 0.24154 0.360872 0.368093 0.352355 0.348701 0.205342 0.189084 0.13319 0.124771 0.0283355
threshold=2003.5000000000002 1.0000000180025095e-35 120.50000000000001 98.500000000000014 76.000000000000014 377.50000000000006 1.0000000180025095e-35 1.0000000180025095e-35 1.0000000180025095e-35 447.50000000000006 1.0000000180025095e-35 478.50000000000006 1980.5000000000002 1.0000000180025095e-35 1.0000000180025095e-35 541.50000000000011 1.0000000180025095e-35 1980.5000000000002 1.0000000180025095e-35 343.50000000000006 1.0000000180025095e-35 638.00000000000011 2007.5000000000002 2012.5000000000002 1.0000000180025095e-35 1995.5000000000002 194.50000000000003 1978.5000000000002 1979.5000000000002 46.500000000000007 591.00000000000011 1.0000000180025095e-35 535.50000000000011 1966.5000000000002
decision_type=2 2 2 2 2 2 2 2 2 2 2 2 2 2 2 2 2 2 2 2 2 2 2 2 2 2 2 2 2 2 2 2 2 2
left_child=3 2 -2 4 17 19 8 -8 10 -10 11 -7 -13 14 16 -16 -4 -1 -18 24 -11 22 32 -24 28 26 -26 31 -5 -19 -25 33 -20 -28
right_child=1 -3 13 5 -6 6 7 -9 9 20 -12 12 -14 -15 15 -17 18 29 21 -21 -22 -23 23 30 25 -27 27 -29 -30 -31 -32 -33 -34 -35
leaf_value=-0.019205726285144921 -0.077746046219880766 -0.077189318984746944 0.051770451925694939 -0.018725377817948655 -0.089081371372396301 0.014258277136832476 -0.10662073356409868 0.012694700875065544 -0.021081055204073589 0.038274197280406951 0.04395523145794869 -0.0096760556779124495 -0.074341979374488207 -0.042438528512914978 -0.056504704492787508 0.0032287567853927614 0.035750111249776992 0.050863233730196938 -0.023063854329091936 0.057532474932571256 0.085263460874557495 -0.031411938468615216 0.048131557864447436 0.01748271611603823 0.059926326200366024 0.0010406857071075138 0.0357324331998825 0.0033990252969993487 0.02948950951298078 0.01474502204972155 -0.018819616734981538 0.057397059809882189 0.0037015959281813011 0.02179325267672539
leaf_weight=15.999999999999998 12.999999999999998 14.999999999999998 9.9999999999999982 12.000000000000002 10.999999999999998 15.999999999999998 12 11 11.999999999999998 15 14.999999999999998 11.000000000000002 11.999999999999998 14.999999999999998 15.000000000000002 14.999999999999998 12.999999999999998 10.000000000000002 19.000000000000004 14.999999999999998 12 14.999999999999998 11.999999999999998 11.000000000000002 17 15.999999999999998 14.000000000000002 18 11.999999999999998 17 11.999999999999998 9.9999999999999982 10.999999999999998 9.9999999999999982
leaf_count=16 13 15 10 12 11 16 12 11 12 15 15 11 12 15 15 15 13 10 19 15 12 15 12 11 17 16 14 18 12 17 12 10 11 10
internal_value=0 -0.016741 -0.0111092 0.0100218 -0.00977572 0.0144763 0.000805304 -0.0495568 0.0132605 0.0344693 -0.00205703 -0.019754 -0.0434148 -0.00525596 -0.00106244 -0.026638 0.00638674 0.0105118 0.00150677 0.0272653 0.0591583 -0.00405777 0.00225473 0.0155444 0.0231001 0.0281028 0.0343781 0.0260258 0.00538207 0.0281221 -0.00145763 0.0380046 -0.0132499 0.0299244
internal_weight=0 176 161 294 54 240 116 23 93 39 54 39 23 148 133 30 103 43 93 124 27 80 65 35 109 85 69 52 24 27 23 34 30 24
internal_count=470 176 161 294 54 240 116 23 93 39 54 39 23 148 133 30 103 43 93 124 27 80 65 35 109 85 69 52 24 27 23 34 30 24
is_linear=0
shrinkage=0.2


end of trees

feature_importances:
Column_236=116
Column_0=91
Column_27=60
Column_31=19
Column_25=10
Column_75=8
Column_130=8
Column_209=8
Column_26=6
Column_197=6
Column_207=6
Column_29=5
Column_91=5
Column_2=4
Column_73=4
Column_114=4
Column_195=4
Column_216=4
Column_32=3
Column_50=3
Column_90=3
Column_112=3
Column_115=3
Column_126=3
Column_128=3
Column_208=3
Column_214=3
Column_1=2
Column_30=2
Column_49=2
Column_77=2
Column_138=2
Column_33=1
Column_74=1
Column_80=1
Column_92=1
Column_113=1
Column_125=1
Column_127=1
Column_141=1
Column_194=1
Column_199=1
Column_203=1
Column_213=1
Column_217=1
Column_219=1

parameters:
[boosting: gbdt]
[objective: regression]
[metric: rmse]
[tree_learner: serial]
[device_type: cpu]
[data: ]
[valid: ]
[num_iterations: 10000]
[learning_rate: 0.2]
[num_leaves: 63]
[num_threads: 0]
[deterministic: 0]
[force_col_wise: 0]
[force_row_wise: 0]
[histogram_pool_size: -1]
[max_depth: -1]
[min_data_in_leaf: 10]
[min_sum_hessian_in_leaf: 0.001]
[bagging_fraction: 1]
[pos_bagging_fraction: 1]
[neg_bagging_fraction: 1]
[bagging_freq: 0]
[bagging_seed: 21709]
[feature_fraction: 0.5]
[feature_fraction_bynode: 1]
[feature_fraction_seed: 24116]
[extra_trees: 0]
[extra_seed: 15571]
[early_stopping_round: 0]
[first_metric_only: 0]
[max_delta_step: 0]
[lambda_l1: 0]
[lambda_l2: 0]
[linear_lambda: 0]
[min_gain_to_split: 0]
[drop_rate: 0.1]
[max_drop: 50]
[skip_drop: 0.5]
[xgboost_dart_mode: 0]
[uniform_drop: 0]
[drop_seed: 15722]
[top_rate: 0.2]
[other_rate: 0.1]
[min_data_per_group: 100]
[max_cat_threshold: 32]
[cat_l2: 10]
[cat_smooth: 10]
[max_cat_to_onehot: 4]
[top_k: 20]
[monotone_constraints: ]
[monotone_constraints_method: basic]
[monotone_penalty: 0]
[feature_contri: ]
[forcedsplits_filename: ]
[refit_decay_rate: 0.9]
[cegb_tradeoff: 1]
[cegb_penalty_split: 0]
[cegb_penalty_feature_lazy: ]
[cegb_penalty_feature_coupled: ]
[path_smooth: 0]
[interaction_constraints: ]
[verbosity: -1]
[saved_feature_importance_type: 0]
[linear_tree: 0]
[max_bin: 255]
[max_bin_by_feature: ]
[min_data_in_bin: 3]
[bin_construct_sample_cnt: 200000]
[data_random_seed: 4074]
[is_enable_sparse: 1]
[enable_bundle: 1]
[use_missing: 1]
[zero_as_missing: 0]
[feature_pre_filter: 1]
[pre_partition: 0]
[two_round: 0]
[header: 0]
[label_column: ]
[weight_column: ]
[group_column: ]
[ignore_column: ]
[categorical_feature: ]
[forcedbins_filename: ]
[precise_float_parser: 0]
[objective_seed: 10917]
[num_class: 1]
[is_unbalance: 0]
[scale_pos_weight: 1]
[sigmoid: 1]
[boost_from_average: 1]
[reg_sqrt: 0]
[alpha: 0.9]
[fair_c: 1]
[poisson_max_delta_step: 0.7]
[tweedie_variance_power: 1.5]
[lambdarank_truncation_level: 30]
[lambdarank_norm: 1]
[label_gain: ]
[eval_at: ]
[multi_error_top_k: 1]
[auc_mu_weights: ]
[num_machines: 1]
[local_listen_port: 12400]
[time_out: 120]
[machine_list_filename: ]
[machines: ]
[gpu_platform_id: -1]
[gpu_device_id: -1]
[gpu_use_dp: 0]
[num_gpu: 1]

end of parameters

pandas_categorical:null
