tree
version=v3
num_class=1
num_tree_per_iteration=1
label_index=0
max_feature_idx=236
objective=regression
feature_names=Column_0 Column_1 Column_2 Column_3 Column_4 Column_5 Column_6 Column_7 Column_8 Column_9 Column_10 Column_11 Column_12 Column_13 Column_14 Column_15 Column_16 Column_17 Column_18 Column_19 Column_20 Column_21 Column_22 Column_23 Column_24 Column_25 Column_26 Column_27 Column_28 Column_29 Column_30 Column_31 Column_32 Column_33 Column_34 Column_35 Column_36 Column_37 Column_38 Column_39 Column_40 Column_41 Column_42 Column_43 Column_44 Column_45 Column_46 Column_47 Column_48 Column_49 Column_50 Column_51 Column_52 Column_53 Column_54 Column_55 Column_56 Column_57 Column_58 Column_59 Column_60 Column_61 Column_62 Column_63 Column_64 Column_65 Column_66 Column_67 Column_68 Column_69 Column_70 Column_71 Column_72 Column_73 Column_74 Column_75 Column_76 Column_77 Column_78 Column_79 Column_80 Column_81 Column_82 Column_83 Column_84 Column_85 Column_86 Column_87 Column_88 Column_89 Column_90 Column_91 Column_92 Column_93 Column_94 Column_95 Column_96 Column_97 Column_98 Column_99 Column_100 Column_101 Column_102 Column_103 Column_104 Column_105 Column_106 Column_107 Column_108 Column_109 Column_110 Column_111 Column_112 Column_113 Column_114 Column_115 Column_116 Column_117 Column_118 Column_119 Column_120 Column_121 Column_122 Column_123 Column_124 Column_125 Column_126 Column_127 Column_128 Column_129 Column_130 Column_131 Column_132 Column_133 Column_134 Column_135 Column_136 Column_137 Column_138 Column_139 Column_140 Column_141 Column_142 Column_143 Column_144 Column_145 Column_146 Column_147 Column_148 Column_149 Column_150 Column_151 Column_152 Column_153 Column_154 Column_155 Column_156 Column_157 Column_158 Column_159 Column_160 Column_161 Column_162 Column_163 Column_164 Column_165 Column_166 Column_167 Column_168 Column_169 Column_170 Column_171 Column_172 Column_173 Column_174 Column_175 Column_176 Column_177 Column_178 Column_179 Column_180 Column_181 Column_182 Column_183 Column_184 Column_185 Column_186 Column_187 Column_188 Column_189 Column_190 Column_191 Column_192 Column_193 Column_194 Column_195 Column_196 Column_197 Column_198 Column_199 Column_200 Column_201 Column_202 Column_203 Column_204 Column_205 Column_206 Column_207 Column_208 Column_209 Column_210 Column_211 Column_212 Column_213 Column_214 Column_215 Column_216 Column_217 Column_218 Column_219 Column_220 Column_221 Column_222 Column_223 Column_224 Column_225 Column_226 Column_227 Column_228 Column_229 Column_230 Column_231 Column_232 Column_233 Column_234 Column_235 Column_236
feature_infos=[4:737] [0:1] [0:1] none none none none [0:1] [0:1] none none none none none none none none none none none none none none none none [0:25] [0:100] [0:2018] [0:1] [0:1] [0:1] [0:1] [0:1] [0:1] none none none none none none none none none none none none none none none [0:1] [0:1] none none none none none none [0:1] [0:1] none none none none none none none none none none none none none none [0:1] [0:1] [0:1] none [0:1] none none [0:1] none none none none none none none none none [0:1] [0:1] [0:1] [0:1] [0:1] none none none none none none none none none none none none none none none none none [0:1] [0:1] [0:1] [0:1] none none none none none none none none none [0:1] [0:1] [0:1] [0:1] none [0:1] [0:1] none none none [0:1] none none [0:1] none [0:1] [0:1] none none none none none none none none none none none none none none none none none none none none none none none none none none none none none none none none none none none none none none none none none none none none none none none none none none none none [0:1] [0:1] none [0:1] none [0:1] [0:1] none none [0:1] none none none [0:1] [0:1] [0:1] none none none [0:1] [0:1] [0:1] [0:1] [0:1] none [0:1] none none none none none none none none none none none none none none none none [8.5941493260000001:40.091110190000002]
tree_sizes=3503 3029 2838 3295 3580 3451 3645 3894 3742 3984 3663 3513 3857 3688

Tree=0
num_leaves=35
num_cat=0
split_feature=236 27 208 27 2 25 236 236 236 236 25 208 236 27 217 27 27 27 236 236 49 236 236 75 236 27 27 27 236 27 27 27 27 216
split_gain=100.402 17.1086 14.2334 11.6995 9.46133 10.8166 11.4338 8.79263 9.41138 7.0706 5.11071 5.06386 3.14182 3.07426 3.03622 3.4766 2.6256 3.74531 1.444 1.3185 1.32701 1.45233 1.29222 1.25348 1.14642 1.12625 0.803777 0.711958 0.595333 0.477232 0.474814 0.437802 0.327798 0.00113124
threshold=10.467710685000002 1995.5000000000002 1.0000000180025095e-35 2003.5000000000002 1.0000000180025095e-35 1.7500000000000002 25.107913430000004 18.734865550000006 14.876770190000002 20.955927850000005 1.7500000000000002 1.0000000180025095e-35 24.202125085000002 2000.5000000000002 1.0000000180025095e-35 1976.5000000000002 1955.5000000000002 1974.5000000000002 8.9110301685000017 21.127511120000005 1.0000000180025095e-35 24.101196300000002 21.788191795000007 1.0000000180025095e-35 19.542094920000004 1984.5000000000002 1985.5000000000002 1980.5000000000002 12.104742025000002 1979.5000000000002 1936.5000000000002 2009.5000000000002 2005.5000000000002 1.0000000180025095e-35
decision_type=2 2 2 2 2 2 2 2 2 2 2 2 2 2 2 2 2 2 2 2 2 2 2 2 2 2 2 2 2 2 2 2 2 2
left_child=3 2 4 18 16 6 14 8 10 24 28 19 -4 -10 15 30 -2 -18 -1 -11 21 22 32 -15 -9 29 -19 -7 -3 33 -6 -23 -21 -20
right_child=1 7 12 -5 5 27 -8 9 13 11 -12 -13 -14 23 -16 -17 17 26 25 20 -22 31 -24 -25 -26 -27 -28 -29 -30 -31 -32 -33 -34 -35
leaf_value=0.25380939571720779 0.0024568330295940458 -0.09404247244286118 -0.23242631764548591 0.010642515407626039 0.031829016872686522 0.041940381215636126 -0.23832136985001542 0.0012523688478354757 -0.11092128106217242 -0.11514449251568358 0.015090677897441802 -0.19564704419511139 -0.073887614025052187 -0.26839583646593074 -0.11659832240479767 -0.065564611666774547 0.19750528278895355 0.10143336715296661 0.19879455743891408 -0.046489343060429678 -0.10956225231263979 0.039511117325846543 -0.093719630991897049 -0.18907370416132777 0.076677921273363425 0.14332169891784283 0.037537534181045551 0.10786983838446623 -0.15297271854020733 0.25380939571720779 0.092044088231150512 -0.01967011572259247 0.0047198477254551691 0.20180286495548902
leaf_weight=34 10.999999999999998 16.000000000000004 10.000000000000002 11.999999999999998 11.000000000000002 10.000000000000002 11.999999999999998 19 12.999999999999998 12.999999999999998 19 11.999999999999998 9.9999999999999982 14.999999999999998 9.9999999999999982 14.999999999999998 13.999999999999998 18 10.000000000000004 10.000000000000002 10.999999999999998 10.000000000000002 19 17 13.999999999999998 10.999999999999998 13.999999999999998 19 11.999999999999998 9.9999999999999982 9.9999999999999982 9.9999999999999982 9.9999999999999982 10
leaf_count=34 11 16 10 12 11 10 12 19 13 13 19 12 10 15 10 15 14 18 10 10 11 10 19 17 14 11 14 19 12 10 10 10 10 10
internal_value=1.51859e-08 -0.0439527 0.00494188 0.193998 0.0269 -0.0145956 -0.0644612 -0.0804013 -0.127563 -0.0465039 -0.0649708 -0.0742083 -0.153157 -0.192937 -0.0191064 0.00797475 0.0902355 0.111226 0.223335 -0.0566509 -0.0457878 -0.0338976 -0.0563684 -0.226256 0.0332511 0.198064 0.0734789 0.0851355 -0.119298 0.218136 0.0605029 0.0099205 -0.0208847 0.200299
internal_weight=0 384 164 87 144 87 58 220 92 128 47 95 20 45 46 36 57 46 75 83 70 59 39 32 33 41 32 29 28 30 21 20 20 20
internal_count=471 384 164 87 144 87 58 220 92 128 47 95 20 45 46 36 57 46 75 83 70 59 39 32 33 41 32 29 28 30 21 20 20 20
is_linear=0
shrinkage=1


Tree=1
num_leaves=30
num_cat=0
split_feature=217 74 208 216 194 32 73 197 73 29 197 209 30 77 28 33 195 209 195 50 29 130 29 130 208 209 77 33 29
split_gain=23.6775 11.8316 9.23888 4.80637 3.42129 2.50701 2.23993 1.99652 1.9365 2.95018 1.84441 1.70079 1.59862 1.43933 1.31744 1.22945 1.03442 1.31577 0.849829 1.19271 0.814882 0.544948 0.472565 1.61739 0.369667 0.53986 0.229426 0.0163458 0.011733
threshold=1.0000000180025095e-35 1.0000000180025095e-35 1.0000000180025095e-35 1.0000000180025095e-35 1.0000000180025095e-35 1.0000000180025095e-35 1.0000000180025095e-35 1.0000000180025095e-35 1.0000000180025095e-35 1.0000000180025095e-35 1.0000000180025095e-35 1.0000000180025095e-35 1.0000000180025095e-35 1.0000000180025095e-35 1.0000000180025095e-35 1.0000000180025095e-35 1.0000000180025095e-35 1.0000000180025095e-35 1.0000000180025095e-35 1.0000000180025095e-35 1.0000000180025095e-35 1.0000000180025095e-35 1.0000000180025095e-35 1.0000000180025095e-35 1.0000000180025095e-35 1.0000000180025095e-35 1.0000000180025095e-35 1.0000000180025095e-35 1.0000000180025095e-35
decision_type=2 2 2 2 2 2 2 2 2 2 2 2 2 2 2 2 2 2 2 2 2 2 2 2 2 2 2 2 2
left_child=1 3 5 4 7 11 10 12 9 21 16 -2 18 15 -6 22 -5 -18 19 -1 -12 27 23 -13 25 -20 -7 -9 -15
right_child=2 -3 -4 6 14 26 -8 8 -10 -11 20 13 -14 28 -16 -17 17 -19 24 -21 -22 -23 -24 -25 -26 -27 -28 -29 -30
leaf_value=0.073181363840897878 -0.14137907719239592 0.21142286743436542 -0.21269193132718406 0.076009183889254928 -0.053952912903494313 -0.025101496008309451 -0.065802556470684379 -0.025456098066642882 0.10668863074854017 0.097953077654043832 -0.0030203206765074889 -0.0403138789403088 0.0061409311225781079 -0.094858594238758087 0.031599035859107963 -0.077195711941881628 -0.039736260880123483 0.058086114038120612 0.027763029036577791 0.15777597005168598 -0.058596089342609049 0.023283420503139498 -0.044606602171228998 0.061052639484405494 0.087057992567618703 0.077624801801223511 0.0097790337788561995 -0.035359366089105594 -0.086930440831929426
leaf_weight=15 9.9999999999999982 13.999999999999998 14.999999999999998 15.999999999999998 18 10.999999999999998 23 20 9.9999999999999982 11.999999999999998 31 17 12.999999999999998 15.999999999999998 12.000000000000002 22 11 11 15.999999999999998 12 15.999999999999998 10.999999999999998 18 10.000000000000002 24 19 24 10.000000000000002 14.000000000000002
leaf_count=15 10 14 15 16 18 11 23 20 10 12 31 17 13 16 12 22 11 11 16 12 16 11 18 10 24 19 24 10 14
internal_value=0 0.0317082 -0.0634165 0.0233216 0.0423078 -0.0476479 -0.0104318 0.0537967 0.0259639 0.0107328 0.00455092 -0.0628466 0.0715084 -0.0547505 -0.0197321 -0.0384483 0.0373157 0.00917493 0.0813896 0.110779 -0.0219397 -0.0147951 -0.0195051 -0.00277072 0.0679402 0.0548308 -0.00118342 -0.0287572 -0.0911588
internal_weight=0 314 157 300 192 142 108 162 63 53 85 107 99 97 30 67 38 22 86 27 47 41 45 27 59 35 35 30 30
internal_count=471 314 157 300 192 142 108 162 63 53 85 107 99 97 30 67 38 22 86 27 47 41 45 27 59 35 35 30 30
is_linear=0
shrinkage=0.2


Tree=2
num_leaves=29
num_cat=0
split_feature=217 74 208 32 216 25 208 2 29 31 115 73 2 25 25 130 32 31 130 29 207 31 33 130 207 31 33 90
split_gain=15.1536 7.57222 5.91288 3.95299 2.75072 2.99088 3.04514 3.21609 3.0365 2.58776 2.50057 4.32153 5.3023 3.06458 1.88897 2.63117 1.72579 1.37082 1.33878 1.07889 1.02013 0.792635 0.615009 0.352888 0.323359 0.17839 0.0288609 0.00369719
threshold=1.0000000180025095e-35 1.0000000180025095e-35 1.0000000180025095e-35 1.0000000180025095e-35 1.0000000180025095e-35 1.2500000000000002 1.0000000180025095e-35 1.0000000180025095e-35 1.0000000180025095e-35 1.0000000180025095e-35 1.0000000180025095e-35 1.0000000180025095e-35 1.0000000180025095e-35 1.7500000000000002 1.7500000000000002 1.0000000180025095e-35 1.0000000180025095e-35 1.0000000180025095e-35 1.0000000180025095e-35 1.0000000180025095e-35 1.0000000180025095e-35 1.0000000180025095e-35 1.0000000180025095e-35 1.0000000180025095e-35 1.0000000180025095e-35 1.0000000180025095e-35 1.0000000180025095e-35 1.0000000180025095e-35
decision_type=2 2 2 2 2 2 2 2 2 2 2 2 2 2 2 2 2 2 2 2 2 2 2 2 2 2 2 2
left_child=1 3 14 4 5 6 7 9 -8 27 11 12 -6 17 15 16 19 -14 -16 26 22 -15 23 -9 25 -7 -2 -1
right_child=2 -3 -4 -5 10 24 8 20 -10 -11 -12 -13 13 21 18 -17 -18 -19 -20 -21 -22 -23 -24 -25 -26 -27 -28 -29
leaf_value=0.013511483574455432 -0.072253474903603399 0.16913829871586392 -0.1701535447438558 -0.072212772041287593 0.1469261842114585 0.10945913466314472 0.02006079287905442 -0.0045493158583457659 0.13831423223018646 0.13578770227349279 -0.067361476899761907 -0.070442791400771393 -0.089282606045405055 0.024994721263647077 -0.023422973519191148 -0.12010928698711926 0.0039285605195267448 0.0028370084507124763 0.066202226132154443 -0.024175164489834398 -0.062351846179979686 0.09932118132710456 -0.044550663760552806 0.039659895487129691 0.060088045491526521 0.079099900647997864 -0.083679815488202247 0.018824961930513379
leaf_weight=11 24 13.999999999999998 14.999999999999998 18 13.999999999999998 15.000000000000002 19 26 15.999999999999998 10.999999999999998 19 19 12 12 20 18 29 14 10.000000000000002 27 17 11 11.999999999999998 9.9999999999999982 18 15.999999999999998 13.999999999999998 10
leaf_count=11 24 14 15 18 14 15 19 26 16 11 19 19 12 12 20 18 29 14 10 27 17 11 12 10 18 16 14 10
internal_value=0 0.0253666 -0.0507332 0.0186572 0.0244575 0.0392128 0.0235489 0.00530173 0.0741195 0.0572044 -0.00198533 0.0131628 0.0383772 0.00736319 -0.0381184 -0.0500569 -0.0366426 -0.0396797 0.00645209 -0.0547435 -0.0202503 0.0605422 -0.0053394 0.00773102 0.0814096 0.0937899 -0.0764632 0.0160417
internal_weight=0 314 157 300 282 181 132 97 35 32 101 82 63 49 142 112 94 26 30 65 65 23 48 36 49 31 38 21
internal_count=471 314 157 300 282 181 132 97 35 32 101 82 63 49 142 112 94 26 30 65 65 23 48 36 49 31 38 21
is_linear=0
shrinkage=0.2


Tree=3
num_leaves=34
num_cat=0
split_feature=27 27 80 27 115 195 126 75 217 214 27 27 27 27 27 50 214 27 75 195 27 75 27 27 27 75 75 27 114 27 138 27 29
split_gain=23.5438 7.56156 7.52461 6.5507 4.92718 4.57438 3.78991 3.46472 2.84239 2.69482 2.36892 2.23165 3.68831 1.72369 2.76772 1.46267 1.4149 1.39727 1.37298 1.22754 1.68225 1.29986 1.22434 1.16226 1.13349 0.71187 0.561734 0.408436 0.344591 0.255842 0.135688 0.127949 0.03848
threshold=1995.5000000000002 1957.5000000000002 1.0000000180025095e-35 1970.5000000000002 1.0000000180025095e-35 1.0000000180025095e-35 1.0000000180025095e-35 1.0000000180025095e-35 1.0000000180025095e-35 1.0000000180025095e-35 2016.5000000000002 1984.5000000000002 1988.5000000000002 1998.5000000000002 2003.5000000000002 1.0000000180025095e-35 1.0000000180025095e-35 2014.5000000000002 1.0000000180025095e-35 1.0000000180025095e-35 1981.5000000000002 1.0000000180025095e-35 2009.5000000000002 1985.5000000000002 1986.5000000000002 1.0000000180025095e-35 1.0000000180025095e-35 2006.5000000000002 1.0000000180025095e-35 2009.5000000000002 1.0000000180025095e-35 2000.5000000000002 1.0000000180025095e-35
decision_type=2 2 2 2 2 2 2 2 2 2 2 2 2 2 2 2 2 2 2 2 2 2 2 2 2 2 2 2 2 2 2 2 2
left_child=1 5 4 9 6 16 10 -8 11 18 13 19 23 32 31 -16 28 22 -3 20 21 -5 25 -13 -10 -17 -7 -27 -1 -6 -29 -15 -2
right_child=2 3 -4 8 29 26 7 -9 24 -11 -12 12 -14 14 15 17 -18 -19 -20 -21 -22 -23 -24 -25 -26 27 -28 30 -30 -31 -32 -33 -34
leaf_value=0.071367198441709787 -0.085849241912364954 0.11202364211732688 0.088635398820042621 -0.0089284083140747875 -0.1245096225630153 -0.060818671882152543 -0.18264759172286305 -0.028510941378772255 -0.068240188112990402 0.070787770654025833 -0.100553944314781 0.028075052946805946 0.099125591677924008 0.034573749554428178 0.024748151880853317 -0.0097369916027500517 -0.032974171017607051 -0.080757093181212755 0.20171058177947998 0.12429048170646032 0.11953805216721125 0.074519337061792618 0.021886397766716342 -0.05884267662186176 0.022553944994102827 -0.086170369386672982 -0.12785504557192326 -0.054342761210032869 0.025180794298648831 -0.16871034264564516 -0.024659580263224512 0.065831808894872668 -0.069347113428207527
leaf_weight=14 10 11.000000000000002 15.999999999999998 14.000000000000002 11.000000000000002 10 14 10 11.000000000000002 19 19 10.000000000000002 14.999999999999998 11.000000000000002 17 21 11.999999999999998 24 18 18 13.999999999999998 15.999999999999998 17 15.999999999999998 10.999999999999998 11.999999999999998 10 14 12 9.9999999999999982 11 9.9999999999999982 13
leaf_count=14 10 11 16 14 11 10 14 10 11 19 19 10 15 11 17 21 12 24 18 18 14 16 17 16 11 12 10 14 12 10 11 10 13
internal_value=0 0.0455783 -0.0438691 0.06653 -0.0533337 -0.0169158 -0.0437933 -0.118424 0.0424134 0.129334 -0.0337869 0.0563517 0.02015 -0.0258583 -0.0173528 -0.0294479 0.0238321 -0.0387543 0.167691 0.0802915 0.0622919 0.0355771 -0.0253134 -0.0254128 -0.0228431 -0.0391478 -0.0943369 -0.0558405 0.0500504 -0.145558 -0.0412822 0.0494585 -0.076522
internal_weight=0 231 240 173 224 58 203 24 125 48 179 103 41 160 137 116 38 99 29 62 44 30 75 26 22 58 20 37 26 21 25 21 23
internal_count=471 231 240 173 224 58 203 24 125 48 179 103 41 160 137 116 38 99 29 62 44 30 75 26 22 58 20 37 26 21 25 21 23
is_linear=0
shrinkage=0.2


Tree=4
num_leaves=36
num_cat=0
split_feature=27 0 0 208 0 2 26 0 114 197 27 0 0 27 0 25 0 208 195 27 0 0 27 27 0 0 0 0 29 27 0 114 0 209 0
split_gain=15.068 8.90272 20.6792 10.3821 8.16152 4.92431 3.61278 3.29751 3.89542 3.19886 2.91565 2.65563 3.75553 1.54179 1.46534 1.39783 1.27018 1.03627 1.27873 0.874967 0.863762 1.39232 0.787696 1.56376 0.75816 1.51425 0.592646 0.778004 0.771416 0.306165 0.462217 0.304516 0.20617 0.0621679 0.0208086
threshold=1995.5000000000002 376.50000000000006 215.00000000000003 1.0000000180025095e-35 127.50000000000001 1.0000000180025095e-35 21.500000000000004 517.50000000000011 1.0000000180025095e-35 1.0000000180025095e-35 2004.5000000000002 99.500000000000014 171.00000000000003 2004.5000000000002 636.50000000000011 1.7500000000000002 107.50000000000001 1.0000000180025095e-35 1.0000000180025095e-35 1985.5000000000002 189.50000000000003 394.50000000000006 1966.5000000000002 1980.5000000000002 639.50000000000011 662.50000000000011 601.50000000000011 577.50000000000011 1.0000000180025095e-35 1973.5000000000002 279.00000000000006 1.0000000180025095e-35 327.50000000000006 1.0000000180025095e-35 500.50000000000006
decision_type=2 2 2 2 2 2 2 2 2 2 2 2 2 2 2 2 2 2 2 2 2 2 2 2 2 2 2 2 2 2 2 2 2 2 2
left_child=1 2 11 5 10 14 7 17 -9 -7 -2 15 -13 -8 22 19 -12 18 20 -1 -6 -22 -3 -24 26 -26 27 28 -10 32 -31 -32 33 -4 -23
right_child=4 3 29 -5 6 9 13 8 24 -11 16 12 -14 -15 -16 -17 -18 -19 -20 -21 21 34 23 -25 25 -27 -28 -29 -30 30 31 -33 -34 -35 -36
leaf_value=-0.11725171897560355 -0.051439865048115076 -0.0056208342652429239 0.17499342838923138 -0.16240514347950619 -0.043242677192514144 -0.094138369182320811 0.10218296820918715 -0.090950867847392439 0.050448337323032326 0.02723530863877386 -0.22354702353477471 0.099571726545691464 -0.054282768341627985 0.0044874619958656173 0.11733226134226873 -1.5574374369212559e-07 -0.12506086772138422 -0.010613483438889187 -0.013796136037192562 -0.037149114683270458 -0.15427795435701097 -0.066849946704777785 0.10597081757508789 0.0035113317045298493 -0.076589069041338817 0.01864392713588827 0.05548442304134369 -0.036758345568721949 -0.0074992817114381237 0.16236047744750978 0.14017831087112426 0.093755980122547877 0.13399316722696478 0.15463531970977781 -0.07945557236671448
leaf_weight=12.000000000000002 12.999999999999998 10.999999999999998 15 14.999999999999998 11.999999999999998 19 12.000000000000002 19 20 15.999999999999998 10.000000000000002 15.000000000000002 10.999999999999998 13.999999999999998 12.999999999999998 13.999999999999998 10.999999999999998 11.999999999999998 10.999999999999998 9.9999999999999982 13.999999999999998 11.000000000000002 13.000000000000002 10.999999999999998 11.000000000000002 17 14.999999999999998 10.999999999999998 17 11.999999999999998 10 13 10.999999999999998 10 9.9999999999999982
leaf_count=12 13 11 15 15 12 19 12 19 20 16 10 15 11 14 13 14 11 12 11 10 14 11 13 11 11 17 15 11 17 12 10 13 11 10 10
internal_value=0 0.0364626 0.0701659 -0.00927761 -0.0350953 0.018396 -0.0201117 -0.0301779 -0.0085836 -0.0386533 -0.125878 -0.0142266 0.0344794 0.0495777 0.0599945 -0.0494032 -0.171959 -0.0641118 -0.0751805 -0.0808414 -0.089547 -0.105423 0.0386976 0.0590102 0.00861396 -0.018769 0.0207842 0.00994036 0.0238238 0.143861 0.130541 0.11394 0.156811 0.16685 -0.0728526
internal_weight=0 231 133 98 240 83 206 180 110 35 34 62 26 26 48 36 21 70 58 22 47 35 35 24 91 28 63 48 37 71 35 23 36 25 21
internal_count=471 231 133 98 240 83 206 180 110 35 34 62 26 26 48 36 21 70 58 22 47 35 35 24 91 28 63 48 37 71 35 23 36 25 21
is_linear=0
shrinkage=0.2


Tree=5
num_leaves=34
num_cat=0
split_feature=236 25 0 114 217 236 0 115 0 50 0 26 0 31 0 32 236 77 0 31 236 0 236 236 25 0 138 0 138 77 26 0 236
split_gain=24.2334 4.20133 3.67615 3.73782 2.46233 2.24885 3.69613 2.10699 2.09647 3.55721 1.23425 1.05685 1.02428 2.50371 1.63006 1.6073 1.13084 0.938255 1.77453 1.97483 0.828637 2.21105 0.809351 1.10476 0.695102 0.360719 0.34449 0.683009 0.291854 0.343028 0.146421 0.0975661 0.0881999
threshold=10.286845695000002 1.7500000000000002 118.50000000000001 1.0000000180025095e-35 1.0000000180025095e-35 14.106593415000001 376.50000000000006 1.0000000180025095e-35 455.50000000000006 1.0000000180025095e-35 631.50000000000011 21.500000000000004 704.00000000000011 1.0000000180025095e-35 514.50000000000011 1.0000000180025095e-35 24.663568640000005 1.0000000180025095e-35 153.50000000000003 1.0000000180025095e-35 9.2210998700000015 270.00000000000006 12.104742025000002 12.004699085 1.7500000000000002 423.50000000000006 1.0000000180025095e-35 566.00000000000011 1.0000000180025095e-35 1.0000000180025095e-35 12.500000000000002 315.00000000000006 8.6935169000000023
decision_type=2 2 2 2 2 2 2 2 2 2 2 2 2 2 2 2 2 2 2 2 2 2 2 2 2 2 2 2 2 2 2 2 2
left_child=20 2 3 -2 -5 22 -7 8 9 -8 11 17 13 15 -15 16 28 18 -3 25 30 24 23 -4 -22 -20 27 -17 29 -10 31 -1 -33
right_child=1 10 5 4 -6 6 7 -9 12 -11 -12 -13 -14 14 -16 26 -18 -19 19 -21 21 -23 -24 -25 -26 -27 -28 -29 -30 -31 -32 32 -34
leaf_value=0.13597240447998046 0.0061068971856282316 -0.08022077204659582 -0.088425182321896903 -0.18055723746617636 -0.072159532575230848 0.10348374038934707 0.010218828320503234 -0.090717839635908612 0.012620881386101247 -0.12340671240406878 0.060166395538383058 0.047707158677718221 -0.059607732792695371 -0.0014636506111576004 0.092616163742016352 0.075617756433784933 -0.087982345496614781 0.043458951512972521 -0.054488806107214509 0.052934831836157374 0.13835140856412739 -0.0050590975582599645 -0.10831704719995078 -0.0059719727589533887 0.076089629926718777 -0.0098508712649345402 -0.0068055632337927791 0.0016984048485755921 -0.039379158772920309 -0.02879337798804045 0.095809361067685228 0.12752012014389033 0.10156773386353797
leaf_weight=12.999999999999998 12.999999999999998 13.999999999999998 13.000000000000002 14.999999999999998 19 9.9999999999999982 14.999999999999998 15.999999999999998 15.999999999999998 17 18 17 11.999999999999998 13.000000000000002 17 10.000000000000002 11.999999999999998 11.999999999999998 14.000000000000002 18 13.000000000000002 9.9999999999999982 12.999999999999998 12.999999999999998 15.999999999999998 14.999999999999998 10.000000000000002 9.9999999999999982 19 15.999999999999998 10.999999999999998 10.000000000000002 10.999999999999998
leaf_count=13 13 14 13 15 19 10 15 16 16 17 18 17 12 13 17 10 12 12 14 18 13 10 13 13 16 15 10 10 19 16 11 10 11
internal_value=0 -0.0211354 -0.0341006 -0.0851064 -0.119982 -0.0237675 -0.0149159 -0.0213858 -0.0147433 -0.0607697 0.0123579 0.00279621 -0.00383327 0.00160814 0.0518482 -0.0145983 -0.0327421 -0.0076625 -0.0177192 0.000898311 0.0973738 0.0760362 -0.0675714 -0.0471986 0.104 -0.0314002 0.0235035 0.0386581 -0.0197444 -0.00808625 0.115866 0.122356 0.113926
internal_weight=0 387 279 47 34 232 193 183 167 32 108 90 135 123 30 93 63 73 61 47 84 39 39 26 29 29 30 20 51 32 45 34 21
internal_count=471 387 279 47 34 232 193 183 167 32 108 90 135 123 30 93 63 73 61 47 84 39 39 26 29 29 30 20 51 32 45 34 21
is_linear=0
shrinkage=0.2


Tree=6
num_leaves=36
num_cat=0
split_feature=27 26 27 27 27 27 209 27 31 27 29 209 27 27 31 27 27 112 27 90 31 27 27 207 27 27 32 27 27 31 209 130 27 27 27
split_gain=8.03595 2.96687 1.50097 2.79012 3.06183 2.11155 1.71183 1.61479 3.59263 1.10413 1.07442 0.848101 0.708562 0.600771 0.578607 0.737587 0.52654 0.684013 0.482568 0.473245 0.779052 1.05622 1.00625 0.439135 0.592336 0.718408 0.399672 0.374515 0.356238 0.304967 0.30489 0.168475 0.532267 0.407297 0.0117694
threshold=2003.5000000000002 1.0000000180025095e-35 1984.5000000000002 1957.5000000000002 1936.5000000000002 1951.5000000000002 1.0000000180025095e-35 1970.5000000000002 1.0000000180025095e-35 1964.5000000000002 1.0000000180025095e-35 1.0000000180025095e-35 2005.5000000000002 1905.0000000000002 1.0000000180025095e-35 1988.5000000000002 1998.5000000000002 1.0000000180025095e-35 1977.5000000000002 1.0000000180025095e-35 1.0000000180025095e-35 2012.5000000000002 2015.5000000000002 1.0000000180025095e-35 2007.5000000000002 2016.5000000000002 1.0000000180025095e-35 1987.5000000000002 1981.5000000000002 1.0000000180025095e-35 1.0000000180025095e-35 1.0000000180025095e-35 2015.5000000000002 2012.5000000000002 2009.5000000000002
decision_type=2 2 2 2 2 2 2 2 2 2 2 2 2 2 2 2 2 2 2 2 2 2 2 2 2 2 2 2 2 2 2 2 2 2 2
left_child=1 2 3 4 13 -6 16 9 18 -5 14 -3 -2 -1 -8 -16 17 27 -9 20 23 -22 -23 24 26 31 -14 -4 -10 -13 -11 32 33 34 -26
right_child=12 11 6 7 5 -7 10 8 28 30 -12 29 19 -15 15 -17 -18 -19 -20 -21 21 22 -24 -25 25 -27 -28 -29 -30 -31 -32 -33 -34 -35 -36
leaf_value=0.071920891377058871 -0.069606550586851029 0.10340745713975695 0.002261183187365531 0.034444783793555367 -0.10220387998749225 0.01361744910478592 0.066972668468952182 -0.066990804062648235 0.052245479933917517 0.079383839368820194 -0.034015800120929883 0.021322189119051801 -0.064318801842940351 0.01120395394973457 -0.022566133195703674 0.046640260251505035 -0.0007997462382683387 -0.084036691257586851 -0.010073163403341405 -0.068832251429557803 -0.0077684839921338227 -0.121136953884905 -0.037391811050474642 0.020303787697445265 0.0017336395755410184 -0.048325750845320092 -0.015929595042358743 -0.052475672746077187 0.09847780674695969 0.068417212096127597 0.12215459452321131 -0.020536020318312306 0.040488543485601741 -0.042341219931840895 0.011213884705846961
leaf_weight=11.000000000000002 19 18 10.000000000000002 18 17.000000000000004 9.9999999999999982 13.999999999999998 11.000000000000002 20.000000000000004 15 11.999999999999998 11 18 15.999999999999998 11.000000000000002 13.999999999999998 12.999999999999998 12.999999999999998 12.999999999999998 10.999999999999998 13.999999999999998 11.000000000000002 11.999999999999998 10.999999999999998 10.000000000000005 17 11.000000000000002 9.9999999999999982 9.9999999999999982 11 12 13.999999999999998 11.999999999999998 9.9999999999999982 10.999999999999998
leaf_count=11 19 18 10 18 17 10 14 11 20 15 12 11 18 16 11 14 13 13 13 11 14 11 12 11 10 17 11 10 10 11 12 14 12 10 11
internal_value=0 0.0206385 0.0125468 0.024886 -0.0116833 -0.0593071 -0.00691603 0.0448329 0.0215155 0.0728138 0.0183169 0.0712117 -0.0330672 0.0359405 0.0344193 0.0161894 -0.0348917 -0.0483219 -0.0361604 -0.0287818 -0.0258642 -0.0510802 -0.0774438 -0.01768 -0.0217366 -0.0122419 -0.0459643 -0.0251072 0.0676563 0.0448697 0.0983931 -0.00148008 0.00472417 -0.0091201 0.00669948
internal_weight=0 290 250 153 54 27 97 99 54 45 51 40 181 27 39 25 46 33 24 162 151 37 23 114 103 74 29 20 30 22 27 57 43 31 21
internal_count=471 290 250 153 54 27 97 99 54 45 51 40 181 27 39 25 46 33 24 162 151 37 23 114 103 74 29 20 30 22 27 57 43 31 21
is_linear=0
shrinkage=0.2


Tree=7
num_leaves=38
num_cat=0
split_feature=236 113 25 27 27 27 27 236 236 236 27 115 31 27 236 91 114 236 236 27 236 27 126 27 236 236 236 236 27 27 77 236 27 236 236 27 236
split_gain=11.9868 2.59348 3.04778 2.48084 2.01074 1.85032 4.27321 3.28646 2.12507 2.93977 2.55261 1.92138 1.21188 2.45558 1.05815 1.01086 1.11515 1.39845 1.50875 0.872377 0.731063 0.714118 0.60017 0.59326 0.499917 0.537847 0.44735 0.626916 0.442604 0.251584 0.235409 0.226109 0.151755 0.136228 0.080105 0.0212936 0.00590205
threshold=10.467710685000002 1.0000000180025095e-35 1.7500000000000002 2003.5000000000002 1996.5000000000002 1936.5000000000002 1964.5000000000002 25.488623260000004 18.876736930000003 20.955927850000005 2004.5000000000002 1.0000000180025095e-35 1.0000000180025095e-35 1991.0000000000002 21.127511120000005 1.0000000180025095e-35 1.0000000180025095e-35 17.928162800000003 15.365687895000002 2015.5000000000002 24.233685640000001 2013.5000000000002 1.0000000180025095e-35 2008.5000000000002 24.101196300000002 21.994859010000003 15.167658070000002 15.689870085000001 1985.5000000000002 1973.5000000000002 1.0000000180025095e-35 22.497602635000003 2005.5000000000002 9.1708614295000022 8.7692990260000023 1961.0000000000002 14.106593415000001
decision_type=2 2 2 2 2 2 2 2 2 2 2 2 2 2 2 2 2 2 2 2 2 2 2 2 2 2 2 2 2 2 2 2 2 2 2 2 2
left_child=4 2 5 15 29 20 7 -7 10 32 26 12 13 -11 -15 -4 -17 18 -18 23 -2 -12 36 -5 25 30 -8 -28 -14 34 -16 -21 -10 -31 -1 -36 -23
right_child=1 -3 3 19 -6 6 8 -9 9 11 21 -13 28 14 24 16 17 -19 -20 31 -22 22 -24 -25 -26 -27 27 -29 -30 33 -32 -33 -34 -35 35 -37 -38
leaf_value=0.083409990072250362 -0.0069526335224509225 0.080524717542258178 0.093152990801767865 -0.016795116042097404 0.0095104796027666652 -0.043913374282419676 0.0081962991922505599 -0.19525946730917151 0.040075470320880408 -0.11297531239688396 -0.11663333928445355 -0.090245930353800463 0.055734500288963297 -0.06377304593722026 0.034399449117481704 0.078414506434152528 0.029683893231245179 0.070973656848073011 -0.068659689556807277 0.028197778761386863 0.066267085373401646 -0.087751192450523346 -0.024306992087513201 -0.078463190965927576 0.040016326037320221 -0.03642001207917929 -0.06020037574427467 0.0053652556240558627 0.00019336678087711334 0.084092360337575278 -0.0064168638334824481 -0.013355233994397251 0.072333871722221374 0.057942589679185086 0.096473949741233453 0.10922565340995789 -0.080879775583744054
leaf_weight=14.999999999999998 12.000000000000002 10.999999999999998 10.999999999999998 12.000000000000002 19 12.000000000000002 19 10.999999999999998 14.000000000000002 10.999999999999998 15.999999999999998 14.999999999999998 11.000000000000002 11.999999999999998 10 11.999999999999998 13.000000000000002 9.9999999999999982 11.999999999999998 10.000000000000002 9.9999999999999982 10.000000000000002 10.000000000000002 12.999999999999998 10.999999999999998 15.999999999999998 14.000000000000002 9.9999999999999982 11.999999999999998 14.999999999999998 13 10.999999999999998 9.9999999999999982 17 11.000000000000002 9.9999999999999982 9.9999999999999982
leaf_count=15 12 11 11 12 19 12 19 11 14 11 16 15 11 12 10 12 13 10 12 10 10 10 10 13 11 16 14 10 12 15 13 11 10 17 11 10 10
internal_value=0 -0.0151868 -0.0180094 0.0110661 0.0670314 -0.0292505 -0.0342009 -0.116296 -0.0257714 -0.00995455 -0.0497633 -0.023678 -0.0132768 -0.02589 -0.0104394 0.0385753 0.0258018 0.00776317 -0.017521 -0.0236194 0.0263291 -0.0825112 -0.0643127 -0.0488625 0.00236069 -0.00826013 -0.0147308 -0.0328814 0.0267565 0.0831034 0.0113294 0.00643191 0.0535165 0.0702003 0.0945728 0.102546 -0.0843155
internal_weight=0 384 373 104 87 269 247 23 224 135 89 111 96 73 62 58 47 35 25 46 22 46 30 25 50 39 43 24 23 68 23 21 24 32 36 21 20
internal_count=471 384 373 104 87 269 247 23 224 135 89 111 96 73 62 58 47 35 25 46 22 46 30 25 50 39 43 24 23 68 23 21 24 32 36 21 20
is_linear=0
shrinkage=0.2


Tree=8
num_leaves=37
num_cat=0
split_feature=0 0 208 0 0 114 0 0 90 125 75 216 216 75 0 217 0 0 0 0 0 0 0 73 0 0 214 0 91 0 0 0 0 199 0 0
split_gain=3.56323 2.9384 4.42352 3.78183 2.22291 2.11403 1.92851 1.67945 1.24659 2.37001 1.05869 1.33062 1.04352 1.97405 0.627892 0.541062 1.05874 0.323613 0.77885 0.53033 0.280848 0.578437 0.764136 0.423208 0.279142 0.626067 0.274929 0.178578 0.402785 0.405545 0.847612 0.129543 0.127804 0.0819132 0.0192519 0.0035758
threshold=118.50000000000001 376.50000000000006 1.0000000180025095e-35 229.50000000000003 140.00000000000003 1.0000000180025095e-35 616.50000000000011 394.50000000000006 1.0000000180025095e-35 1.0000000180025095e-35 1.0000000180025095e-35 1.0000000180025095e-35 1.0000000180025095e-35 1.0000000180025095e-35 103.50000000000001 1.0000000180025095e-35 514.50000000000011 647.00000000000011 601.50000000000011 577.50000000000011 444.50000000000006 478.50000000000006 524.50000000000011 1.0000000180025095e-35 559.50000000000011 528.50000000000011 1.0000000180025095e-35 344.50000000000006 1.0000000180025095e-35 270.00000000000006 296.00000000000006 657.50000000000011 696.50000000000011 1.0000000180025095e-35 248.50000000000003 318.50000000000006
decision_type=2 2 2 2 2 2 2 2 2 2 2 2 2 2 2 2 2 2 2 2 2 2 2 2 2 2 2 2 2 2 2 2 2 2 2 2
left_child=5 3 7 4 -2 -1 -4 -3 15 -10 11 -6 13 14 -7 20 -17 18 19 24 -9 -22 -23 31 25 -18 -12 28 33 34 -31 -24 -25 -5 -30 -32
right_child=1 2 6 27 10 12 -8 8 9 -11 26 -13 -14 -15 -16 16 17 -19 -20 -21 21 22 23 32 -26 -27 -28 -29 29 30 35 -33 -34 -35 -36 -37
leaf_value=0.016937931324355306 0.062358599752187729 -0.066411115114505467 -0.026696199391569406 0.082242359859602779 -0.01233953507617116 0.012698063254356382 -0.12990821465849875 -0.0054354624992067162 -0.097444593409697203 0.031078877232291476 0.018338110173741977 -0.098483379987569938 -0.11169799440182174 -0.10926722606214195 -0.052000818531960251 -0.055707294019785795 0.036141952770677464 -0.017954917825185334 0.053221804955426388 -0.037645743191242226 0.062604518572334206 -0.023155272006988525 0.028986423405317152 0.035280461311340321 0.03930651533106963 -0.02991484223554532 -0.02302209256216883 0.075271950364112855 0.069268463551998116 -0.021246338039636603 0.052741790488362299 0.0012606656977108546 0.065894682705402371 0.059179324792190027 0.056858187206089497 0.047393293082714089
leaf_weight=18 14.999999999999998 12.999999999999998 14.000000000000002 14 15.999999999999998 15.000000000000002 14.999999999999998 10.999999999999998 12 11 18 13.000000000000002 12.999999999999998 12.999999999999998 9.9999999999999982 10.999999999999998 11.000000000000002 12.999999999999998 17 9.9999999999999982 15.999999999999998 12.999999999999998 13.000000000000002 10.000000000000002 11.999999999999998 11.999999999999998 10.000000000000002 14.999999999999998 10.000000000000002 10.000000000000002 10.000000000000002 13.999999999999998 11.999999999999998 11 9.9999999999999982 9.9999999999999982
leaf_count=18 15 13 14 14 16 15 15 11 12 11 18 13 13 13 10 11 11 13 17 10 16 13 13 10 12 12 10 15 10 10 10 14 12 11 10 10
internal_value=0 0.00720697 -0.00684135 0.0280193 -0.00614545 -0.0419884 -0.0800817 0.00322486 0.00779692 -0.0359768 -0.0241728 -0.0509557 -0.062786 -0.0460529 -0.0131815 0.01355 0.00223698 0.0107355 0.0167512 0.00297343 0.0244818 0.0287009 0.0199515 0.031388 0.0145789 0.00167754 0.00356661 0.0553511 0.0513669 0.0410031 0.0262962 0.0146101 0.0519791 0.0720946 0.0630633 0.0500675
internal_weight=0 402 240 162 72 69 29 211 198 23 57 29 51 38 25 175 86 75 62 45 89 78 62 49 35 23 28 90 75 50 30 27 22 25 20 20
internal_count=471 402 240 162 72 69 29 211 198 23 57 29 51 38 25 175 86 75 62 45 89 78 62 49 35 23 28 90 75 50 30 27 22 25 20 20
is_linear=0
shrinkage=0.2


Tree=9
num_leaves=39
num_cat=0
split_feature=236 236 0 29 197 114 236 0 236 30 236 209 236 236 236 236 197 236 75 2 0 77 236 236 0 236 197 236 0 0 0 197 236 29 0 236 0 236
split_gain=5.12844 1.93179 1.38286 1.3606 1.43894 1.35298 1.68916 1.44111 1.16488 1.64058 1.45538 2.39752 1.5632 1.50152 1.32742 1.15378 2.65996 1.50669 2.40953 1.07886 0.987184 0.95061 0.877872 0.86024 1.28198 0.808232 0.673698 0.513795 1.05959 0.441272 0.42761 0.388687 0.284132 0.269326 0.216161 0.0374445 0.0419124 0.0569446
threshold=11.915349075000002 12.036555690000002 118.50000000000001 1.0000000180025095e-35 1.0000000180025095e-35 1.0000000180025095e-35 15.625748145000001 78.500000000000014 21.930321060000004 1.0000000180025095e-35 24.663568640000005 1.0000000180025095e-35 25.292953625000006 25.796897285000004 23.105765270000003 13.962475260000001 1.0000000180025095e-35 16.221073685000004 1.0000000180025095e-35 1.0000000180025095e-35 610.00000000000011 1.0000000180025095e-35 15.275868235000003 24.101196300000002 639.50000000000011 21.085970450000001 1.0000000180025095e-35 9.2612412885000008 265.50000000000006 387.50000000000006 475.50000000000006 1.0000000180025095e-35 10.183424710000002 1.0000000180025095e-35 566.00000000000011 8.6935169000000023 288.00000000000006 8.7772525095000002
decision_type=2 2 2 2 2 2 2 2 2 2 2 2 2 2 2 2 2 2 2 2 2 2 2 2 2 2 2 2 2 2 2 2 2 2 2 2 2 2
left_child=27 -2 5 8 -5 -3 7 -7 15 10 11 14 -12 -14 -10 26 19 -18 34 -17 21 30 -9 24 -13 -20 -4 35 31 -21 -6 32 -29 -33 -19 -1 -37 -38
right_child=1 2 3 4 20 6 -8 22 9 -11 12 23 13 -15 -16 16 17 18 25 29 -22 -23 -24 -25 -26 -27 -28 28 -30 -31 -32 33 -34 -35 -36 36 37 -39
leaf_value=0.064981257418791447 -0.089706480440994107 0.013550346272273195 -0.057777213745496485 -0.085498459490814388 0.0031289357692003239 0.019819090142846107 -0.12392960250377656 -0.026997445424397783 -0.018432559383412199 -0.083333918723193082 0.096843776106834423 0.036589639701626507 -0.057412862181663499 0.039245266881819896 -0.10908220761588641 0.13025759458541866 0.066462491667614532 0.052874955146883909 -0.080318546295165993 0.0808495750185102 -0.066725088059902196 -0.037097612252602212 -0.099573137362798061 0.048835560927788423 -0.057935390621423721 -0.0098940982652658774 0.010746287119885284 0.084506020918488467 -0.031895640026777985 0.022800354659557345 0.061617207676172264 0.00011417124081741679 0.036829422689042983 0.045464712642133226 0.016861565957466764 0.061157865478442264 0.056478309445083121 0.036556295381689613
leaf_weight=11.999999999999998 11.999999999999998 18 11 13.999999999999998 10.000000000000002 13.999999999999998 9.9999999999999982 15.000000000000002 12.000000000000002 10.999999999999998 9.9999999999999982 11.000000000000002 10.000000000000002 18 13.999999999999998 10.000000000000002 12.999999999999998 12.000000000000002 16.000000000000004 10.000000000000002 9.9999999999999982 12.999999999999998 11.999999999999998 14.999999999999998 11.999999999999998 10.999999999999998 12 10.000000000000002 9.9999999999999982 10.999999999999998 9.9999999999999982 11 9.9999999999999982 10 14.999999999999998 12.999999999999998 12.000000000000002 10.999999999999998
leaf_count=12 12 18 11 14 10 14 10 15 12 11 10 11 10 18 14 10 13 12 16 10 10 13 12 15 12 11 12 10 10 11 10 11 10 10 15 13 12 11
internal_value=0 -0.0107661 -0.00813475 -0.00209879 -0.0298077 -0.0335908 -0.0502288 -0.032253 0.00465081 -0.00995129 -0.00203748 -0.020446 0.0289664 0.00472451 -0.0672439 0.0182875 0.0277488 0.00533587 -0.00937979 0.0761895 -0.0116758 0.00500583 -0.0592533 0.0115735 -0.0127278 -0.0516271 -0.0220258 0.0404544 0.0264765 0.0504428 0.0323731 0.0407136 0.0606677 0.0217097 0.0328675 0.055306 0.0520809 0.0469504
internal_weight=0 372 360 291 57 69 51 41 234 113 102 64 38 28 26 121 98 67 54 31 43 33 27 38 23 27 23 99 51 21 20 41 20 21 27 48 36 23
internal_count=471 372 360 291 57 69 51 41 234 113 102 64 38 28 26 121 98 67 54 31 43 33 27 38 23 27 23 99 51 21 20 41 20 21 27 48 36 23
is_linear=0
shrinkage=0.2


Tree=10
num_leaves=36
num_cat=0
split_feature=0 0 208 0 217 0 114 0 50 213 90 219 217 0 75 0 0 0 0 0 73 0 0 0 0 138 0 197 0 0 0 0 91 0 0
split_gain=1.4595 1.17002 2.48558 1.69912 1.26275 0.893436 0.865906 0.83771 0.946445 0.680709 2.00206 1.09119 0.65691 0.54097 0.518592 0.269988 0.946289 0.244635 0.572417 0.235418 0.222691 0.181243 0.325362 0.315482 0.131322 0.121054 0.100235 0.0854377 0.0736267 0.0395138 0.0387315 0.0307041 0.046151 0.00336366 0.00288666
threshold=118.50000000000001 376.50000000000006 1.0000000180025095e-35 235.50000000000003 1.0000000180025095e-35 394.50000000000006 1.0000000180025095e-35 140.00000000000003 1.0000000180025095e-35 1.0000000180025095e-35 1.0000000180025095e-35 1.0000000180025095e-35 1.0000000180025095e-35 444.50000000000006 1.0000000180025095e-35 483.50000000000006 517.50000000000011 270.00000000000006 296.00000000000006 50.500000000000007 1.0000000180025095e-35 674.50000000000011 601.50000000000011 533.50000000000011 86.500000000000014 1.0000000180025095e-35 577.50000000000011 1.0000000180025095e-35 562.50000000000011 639.50000000000011 193.50000000000003 344.50000000000006 1.0000000180025095e-35 318.50000000000006 601.50000000000011
decision_type=2 2 2 2 2 2 2 2 2 2 2 2 2 2 2 2 2 2 2 2 2 2 2 2 2 2 2 2 2 2 2 2 2 2 2
left_child=6 3 5 7 -4 -3 -1 -2 -9 10 11 13 19 -7 -10 -15 -17 27 -19 -8 21 22 23 -18 -14 29 28 -5 -25 -24 -16 32 -20 -34 -22
right_child=1 2 4 17 -6 9 12 8 14 -11 -12 -13 24 15 30 16 20 18 31 -21 34 -23 25 26 -26 -27 -28 -29 -30 -31 -32 -33 33 -35 -36
leaf_value=0.010840275216226776 0.038966626822948464 -0.047496976531468907 -0.028876337644300965 0.066481377929449068 -0.11667949005961414 -0.033782323793723035 -0.088907328546047187 -0.053947823582326665 -0.024036175992928052 0.054978798736225479 -0.068961727406297413 0.067851707835992189 -0.037629137323661271 0.033306041796458886 0.013282480967395444 -0.036819509499602852 0.030558979672125799 -0.0031787050763765973 0.049334715604782087 -0.047357333172112707 0.034091567993164054 -0.011706373253837228 0.042564218462659759 -0.010821901426578941 -0.0098918152766095269 0.0097843671048229389 -0.024109659547155556 0.042615407674262917 0.01200463578104973 0.025841901898384097 0.028968743085861205 0.049323308691382406 0.035287931412458409 0.030100516304373742 0.029286020994186403
leaf_weight=18 14.999999999999998 12.999999999999998 19 12 10.000000000000002 12.999999999999998 10.000000000000002 17 19 10.999999999999998 13.999999999999998 11.999999999999998 11.000000000000002 15.999999999999998 17.000000000000004 18 10.999999999999998 14.999999999999998 10.000000000000002 11.999999999999998 10.000000000000002 14.999999999999998 13.000000000000002 13.000000000000002 18 10.999999999999998 10.999999999999998 12 9.9999999999999982 9.9999999999999982 9.9999999999999982 14.999999999999998 10.000000000000002 9.9999999999999982 9.9999999999999982
leaf_count=18 15 13 19 12 10 13 10 17 19 11 14 12 11 16 17 18 11 15 10 12 10 15 13 13 18 11 11 12 10 10 10 15 10 10 10
internal_value=0 0.00461246 -0.00425226 0.0177454 -0.0591533 0.00329338 -0.0268726 -0.0035104 -0.013624 0.0066281 0.00378395 0.00967088 -0.040183 0.00533442 0.00127831 0.00877035 0.00579633 0.0374829 0.0306567 -0.0662437 0.0125251 0.00844777 0.0122745 0.00111787 -0.0204129 0.0270406 -0.00840719 0.0545484 -0.00089732 0.0352936 0.0190922 0.0419351 0.0382411 0.0326942 0.0316888
internal_weight=0 402 240 162 29 211 69 78 63 198 187 173 51 161 46 148 132 84 60 22 114 94 79 45 29 34 34 24 23 23 27 45 30 20 20
internal_count=471 402 240 162 29 211 69 78 63 198 187 173 51 161 46 148 132 84 60 22 114 94 79 45 29 34 34 24 23 23 27 45 30 20 20
is_linear=0
shrinkage=0.2


Tree=11
num_leaves=35
num_cat=0
split_feature=27 0 115 0 219 209 125 31 0 27 0 0 217 27 0 217 27 0 0 0 0 27 31 27 27 27 0 27 25 0 0 0 195 0
split_gain=1.7654 3.31007 3.17066 1.64815 1.31503 1.72456 2.26546 1.25642 2.4676 1.66799 1.20887 1.03714 0.984416 1.43715 0.851261 0.719109 0.675541 1.05255 0.542014 1.14138 0.51182 0.989751 0.557219 0.443779 0.382194 0.585526 0.382613 0.329576 0.235669 0.227836 0.311303 0.190555 0.155781 0.0905917
threshold=2003.5000000000002 111.50000000000001 1.0000000180025095e-35 376.50000000000006 1.0000000180025095e-35 1.0000000180025095e-35 1.0000000180025095e-35 1.0000000180025095e-35 483.50000000000006 1980.5000000000002 258.50000000000006 99.500000000000014 1.0000000180025095e-35 2009.5000000000002 514.50000000000011 1.0000000180025095e-35 1966.5000000000002 542.50000000000011 149.00000000000003 193.50000000000003 78.500000000000014 1981.5000000000002 1.0000000180025095e-35 2015.5000000000002 1973.5000000000002 1979.5000000000002 275.50000000000006 1988.5000000000002 1.2500000000000002 566.00000000000011 616.50000000000011 185.50000000000003 1.0000000180025095e-35 327.50000000000006
decision_type=2 2 2 2 2 2 2 2 2 2 2 2 2 2 2 2 2 2 2 2 2 2 2 2 2 2 2 2 2 2 2 2 2 2
left_child=3 -2 10 11 5 6 7 9 -9 -5 15 20 13 -12 -14 31 -7 -18 -13 -20 21 -1 -23 -15 26 -26 -21 32 29 -16 -31 -3 -27 -28
right_child=1 2 -4 4 -6 16 -8 8 -10 -11 12 18 14 23 28 -17 17 -19 19 24 -22 22 -24 -25 25 27 33 -29 -30 30 -32 -33 -34 -35
leaf_value=-0.035264578762535866 -0.11699803918600082 -0.07291000031612134 -0.10737980169554551 -0.14590166807174679 0.052105973775570219 -0.018870959015946619 0.044667164371772247 0.04682546014135533 -0.077887650032838193 -0.040082544202987964 -0.011549626826308668 0.067899401982625326 -0.050430157780647279 0.09801230713725087 0.01664913474685616 0.0013161486014723778 -0.0049432712141424407 0.06880062776307265 -0.018607470269004504 0.085559773445129397 -0.040448431332002988 0.0012624523856423115 0.063581349452336622 0.042848431279084519 -0.013193127807850639 0.070318503914908917 0.049369318550452582 0.016411876722293741 0.02670810787726623 -0.035223507193418643 0.0053922381872932119 -0.036466762796044348 0.036659167029640886 0.025791711347516288
leaf_weight=12.999999999999998 11.999999999999998 11.000000000000002 11.999999999999998 11.000000000000002 12.999999999999998 17 10.999999999999998 11.000000000000002 14.999999999999998 12.999999999999998 15.999999999999998 14.999999999999998 12.999999999999998 10.000000000000002 18 15.999999999999998 16.000000000000004 14.999999999999998 18 9.9999999999999982 10.999999999999998 11 12 13.999999999999998 11.999999999999998 11 16.000000000000004 17 15.999999999999998 13.000000000000002 18 11.999999999999998 11 10.999999999999998
leaf_count=13 12 11 12 11 13 17 11 11 15 13 16 15 13 10 18 16 16 15 18 10 11 11 12 14 12 11 16 17 16 13 18 12 11 11
internal_value=0 -0.0154989 -0.00829187 0.00967346 -0.00801966 -0.0151906 -0.0375063 -0.0555845 -0.0251244 -0.088583 -0.000718273 0.022522 0.00937105 0.0348802 -0.00371055 -0.0312449 0.013169 0.0307393 0.0323158 0.0272804 -0.00269168 0.0088451 0.0337767 0.0658334 0.0366665 0.02544 0.052141 0.0373271 0.00563337 -0.00124818 -0.0116402 -0.0538961 0.0534888 0.0397636
internal_weight=0 181 169 290 122 109 61 50 26 24 157 168 118 40 78 39 48 31 121 106 47 36 23 24 88 51 37 39 65 49 31 23 22 27
internal_count=471 181 169 290 122 109 61 50 26 24 157 168 118 40 78 39 48 31 121 106 47 36 23 24 88 51 37 39 65 49 31 23 22 27
is_linear=0
shrinkage=0.2


Tree=12
num_leaves=38
num_cat=0
split_feature=236 126 236 208 31 236 236 236 236 0 50 236 0 236 194 0 0 0 209 236 236 236 236 0 130 209 236 0 209 0 0 236 236 0 236 138 0
split_gain=1.53462 1.16553 1.73616 1.43104 1.22682 0.995205 0.809865 0.779595 0.677581 0.544221 0.725968 0.61819 0.798392 0.448521 0.431338 0.525183 0.66187 0.417849 0.87595 0.394369 0.361383 0.60562 0.284493 0.24975 0.234174 0.46318 0.747955 0.354983 0.231318 0.231266 0.126872 0.115588 0.0517975 0.0237811 0.0226334 0.0110418 0.00566097
threshold=11.915349075000002 1.0000000180025095e-35 12.036555690000002 1.0000000180025095e-35 1.0000000180025095e-35 24.342771415000005 15.286603440000002 13.730196790000003 22.428846360000005 412.50000000000006 1.0000000180025095e-35 16.440219545000001 78.500000000000014 19.039476620000006 1.0000000180025095e-35 483.50000000000006 517.50000000000011 647.00000000000011 1.0000000180025095e-35 16.733430775000006 21.389322910000004 21.226347105000006 23.270324740000003 566.00000000000011 1.0000000180025095e-35 1.0000000180025095e-35 9.2898294585000016 303.50000000000006 1.0000000180025095e-35 460.00000000000006 258.50000000000006 12.243380245000003 10.237013400000002 310.50000000000006 22.264135920000005 1.0000000180025095e-35 130.50000000000003
decision_type=2 2 2 2 2 2 2 2 2 2 2 2 2 2 2 2 2 2 2 2 2 2 2 2 2 2 2 2 2 2 2 2 2 2 2 2 2
left_child=24 2 -2 6 -3 8 7 31 19 10 -8 12 -12 -11 15 29 28 20 -19 -5 21 23 -22 -18 25 26 33 32 -17 -15 -26 -4 -27 -1 -13 -20 -9
right_child=1 4 3 5 -6 -7 9 36 -10 13 11 34 -14 14 -16 16 17 18 35 -21 22 -23 -24 -25 30 27 -28 -29 -30 -31 -32 -33 -34 -35 -36 -37 -38
leaf_value=0.026681748790932547 -0.080309859189120203 -0.076991059424148675 0.016582601517438882 -0.058024542372335057 -0.0041278091173520999 0.01772525879469785 0.019011664183603394 0.051771569934984031 -0.095145466886460792 0.039812218050161996 0.036576251834630952 -0.059833045642484296 -0.037414894998073579 0.017311061080545181 -0.029891117768628257 -0.010219941437244414 0.038341309130191806 0.034021461822769848 -0.04094289243221283 -0.003147023916244507 0.05748112574219702 -0.038111267276108265 0.016743656399194153 0.0031367714467801545 -0.012921000383794304 0.051451807519928942 -0.020458724023774268 0.015139352157711984 -0.053237846493721 0.057133500874042509 0.018205192549662155 -0.013826331123709679 0.071340115964412684 0.037812863662838939 -0.046686304267495871 -0.031544251851737495 0.057914843860392778
leaf_weight=14.000000000000002 10.999999999999998 18 10.000000000000002 11.000000000000005 19 10.999999999999998 18 12.000000000000002 9.9999999999999982 14.999999999999998 10.000000000000002 11.000000000000002 13.999999999999998 14.000000000000002 13.999999999999998 10 13.999999999999998 11.000000000000002 10 9.9999999999999982 12.000000000000002 9.9999999999999982 15.999999999999998 19 10.000000000000002 11.000000000000005 15.999999999999998 9.9999999999999982 10 9.9999999999999982 10.999999999999998 9.9999999999999982 9.9999999999999982 17 9.9999999999999982 10 11.999999999999998
leaf_count=14 11 18 10 11 19 11 18 12 10 15 10 11 14 14 14 10 14 11 10 10 12 10 16 19 10 11 16 10 10 10 11 10 10 17 10 10 12
internal_value=0 -0.00588934 -0.00216886 0.000484076 -0.0395748 -0.0339575 0.00561368 0.0305409 -0.0522966 0.00100529 -0.0149343 -0.0285127 -0.00658525 0.00674355 0.00364336 0.00685899 0.00153871 0.00806177 -0.0113108 -0.0318924 0.0165202 0.00500615 0.0342026 0.018072 0.0221296 0.0271768 0.0146601 0.0461537 -0.0317289 0.0339037 0.0033832 0.00137814 0.0609224 0.0327859 -0.0535727 -0.0362436 0.0548432
internal_weight=0 372 335 324 37 42 282 44 31 238 63 45 24 175 160 146 122 102 31 21 71 43 28 33 99 78 47 31 20 24 21 20 21 31 21 20 24
internal_count=471 372 335 324 37 42 282 44 31 238 63 45 24 175 160 146 122 102 31 21 71 43 28 33 99 78 47 31 20 24 21 20 21 31 21 20 24
is_linear=0
shrinkage=0.2


Tree=13
num_leaves=36
num_cat=0
split_feature=236 236 236 91 236 30 0 236 236 0 141 0 0 236 91 236 209 216 0 0 0 236 0 0 216 0 0 209 0 0 236 115 236 0 0
split_gain=0.98216 0.612281 1.89281 0.783866 0.586428 0.550836 0.689992 0.753558 0.884007 0.747201 0.494215 0.575301 0.536717 0.714676 0.510124 0.483221 1.12816 0.477484 0.452619 0.684057 0.922493 0.408956 0.325312 0.204529 0.196035 0.349954 0.359612 0.185534 0.149705 0.181465 0.296963 0.1019 0.0809391 0.0773356 0.060941
threshold=11.915349075000002 28.462144995000003 26.604788695000003 1.0000000180025095e-35 12.036555690000002 1.0000000180025095e-35 704.00000000000011 24.663568640000005 24.182006665000003 654.50000000000011 1.0000000180025095e-35 111.50000000000001 78.500000000000014 15.575746710000002 1.0000000180025095e-35 22.428846360000005 1.0000000180025095e-35 1.0000000180025095e-35 198.50000000000003 384.00000000000006 514.50000000000011 16.733430775000006 380.50000000000006 140.00000000000003 1.0000000180025095e-35 318.50000000000006 248.50000000000003 1.0000000180025095e-35 528.50000000000011 569.50000000000011 19.210162640000004 1.0000000180025095e-35 24.050588940000001 270.00000000000006 631.50000000000011
decision_type=2 2 2 2 2 2 2 2 2 2 2 2 2 2 2 2 2 2 2 2 2 2 2 2 2 2 2 2 2 2 2 2 2 2 2
left_child=24 2 4 -3 -2 6 7 8 9 10 11 12 13 -6 21 16 22 -9 23 -20 -21 -13 -16 -18 27 26 -26 31 -22 -30 -31 -1 -11 -29 -17
right_child=1 3 -4 -5 5 -7 -8 17 -10 32 -12 14 -14 -15 15 34 18 -19 19 20 28 -23 -24 -25 25 -27 -28 33 29 30 -32 -33 -34 -35 -36
leaf_value=0.0057900500900455211 -0.048702282210191093 0.00041571434300679427 0.075554743905862184 -0.069037807009254507 0.028109772379199656 -0.041096168756484988 -0.04885626534620921 0.009120033418431003 -0.047395901308011489 0.024003754691644143 0.035922899685101588 -0.0019527650014920664 -0.050442232415080071 -0.042466960424049335 0.06592737747440959 -0.043386241793632492 -0.015727240993426393 0.061226721721080429 0.040595897000569564 -0.053263243312637015 0.02495853756554425 0.050444199259464563 0.016085648983716967 -0.052782103893431756 0.016058320061614114 0.038543884279206402 -0.029389033108376539 0.04907722759705322 -0.016811425180027359 -0.0094513327947684678 0.035674270093441006 0.026503626864991692 0.048864979296922684 0.025682817101478579 -0.02261908776485003
leaf_weight=19 11.999999999999998 13 11.999999999999998 13 12.000000000000002 14.999999999999998 11.999999999999998 17 17 11.000000000000002 11.999999999999998 11.000000000000002 20 10.999999999999998 11.000000000000002 10.000000000000002 13.000000000000002 12.000000000000002 12.999999999999998 14.999999999999998 9.9999999999999982 12.999999999999998 9.9999999999999982 10.999999999999998 15.000000000000002 9.9999999999999982 12.999999999999998 13.000000000000002 19 14.000000000000002 9.9999999999999982 19 9.9999999999999982 9.9999999999999982 12.999999999999998
leaf_count=19 12 13 12 13 12 15 12 17 17 11 12 11 20 11 11 10 13 12 13 15 10 13 10 11 15 10 13 13 19 14 10 19 10 10 13
internal_value=0 -0.00471147 -0.00248723 -0.034311 -0.00529113 -0.00367332 -0.00184485 6.7482e-05 -0.00327013 -0.000257525 -0.00358252 -0.00577727 -0.0264806 -0.00564432 -0.000631362 -0.00499007 -0.000123883 0.0306814 -0.0085873 -0.00143963 -0.00947583 0.0264289 0.0421932 -0.0327107 0.0177037 0.0064278 -0.00504224 0.0247281 0.00291684 -0.00220914 0.009351 0.0161468 0.0358424 0.0389057 -0.0316483
internal_weight=0 372 346 26 334 322 307 295 266 249 228 216 43 23 173 149 126 29 105 81 68 24 21 24 99 38 28 61 53 43 24 38 21 23 23
internal_count=471 372 346 26 334 322 307 295 266 249 228 216 43 23 173 149 126 29 105 81 68 24 21 24 99 38 28 61 53 43 24 38 21 23 23
is_linear=0
shrinkage=0.2


end of trees

feature_importances:
Column_0=123
Column_27=79
Column_236=79
Column_31=14
Column_209=14
Column_29=11
Column_208=11
Column_25=10
Column_75=10
Column_217=10
Column_114=8
Column_197=8
Column_130=7
Column_216=7
Column_77=6
Column_115=6
Column_195=6
Column_2=5
Column_32=5
Column_50=5
Column_73=5
Column_91=5
Column_138=5
Column_26=4
Column_33=4
Column_90=4
Column_30=3
Column_126=3
Column_207=3
Column_214=3
Column_74=2
Column_125=2
Column_194=2
Column_219=2
Column_28=1
Column_49=1
Column_80=1
Column_112=1
Column_113=1
Column_141=1
Column_199=1
Column_213=1

parameters:
[boosting: gbdt]
[objective: regression]
[metric: rmse]
[tree_learner: serial]
[device_type: cpu]
[data: ]
[valid: ]
[num_iterations: 10000]
[learning_rate: 0.2]
[num_leaves: 63]
[num_threads: 0]
[deterministic: 0]
[force_col_wise: 0]
[force_row_wise: 0]
[histogram_pool_size: -1]
[max_depth: -1]
[min_data_in_leaf: 10]
[min_sum_hessian_in_leaf: 0.001]
[bagging_fraction: 1]
[pos_bagging_fraction: 1]
[neg_bagging_fraction: 1]
[bagging_freq: 0]
[bagging_seed: 21709]
[feature_fraction: 0.5]
[feature_fraction_bynode: 1]
[feature_fraction_seed: 24116]
[extra_trees: 0]
[extra_seed: 15571]
[early_stopping_round: 0]
[first_metric_only: 0]
[max_delta_step: 0]
[lambda_l1: 0]
[lambda_l2: 0]
[linear_lambda: 0]
[min_gain_to_split: 0]
[drop_rate: 0.1]
[max_drop: 50]
[skip_drop: 0.5]
[xgboost_dart_mode: 0]
[uniform_drop: 0]
[drop_seed: 15722]
[top_rate: 0.2]
[other_rate: 0.1]
[min_data_per_group: 100]
[max_cat_threshold: 32]
[cat_l2: 10]
[cat_smooth: 10]
[max_cat_to_onehot: 4]
[top_k: 20]
[monotone_constraints: ]
[monotone_constraints_method: basic]
[monotone_penalty: 0]
[feature_contri: ]
[forcedsplits_filename: ]
[refit_decay_rate: 0.9]
[cegb_tradeoff: 1]
[cegb_penalty_split: 0]
[cegb_penalty_feature_lazy: ]
[cegb_penalty_feature_coupled: ]
[path_smooth: 0]
[interaction_constraints: ]
[verbosity: -1]
[saved_feature_importance_type: 0]
[linear_tree: 0]
[max_bin: 255]
[max_bin_by_feature: ]
[min_data_in_bin: 3]
[bin_construct_sample_cnt: 200000]
[data_random_seed: 4074]
[is_enable_sparse: 1]
[enable_bundle: 1]
[use_missing: 1]
[zero_as_missing: 0]
[feature_pre_filter: 1]
[pre_partition: 0]
[two_round: 0]
[header: 0]
[label_column: ]
[weight_column: ]
[group_column: ]
[ignore_column: ]
[categorical_feature: ]
[forcedbins_filename: ]
[precise_float_parser: 0]
[objective_seed: 10917]
[num_class: 1]
[is_unbalance: 0]
[scale_pos_weight: 1]
[sigmoid: 1]
[boost_from_average: 1]
[reg_sqrt: 0]
[alpha: 0.9]
[fair_c: 1]
[poisson_max_delta_step: 0.7]
[tweedie_variance_power: 1.5]
[lambdarank_truncation_level: 30]
[lambdarank_norm: 1]
[label_gain: ]
[eval_at: ]
[multi_error_top_k: 1]
[auc_mu_weights: ]
[num_machines: 1]
[local_listen_port: 12400]
[time_out: 120]
[machine_list_filename: ]
[machines: ]
[gpu_platform_id: -1]
[gpu_device_id: -1]
[gpu_use_dp: 0]
[num_gpu: 1]

end of parameters

pandas_categorical:null
