tree
version=v3
num_class=1
num_tree_per_iteration=1
label_index=0
max_feature_idx=236
objective=regression
feature_names=Column_0 Column_1 Column_2 Column_3 Column_4 Column_5 Column_6 Column_7 Column_8 Column_9 Column_10 Column_11 Column_12 Column_13 Column_14 Column_15 Column_16 Column_17 Column_18 Column_19 Column_20 Column_21 Column_22 Column_23 Column_24 Column_25 Column_26 Column_27 Column_28 Column_29 Column_30 Column_31 Column_32 Column_33 Column_34 Column_35 Column_36 Column_37 Column_38 Column_39 Column_40 Column_41 Column_42 Column_43 Column_44 Column_45 Column_46 Column_47 Column_48 Column_49 Column_50 Column_51 Column_52 Column_53 Column_54 Column_55 Column_56 Column_57 Column_58 Column_59 Column_60 Column_61 Column_62 Column_63 Column_64 Column_65 Column_66 Column_67 Column_68 Column_69 Column_70 Column_71 Column_72 Column_73 Column_74 Column_75 Column_76 Column_77 Column_78 Column_79 Column_80 Column_81 Column_82 Column_83 Column_84 Column_85 Column_86 Column_87 Column_88 Column_89 Column_90 Column_91 Column_92 Column_93 Column_94 Column_95 Column_96 Column_97 Column_98 Column_99 Column_100 Column_101 Column_102 Column_103 Column_104 Column_105 Column_106 Column_107 Column_108 Column_109 Column_110 Column_111 Column_112 Column_113 Column_114 Column_115 Column_116 Column_117 Column_118 Column_119 Column_120 Column_121 Column_122 Column_123 Column_124 Column_125 Column_126 Column_127 Column_128 Column_129 Column_130 Column_131 Column_132 Column_133 Column_134 Column_135 Column_136 Column_137 Column_138 Column_139 Column_140 Column_141 Column_142 Column_143 Column_144 Column_145 Column_146 Column_147 Column_148 Column_149 Column_150 Column_151 Column_152 Column_153 Column_154 Column_155 Column_156 Column_157 Column_158 Column_159 Column_160 Column_161 Column_162 Column_163 Column_164 Column_165 Column_166 Column_167 Column_168 Column_169 Column_170 Column_171 Column_172 Column_173 Column_174 Column_175 Column_176 Column_177 Column_178 Column_179 Column_180 Column_181 Column_182 Column_183 Column_184 Column_185 Column_186 Column_187 Column_188 Column_189 Column_190 Column_191 Column_192 Column_193 Column_194 Column_195 Column_196 Column_197 Column_198 Column_199 Column_200 Column_201 Column_202 Column_203 Column_204 Column_205 Column_206 Column_207 Column_208 Column_209 Column_210 Column_211 Column_212 Column_213 Column_214 Column_215 Column_216 Column_217 Column_218 Column_219 Column_220 Column_221 Column_222 Column_223 Column_224 Column_225 Column_226 Column_227 Column_228 Column_229 Column_230 Column_231 Column_232 Column_233 Column_234 Column_235 Column_236
feature_infos=[4:739] none [0:1] none none none none none none none none none none none none none none none none none none none none none none [0:25] [0:100] [0:2018] [0:1] [0:1] none [0:1] [0:1] [0:1] none none none none none none none none none none none none none none none [0:1] [0:1] none none none none none none none none none none none none none none none none none none none none none none [0:1] none [0:1] none [0:1] none none none none none none none none none none none none [0:1] [0:1] [0:1] [0:1] none none none none none none none none none none none none none none none none none none [0:1] none [0:1] [0:1] none none none none none none none none none [0:1] [0:1] [0:1] [0:1] none [0:1] [0:1] none none none none none none [0:1] none none [0:1] none none none none none none none none none none none none none none none none none none none none none none none none none none none none none none none none none none none none none none none none none none none none none none none none none none none none [0:1] [0:1] none [0:1] none [0:1] none none none none none none none [0:1] [0:1] [0:1] none none none [0:1] [0:1] none [0:1] [0:1] none [0:1] none none none none none none none none none none none none none none none none [8.6144111480000003:42.129650480000002]
tree_sizes=1748 1748 1679 1664 1659 1660 1490 1751 1654 1761 1573 1753 1603 1761 1762 1626 1689 1676 1654 1692 1667 1760 1589 1693 1502 1687 1611 1761 1578 1690 1674 1787 1677 1675 1770 1609 1602 1678 1681 1694 1691 1786

Tree=0
num_leaves=19
num_cat=0
split_feature=236 2 25 236 27 27 27 27 0 209 33 0 27 27 27 236 236 0
split_gain=90.6172 24.7944 18.266 11.5847 12.7607 9.07892 8.4989 6.37086 3.66515 3.56224 2.40881 2.16247 2.74972 1.99297 1.42627 1.19154 0.96784 0.867165
threshold=10.428864865000003 1.0000000180025095e-35 1.7500000000000002 25.121987090000001 2013.5000000000002 1995.5000000000002 1984.5000000000002 1984.5000000000002 125.50000000000001 1.0000000180025095e-35 1.0000000180025095e-35 541.50000000000011 1997.5000000000002 1978.5000000000002 1966.5000000000002 18.944973555000004 8.914933437000002 217.50000000000003
decision_type=2 2 2 2 2 2 2 2 2 2 2 2 2 2 2 2 2 2
left_child=6 7 3 4 8 -4 16 14 -3 13 11 12 -11 -10 -2 -7 -1 -6
right_child=1 2 5 -5 17 15 -8 -9 9 10 -12 -13 -14 -15 -16 -17 -18 -19
leaf_value=0.062443859241110213 0.016846201963639673 -0.034243361093896502 0.0250662227700079 -0.060189286359447119 -0.052415418194601243 -0.0028055821688229426 0.020765100733685083 -0.0023861188263176606 -0.035294627734321231 0.0053192184808957804 -0.019843748845952622 0.0098675873495162811 -0.017345817369270197 -0.012973262854713076 0.034365793313898156 -0.018444264782054808 0.04970835739237587 -0.037867922075885407
leaf_weight=35 21 20 31 20 21 29 22 32 20 23 26 25 32 20 26 21 26 20
leaf_count=35 21 20 31 20 21 29 22 32 20 23 26 25 32 20 26 21 26 20
internal_value=1.2777e-08 -0.0101674 -0.016577 -0.0238505 -0.0203395 0.00380693 0.047407 0.0148218 -0.0141699 -0.0114201 -0.00662238 -0.00232543 -0.00786771 -0.0241339 0.0265379 -0.00937383 0.0570156 -0.0453191
internal_weight=0 387 308 227 207 81 83 79 166 146 106 80 55 40 47 50 61 41
internal_count=470 387 308 227 207 81 83 79 166 146 106 80 55 40 47 50 61 41
is_linear=0
shrinkage=1


Tree=1
num_leaves=19
num_cat=0
split_feature=236 2 25 236 27 27 27 27 0 209 33 0 27 27 27 75 236 0
split_gain=81.782 22.3769 16.4851 10.4552 11.5166 8.19373 7.67026 5.7497 3.3078 3.21492 2.17395 1.95163 2.48162 1.79866 1.28721 1.08843 0.873476 0.782617
threshold=10.428864865000003 1.0000000180025095e-35 1.7500000000000002 25.121987090000001 2013.5000000000002 1995.5000000000002 1984.5000000000002 1984.5000000000002 125.50000000000001 1.0000000180025095e-35 1.0000000180025095e-35 541.50000000000011 1997.5000000000002 1978.5000000000002 1966.5000000000002 1.0000000180025095e-35 8.914933437000002 217.50000000000003
decision_type=2 2 2 2 2 2 2 2 2 2 2 2 2 2 2 2 2 2
left_child=6 7 3 4 8 -4 16 14 -3 13 11 12 -11 -10 -2 -7 -1 -6
right_child=1 2 5 -5 17 15 -8 -9 9 10 -12 -13 -14 -15 -16 -17 -18 -19
leaf_value=0.05932165384292603 0.016003880011183875 -0.032531206235289573 0.023812899023534791 -0.057179834991693504 -0.049794659870011471 -0.0015280439108610155 0.019726833362470976 -0.0022668265388347208 -0.033529909178614613 0.0050532447255176053 -0.018851573579013348 0.0093741951137781138 -0.016478538233786821 -0.012324612364172935 0.032647491848239528 -0.016282256409525873 0.047222926435419005 -0.035974538475275042
leaf_weight=35 21 20 31 20 21 25 22 32 20 23 26 25 32 20 26 25 26 20
leaf_count=35 21 20 31 20 21 25 22 32 20 23 26 25 32 20 26 25 26 20
internal_value=0 -0.00965903 -0.0157481 -0.022658 -0.0193225 0.00361657 0.0450367 0.0140807 -0.0134614 -0.0108491 -0.00629127 -0.00220917 -0.00747434 -0.0229273 0.025211 -0.00890515 0.0541648 -0.0430531
internal_weight=0 387 308 227 207 81 83 79 166 146 106 80 55 40 47 50 61 41
internal_count=470 387 308 227 207 81 83 79 166 146 106 80 55 40 47 50 61 41
is_linear=0
shrinkage=0.05


Tree=2
num_leaves=18
num_cat=0
split_feature=236 2 25 236 0 91 236 130 0 236 75 236 31 26 0 236 236
split_gain=73.8082 20.1952 14.8778 9.43584 7.47754 5.75459 4.50637 4.26403 3.81907 3.30885 2.41272 3.61764 2.0389 1.62183 1.35728 0.825781 0.721803
threshold=10.428864865000003 1.0000000180025095e-35 1.7500000000000002 25.121987090000001 120.50000000000001 1.0000000180025095e-35 19.247016965000004 1.0000000180025095e-35 638.00000000000011 9.2624812775000027 1.0000000180025095e-35 24.657352040000003 1.0000000180025095e-35 1.0000000180025095e-35 551.50000000000011 21.220709625000001 8.8740669195000024
decision_type=2 2 2 2 2 2 2 2 2 2 2 2 2 2 2 2 2
left_child=9 10 3 4 -3 -6 13 8 12 16 11 -2 14 -4 15 -7 -1
right_child=1 2 6 -5 5 7 -8 -9 -10 -11 -12 -13 -14 -15 -16 -17 -18
leaf_value=0.055022641859250147 0.036503220677841453 -0.042384095011012896 0.0047966346463286565 -0.054320842064917087 -0.037945869322056361 -0.01569400502102716 -0.015292236792004628 -0.028829942743426991 -0.023993385983286084 0.029515582776317995 0.0019031916985866326 0.0090500663686543716 0.00924181420212755 0.022387227583676578 0.0041476092487573628 -0.0029579547885805369 0.043092859656150853
leaf_weight=32 20 28 38 20 23 35 23 28 27 30 29 30 26 20 20 20 21
leaf_count=32 20 28 38 20 23 35 23 28 27 30 29 30 26 20 20 20 21
internal_value=0 -0.00917608 -0.0149607 -0.0215251 -0.0183564 -0.0145979 0.00343574 -0.0111556 -0.00728931 0.0427848 0.0133767 0.0200313 -0.00282386 0.0108624 -0.00700663 -0.0110627 0.0502957
internal_weight=0 387 308 227 207 179 81 156 128 83 79 50 101 58 75 55 53
internal_count=470 387 308 227 207 179 81 156 128 83 79 50 101 58 75 55 53
is_linear=0
shrinkage=0.05


Tree=3
num_leaves=18
num_cat=0
split_feature=236 2 25 27 236 27 27 27 209 27 0 236 33 27 0 236 236
split_gain=66.6119 18.2261 13.4272 9.33141 8.15875 7.34545 6.78123 5.09754 2.93991 3.01574 4.61061 2.14147 1.9496 1.16093 1.14178 0.916405 0.66374
threshold=10.428864865000003 1.0000000180025095e-35 1.7500000000000002 2013.5000000000002 25.072331165000005 1995.5000000000002 1984.5000000000002 1984.5000000000002 1.0000000180025095e-35 1984.5000000000002 516.50000000000011 21.708567190000004 1.0000000180025095e-35 1966.5000000000002 206.50000000000003 18.944973555000004 8.914933437000002
decision_type=2 2 2 2 2 2 2 2 2 2 2 2 2 2 2 2 2
left_child=6 7 3 4 8 -4 16 13 11 -10 -11 -3 -12 -2 -5 -7 -1
right_child=1 2 5 14 -6 15 -8 -9 9 10 12 -13 -14 -15 -16 -17 -18
leaf_value=0.053723734617233281 0.014444075578579768 -0.010843502189964056 0.02238628688839174 -0.050156450942158703 -0.045697639808058743 -0.0028316617847002788 0.016847685651472686 -0.0026846888009458784 0.0099062850140035161 -0.024789585879979991 0.0039356458024718821 -0.032996446546167138 -0.014679386669939216 0.030250209119269414 -0.033821538220281187 -0.016546484419987316 0.043177120588146725
leaf_weight=35 21 20 31 20 20 29 22 32 20 39 39 24 22 26 23 21 26
leaf_count=35 21 20 31 20 20 29 22 32 20 39 39 24 22 26 23 21 26
internal_value=0 -0.00871727 -0.0142127 -0.0204488 -0.0155482 0.00326396 0.0406456 0.0127079 -0.0118714 -0.0078177 -0.0113625 -0.0229269 -0.00277797 0.0231879 -0.0414192 -0.00859189 0.0492285
internal_weight=0 387 308 227 184 81 83 79 164 120 100 44 61 47 43 50 61
internal_count=470 387 308 227 184 81 83 79 164 120 100 44 61 47 43 50 61
is_linear=0
shrinkage=0.05


Tree=4
num_leaves=18
num_cat=0
split_feature=236 2 25 27 236 27 27 27 236 209 27 0 236 33 27 0 236
split_gain=60.1173 16.4491 12.1181 8.4216 7.36327 6.69678 6.12006 4.60053 3.42027 2.65327 2.72171 4.16107 1.93267 1.75951 1.04774 1.03046 0.599025
threshold=10.428864865000003 1.0000000180025095e-35 1.7500000000000002 2013.5000000000002 25.072331165000005 2003.5000000000002 1984.5000000000002 1984.5000000000002 15.365687895000002 1.0000000180025095e-35 1984.5000000000002 516.50000000000011 21.708567190000004 1.0000000180025095e-35 1966.5000000000002 206.50000000000003 8.914933437000002
decision_type=2 2 2 2 2 2 2 2 2 2 2 2 2 2 2 2 2
left_child=6 7 3 4 9 8 16 14 -4 12 -11 -12 -3 -13 -2 -5 -1
right_child=1 2 5 15 -6 -7 -8 -9 -10 10 11 13 -14 -15 -16 -17 -18
leaf_value=0.05103754878044129 0.013721872103356181 -0.010301326867192984 0.031919369208626445 -0.047648630402982235 -0.043412756994366648 -0.011818693903012155 0.016005301454358481 -0.0025504543562419714 0.0033501429165798155 0.0094109706766903403 -0.023550106355777155 0.0037388635273927296 -0.031346623972058299 -0.01394541725854982 0.028737697560483444 -0.032130461542502695 0.041018264239224111
leaf_weight=35 21 20 20 20 20 39 22 32 22 20 39 39 24 22 26 23 26
leaf_count=35 21 20 20 20 20 39 22 32 22 20 39 39 24 22 26 23 26
internal_value=0 -0.00828141 -0.013502 -0.0194264 -0.0147708 0.00310076 0.0386133 0.0120725 0.0169545 -0.0112778 -0.00742682 -0.0107944 -0.0217806 -0.00263907 0.0220285 -0.0393482 0.046767
internal_weight=0 387 308 227 184 81 83 79 42 164 120 100 44 61 47 43 61
internal_count=470 387 308 227 184 81 83 79 42 164 120 100 44 61 47 43 61
is_linear=0
shrinkage=0.05


Tree=5
num_leaves=18
num_cat=0
split_feature=236 2 25 27 91 0 27 27 27 0 27 0 236 0 236 236 236
split_gain=54.2558 14.8453 10.9365 7.60049 7.09823 8.6005 6.15802 5.52336 4.15198 3.62359 3.94508 2.62795 0.947808 0.929988 0.76224 0.54062 0.409683
threshold=10.428864865000003 1.0000000180025095e-35 1.7500000000000002 2013.5000000000002 1.0000000180025095e-35 120.50000000000001 1995.5000000000002 1984.5000000000002 1984.5000000000002 650.00000000000011 1986.5000000000002 541.50000000000011 24.202125085000002 206.50000000000003 18.944973555000004 8.914933437000002 21.053255255000003
decision_type=2 2 2 2 2 2 2 2 2 2 2 2 2 2 2 2 2
left_child=7 8 3 4 -3 -6 -4 15 12 10 -7 16 -2 -5 -8 -1 -12
right_child=1 2 6 13 5 9 14 -9 -10 -11 11 -13 -14 -15 -16 -17 -18
leaf_value=0.048485671877861028 0.029176964793587102 -0.040681307525797322 0.020454353842163278 -0.045266197398304946 -0.034578973079721131 0.016688593685626984 -0.0026562194757420443 0.015205036205324261 -0.002422932127956301 -0.020886777214972035 -0.016457280120061292 0.0062068321209933081 0.014816044485282707 -0.030523937681446907 -0.015164342451663244 0.038967351300212061 -0.007278536939993501
leaf_weight=35 20 22 31 20 30 25 29 22 32 28 31 28 27 23 21 26 20
leaf_count=35 20 22 31 20 30 25 29 22 32 28 31 28 27 23 21 26 20
internal_value=0 -0.00786734 -0.0128269 -0.0184551 -0.0140322 -0.0104132 0.00294572 0.0366827 0.0114688 -0.00492099 -0.000622503 -0.0061007 0.0209271 -0.0373808 -0.00790963 0.0444287 -0.0128578
internal_weight=0 387 308 227 184 162 81 83 79 132 104 79 47 43 50 61 51
internal_count=470 387 308 227 184 162 81 83 79 132 104 79 47 43 50 61 51
is_linear=0
shrinkage=0.05


Tree=6
num_leaves=16
num_cat=0
split_feature=236 27 25 0 27 0 0 236 0 31 236 0 236 0 236
split_gain=48.9659 10.9759 11.5073 11.4693 4.98483 4.52976 5.38356 3.90666 3.89231 2.59123 4.2199 3.66726 2.14118 0.774795 0.48791
threshold=10.428864865000003 2003.5000000000002 1.7500000000000002 419.50000000000006 1984.5000000000002 703.00000000000011 98.500000000000014 14.693667950000002 116.50000000000001 1.0000000180025095e-35 22.191999835000004 447.50000000000006 20.972849445000005 548.00000000000011 8.914933437000002
decision_type=2 2 2 2 2 2 2 2 2 2 2 2 2 2 2
left_child=4 2 5 7 14 6 -2 -3 -4 10 -8 -11 -5 -14 -1
right_child=1 3 8 12 -6 -7 9 -9 -10 11 -12 -13 13 -15 -16
leaf_value=0.046061389446258545 -0.021902281985967421 -0.022475093657917836 0.0031681892462074759 0.0023217672434372779 0.014444784176620571 -0.028854609263085185 0.0057114711205940695 -0.047455792707102054 0.028849506468719078 -0.0030248773939631607 -0.022366344216077225 0.023837126120148849 -0.0060212804004549985 -0.017098901658564022 0.037018983868452225
leaf_weight=35 32 34 25 39 22 21 32 29 36 27 23 24 27 38 26
leaf_count=35 32 34 25 39 22 21 32 29 36 27 23 24 27 38 26
internal_value=0 -0.00747397 -0.000137602 -0.0171387 0.0348485 -0.0072205 -0.00392835 -0.0339741 0.0183244 0.00149774 -0.00603016 0.00961607 -0.00694023 -0.0124974 0.0422072
internal_weight=0 387 220 167 83 159 138 63 61 106 55 51 104 65 61
internal_count=470 387 220 167 83 159 138 63 61 106 55 51 104 65 61
is_linear=0
shrinkage=0.05


Tree=7
num_leaves=19
num_cat=0
split_feature=236 2 25 236 27 27 27 27 27 27 27 0 27 27 75 75 236 0
split_gain=44.1917 12.9049 9.20386 6.74756 6.96934 5.05644 4.49881 3.63624 2.64246 2.76158 1.41258 1.80622 2.05349 0.848543 0.845496 0.816695 0.440339 0.334119
threshold=10.428864865000003 1.0000000180025095e-35 1.7500000000000002 25.121987090000001 2013.5000000000002 1995.5000000000002 1984.5000000000002 1984.5000000000002 2008.5000000000002 1970.5000000000002 1985.5000000000002 516.50000000000011 2000.5000000000002 1966.5000000000002 1.0000000180025095e-35 1.0000000180025095e-35 8.914933437000002 217.50000000000003
decision_type=2 2 2 2 2 2 2 2 2 2 2 2 2 2 2 2 2 2
left_child=6 7 3 4 8 -4 16 13 9 -3 -11 12 -12 -2 -13 -7 -1 -6
right_child=1 2 5 -5 17 15 -8 -9 -10 10 11 14 -14 -15 -16 -17 -18 -19
leaf_value=0.043758319616317751 0.012303911182763321 0.0026368210629488416 0.018610482461630339 -0.04462072215974331 -0.037073299856412979 -0.00070143053494393828 0.013722544806924733 -0.0020724228234030306 0.0064910804429514843 -0.026792125031352046 -0.010090850494228878 0.0010312790294056352 -0.030846639688719403 0.025817150816034813 -0.012252218849956989 -0.013481843478977682 0.035168033694991697 -0.028043303452432156
leaf_weight=35 21 26 31 20 21 25 22 32 22 22 26 23 22 26 25 25 26 20
leaf_count=35 21 26 31 20 21 25 22 32 22 22 26 23 22 26 25 25 26 20
internal_value=0 -0.00710027 -0.0117244 -0.0168875 -0.0142079 0.00274498 0.0331061 0.010928 -0.00964843 -0.0121142 -0.0153644 -0.0127456 -0.0196039 0.0197793 -0.00588721 -0.00709164 0.0400969 -0.0326684
internal_weight=0 387 308 227 207 81 83 79 166 144 118 96 48 47 48 50 61 41
internal_count=470 387 308 227 207 81 83 79 166 144 118 96 48 47 48 50 61 41
is_linear=0
shrinkage=0.05


Tree=8
num_leaves=18
num_cat=0
split_feature=236 2 26 90 27 27 0 27 0 0 27 236 27 236 0 236 236
split_gain=39.883 11.6467 8.59875 5.91933 4.06018 3.70046 5.12722 3.28171 2.59874 3.42314 2.2094 5.55088 1.74193 0.806813 0.764598 0.729053 0.397406
threshold=10.428864865000003 1.0000000180025095e-35 17.500000000000004 1.0000000180025095e-35 1984.5000000000002 2013.5000000000002 498.50000000000006 1984.5000000000002 650.00000000000011 447.50000000000006 1995.5000000000002 15.955106640000002 2003.5000000000002 24.202125085000002 171.50000000000003 21.018297865000005 8.914933437000002
decision_type=2 2 2 2 2 2 2 2 2 2 2 2 2 2 2 2 2
left_child=4 7 3 5 16 8 -7 13 9 10 11 -3 -11 -2 -12 -14 -1
right_child=1 2 -4 -5 -6 6 -8 -9 -10 12 14 -13 15 -15 -16 -17 -18
leaf_value=0.041570403575897225 0.02640192536637187 0.0079282151873816143 0.015813350615402063 -0.039943356141448026 0.013036417893388056 -0.03823918788028615 -0.0079807148714150702 -0.0019688011263497176 -0.021459633439327733 0.01263392071526211 -0.027526563796259108 -0.022641247214266549 0.0033605190180242064 0.013152153457135517 -0.014034076212417514 -0.0095652180180574465 0.033409633200902206
leaf_weight=35 20 33 27 20 22 28 28 32 33 26 21 27 20 27 21 24 26
leaf_count=35 20 33 27 20 22 28 28 32 33 26 21 27 20 27 21 24 26
internal_value=0 -0.00674526 -0.0111382 -0.0137278 0.0314508 -0.011719 -0.02311 0.0103816 -0.0086073 -0.00614145 -0.0119849 -0.00582804 0.00237324 0.0187904 -0.0207803 -0.00368988 0.038092
internal_weight=0 387 308 281 83 261 56 79 205 172 102 60 70 47 42 44 61
internal_count=470 387 308 281 83 261 56 79 205 172 102 60 70 47 42 44 61
is_linear=0
shrinkage=0.05


Tree=9
num_leaves=19
num_cat=0
split_feature=236 2 25 236 27 27 27 27 27 27 217 214 75 27 75 27 236 236
split_gain=35.9988 9.82286 8.07932 5.84006 5.64765 4.66062 4.29012 2.70371 2.55222 2.51865 1.26058 2.8373 1.55915 1.02105 0.747959 0.33701 0.531766 0.0746727
threshold=10.757436745000001 1.0000000180025095e-35 1.7500000000000002 25.121987090000001 2013.5000000000002 1984.5000000000002 1995.5000000000002 1984.5000000000002 2008.5000000000002 1970.5000000000002 1.0000000180025095e-35 1.0000000180025095e-35 1.0000000180025095e-35 1966.5000000000002 1.0000000180025095e-35 1976.5000000000002 8.9110301685000017 15.231248135000001
decision_type=2 2 2 2 2 2 2 2 2 2 2 2 2 2 2 2 2 2
left_child=5 7 3 4 8 15 -4 13 9 -3 11 -11 -12 -2 -8 16 -1 -6
right_child=1 2 6 -5 17 -7 14 -9 -10 10 12 -13 -14 -15 -16 -17 -18 -19
leaf_value=0.039400988533383328 0.0085614796518348173 0.0027787842214680638 0.017568667743715547 -0.041250652372837066 -0.027639754116535187 0.01053203232586384 9.515970945358278e-06 -0.0018703620065934957 0.0069956377868286585 -0.033833679027686067 -0.0020897722379727801 -0.010789250839939889 -0.018131189613736103 0.023588401953188273 -0.012221260726451876 0.041633015303384695 0.028009049668908121 -0.031960421279072761
leaf_weight=21 20 26 31 20 20 24 25 32 22 22 33 34 28 26 25 21 20 20
leaf_count=21 20 26 31 20 20 24 25 32 22 22 33 34 28 26 25 21 20 20
internal_value=0 -0.0065486 -0.0105861 -0.0154608 -0.0129447 0.0292403 0.00295475 0.00929072 -0.00885854 -0.0112976 -0.0144257 -0.0198424 -0.00945305 0.017055 -0.00610587 0.0364822 0.0338439 -0.0298001
internal_weight=0 384 306 225 205 86 81 78 165 143 117 56 61 46 50 62 41 40
internal_count=470 384 306 225 205 86 81 78 165 143 117 56 61 46 50 62 41 40
is_linear=0
shrinkage=0.05


Tree=10
num_leaves=17
num_cat=0
split_feature=236 27 0 25 0 0 0 27 236 91 0 0 236 236 27 236
split_gain=32.5047 7.69254 8.94503 8.69735 3.91652 3.72169 3.37094 3.27369 3.25907 2.34758 2.44377 2.25925 1.81797 0.726175 0.345714 0.533335
threshold=10.428864865000003 2003.5000000000002 419.50000000000006 1.7500000000000002 703.00000000000011 98.500000000000014 116.50000000000001 1984.5000000000002 14.693667950000002 1.0000000180025095e-35 377.50000000000006 469.50000000000006 20.972849445000005 24.021313535000001 1976.5000000000002 8.8740669195000024
decision_type=2 2 2 2 2 2 2 2 2 2 2 2 2 2 2 2
left_child=7 3 8 4 5 -2 -5 14 -3 11 -11 -7 -4 -14 15 -1
right_child=1 2 12 6 -6 9 -8 -9 -10 10 -12 -13 13 -15 -16 -17
leaf_value=0.037402534484863283 -0.017988531265291385 -0.018545512033297736 0.0033604093767607059 0.0019981222376227381 -0.026221785889494989 -0.019664870291016996 0.025897647088600529 0.011857996135950089 -0.041361978907009656 0.020781198840426365 2.675577368889306e-05 0.002687777070185313 -0.014609639833752925 -0.0038219553490097709 0.039551364807855517 0.025855507329106332
leaf_weight=20 32 34 39 25 21 20 36 22 29 23 37 26 39 26 21 20
leaf_count=20 32 34 39 25 21 20 36 22 29 23 37 26 39 26 21 20
internal_value=0 -0.00608945 -0.0141805 5.23645e-05 -0.00610533 -0.00304414 0.0161028 0.028393 -0.0290483 0.00146738 0.00798263 -0.00703077 -0.00517395 -0.0102946 0.0343564 0.031629
internal_weight=0 387 167 220 159 138 61 83 63 106 60 46 104 65 61 40
internal_count=470 387 167 220 159 138 61 83 63 106 60 46 104 65 61 40
is_linear=0
shrinkage=0.05


Tree=11
num_leaves=19
num_cat=0
split_feature=236 2 26 90 0 130 0 27 236 27 27 27 0 217 0 236 27 236
split_gain=29.3355 9.18873 7.02066 5.22003 3.04961 6.18259 4.71157 4.45566 3.92826 2.9545 2.66463 2.63156 2.59197 1.67722 2.31601 0.733671 0.312007 0.481335
threshold=10.428864865000003 1.0000000180025095e-35 17.500000000000004 1.0000000180025095e-35 447.50000000000006 1.0000000180025095e-35 645.50000000000011 1995.5000000000002 15.955106640000002 1984.5000000000002 2008.5000000000002 1984.5000000000002 171.50000000000003 1.0000000180025095e-35 560.50000000000011 24.202125085000002 1976.5000000000002 8.8740669195000024
decision_type=2 2 2 2 2 2 2 2 2 2 2 2 2 2 2 2 2 2
left_child=9 11 3 4 5 7 13 8 -3 16 -8 15 -9 -6 -15 -2 17 -1
right_child=1 2 -4 -5 6 -7 10 12 -10 -11 -12 -13 -14 14 -16 -17 -18 -19
leaf_value=0.035532408952713014 0.024215913917869331 0.011663694457421381 0.01466621659282181 -0.036645231656730178 0.014294536584722146 -0.036862979553363942 -0.030394529517401347 -0.030223469343036415 -0.016758604869246484 0.01126509512012655 -0.0057856372134252034 -0.0016318876878358424 -0.0077472136234459678 -0.011015584056868274 0.0077256416974705649 0.011580984344214409 0.037573795943033131 0.024562732577323915
leaf_weight=20 20 31 27 20 21 27 22 29 20 22 22 32 23 34 32 27 21 20
leaf_count=20 20 31 27 20 21 27 22 29 20 22 22 32 23 34 32 27 21 20
internal_value=0 -0.00578497 -0.00968691 -0.0120269 -0.0101404 -0.0155659 -0.00475639 -0.00998315 0.000517695 0.0269733 -0.0180901 0.00942765 -0.020282 0.00198708 -0.00192893 0.0169576 0.0326386 0.0300476
internal_weight=0 387 308 281 261 130 131 103 51 83 44 79 52 87 66 47 61 40
internal_count=470 387 308 281 261 130 131 103 51 83 44 79 52 87 66 47 61 40
is_linear=0
shrinkage=0.05


Tree=12
num_leaves=17
num_cat=0
split_feature=236 2 25 236 0 91 197 236 32 214 236 75 236 26 0 236
split_gain=26.4753 8.29283 6.44694 4.9359 3.76541 3.53025 3.22395 3.09268 2.34442 1.99829 1.73006 1.69147 2.72673 0.906255 0.65178 0.290691
threshold=10.428864865000003 1.0000000180025095e-35 1.7500000000000002 25.121987090000001 120.50000000000001 1.0000000180025095e-35 1.0000000180025095e-35 19.247016965000004 1.0000000180025095e-35 1.0000000180025095e-35 9.2624812775000027 1.0000000180025095e-35 24.657352040000003 1.0000000180025095e-35 524.50000000000011 8.8740669195000024
decision_type=2 2 2 2 2 2 2 2 2 2 2 2 2 2 2 2
left_child=10 11 3 4 -3 -6 -7 13 9 14 15 12 -2 -4 -8 -1
right_child=1 2 7 -5 5 6 8 -9 -10 -11 -12 -13 -14 -15 -16 -17
leaf_value=0.03405543139670044 0.028828676249831917 -0.028282521665096285 0.0045255406759679316 -0.037243500873446467 -0.026851941515570101 0.011416110444975936 -0.012328709130855027 -0.012607385639263237 0.00399739020254596 -0.0020972226146665036 0.016029774844646457 -0.00065043079024501918 0.0049944722062597677 0.017674832288175821 -0.021846843529492618 0.02648468212712379
leaf_weight=32 20 28 38 20 23 23 37 23 28 33 30 29 30 20 35 21
leaf_count=32 20 28 38 20 23 23 37 23 28 33 30 29 30 20 35 21
internal_value=0 -0.00549572 -0.00920257 -0.0135237 -0.011232 -0.00856485 -0.00586867 0.00290737 -0.00885777 -0.0122858 0.0256246 0.00895627 0.0145282 0.00905978 -0.0169556 0.0310557
internal_weight=0 387 308 227 207 179 156 81 133 105 83 79 50 58 72 53
internal_count=470 387 308 227 207 179 156 81 133 105 83 79 50 58 72 53
is_linear=0
shrinkage=0.05


Tree=13
num_leaves=19
num_cat=0
split_feature=236 2 90 26 27 0 130 0 195 27 27 27 27 217 0 27 0 0
split_gain=23.9672 6.93861 5.87511 5.72444 3.35211 2.59795 5.74679 4.13949 4.08008 2.39865 2.18549 2.10637 1.52191 1.49515 2.03249 0.914846 0.283846 0.00249964
threshold=10.757436745000001 1.0000000180025095e-35 1.0000000180025095e-35 17.500000000000004 1984.5000000000002 447.50000000000006 1.0000000180025095e-35 645.50000000000011 1.0000000180025095e-35 2008.5000000000002 1997.5000000000002 1984.5000000000002 1983.5000000000002 1.0000000180025095e-35 560.50000000000011 1966.5000000000002 311.50000000000006 282.50000000000006
decision_type=2 2 2 2 2 2 2 2 2 2 2 2 2 2 2 2 2 2
left_child=4 11 3 5 16 6 8 13 10 -9 12 15 -3 -7 -15 -2 17 -1
right_child=1 2 -4 -5 -6 7 -8 9 -10 -11 -12 -13 -14 14 -16 -17 -18 -19
leaf_value=0.032040613676820484 0.0067824254278093582 -0.016785295816953295 -0.034259591677359175 0.015996282897889614 0.0079925780184566982 0.013847411992000638 -0.03460192259539057 -0.028265890174291354 0.0098729640880660368 -0.004917478476735679 -0.024134890839923175 -0.0018823405611328782 0.0012461959719657898 -0.0099825073033571257 0.0075741572893093696 0.021006410225079611 0.025273266860416962 0.032821658104658126
leaf_weight=21 20 22 21 25 24 21 27 22 23 22 32 32 25 34 32 26 21 20
leaf_count=21 20 22 21 25 24 21 27 22 23 22 32 32 25 34 32 26 21 20
internal_value=0 -0.00534335 -0.00873669 -0.00685605 0.0238587 -0.00905339 -0.01409 -0.00409367 -0.00866039 -0.0165917 -0.0140562 0.00796898 -0.00719408 0.00222717 -0.00147019 0.0148221 0.0300004 0.0324216
internal_weight=0 384 306 285 86 260 129 131 102 44 79 78 47 87 66 46 62 41
internal_count=470 384 306 285 86 260 129 131 102 44 79 78 47 87 66 46 62 41
is_linear=0
shrinkage=0.05


Tree=14
num_leaves=19
num_cat=0
split_feature=236 2 25 236 27 27 27 27 27 27 217 214 75 27 236 0 236 0
split_gain=21.6304 6.26209 5.62449 4.39827 4.30475 3.2354 3.02528 2.20331 2.08783 1.901 1.11168 2.43755 1.19742 0.825649 0.589529 0.256171 0.103107 0.00225592
threshold=10.757436745000001 1.0000000180025095e-35 1.7500000000000002 25.121987090000001 2013.5000000000002 1995.5000000000002 1984.5000000000002 2008.5000000000002 1970.5000000000002 1984.5000000000002 1.0000000180025095e-35 1.0000000180025095e-35 1.0000000180025095e-35 1966.5000000000002 18.944973555000004 311.50000000000006 15.231248135000001 282.50000000000006
decision_type=2 2 2 2 2 2 2 2 2 2 2 2 2 2 2 2 2 2
left_child=6 9 3 4 7 -4 15 8 -3 13 11 -10 -12 -2 -7 17 -6 -1
right_child=1 2 5 -5 16 14 -8 -9 10 -11 12 -13 -14 -15 -16 -17 -18 -19
leaf_value=0.03043858366353171 0.0064433038420975211 0.0039336840890777797 0.015689092515517148 -0.034748220667243 -0.022360679283738139 -0.00025026602349404635 0.0075929489607612297 0.0081145023292099883 -0.029785401225936689 -0.0017882236919831485 -0.00060783238009069903 -0.0084259621853775835 -0.014665798490334834 0.019956089971730345 -0.011250423107828414 0.024009603723174053 -0.027437760159373284 0.031180575340986252
leaf_weight=21 20 26 31 20 20 29 24 22 22 32 33 34 28 26 21 21 20 20
leaf_count=21 20 26 31 20 20 29 24 22 22 32 33 34 28 26 21 21 20 20
internal_value=0 -0.00507618 -0.00829985 -0.0123671 -0.0101836 0.00299809 0.0226657 -0.00661617 -0.00888242 0.00757053 -0.0117304 -0.0168172 -0.00706067 0.014081 -0.00487033 0.0285004 -0.0248992 0.0308005
internal_weight=0 384 306 225 205 81 86 165 143 78 117 56 61 46 50 62 40 41
internal_count=470 384 306 225 205 81 86 165 143 78 117 56 61 46 50 62 40 41
is_linear=0
shrinkage=0.05


Tree=15
num_leaves=17
num_cat=0
split_feature=236 25 208 126 236 75 207 33 214 114 197 236 29 49 31 236
split_gain=19.5501 4.6695 2.90874 2.78537 1.99936 1.96185 2.08523 1.92046 2.33837 3.7493 2.6505 1.7324 3.40192 1.67533 1.07125 0.24667
threshold=11.378110245000002 1.7500000000000002 1.0000000180025095e-35 1.0000000180025095e-35 9.2624812775000027 1.0000000180025095e-35 1.0000000180025095e-35 1.0000000180025095e-35 1.0000000180025095e-35 1.0000000180025095e-35 1.0000000180025095e-35 15.475528740000001 1.0000000180025095e-35 1.0000000180025095e-35 1.0000000180025095e-35 8.8740669195000024
decision_type=2 2 2 2 2 2 2 2 2 2 2 2 2 2 2 2
left_child=4 2 3 7 15 6 -3 8 9 13 -10 -11 -13 -2 -7 -1
right_child=1 5 -4 -5 -6 14 -8 -9 10 11 -12 12 -14 -15 -16 -17
leaf_value=0.029756519407965244 0.019515813048928979 0.020056288343455114 -0.021274082865075847 -0.024227534234523774 0.012077704043342519 -0.011806704080109262 0.00058175751387521074 -0.015274295417798889 -0.026100720912218097 -0.019371403930708769 -0.0014550912465589741 0.0067128462024737857 -0.018882054956629875 0.0026553568430244924 0.0032504732272139302 0.022782526768389204
leaf_weight=32 26 28 38 20 39 21 27 36 20 20 24 37 20 34 27 21
leaf_count=32 26 28 38 20 39 21 27 36 20 20 24 37 20 34 27 21
internal_value=0 -0.00503088 -0.00843192 -0.00637284 0.0206703 0.00404957 0.0104961 -0.00472724 -0.00262949 0.000591237 -0.0126577 -0.00671031 -0.00226782 0.00996155 -0.00333704 0.0269932
internal_weight=0 378 275 237 92 103 55 217 181 137 44 77 57 60 48 53
internal_count=470 378 275 237 92 103 55 217 181 137 44 77 57 60 48 53
is_linear=0
shrinkage=0.05


Tree=16
num_leaves=18
num_cat=0
split_feature=236 2 90 26 0 130 0 195 216 236 75 236 217 0 217 236 236
split_gain=17.644 5.51278 5.79495 3.96642 2.37323 3.52536 3.49998 3.1507 2.03528 1.80442 1.764 2.38673 1.3325 1.73833 1.17709 0.645325 0.22262
threshold=11.378110245000002 1.0000000180025095e-35 1.0000000180025095e-35 17.500000000000004 447.50000000000006 1.0000000180025095e-35 645.50000000000011 1.0000000180025095e-35 1.0000000180025095e-35 9.2624812775000027 1.0000000180025095e-35 24.657352040000003 1.0000000180025095e-35 560.50000000000011 1.0000000180025095e-35 24.021313535000001 8.8740669195000024
decision_type=2 2 2 2 2 2 2 2 2 2 2 2 2 2 2 2 2
left_child=9 10 3 4 5 7 12 8 14 16 11 -2 -6 -14 -3 -8 -1
right_child=1 2 -4 -5 6 -7 15 -9 -10 -11 -12 -13 13 -15 -16 -17 -18
leaf_value=0.028268693829886615 0.026068733297288416 -0.001340722551183968 -0.03385972447693348 0.013434909109491855 0.013661606099811339 -0.029136493085668638 -0.020398625861043518 0.0082391384057700634 -0.026939479410648351 0.011473819412864171 -0.0029853580087157235 0.0037699515062073873 -0.0086710791377460263 0.0075654439819004445 -0.015713306775848781 -0.0082755717670633683 0.021643400050344923
leaf_weight=32 20 29 20 24 21 26 23 22 20 39 28 30 34 32 28 21 21
leaf_count=32 20 29 20 24 21 26 23 22 20 39 28 30 34 32 28 21 21
internal_value=0 -0.00477933 -0.00785824 -0.00600099 -0.00782311 -0.0127514 -0.00312049 -0.0084483 -0.0132161 0.0196368 0.0070626 0.0126895 0.00269162 -0.000798826 -0.00840094 -0.0146126 0.0256436
internal_weight=0 378 300 280 256 125 131 99 77 92 78 50 87 66 57 44 53
internal_count=470 378 300 280 256 125 131 99 77 92 78 50 87 66 57 44 53
is_linear=0
shrinkage=0.05


Tree=17
num_leaves=18
num_cat=0
split_feature=236 27 2 25 27 91 0 27 75 27 209 236 27 27 0 236 236
split_gain=15.9456 5.15497 5.07025 3.81782 3.89306 4.47335 4.25411 2.63108 2.29628 1.64182 1.58705 1.10045 0.74379 0.741815 0.463415 1.10124 0.400826
threshold=11.915349075000002 2001.5000000000002 1.0000000180025095e-35 1.7500000000000002 2013.5000000000002 1.0000000180025095e-35 120.50000000000001 1995.5000000000002 1.0000000180025095e-35 1984.5000000000002 1.0000000180025095e-35 20.972849445000005 1966.5000000000002 2003.5000000000002 271.50000000000006 8.9110301685000017 18.944973555000004
decision_type=2 2 2 2 2 2 2 2 2 2 2 2 2 2 2 2 2
left_child=1 14 9 4 5 -4 -7 -5 11 12 -10 -8 -2 -12 -1 -16 -9
right_child=2 -3 3 7 -6 6 8 16 10 -11 13 -13 -14 -15 15 -17 -18
leaf_value=0.031003875080496075 0.0055106758454348892 -0.0035662516951560975 -0.029075187207622963 0.013499866217995685 -0.025547303239765923 -0.021978994458913804 0.014495733741205186 -0.0013462974500187018 -0.018494186736643315 -0.0019879241182934495 0.0053459320527811851 -0.00051848300449226217 0.018336118141619059 -0.0063101171014400635 0.027570587922545044 0.012784499377012254 -0.010556665630567641
leaf_weight=20 20 21 22 30 38 30 26 27 20 32 21 23 26 39 34 20 21
leaf_count=20 20 21 22 30 38 30 26 27 20 32 21 23 26 39 34 20 21
internal_value=0 0.0182976 -0.0046354 -0.00761487 -0.010998 -0.0079435 -0.00501962 0.00188405 -0.00107558 0.00670947 -0.00629642 0.00744824 0.0127598 -0.0022305 0.0245023 0.0220943 -0.00537583
internal_weight=0 95 375 297 219 181 159 78 129 78 80 49 46 60 74 54 48
internal_count=470 95 375 297 219 181 159 78 129 78 80 49 46 60 74 54 48
is_linear=0
shrinkage=0.05


Tree=18
num_leaves=18
num_cat=0
split_feature=236 27 0 25 0 0 27 27 27 236 27 0 236 236 27 27 236
split_gain=14.3932 4.8293 6.30163 5.2307 3.14452 2.86239 2.73849 4.31476 4.13433 2.16774 1.78283 1.40639 1.13362 0.766477 0.32506 0.261483 0.258381
threshold=10.428864865000003 2003.5000000000002 419.50000000000006 1.7500000000000002 703.00000000000011 116.50000000000001 1961.0000000000002 1937.5000000000002 1984.5000000000002 14.693667950000002 1984.5000000000002 493.00000000000006 21.018297865000005 24.021313535000001 2011.5000000000002 1976.5000000000002 8.8740669195000024
decision_type=2 2 2 2 2 2 2 2 2 2 2 2 2 2 2 2 2
left_child=10 3 9 4 6 -5 7 -2 -8 -3 15 -10 14 -14 -4 16 -1
right_child=1 2 12 5 -6 -7 8 -9 11 -11 -12 -13 13 -15 -16 -17 -18
leaf_value=0.02494109943509102 0.003138810597981016 -0.014376331978094051 -0.001174391875974834 0.00026419695746153596 -0.021986255546410882 0.022287290227702924 0.018236610200256111 -0.027895317948423329 -0.0098607406216232405 -0.032984580356499246 0.0066914476792920719 0.005804293398218959 -0.011924462496406503 -0.00065825988466923057 0.0076330550184304071 0.027812511438415167 0.01690398421138525
leaf_weight=20 24 34 20 25 21 36 32 21 38 29 22 23 36 26 22 21 20
leaf_count=20 24 34 20 25 21 36 32 21 38 29 22 23 36 26 22 21 20
internal_value=0 -0.00405213 -0.0104629 0.000814218 -0.00396113 0.0132614 -0.00121817 -0.0113438 0.00368131 -0.022942 0.0188937 -0.00395425 -0.00290342 -0.00719993 0.00343903 0.0232945 0.0209225
internal_weight=0 387 167 220 159 61 138 45 93 63 83 61 104 62 42 61 40
internal_count=470 387 167 220 159 61 138 45 93 63 83 61 104 62 42 61 40
is_linear=0
shrinkage=0.05


Tree=19
num_leaves=18
num_cat=0
split_feature=236 2 27 49 25 27 236 27 236 27 75 236 128 236 236 115 209
split_gain=13.1049 4.30961 4.27442 3.47371 4.00625 3.95928 2.66345 2.29131 1.71352 2.95789 1.50792 2.14012 1.45983 1.55098 0.411394 0.319392 0.201556
threshold=11.915349075000002 1.0000000180025095e-35 2001.5000000000002 1.0000000180025095e-35 1.7500000000000002 2013.5000000000002 15.365687895000002 2008.5000000000002 14.950350935000001 1983.5000000000002 1.0000000180025095e-35 24.657352040000003 1.0000000180025095e-35 21.127511120000005 19.183431370000005 1.0000000180025095e-35 1.0000000180025095e-35
decision_type=2 2 2 2 2 2 2 2 2 2 2 2 2 2 2 2 2
left_child=2 10 15 4 5 7 -6 8 -3 -10 11 -2 13 -11 -8 16 -1
right_child=1 3 -4 -5 6 -7 14 -9 9 12 -12 -13 -14 -15 -16 -17 -18
leaf_value=0.016338959607211028 0.024128693714737894 0.0039651436265558003 -0.0033212200161956609 -0.023080994610985121 0.017579209638966455 -0.024226052511264296 0.0023255060426890851 0.01037382634356618 -0.022184341664736471 -0.01688882329110657 -0.0030329646077007057 0.0030133435937265557 0.0060111704197796908 -0.001072456456360317 -0.0078159233689075337 0.026836632192134859 0.022786176439236711
leaf_weight=22 20 26 21 30 27 34 20 20 36 31 28 30 22 31 20 25 27
leaf_count=22 20 26 21 30 27 34 20 20 36 31 28 30 22 31 20 25 27
internal_value=0 -0.00420228 0.0165879 -0.00694918 -0.00513661 -0.00868153 0.00544523 -0.00549771 -0.00767189 -0.0101933 0.00625707 0.0114595 -0.00505421 -0.00898064 -0.00274521 0.0222378 0.0198915
internal_weight=0 375 95 297 267 200 67 166 146 120 78 50 84 62 40 74 49
internal_count=470 375 95 297 267 200 67 166 146 120 78 50 84 62 40 74 49
is_linear=0
shrinkage=0.05


Tree=20
num_leaves=18
num_cat=0
split_feature=236 27 0 208 27 27 27 127 77 27 0 236 236 0 0 236 27
split_gain=11.8272 3.89557 6.62164 4.45098 5.06396 4.36127 3.85766 3.27288 1.31578 2.0508 3.6032 1.0515 1.04073 0.703181 0.437448 0.922269 0.285545
threshold=11.915349075000002 2003.5000000000002 419.50000000000006 1.0000000180025095e-35 1966.5000000000002 1937.5000000000002 2001.5000000000002 1.0000000180025095e-35 1.0000000180025095e-35 1986.5000000000002 483.50000000000006 21.018297865000005 14.693667950000002 548.00000000000011 271.50000000000006 8.9110301685000017 2011.5000000000002
decision_type=2 2 2 2 2 2 2 2 2 2 2 2 2 2 2 2 2
left_child=6 3 12 4 5 -2 14 8 9 10 -6 16 -3 -13 -1 -16 -4
right_child=1 2 11 -5 7 -7 -8 -9 -10 -11 -12 13 -14 -15 15 -17 -18
leaf_value=0.02744277075864375 0.0047174537169008424 -0.016699040951565481 -0.00072717581060715024 -0.017491590753197669 0.036362003011163324 -0.022704124331859681 -0.0031551589568456018 -0.0056342886613371477 0.0017983708344399931 0.006950545902637874 0.0076264424622058879 5.067490662137667e-05 -0.030475408712337761 -0.010881381511296098 0.023797989154563232 0.010266632940620184 0.0075276051901958206
leaf_weight=20 29 26 20 30 24 29 21 30 20 34 20 24 29 38 34 20 22
leaf_count=20 29 26 20 30 24 29 21 30 20 34 20 24 29 38 34 20 22
internal_value=0 -0.00399216 -0.00993191 0.000380153 0.00326269 -0.00899334 0.0157585 0.0088162 0.0132398 0.0161735 0.0233004 -0.00251166 -0.0239629 -0.00664962 0.0211259 0.0187864 0.00359676
internal_weight=0 375 159 216 186 58 95 128 98 78 44 104 55 62 74 54 42
internal_count=470 375 159 216 186 58 95 128 98 78 44 104 55 62 74 54 42
is_linear=0
shrinkage=0.05


Tree=21
num_leaves=19
num_cat=0
split_feature=236 2 27 49 236 236 236 27 27 27 0 32 27 27 27 0 236 236
split_gain=10.6741 3.67288 3.48154 3.08701 2.6429 8.84622 2.01858 3.04002 2.19107 1.479 2.58399 1.74227 1.36302 0.661112 0.492968 0.394797 0.832348 0.0179062
threshold=11.915349075000002 1.0000000180025095e-35 2001.5000000000002 1.0000000180025095e-35 14.950350935000001 14.073587890000001 15.475528740000001 1981.5000000000002 1948.5000000000002 1997.5000000000002 516.50000000000011 1.0000000180025095e-35 1984.5000000000002 2006.5000000000002 1966.5000000000002 271.50000000000006 8.9110301685000017 23.091347995000003
decision_type=2 2 2 2 2 2 2 2 2 2 2 2 2 2 2 2 2 2
left_child=2 12 15 4 5 -3 -6 8 -8 -9 -11 13 14 -12 -2 -1 -17 -15
right_child=1 3 -4 -5 6 -7 7 9 -10 10 11 -13 -14 17 -16 16 -18 -19
leaf_value=0.026070632454939187 0.0054743894934654244 -0.011554217355495151 -0.0029974007890337991 -0.02153586489458879 -0.018966870322342844 0.028840265868474609 -0.0049537520529702311 0.0094366322606802 -0.027820077136328277 -0.019828534445592336 -0.011502283037407324 0.010012134042335676 -0.0020613593165762722 -0.0020632590726017952 0.015915737888560846 0.022608089709983153 0.0097533009760081765 5.2528753876686096e-05
leaf_weight=20 20 33 21 30 31 23 20 25 22 21 24 28 32 20 26 34 20 20
leaf_count=20 20 33 21 30 31 23 20 25 22 21 24 28 32 20 26 34 20 20
internal_value=0 -0.00379256 0.0149706 -0.00632842 -0.00461972 0.00503637 -0.00718248 -0.00515294 -0.0169314 -0.00156821 -0.00400291 -0.00039054 0.00586325 -0.00494171 0.011376 0.0200696 0.0178471 -0.00100537
internal_weight=0 375 95 297 267 56 211 180 42 138 113 92 78 64 46 74 54 40
internal_count=470 375 95 297 267 56 211 180 42 138 113 92 78 64 46 74 54 40
is_linear=0
shrinkage=0.05


Tree=22
num_leaves=17
num_cat=0
split_feature=236 27 0 208 27 27 27 27 25 0 236 236 236 0 236 27
split_gain=9.63333 3.40557 5.65975 3.95934 4.37518 3.72229 3.15575 2.19378 1.67439 2.35371 0.919688 0.851341 0.658932 0.420625 0.362677 0.216729
threshold=11.915349075000002 2003.5000000000002 419.50000000000006 1.0000000180025095e-35 1966.5000000000002 1937.5000000000002 1996.5000000000002 1978.5000000000002 1.7500000000000002 541.50000000000011 21.018297865000005 14.693667950000002 24.021313535000001 288.50000000000006 15.955106640000002 2011.5000000000002
decision_type=2 2 2 2 2 2 2 2 2 2 2 2 2 2 2 2
left_child=6 3 11 4 5 -2 13 -6 9 14 15 -3 -12 -1 -9 -4
right_child=1 2 10 -5 7 -7 -8 8 -10 -11 12 -13 -14 -15 -16 -17
leaf_value=0.024267140987018748 0.0044784256867293655 -0.0155587140174108 -0.00035069713369011878 -0.016370670689890784 0.022351846034112183 -0.020854851534461667 -0.00062349499919666697 -0.0018909257545601577 0.013686251999981898 0.014417276189972959 -0.010546886672576269 -0.028018699470778993 -0.00010093221297630897 0.016392167447469172 -0.010846783313900233 0.0068409281867471616
leaf_weight=30 29 26 20 30 23 29 26 26 38 21 36 29 26 39 20 22
leaf_count=30 29 26 20 30 23 29 26 26 38 21 36 29 26 39 20 22
internal_value=0 -0.00360293 -0.00915657 0.00048517 0.00320385 -0.00818821 0.0142221 0.00836588 0.00530229 0.00054721 -0.0022964 -0.0221285 -0.00616633 0.0198161 -0.00578478 0.00341634
internal_weight=0 375 159 216 186 58 95 128 105 67 104 55 62 69 46 42
internal_count=470 375 159 216 186 58 95 128 105 67 104 55 62 69 46 42
is_linear=0
shrinkage=0.05


Tree=23
num_leaves=18
num_cat=0
split_feature=236 27 208 27 27 236 27 127 236 197 236 236 236 214 115 209 236
split_gain=8.69408 3.07353 3.5733 3.9486 3.35937 3.21504 2.87476 2.86832 1.15333 1.10946 4.62421 1.67599 0.781067 0.595017 0.244794 0.193219 0.042973
threshold=11.915349075000002 2003.5000000000002 1.0000000180025095e-35 1966.5000000000002 1937.5000000000002 18.458514390000001 2001.5000000000002 1.0000000180025095e-35 21.018297865000005 1.0000000180025095e-35 23.091347995000003 15.532094640000002 14.693667950000002 1.0000000180025095e-35 1.0000000180025095e-35 1.0000000180025095e-35 21.756209710000004
decision_type=2 2 2 2 2 2 2 2 2 2 2 2 2 2 2 2 2
left_child=6 2 3 4 -2 12 14 9 -7 10 -5 -11 -3 16 15 -1 -10
right_child=1 5 -4 7 -6 8 -8 -9 13 11 -12 -13 -14 -15 -16 -17 -18
leaf_value=0.012611983310092579 0.0042545048552083565 -0.013836556510068477 -0.015552137133975824 0.032403964161872863 -0.019812108945615334 0.0031646818137512759 -0.0028163562218348186 -0.0055803394014947126 -0.0092932052555538356 -0.0012380744558998101 0.0013386690098306409 0.017203601178797809 -0.026246436392622335 -0.0009114622223106299 0.022170494854450228 0.018924461778563759 -0.012390331272035838
leaf_weight=22 29 32 30 25 29 39 21 30 21 28 23 22 21 22 25 27 24
leaf_count=22 29 32 30 25 29 39 21 30 21 28 23 22 21 22 25 27 24
internal_value=0 -0.00342278 0.000460911 0.00304366 -0.0077788 -0.00869874 0.013511 0.00794759 -0.00367127 0.0120888 0.0175185 0.00687626 -0.0187537 -0.00765041 0.0181444 0.0160903 -0.010945
internal_weight=0 375 216 186 58 159 95 128 106 98 48 50 53 67 74 49 45
internal_count=470 375 216 186 58 159 95 128 106 98 48 50 53 67 74 49 45
is_linear=0
shrinkage=0.05


Tree=24
num_leaves=16
num_cat=0
split_feature=236 27 0 208 27 27 27 127 25 27 236 236 0 0 27
split_gain=7.84641 2.77386 4.76569 3.22491 3.56361 3.03183 2.60805 2.58866 1.03722 1.63122 0.755421 0.728702 0.700274 0.37659 0.209098
threshold=11.915349075000002 2003.5000000000002 419.50000000000006 1.0000000180025095e-35 1966.5000000000002 1937.5000000000002 1996.5000000000002 1.0000000180025095e-35 1.7500000000000002 1984.5000000000002 21.018297865000005 14.693667950000002 548.00000000000011 288.50000000000006 2011.5000000000002
decision_type=2 2 2 2 2 2 2 2 2 2 2 2 2 2 2
left_child=6 3 11 4 5 -2 13 8 9 -6 14 -3 -12 -1 -4
right_child=1 2 10 -5 7 -7 -8 -9 -10 -11 12 -13 -14 -15 -16
leaf_value=0.022132516267398997 0.0040417790926735976 -0.014088950513933713 -0.00049139624927192923 -0.014774530145029227 0.01691603479236525 -0.018821503466059424 -0.00066054880153387785 -0.0053013228295215719 0.01904657633915063 0.0011699386333164415 0.0012103439463923376 -0.025616600679169446 -0.0096990957366008511 0.01468114419720876 0.0065724827518517329
leaf_weight=30 29 26 20 30 29 29 26 30 31 38 24 29 38 39 22
leaf_count=30 29 26 20 30 29 29 26 30 31 38 24 29 38 39 22
internal_value=0 -0.00325164 -0.0082638 0.000437865 0.00289148 -0.00738986 0.0128354 0.00755021 0.0114844 0.00798541 -0.00196876 -0.0201672 -0.00547609 0.0179209 0.00320873
internal_weight=0 375 159 216 186 58 95 128 98 67 104 55 62 69 42
internal_count=470 375 159 216 186 58 95 128 98 67 104 55 62 69 42
is_linear=0
shrinkage=0.05


Tree=25
num_leaves=18
num_cat=0
split_feature=236 2 49 25 216 27 236 27 27 27 77 236 0 236 236 27 27
split_gain=7.08139 2.73122 2.60436 2.95307 3.1212 2.37364 2.18301 2.11582 2.41837 1.17694 0.528313 1.23807 0.345346 0.740917 0.232495 0.216042 0.0614224
threshold=11.915349075000002 1.0000000180025095e-35 1.0000000180025095e-35 1.7500000000000002 1.0000000180025095e-35 2001.5000000000002 15.365687895000002 1982.5000000000002 2012.5000000000002 1984.5000000000002 1.0000000180025095e-35 21.260575525000004 271.50000000000006 8.9110301685000017 19.183431370000005 1966.5000000000002 2003.5000000000002
decision_type=2 2 2 2 2 2 2 2 2 2 2 2 2 2 2 2 2
left_child=5 9 3 4 7 12 -5 -3 10 15 11 16 -1 -14 -8 -2 -9
right_child=1 2 -4 6 -6 -7 14 8 -10 -11 -12 -13 13 -15 -16 -17 -18
leaf_value=0.022016511720139534 0.0064532377733848983 -0.016354690175503492 -0.019243930180867515 0.016363916677612538 -0.02256078169922586 -0.0026425112571035114 0.0017756476812064649 -0.0048826984874904156 -0.014369106314455468 -0.0021263886941596867 0.0064037386217693755 0.0060348065463559971 0.018817120264558233 0.0066888984572142365 -0.0058482473157346251 0.013365435886841553 -0.0088013191893696798
leaf_weight=20 20 30 30 27 27 21 20 20 30 32 38 35 34 20 20 26 20
leaf_count=20 20 30 30 27 27 21 20 20 30 32 38 35 34 20 20 26 20
internal_value=0 -0.00308906 -0.00527582 -0.00370637 -0.00674988 0.0121937 0.00537871 -0.00428228 -0.0017496 0.00523746 0.00160071 -0.000832828 0.0164039 0.0143252 -0.0020363 0.0103601 -0.00684201
internal_weight=0 375 297 267 200 95 67 173 143 78 113 75 74 54 40 46 40
internal_count=470 375 297 267 200 95 67 173 143 78 113 75 74 54 40 46 40
is_linear=0
shrinkage=0.05


Tree=26
num_leaves=17
num_cat=0
split_feature=236 2 49 25 216 27 27 27 27 75 236 77 236 236 0 27
split_gain=6.39095 2.46492 2.35044 2.66515 2.81688 2.16172 2.03565 1.90953 2.18258 1.13395 1.59761 0.476803 1.11735 0.388337 0.327466 0.0554337
threshold=11.915349075000002 1.0000000180025095e-35 1.0000000180025095e-35 1.7500000000000002 1.0000000180025095e-35 1996.5000000000002 1988.5000000000002 1982.5000000000002 2012.5000000000002 1.0000000180025095e-35 25.326553905000001 1.0000000180025095e-35 21.260575525000004 15.594256835000001 288.50000000000006 2003.5000000000002
decision_type=2 2 2 2 2 2 2 2 2 2 2 2 2 2 2 2
left_child=5 9 3 4 7 14 -5 -3 11 10 -2 12 15 -8 -1 -9
right_child=1 2 -4 6 -6 -7 13 8 -10 -11 -12 -13 -14 -15 -16 -17
leaf_value=0.020141213135793808 0.017409351933747531 -0.015536955472392342 -0.018281733728945256 0.017574384114281697 -0.021432742067716188 -0.00070302540149826272 0.0042090292624197903 -0.004638563343323767 -0.013650651053370287 -0.0030805425718426708 -0.00059595858170227581 0.0060835516791006459 0.005733066463310804 -0.0051384788602590568 0.013192819173519428 -0.0083612533099949368
leaf_weight=30 28 30 30 22 27 26 20 20 30 28 22 38 35 25 39 20
leaf_count=30 28 30 30 22 27 26 20 20 30 28 22 38 35 25 39 20
internal_value=0 -0.00293461 -0.00501203 -0.00352105 -0.00641238 0.011584 0.00510978 -0.00406816 -0.00166212 0.00497558 0.00948702 0.00152067 -0.000791187 -0.000984031 0.0162139 -0.00649991
internal_weight=0 375 297 267 200 95 67 173 143 78 50 113 75 45 69 40
internal_count=470 375 297 267 200 95 67 173 143 78 50 113 75 45 69 40
is_linear=0
shrinkage=0.05


Tree=27
num_leaves=19
num_cat=0
split_feature=27 236 0 2 207 236 114 0 236 0 236 236 0 27 236 0 27 0
split_gain=5.92803 7.26545 3.23449 2.7395 2.88503 2.33746 2.04455 1.79977 1.17103 1.05609 0.870513 0.746367 0.685564 0.559132 0.280966 0.318292 0.194126 0.00624351
threshold=2003.5000000000002 15.167658070000002 419.50000000000006 1.0000000180025095e-35 1.0000000180025095e-35 13.407457605000003 1.0000000180025095e-35 228.00000000000003 12.147864815000002 493.00000000000006 21.448302190000003 21.018297865000005 548.00000000000011 1988.5000000000002 8.9035504335000031 274.50000000000006 2011.5000000000002 143.50000000000003
decision_type=2 2 2 2 2 2 2 2 2 2 2 2 2 2 2 2 2 2
left_child=1 5 8 9 6 7 -5 -1 -2 -3 13 16 -13 -8 -9 -16 -4 -10
right_child=2 3 11 4 -6 -7 10 14 17 -11 -12 12 -14 -15 15 -17 -18 -19
leaf_value=-0.0019804013859746712 -0.0082747872220352292 0.0002438161788242204 -3.66059085354209e-05 0.009327159764674995 -0.02200708347372711 0.02974306865595281 0.0028060262277722361 0.018044789406386288 -0.020482748589047334 0.012916759336968104 -0.015949068737099878 0.0015118059236556292 -0.0092824453487992294 -0.0085136235691607009 0.016272347939666362 0.0073519736854359505 0.0067696791142225271 -0.021732098925858739
leaf_weight=21 32 35 20 26 24 20 20 33 20 31 20 24 38 24 20 20 22 20
leaf_count=21 32 35 20 26 24 20 20 33 20 31 20 24 38 24 20 20 22 20
internal_value=0 0.00434469 -0.00725761 -0.00191055 -0.00660396 0.0142214 -0.00249646 0.0109189 -0.015404 0.00619626 -0.00729981 -0.00161778 -0.00510403 -0.00336833 0.0146297 0.0118122 0.00352859 -0.0211074
internal_weight=0 294 176 180 114 114 90 94 72 66 64 104 62 44 73 40 42 40
internal_count=470 294 176 180 114 114 90 94 72 66 64 104 62 44 73 40 42 40
is_linear=0
shrinkage=0.05


Tree=28
num_leaves=17
num_cat=0
split_feature=27 0 0 0 0 0 0 31 216 50 25 27 27 0 27 0
split_gain=5.35004 3.42734 3.28962 3.87114 4.77634 2.91913 2.88855 1.50334 1.48413 1.08483 0.792572 1.56372 0.724765 1.25681 0.261589 0.260693
threshold=2003.5000000000002 692.50000000000011 116.50000000000001 377.50000000000006 453.50000000000006 419.50000000000006 64.000000000000014 1.0000000180025095e-35 1.0000000180025095e-35 1.0000000180025095e-35 1.7500000000000002 1973.5000000000002 2006.5000000000002 645.50000000000011 2015.5000000000002 191.00000000000003
decision_type=2 2 2 2 2 2 2 2 2 2 2 2 2 2 2 2
left_child=1 2 6 9 -5 8 -1 -6 15 -4 11 -11 -7 14 -14 -2
right_child=5 -3 3 4 7 12 -8 -9 -10 10 -12 -13 13 -15 -16 -17
leaf_value=0.0036744936772093585 -0.0052297773690003421 -0.013204831608499473 0.0061779250358713084 -0.015009228164149869 0.0021463453628574355 -0.0080924092388401422 -0.019542879558035308 0.018222441932616327 -0.023632677666111185 0.021925456231110731 0.024282407574355604 0.0061688100070422212 0.010290048206629961 -0.0065536092125600383 0.0024713369645178321 -0.012935037006224906
leaf_weight=37 23 26 29 31 33 30 21 26 28 32 28 31 23 31 20 21
leaf_count=37 23 26 29 31 33 30 21 26 28 32 28 31 23 31 20 21
internal_value=0 0.00412746 0.00580895 0.0087202 0.000881409 -0.00689473 -0.0047318 0.00923073 -0.0146338 0.0145993 0.017283 0.0141722 -0.00153689 0.00112076 0.00665344 -0.00890729
internal_weight=0 294 268 210 90 176 58 59 72 120 91 63 104 74 43 44
internal_count=470 294 268 210 90 176 58 59 72 120 91 63 104 74 43 44
is_linear=0
shrinkage=0.05


Tree=29
num_leaves=18
num_cat=0
split_feature=236 208 2 26 207 0 236 216 0 75 0 0 0 236 236 0 31
split_gain=4.8435 3.354 3.09922 3.71504 2.82585 2.8131 2.21637 2.204 1.22927 1.06653 0.948819 1.62936 0.544577 0.356208 0.297988 0.0851451 0.0573319
threshold=9.2624812775000027 1.0000000180025095e-35 1.0000000180025095e-35 12.500000000000002 1.0000000180025095e-35 396.50000000000006 16.566666695000006 1.0000000180025095e-35 541.50000000000011 1.0000000180025095e-35 377.50000000000006 535.50000000000011 560.50000000000011 22.497602635000003 24.731448695000005 223.00000000000003 1.0000000180025095e-35
decision_type=2 2 2 2 2 2 2 2 2 2 2 2 2 2 2 2 2
left_child=16 2 8 4 7 -6 -3 9 14 12 -11 -12 15 -13 -2 -4 -1
right_child=1 6 3 -5 5 -7 -8 -9 -10 10 11 13 -14 -15 -16 -17 -18
leaf_value=0.012741390198212247 0.00065272158871476464 -0.025280971711744434 6.7740953950719401e-05 0.012838480334196774 -0.0025889151446197348 -0.026594372810079505 -0.0044969397564900331 -0.013820438240795877 0.017775644233020454 0.0040336276377950396 -0.016344753276905977 0.004475182453170419 0.012207514625042678 -0.0041985412995363108 0.0085593633480708711 0.0044186580197318739 0.016045097339277468
leaf_weight=29 26 23 22 35 23 26 29 33 26 35 25 20 20 29 22 23 24
leaf_count=29 26 23 22 35 23 26 29 33 26 35 25 20 20 29 22 23 24
internal_value=0 -0.00180955 -0.000117011 -0.00244039 -0.00452929 -0.0153265 -0.0136899 -0.00197343 0.00901951 0.000273413 -0.0027495 -0.00595774 0.00534261 -0.000658246 0.0042766 0.00229154 0.0142374
internal_weight=0 417 365 291 256 49 52 207 74 174 109 74 65 49 48 45 53
internal_count=470 417 365 291 256 49 52 207 74 174 109 74 65 49 48 45 53
is_linear=0
shrinkage=0.05


Tree=30
num_leaves=18
num_cat=0
split_feature=27 236 0 29 0 91 27 236 236 0 216 236 27 27 0 236 0
split_gain=4.65594 5.52659 2.57313 2.41603 3.20674 2.33952 2.24721 2.52224 2.16399 1.4811 1.26468 0.677466 0.659258 0.770751 0.294122 0.206904 0.292694
threshold=2003.5000000000002 15.167658070000002 419.50000000000006 1.0000000180025095e-35 453.50000000000006 1.0000000180025095e-35 1961.0000000000002 15.633209695000003 13.407457605000003 228.00000000000003 1.0000000180025095e-35 13.407457605000003 2008.5000000000002 2012.5000000000002 565.50000000000011 8.9035504335000031 274.50000000000006
decision_type=2 2 2 2 2 2 2 2 2 2 2 2 2 2 2 2 2
left_child=1 8 10 4 6 -6 -3 -8 9 -1 11 -2 14 -14 -4 -11 -17
right_child=2 3 12 -5 5 -7 7 -9 -10 15 -12 -13 13 -15 -16 16 -18
leaf_value=-0.0024148346545795601 -0.001615316327661276 -0.016441111613450379 -0.0019473876506090164 -0.013190677816358708 0.0019364265547330052 0.021630786620080472 -0.0096659429923251841 0.012374131008982658 0.027399124470539396 0.015583828994722076 -0.022004885998155393 -0.014075355627574027 0.0095762027258222762 -0.002434553857892752 -0.0097820520239031844 0.014512436874210836 0.0059582902770489461
leaf_weight=21 20 29 25 36 38 25 27 25 20 33 28 24 22 34 23 20 20
leaf_count=21 20 29 25 36 38 25 27 25 20 33 28 24 22 34 23 20 20
internal_value=0 0.00385041 -0.00643194 -0.00160517 0.00129121 0.00975165 -0.00528913 0.000930246 0.0124645 0.00928691 -0.0136979 -0.0084117 -0.00140164 0.00228396 -0.0057015 0.0126532 0.0102354
internal_weight=0 294 176 180 144 63 81 52 114 94 72 44 104 56 48 73 40
internal_count=470 294 176 180 144 63 81 52 114 94 72 44 104 56 48 73 40
is_linear=0
shrinkage=0.05


Tree=31
num_leaves=19
num_cat=0
split_feature=27 236 236 236 216 208 2 207 27 27 50 236 236 77 27 236 236 236
split_gain=4.20199 5.01119 2.28163 2.29831 2.18742 2.17322 3.15506 3.25757 1.07739 0.974468 0.511088 0.790427 0.525138 0.398643 0.354788 0.819665 0.203017 0.628093
threshold=2003.5000000000002 15.280392605000001 13.730196790000003 10.757436745000001 1.0000000180025095e-35 1.0000000180025095e-35 1.0000000180025095e-35 1.0000000180025095e-35 1964.5000000000002 1974.5000000000002 1.0000000180025095e-35 24.021313535000001 21.220709625000001 1.0000000180025095e-35 2007.5000000000002 18.458514390000001 9.7782746910000018 8.9035504335000031
decision_type=2 2 2 2 2 2 2 2 2 2 2 2 2 2 2 2 2 2
left_child=1 2 3 16 10 6 9 8 -8 -3 -2 12 14 -10 -12 -16 17 -1
right_child=4 5 -4 -5 -6 -7 7 -9 13 -11 11 -13 -14 -15 15 -17 -18 -19
leaf_value=0.014804637590141008 -0.0099253974641518045 0.018038944110792893 0.024917754388414325 -0.007121447501704097 -0.017102737678214908 -0.014832876119072792 -0.0089782268551754814 -0.021477952307980996 0.009549111627380957 0.0046098737312214718 -0.0061678000950607763 0.0071329893916845331 -0.010782096002783095 0.00013470419723054638 -0.005223285444546491 0.0081761824587980921 0.016252493178471921 0.0040411010910959347
leaf_weight=33 24 22 25 20 36 27 21 23 22 35 29 20 21 23 25 21 20 23
leaf_count=33 24 22 25 20 36 27 21 23 22 35 29 20 21 23 25 21 20 23
internal_value=0 0.00365789 0.0114633 0.00795958 -0.00611035 -0.0018014 0.00060853 -0.00527367 0.000373271 0.00979302 -0.00328373 -0.00190959 -0.00379346 0.0047373 -0.00183665 0.000893863 0.0119283 0.0103839
internal_weight=0 294 121 96 176 173 146 89 66 57 140 116 96 45 75 46 76 56
internal_count=470 294 121 96 176 173 146 89 66 57 140 116 96 45 75 46 76 56
is_linear=0
shrinkage=0.05


Tree=32
num_leaves=18
num_cat=0
split_feature=27 236 236 114 0 207 0 209 236 197 0 236 236 236 27 236 27
split_gain=3.82761 4.66143 2.71304 2.57852 2.3384 3.14811 2.18149 1.74829 1.45932 1.41038 1.74665 2.84433 1.2596 1.23106 1.08958 1.53741 0.824711
threshold=1995.5000000000002 15.365687895000002 13.730196790000003 1.0000000180025095e-35 692.50000000000011 1.0000000180025095e-35 98.500000000000014 1.0000000180025095e-35 19.543710350000001 1.0000000180025095e-35 516.50000000000011 14.950350935000001 22.497602635000003 25.186162670000005 1979.5000000000002 8.914933437000002 2007.5000000000002
decision_type=2 2 2 2 2 2 2 2 2 2 2 2 2 2 2 2 2
left_child=1 2 14 4 5 -3 -5 8 -2 -9 11 -11 16 -7 15 -1 -12
right_child=7 3 -4 6 -6 13 -8 9 -10 10 12 -13 -14 -15 -16 -17 -18
leaf_value=0.012464742362499238 -0.017837756537636251 0.022321989138921104 0.028042860684747047 -0.023840919656213374 -0.010687712385602621 0.007444556911165516 -0.0012620489629309463 0.0093185703037306673 -0.0022833651751279832 0.000759002584964037 -0.00050117696607203204 -0.020837486448562554 -0.0085570893585681911 -0.009351840978488327 0.016677305231300687 -0.004257123884572475 0.011281872747672929
leaf_weight=28 38 24 22 20 23 24 23 24 25 30 33 31 25 20 26 27 27
leaf_count=28 38 24 22 20 23 24 23 24 25 30 33 31 25 20 26 27 27
internal_value=0 0.00447393 0.0124721 -0.0016739 0.00309388 0.0077553 -0.0117638 -0.00455073 -0.0116654 -0.00191413 -0.0037606 -0.0102163 0.000872288 -0.000190169 0.00824297 0.00425583 0.0048012
internal_weight=0 237 103 134 91 68 43 233 63 170 146 61 85 44 81 55 60
internal_count=470 237 103 134 91 68 43 233 63 170 146 61 85 44 81 55 60
is_linear=0
shrinkage=0.05


Tree=33
num_leaves=18
num_cat=0
split_feature=236 25 27 0 90 114 0 27 27 0 0 27 236 236 75 0 0
split_gain=3.56844 1.90097 2.00843 2.19695 2.65607 3.21012 2.8329 1.70101 1.22024 1.11885 1.7506 1.01121 0.887655 0.680495 0.458115 0.359616 0.311806
threshold=11.915349075000002 1.7500000000000002 2012.5000000000002 703.00000000000011 1.0000000180025095e-35 1.0000000180025095e-35 120.50000000000001 1995.5000000000002 1974.5000000000002 541.50000000000011 377.50000000000006 1996.5000000000002 16.899394565000005 19.183431370000005 1.0000000180025095e-35 630.50000000000011 288.50000000000006
decision_type=2 2 2 2 2 2 2 2 2 2 2 2 2 2 2 2 2
left_child=11 2 3 4 5 8 -7 12 -2 10 -8 16 -3 -9 -4 -11 -1
right_child=1 7 14 -5 -6 6 9 13 -10 15 -12 -13 -14 -15 -16 -17 -18
leaf_value=0.015654817254592977 0.018783833152757817 0.003957986786961556 -0.019821789325214924 -0.017540273019535976 -0.017785700434996259 -0.018922656731835255 0.0067600633301164795 0.0020210969007828021 0.0042008952586911619 0.010579426525889533 -0.010632475227929462 0.00025231782346963884 0.017568637469135548 -0.0094925467634484895 -0.0094748362696365183 0.0014120611920952798 0.0088745996582871075
leaf_weight=30 26 25 20 22 21 24 23 33 32 23 39 26 23 21 23 20 39
leaf_count=30 26 25 20 22 21 24 23 33 32 23 39 26 23 21 23 20 39
internal_value=0 -0.00219284 -0.00436885 -0.00251451 -0.000925251 0.000968168 -0.0034245 0.00363119 0.0107381 0.000117933 -0.0041804 0.00865594 0.0104798 -0.00245643 -0.0142874 0.00631554 0.0118225
internal_weight=0 375 273 230 208 187 129 102 58 105 62 95 48 54 43 43 69
internal_count=470 375 273 230 208 187 129 102 58 105 62 95 48 54 43 43 69
is_linear=0
shrinkage=0.05


Tree=34
num_leaves=19
num_cat=0
split_feature=27 236 236 0 208 2 207 236 216 0 27 27 0 236 27 236 0 236
split_gain=3.23929 3.90717 2.65409 2.0125 1.91055 2.57911 2.56827 1.90121 1.07519 0.950467 0.912623 0.564016 1.06364 0.498357 0.35236 0.276001 0.207426 0.545165
threshold=2003.5000000000002 15.231248135000001 13.730196790000003 419.50000000000006 1.0000000180025095e-35 1.0000000180025095e-35 1.0000000180025095e-35 10.757436745000001 1.0000000180025095e-35 541.50000000000011 1964.5000000000002 2006.5000000000002 645.50000000000011 13.407457605000003 1991.0000000000002 20.972849445000005 271.50000000000006 8.9035504335000031
decision_type=2 2 2 2 2 2 2 2 2 2 2 2 2 2 2 2 2 2
left_child=1 2 7 8 5 9 10 16 13 -3 -7 -5 15 -2 -12 -13 -1 -18
right_child=3 4 -4 11 -6 6 -8 -9 -10 -11 14 12 -14 -15 -16 -17 17 -19
leaf_value=0.014759608041495086 -0.0010875107627362013 0.0037934434422127461 0.026402545653815779 -0.0066992533206939701 -0.013718757799102199 -0.0081968287116892281 -0.018492163609092435 -0.0069373643677681689 -0.019450165610760451 0.016953945556736513 0.0080783633722199336 0.010253445293916308 -0.0056317794467172317 -0.011774268038182829 -0.00055722843057342945 0.0022222452796995642 0.012946208001989307 0.0029183768181373247
leaf_weight=20 20 34 21 30 27 21 24 20 28 23 27 23 31 24 21 20 33 23
leaf_count=20 20 34 21 30 27 21 24 20 28 23 27 23 31 24 21 20 33 23
internal_value=0 0.00321165 0.0103012 -0.00536492 -0.00147469 0.000729243 -0.00440356 0.00677909 -0.0117908 0.00910382 0.00049682 -0.000916237 0.00142823 -0.00691665 0.00430029 0.006518 0.0103887 0.00882763
internal_weight=0 294 117 176 177 150 93 96 72 57 69 104 74 44 48 43 76 56
internal_count=470 294 117 176 177 150 93 96 72 57 69 104 74 44 48 43 76 56
is_linear=0
shrinkage=0.05


Tree=35
num_leaves=17
num_cat=0
split_feature=236 236 236 29 0 209 114 27 91 0 33 27 27 236 0 27
split_gain=2.98841 1.69187 4.40468 1.76965 2.60389 2.28589 2.08354 1.32826 1.58362 1.09686 0.922965 0.796351 0.693507 0.399489 0.274873 0.246638
threshold=11.915349075000002 13.892570120000002 14.950350935000001 1.0000000180025095e-35 453.50000000000006 1.0000000180025095e-35 1.0000000180025095e-35 1974.5000000000002 1.0000000180025095e-35 107.50000000000001 1.0000000180025095e-35 1996.5000000000002 1980.5000000000002 21.053255255000003 288.50000000000006 2003.5000000000002
decision_type=2 2 2 2 2 2 2 2 2 2 2 2 2 2 2 2
left_child=11 15 -3 4 6 -5 12 -6 -9 -8 13 14 -4 -10 -1 -2
right_child=1 2 3 5 7 -7 9 8 10 -11 -12 -13 -14 -15 -16 -17
leaf_value=0.014329561740159988 -0.0074447468668222428 0.01854505349226572 -0.0040324109233915812 -0.022583590366918108 0.013636804781604693 -0.0026122642840307794 -0.017458552796099532 -0.0088274421835584302 0.0038185010082088413 -0.0045466003505962678 -0.0026262044354721354 0.00046368396411148406 0.009134846336673946 0.012410953088152793 0.0079635462532631866 -0.015116560564969073
leaf_weight=30 20 27 20 23 28 38 38 28 24 29 27 26 20 31 39 22
leaf_count=30 20 27 20 23 28 38 38 28 24 29 27 26 20 31 39 22
internal_value=0 -0.00200672 -0.000813999 -0.00252215 -0.000624855 -0.0101424 -0.00647876 0.00391404 0.00143916 -0.0118698 0.00494483 0.00792127 0.00255122 0.00866152 0.0107314 -0.0114633
internal_weight=0 375 333 306 245 61 107 138 110 67 82 95 40 55 69 42
internal_count=470 375 333 306 245 61 107 138 110 67 82 95 40 55 69 42
is_linear=0
shrinkage=0.05


Tree=36
num_leaves=17
num_cat=0
split_feature=27 236 217 25 0 2 236 77 216 25 236 27 236 0 236 236
split_gain=2.87322 3.18851 1.77732 2.37563 1.6963 1.69305 1.49036 1.42617 0.971651 0.862468 1.70672 0.698838 0.6926 0.54661 0.604362 0.488077
threshold=2003.5000000000002 15.167658070000002 1.0000000180025095e-35 1.7500000000000002 419.50000000000006 1.0000000180025095e-35 13.407457605000003 1.0000000180025095e-35 1.0000000180025095e-35 1.2500000000000002 9.2210998700000015 1983.5000000000002 25.002098935000003 548.00000000000011 21.171008910000001 13.407457605000003
decision_type=2 2 2 2 2 2 2 2 2 2 2 2 2 2 2 2
left_child=1 6 3 5 8 12 9 -4 15 10 -1 -7 -3 -6 -15 -2
right_child=4 2 7 -5 13 11 -8 -9 -10 -11 -12 -13 -14 14 -16 -17
leaf_value=0.011709983068320787 -0.00054996175225824112 -0.002040291102603078 -0.019367828898664036 0.013294382658645963 0.0047246629248062777 -0.011903950381973708 0.021961714234203102 -0.00071163412183523184 -0.018233451751127307 0.014100942568018519 -0.0044960303785046563 -0.0006508568153631958 0.010235893748769606 0.0013659809612565571 -0.00767449749339568 -0.01112592865053254
leaf_weight=33 20 20 21 33 30 37 20 20 28 29 32 22 27 36 38 24
leaf_count=33 20 20 21 33 30 37 20 20 28 29 32 22 27 36 38 24
internal_value=0 0.00302474 -0.00111913 0.00157923 -0.00505269 -0.00206794 0.0095677 -0.0102672 -0.0109522 0.00693068 0.00373164 -0.00770788 0.00501199 -0.00096842 -0.00327643 -0.00631867
internal_weight=0 294 180 139 176 106 114 41 72 94 65 59 47 104 74 44
internal_count=470 294 180 139 176 106 114 41 72 94 65 59 47 104 74 44
is_linear=0
shrinkage=0.05


Tree=37
num_leaves=18
num_cat=0
split_feature=27 236 29 0 91 27 0 0 236 216 0 27 0 236 27 216 236
split_gain=2.59308 2.87763 1.68374 2.41348 2.2665 1.60153 1.98882 1.53091 1.34505 0.876915 0.789906 0.523681 0.928538 0.44049 0.25715 0.2309 0.252542
threshold=2003.5000000000002 15.167658070000002 1.0000000180025095e-35 453.50000000000006 1.0000000180025095e-35 1961.0000000000002 76.000000000000014 419.50000000000006 13.407457605000003 1.0000000180025095e-35 228.00000000000003 2006.5000000000002 645.50000000000011 13.407457605000003 2015.5000000000002 1.0000000180025095e-35 8.914933437000002
decision_type=2 2 2 2 2 2 2 2 2 2 2 2 2 2 2 2 2
left_child=1 8 3 5 -5 -3 -7 9 10 13 -1 -9 14 -2 -13 16 -12
right_child=7 2 -4 4 -6 6 -8 11 -10 -11 15 12 -14 -15 -16 -17 -18
leaf_value=-0.001961516287355196 -0.00052246343577280643 -0.013768491547370074 -0.010734852415043862 0.00100221942227922 0.020386813126504422 0.012776994634242284 -0.0071516966176850176 -0.0064923932030797014 0.020863628648221496 -0.017321779261276659 0.010222632461978545 0.0097002476453781142 -0.0052573276863944153 -0.010569632238669632 0.0019481660379096868 0.013620142964646221 0.0032180447300726718
leaf_weight=21 20 29 36 38 25 21 31 30 20 28 31 23 31 24 20 20 22
leaf_count=21 20 29 36 38 25 21 31 30 20 28 31 23 31 24 20 20 22
internal_value=0 0.0028735 -0.00106318 0.00135474 0.00869452 -0.00435397 0.000896429 -0.00480006 0.00908932 -0.0104046 0.00658414 -0.000919999 0.00133908 -0.00600274 0.00609463 0.00904249 0.00731507
internal_weight=0 294 180 144 63 81 52 176 114 72 94 104 74 44 43 73 53
internal_count=470 294 180 144 63 81 52 176 114 72 94 104 74 44 43 73 53
is_linear=0
shrinkage=0.05


Tree=38
num_leaves=18
num_cat=0
split_feature=236 236 236 2 207 236 75 27 27 236 0 27 27 236 0 0 27
split_gain=2.34883 1.50365 3.54102 1.56914 3.12124 1.86383 1.3926 1.13941 1.77327 0.885541 0.676953 0.88958 0.545505 0.444246 0.29382 0.267518 0.167553
threshold=11.915349075000002 13.892570120000002 14.950350935000001 1.0000000180025095e-35 1.0000000180025095e-35 15.475528740000001 1.0000000180025095e-35 1983.5000000000002 2003.5000000000002 19.681908650000004 595.50000000000011 1974.5000000000002 1996.5000000000002 24.021313535000001 574.50000000000011 288.50000000000006 2003.5000000000002
decision_type=2 2 2 2 2 2 2 2 2 2 2 2 2 2 2 2 2
left_child=12 16 -3 10 5 -5 9 -8 -9 -7 11 -4 15 14 -10 -1 -2
right_child=1 2 3 4 -6 6 7 8 13 -11 -12 -13 -14 -15 -16 -17 -18
leaf_value=0.012898150756955147 -0.0073819389333948495 0.016702992772614514 0.009249044174239749 -0.013919905235094052 -0.017727800117184719 0.013715449448674919 -0.011100453360479386 0.01311104938387871 -0.003002569646291111 0.0009738191620757182 0.01204860631376505 -0.0039948503235791577 0.00085037099913908877 0.0020154179262352133 -0.011288969349116088 0.0066178851975844458 -0.013705243589356542
leaf_weight=30 20 27 21 27 36 25 31 20 23 30 20 32 26 21 20 39 22
leaf_count=30 20 27 21 27 36 25 31 20 23 30 20 32 26 21 20 39 22
internal_value=0 -0.00177907 -0.000654647 -0.0021862 -0.00419032 -0.00171647 0.000221724 -0.00290789 0.000115551 0.00676547 0.0042105 0.00125273 0.00702265 -0.00394554 -0.00685671 0.00934844 -0.0106941
internal_weight=0 375 333 306 233 197 170 115 84 55 73 53 95 64 43 69 42
internal_count=470 375 333 306 233 197 170 115 84 55 73 53 95 64 43 69 42
is_linear=0
shrinkage=0.05


Tree=39
num_leaves=18
num_cat=0
split_feature=27 0 27 27 27 209 197 0 236 236 27 0 209 236 236 27 209
split_gain=2.23401 2.75143 2.56336 1.96596 1.69312 1.31675 1.22642 1.21785 2.29145 1.14784 0.97461 2.22124 1.27268 0.930041 0.800071 0.593043 0.498703
threshold=1995.5000000000002 692.50000000000011 1961.0000000000002 1905.0000000000002 1970.5000000000002 1.0000000180025095e-35 1.0000000180025095e-35 516.50000000000011 14.950350935000001 19.543710350000001 1981.5000000000002 140.50000000000003 1.0000000180025095e-35 22.497602635000003 10.198417835000003 2007.5000000000002 1.0000000180025095e-35
decision_type=2 2 2 2 2 2 2 2 2 2 2 2 2 2 2 2 2
left_child=1 2 3 -1 -4 9 -7 8 -8 -2 14 -12 -13 15 -6 -9 -5
right_child=5 -3 4 16 10 6 7 13 -10 -11 11 12 -14 -15 -16 -17 -18
leaf_value=0.010259009208530187 -0.015125261649097266 -0.012631441924410562 0.019104938587406653 -0.013948099420998583 0.0068726550601422784 0.0092860849341377619 0.0015501063565413159 -0.00016211434831899223 -0.017834110924553486 -0.0013303535357117654 -0.001302611391092169 0.0074533503308581821 0.024308003411473086 -0.0071442328691482537 -0.0072701085358858114 0.0098298236503507261 -0.0036262289527803659
leaf_weight=20 38 24 32 22 20 24 30 33 31 25 29 21 24 25 20 27 25
leaf_count=20 38 24 32 22 20 24 30 33 31 25 29 21 24 25 20 27 25
internal_value=0 0.00341796 0.00522635 -0.00287065 0.00894209 -0.00347664 -0.00118846 -0.00291031 -0.00830089 -0.00965109 0.00608937 0.00948833 0.0164425 0.000958231 -0.000198727 0.00433426 -0.00845774
internal_weight=0 237 213 67 146 233 170 146 61 63 114 74 45 85 40 60 47
internal_count=470 237 213 67 146 233 170 146 61 63 114 74 45 85 40 60 47
is_linear=0
shrinkage=0.05


Tree=40
num_leaves=18
num_cat=0
split_feature=27 236 236 217 216 2 0 236 31 27 0 236 0 236 27 236 236
split_gain=2.04289 2.20995 1.64405 1.56494 1.33313 1.26594 1.8414 1.18431 0.959499 0.822437 0.618162 0.647282 0.6574 0.969264 0.47504 0.261271 0.472226
threshold=2003.5000000000002 15.280392605000001 13.730196790000003 1.0000000180025095e-35 1.0000000180025095e-35 1.0000000180025095e-35 90.000000000000014 10.757436745000001 1.0000000180025095e-35 1974.5000000000002 661.50000000000011 21.756209710000004 520.50000000000011 15.231248135000001 2006.5000000000002 9.7782746910000018 8.9035504335000031
decision_type=2 2 2 2 2 2 2 2 2 2 2 2 2 2 2 2 2
left_child=1 2 7 5 10 9 -7 15 -8 -3 11 12 13 -2 -14 16 -1
right_child=4 3 -4 -5 -6 6 8 -9 -10 -11 -12 -13 14 -15 -16 -17 -18
leaf_value=0.0096898272182002216 -0.00021022929840030212 0.013490558123717515 0.019154862463474275 -0.010192161413362703 -0.012841978149178127 0.0096181957228552734 -0.016520702070556583 -0.0060660366155207163 -0.0027189330088303373 0.0017506271294717279 0.0056407774713906379 -0.011685784165747464 -0.0029081419237296691 -0.014328463822603228 0.0071658711247146126 0.012514193600509316 0.00035690012509408207
leaf_weight=33 31 26 25 37 36 21 20 20 34 35 22 20 22 20 25 20 23
leaf_count=33 31 26 25 37 36 21 20 20 34 35 22 20 22 20 25 20 23
internal_value=0 0.00255051 0.00773395 -0.00107491 -0.0042605 0.00140552 -0.00294501 0.00475975 -0.0078307 0.00675453 -0.00205384 -0.00348843 -0.0018155 -0.00574679 0.00245038 0.00760864 0.00585666
internal_weight=0 294 121 173 176 136 75 96 54 61 140 118 98 51 47 76 56
internal_count=470 294 121 173 176 136 75 96 54 61 140 118 98 51 47 76 56
is_linear=0
shrinkage=0.05


Tree=41
num_leaves=19
num_cat=0
split_feature=27 236 236 208 2 207 216 236 0 27 0 236 0 236 27 77 236 236
split_gain=1.84371 1.99448 1.48376 1.4161 1.70558 2.4354 1.20315 1.06884 0.863309 0.661401 0.557891 0.584172 0.593303 0.874761 0.428723 0.296589 0.235797 0.426184
threshold=2003.5000000000002 15.280392605000001 13.730196790000003 1.0000000180025095e-35 1.0000000180025095e-35 1.0000000180025095e-35 1.0000000180025095e-35 10.757436745000001 541.50000000000011 1964.5000000000002 661.50000000000011 21.756209710000004 520.50000000000011 15.231248135000001 2006.5000000000002 1.0000000180025095e-35 9.7782746910000018 8.9035504335000031
decision_type=2 2 2 2 2 2 2 2 2 2 2 2 2 2 2 2 2 2
left_child=1 2 7 4 8 9 10 16 -3 -6 11 12 13 -2 -14 -11 17 -1
right_child=6 3 -4 -5 5 -7 -8 -9 -10 15 -12 -13 14 -15 -16 -17 -18 -19
leaf_value=0.0092053359769510498 -0.00019971773689312321 0.0026159974356072353 0.018197119385004044 -0.01154050683533704 -0.0058450705371797087 -0.017411622405052184 -0.012199879572209386 -0.0057627349253743894 0.015158586592777915 0.0090516580565070566 0.0053587381135333676 -0.011101495018228888 -0.0027627351058816369 -0.013612040504813195 0.0068075773231685167 0.00093123469015826362 0.011888483698130586 0.00033905489127273149
leaf_weight=33 31 34 25 27 21 23 36 20 23 22 22 20 22 20 25 23 20 23
leaf_count=33 31 34 25 27 21 23 36 20 23 22 22 20 22 20 25 23 20 23
internal_value=0 0.00242298 0.00734725 -0.00102116 0.000924195 -0.00340066 -0.00404748 0.00452176 0.00767704 0.00148195 -0.00195115 -0.00331401 -0.00172472 -0.00545945 0.00232786 0.00490122 0.00722821 0.00556383
internal_weight=0 294 121 173 146 89 176 96 57 66 140 118 98 51 47 45 76 56
internal_count=470 294 121 173 146 89 176 96 57 66 140 118 98 51 47 45 76 56
is_linear=0
shrinkage=0.05


end of trees

feature_importances:
Column_236=201
Column_27=186
Column_0=131
Column_2=27
Column_25=24
Column_75=16
Column_216=13
Column_209=12
Column_208=9
Column_91=8
Column_207=8
Column_217=8
Column_26=7
Column_31=6
Column_33=6
Column_77=6
Column_49=5
Column_90=5
Column_114=5
Column_197=5
Column_214=5
Column_29=4
Column_130=4
Column_127=3
Column_32=2
Column_50=2
Column_115=2
Column_195=2
Column_126=1
Column_128=1

parameters:
[boosting: gbdt]
[objective: regression]
[metric: rmse]
[tree_learner: serial]
[device_type: cpu]
[data: ]
[valid: ]
[num_iterations: 10000]
[learning_rate: 0.05]
[num_leaves: 63]
[num_threads: 0]
[deterministic: 0]
[force_col_wise: 0]
[force_row_wise: 0]
[histogram_pool_size: -1]
[max_depth: -1]
[min_data_in_leaf: 20]
[min_sum_hessian_in_leaf: 0.001]
[bagging_fraction: 1]
[pos_bagging_fraction: 1]
[neg_bagging_fraction: 1]
[bagging_freq: 0]
[bagging_seed: 32458]
[feature_fraction: 0.9]
[feature_fraction_bynode: 1]
[feature_fraction_seed: 15412]
[extra_trees: 0]
[extra_seed: 19498]
[early_stopping_round: 0]
[first_metric_only: 0]
[max_delta_step: 0]
[lambda_l1: 0]
[lambda_l2: 0]
[linear_lambda: 0]
[min_gain_to_split: 0]
[drop_rate: 0.1]
[max_drop: 50]
[skip_drop: 0.5]
[xgboost_dart_mode: 0]
[uniform_drop: 0]
[drop_seed: 818]
[top_rate: 0.2]
[other_rate: 0.1]
[min_data_per_group: 100]
[max_cat_threshold: 32]
[cat_l2: 10]
[cat_smooth: 10]
[max_cat_to_onehot: 4]
[top_k: 20]
[monotone_constraints: ]
[monotone_constraints_method: basic]
[monotone_penalty: 0]
[feature_contri: ]
[forcedsplits_filename: ]
[refit_decay_rate: 0.9]
[cegb_tradeoff: 1]
[cegb_penalty_split: 0]
[cegb_penalty_feature_lazy: ]
[cegb_penalty_feature_coupled: ]
[path_smooth: 0]
[interaction_constraints: ]
[verbosity: -1]
[saved_feature_importance_type: 0]
[linear_tree: 0]
[max_bin: 255]
[max_bin_by_feature: ]
[min_data_in_bin: 3]
[bin_construct_sample_cnt: 200000]
[data_random_seed: 4078]
[is_enable_sparse: 1]
[enable_bundle: 1]
[use_missing: 1]
[zero_as_missing: 0]
[feature_pre_filter: 1]
[pre_partition: 0]
[two_round: 0]
[header: 0]
[label_column: ]
[weight_column: ]
[group_column: ]
[ignore_column: ]
[categorical_feature: ]
[forcedbins_filename: ]
[precise_float_parser: 0]
[objective_seed: 21231]
[num_class: 1]
[is_unbalance: 0]
[scale_pos_weight: 1]
[sigmoid: 1]
[boost_from_average: 1]
[reg_sqrt: 0]
[alpha: 0.9]
[fair_c: 1]
[poisson_max_delta_step: 0.7]
[tweedie_variance_power: 1.5]
[lambdarank_truncation_level: 30]
[lambdarank_norm: 1]
[label_gain: ]
[eval_at: ]
[multi_error_top_k: 1]
[auc_mu_weights: ]
[num_machines: 1]
[local_listen_port: 12400]
[time_out: 120]
[machine_list_filename: ]
[machines: ]
[gpu_platform_id: -1]
[gpu_device_id: -1]
[gpu_use_dp: 0]
[num_gpu: 1]

end of parameters

pandas_categorical:null
