tree
version=v3
num_class=1
num_tree_per_iteration=1
label_index=0
max_feature_idx=236
objective=regression
feature_names=Column_0 Column_1 Column_2 Column_3 Column_4 Column_5 Column_6 Column_7 Column_8 Column_9 Column_10 Column_11 Column_12 Column_13 Column_14 Column_15 Column_16 Column_17 Column_18 Column_19 Column_20 Column_21 Column_22 Column_23 Column_24 Column_25 Column_26 Column_27 Column_28 Column_29 Column_30 Column_31 Column_32 Column_33 Column_34 Column_35 Column_36 Column_37 Column_38 Column_39 Column_40 Column_41 Column_42 Column_43 Column_44 Column_45 Column_46 Column_47 Column_48 Column_49 Column_50 Column_51 Column_52 Column_53 Column_54 Column_55 Column_56 Column_57 Column_58 Column_59 Column_60 Column_61 Column_62 Column_63 Column_64 Column_65 Column_66 Column_67 Column_68 Column_69 Column_70 Column_71 Column_72 Column_73 Column_74 Column_75 Column_76 Column_77 Column_78 Column_79 Column_80 Column_81 Column_82 Column_83 Column_84 Column_85 Column_86 Column_87 Column_88 Column_89 Column_90 Column_91 Column_92 Column_93 Column_94 Column_95 Column_96 Column_97 Column_98 Column_99 Column_100 Column_101 Column_102 Column_103 Column_104 Column_105 Column_106 Column_107 Column_108 Column_109 Column_110 Column_111 Column_112 Column_113 Column_114 Column_115 Column_116 Column_117 Column_118 Column_119 Column_120 Column_121 Column_122 Column_123 Column_124 Column_125 Column_126 Column_127 Column_128 Column_129 Column_130 Column_131 Column_132 Column_133 Column_134 Column_135 Column_136 Column_137 Column_138 Column_139 Column_140 Column_141 Column_142 Column_143 Column_144 Column_145 Column_146 Column_147 Column_148 Column_149 Column_150 Column_151 Column_152 Column_153 Column_154 Column_155 Column_156 Column_157 Column_158 Column_159 Column_160 Column_161 Column_162 Column_163 Column_164 Column_165 Column_166 Column_167 Column_168 Column_169 Column_170 Column_171 Column_172 Column_173 Column_174 Column_175 Column_176 Column_177 Column_178 Column_179 Column_180 Column_181 Column_182 Column_183 Column_184 Column_185 Column_186 Column_187 Column_188 Column_189 Column_190 Column_191 Column_192 Column_193 Column_194 Column_195 Column_196 Column_197 Column_198 Column_199 Column_200 Column_201 Column_202 Column_203 Column_204 Column_205 Column_206 Column_207 Column_208 Column_209 Column_210 Column_211 Column_212 Column_213 Column_214 Column_215 Column_216 Column_217 Column_218 Column_219 Column_220 Column_221 Column_222 Column_223 Column_224 Column_225 Column_226 Column_227 Column_228 Column_229 Column_230 Column_231 Column_232 Column_233 Column_234 Column_235 Column_236
feature_infos=[4:739] none [0:1] none none none none none none none none none none none none none none none none none none none none none none [0:12] [0:100] [0:2018] none [0:1] [0:1] [0:1] [0:1] [0:1] none none none none none none none none none none none none none none none [0:1] [0:1] none none none none none none none none none none none none none none none none none none none none none none [0:1] none [0:1] none [0:1] none none none none none none none none none none none none [0:1] [0:1] [0:1] [0:1] none none none none none none none none none none none none none none none none none none [0:1] none [0:1] [0:1] none none none none none none none none none none [0:1] [0:1] [0:1] none [0:1] [0:1] none none none none none none [0:1] none none [0:1] none none none none none none none none none none none none none none none none none none none none none none none none none none none none none none none none none none none none none none none none none none none none none none none none none none none none [0:1] [0:1] none [0:1] none [0:1] none none none none none none none [0:1] [0:1] [0:1] none none none none [0:1] none [0:1] [0:1] none [0:1] none none none none none none none none none none none none none none none none [8.5941493260000001:42.129650480000002]
tree_sizes=1664 1671 1752 1774 1753 1759 1844 1594 1767 1533 1509 1515 1829 1661 1743 1765 1702 1767 1737 1859 1663 1696 1847 1746 1744 1839 1630 1694 1600 1511 1681 1775 1730 1693 1672 1767 1590 1674 1788 1786 1866 1794 1691 1685

Tree=0
num_leaves=18
num_cat=0
split_feature=236 2 25 27 27 0 0 27 50 27 0 75 0 236 236 33 236
split_gain=114.34 16.2373 13.5913 11.1681 8.66912 6.46526 5.94541 5.30918 5.04244 6.01768 4.75341 3.32102 3.00547 2.49801 1.91816 1.37454 0.78735
threshold=10.467710685000002 1.0000000180025095e-35 1.7500000000000002 2003.5000000000002 2012.5000000000002 690.50000000000011 120.00000000000001 1991.0000000000002 1.0000000180025095e-35 1987.5000000000002 430.50000000000006 1.0000000180025095e-35 522.00000000000011 25.257141755000003 15.365687895000002 1.0000000180025095e-35 8.914933437000002
decision_type=2 2 2 2 2 2 2 2 2 2 2 2 2 2 2 2 2
left_child=7 11 4 14 5 6 -3 16 -8 -10 -6 13 -11 -2 -4 -14 -1
right_child=1 2 3 -5 10 -7 8 -9 9 12 -12 -13 15 -15 -16 -17 -18
leaf_value=0.062178027185987923 0.029520665847667937 -0.035144954767632998 0.030563411324661463 -0.018498885139068905 -0.05718075225930265 -0.0450666725231295 -0.030389751909139118 0.02905026589083394 0.015122541871513262 -0.024168054729238931 -0.024477292147088561 -0.0036118979283600982 0.0015506379407870168 0.0053592370109672247 0.0086650355191940972 -0.015158769559670002 0.051182032153421361
leaf_weight=41 23 30 20 37 25 20 26 21 26 33 20 29 32 20 20 20 27
leaf_count=41 23 30 20 37 25 20 26 21 26 33 20 29 32 20 20 20 27
internal_value=-4.43864e-10 -0.0119193 -0.0169019 0.00130013 -0.0229431 -0.0182018 -0.0149844 0.0510255 -0.0105697 -0.00592716 -0.0426459 0.0094641 -0.0123659 0.0182828 0.0196142 -0.00487606 0.057812
internal_weight=0 381 309 77 232 187 167 89 137 111 45 72 85 43 40 52 68
internal_count=470 381 309 77 232 187 167 89 137 111 45 72 85 43 40 52 68
is_linear=0
shrinkage=1


Tree=1
num_leaves=18
num_cat=0
split_feature=27 0 0 208 0 2 0 27 75 207 197 0 77 0 114 0 0
split_gain=43.2823 39.2039 34.392 14.733 14.0902 11.2216 3.4484 3.33138 3.12424 6.95249 2.31367 1.75111 1.38084 0.900121 0.164938 0.148472 0.128383
threshold=1995.5000000000002 385.50000000000006 220.50000000000003 1.0000000180025095e-35 169.50000000000003 1.0000000180025095e-35 120.00000000000001 2007.5000000000002 1.0000000180025095e-35 1.0000000180025095e-35 1.0000000180025095e-35 522.00000000000011 1.0000000180025095e-35 342.50000000000006 1.0000000180025095e-35 46.500000000000007 639.00000000000011
decision_type=2 2 2 2 2 2 2 2 2 2 2 2 2 2 2 2 2
left_child=1 2 6 5 7 -3 15 -2 9 12 -10 -12 -6 14 -4 -1 -13
right_child=4 3 13 -5 8 -7 -8 -9 10 -11 11 16 -14 -15 -16 -17 -18
leaf_value=-0.0071985256547729181 -0.026598825110566049 0.019104219942882257 0.059245342254638671 -0.048670027181506162 0.016869094579116159 -0.020106744812801482 0.018944060193518034 -0.054143332366062252 -0.0024184605106711389 -0.024218499884009363 -0.029643905528688005 -0.01124822434199893 0.0010064634932752919 0.04410838312691167 0.053895432534901533 -0.0012528902895393827 -0.016376493713603571
leaf_weight=21 21 37 25 20 23 36 26 23 26 25 28 23 34 21 34 21 26
leaf_count=21 21 37 25 20 23 36 26 23 26 25 28 23 34 21 34 21 26
internal_value=0 0.0147906 0.0307765 -0.0106493 -0.0155656 -0.000232694 0.00463332 -0.0409971 -0.00951709 -0.0022348 -0.0153146 -0.0196692 0.00740717 0.0529982 0.0561623 -0.00422571 -0.0139693
internal_weight=0 241 148 93 229 73 68 44 185 82 103 77 57 80 59 42 49
internal_count=470 241 148 93 229 73 68 44 185 82 103 77 57 80 59 42 49
is_linear=0
shrinkage=0.05


Tree=2
num_leaves=19
num_cat=0
split_feature=236 208 27 0 27 27 27 77 236 236 27 112 0 0 236 27 27 114
split_gain=93.8299 13.9878 17.4716 16.3087 12.7152 7.23762 4.13369 4.0667 3.73571 3.25013 3.05296 4.11805 2.65308 0.915739 0.697929 0.203598 0.0485025 0.000352453
threshold=10.467710685000002 1.0000000180025095e-35 2003.5000000000002 419.50000000000006 1965.5000000000002 1941.5000000000002 1991.0000000000002 1.0000000180025095e-35 15.078047380000003 20.955927850000005 1995.5000000000002 1.0000000180025095e-35 526.50000000000011 656.50000000000011 8.914933437000002 1984.5000000000002 2007.5000000000002 1.0000000180025095e-35
decision_type=2 2 2 2 2 2 2 2 2 2 2 2 2 2 2 2 2 2
left_child=6 2 4 8 5 -2 14 10 -4 -5 11 15 -3 16 17 -6 -11 -1
right_child=1 12 3 9 7 -7 -8 -9 -10 13 -12 -13 -14 -15 -16 -17 -18 -19
leaf_value=0.056178940193993714 -0.0019078790006460623 -0.025921719374530246 -0.029743023935173241 0.0039338891737555207 0.029420601311139761 -0.03968433667240398 0.026832626059296583 -0.0030259015795309099 -0.056625780587395036 -0.020863176453858615 0.0018345649880559549 0.0084118387437072308 -0.049000389054417615 -0.0060186048969626434 0.045969243244164522 0.036469537409998122 -0.017380987796932462 0.056472223997116093
leaf_weight=21 32 33 28 38 20 21 21 32 24 20 23 29 20 20 27 21 20 20
leaf_count=21 32 33 28 38 20 21 21 32 24 20 23 29 20 20 27 21 20 20
internal_value=0 -0.0107975 -0.00694644 -0.0195173 0.00364696 -0.0168759 0.0462231 0.0123487 -0.0421505 -0.00750783 0.0176388 0.0228317 -0.0346307 -0.0147543 0.0522113 0.033031 -0.0191221 0.056322
internal_weight=0 381 328 150 178 53 89 125 52 98 93 70 53 60 68 41 40 41
internal_count=470 381 328 150 178 53 89 125 52 98 93 70 53 60 68 41 40 41
is_linear=0
shrinkage=0.05


Tree=3
num_leaves=19
num_cat=0
split_feature=236 2 25 27 27 91 208 27 29 33 236 236 31 27 236 112 236 114
split_gain=84.6815 13.2493 11.6556 9.07975 6.75841 7.35392 5.08372 3.73065 2.70723 2.40713 1.50669 1.0329 0.959182 0.908051 4.58315 0.652779 0.629881 0.000318092
threshold=10.467710685000002 1.0000000180025095e-35 1.7500000000000002 2003.5000000000002 2012.5000000000002 1.0000000180025095e-35 1.0000000180025095e-35 1991.0000000000002 1.0000000180025095e-35 1.0000000180025095e-35 15.365687895000002 16.221073685000004 1.0000000180025095e-35 1973.5000000000002 15.483091820000002 1.0000000180025095e-35 8.914933437000002 1.0000000180025095e-35
decision_type=2 2 2 2 2 2 2 2 2 2 2 2 2 2 2 2 2 2
left_child=7 12 4 10 5 -3 8 16 9 13 -4 -6 15 -7 -15 -2 17 -1
right_child=1 2 3 -5 11 6 -8 -9 -10 -11 -12 -13 -14 14 -16 -17 -18 -19
leaf_value=0.05336999382291522 -0.0012148906265131453 -0.043320965004915543 0.028314895089715721 -0.015754544765159889 -0.045158155586408538 0.0090368068218231214 -0.032838719882644141 0.025490994863433855 -0.02205109198888143 -0.016125158560188379 0.0089068389683961881 -0.030004059811207379 0.01775855232368816 -0.021769720810421167 0.0079390345579561077 0.010294378582122071 0.043670780873960924 0.053648614883422853
leaf_weight=21 22 22 20 37 23 20 26 21 30 34 20 22 22 21 34 28 27 20
leaf_count=21 22 22 20 37 23 20 26 21 30 34 20 22 22 21 34 28 27 20
internal_value=0 -0.0102576 -0.0147585 0.00209762 -0.0203529 -0.0161666 -0.012546 0.043912 -0.00875028 -0.00508951 0.0186109 -0.0377495 0.00905838 -8.66777e-05 -0.00340431 0.0052303 0.0496008 0.0535059
internal_weight=0 381 309 77 232 187 165 89 139 109 40 45 72 75 55 50 68 41
internal_count=470 381 309 77 232 187 165 89 139 109 40 45 72 75 55 50 68 41
is_linear=0
shrinkage=0.05


Tree=4
num_leaves=19
num_cat=0
split_feature=236 208 27 0 27 27 77 27 236 236 27 73 0 0 236 27 27 114
split_gain=76.425 12.0665 14.4966 14.1122 11.3184 6.49947 3.50722 3.36692 3.34992 2.96703 2.71025 3.60775 2.36239 0.842444 0.568468 0.194253 0.0612472 0.000287079
threshold=10.467710685000002 1.0000000180025095e-35 2003.5000000000002 419.50000000000006 1965.5000000000002 1941.5000000000002 1.0000000180025095e-35 1991.0000000000002 15.078047380000003 20.955927850000005 1995.5000000000002 1.0000000180025095e-35 526.50000000000011 656.50000000000011 8.914933437000002 1984.5000000000002 2007.5000000000002 1.0000000180025095e-35
decision_type=2 2 2 2 2 2 2 2 2 2 2 2 2 2 2 2 2 2
left_child=7 2 4 8 5 -2 10 14 -4 -5 11 15 -3 16 17 -6 -11 -1
right_child=1 12 3 9 6 -7 -8 -9 -10 13 -12 -13 -14 -15 -16 -17 -18 -19
leaf_value=0.050701493876320981 -0.001697138675081078 -0.023662686844666801 -0.026923212302582607 0.0044849492511466931 0.03481160208117217 -0.037495429946907931 -0.0025864823488518599 0.024216444976627827 -0.052380055437485376 -0.019516648314893248 0.0017133621903865236 0.0083897110059236498 -0.045440362021327022 -0.0049919906258583079 0.041487242171057953 0.027842876478098334 -0.015603619441390038 0.050966184139251719
leaf_weight=21 32 33 28 38 20 21 32 21 24 20 23 30 20 20 27 20 20 20
leaf_count=21 32 33 28 38 20 21 32 21 24 20 23 30 20 20 27 20 20 20
internal_value=0 -0.00974477 -0.00616793 -0.0176186 0.00348151 -0.0158814 0.0116914 0.0417164 -0.0386725 -0.00644711 0.0166042 0.0214969 -0.0318807 -0.0133708 0.0471207 0.0313272 -0.0175601 0.0508306
internal_weight=0 381 328 150 178 53 125 89 52 98 93 70 53 60 68 40 40 41
internal_count=470 381 328 150 178 53 125 89 52 98 93 70 53 60 68 40 40 41
is_linear=0
shrinkage=0.05


Tree=5
num_leaves=19
num_cat=0
split_feature=236 2 25 27 236 27 208 27 75 27 236 236 236 236 27 27 236 114
split_gain=68.9736 11.5703 10.191 7.68983 6.58793 6.06006 4.98369 3.03864 2.75331 2.16621 2.37183 1.87388 1.52681 1.44661 1.29752 0.791635 0.513042 0.000259089
threshold=10.467710685000002 1.0000000180025095e-35 1.7500000000000002 2003.5000000000002 25.017078655000002 2012.5000000000002 1.0000000180025095e-35 1991.0000000000002 1.0000000180025095e-35 1973.5000000000002 15.483091820000002 25.257141755000003 20.955927850000005 16.221073685000004 1984.5000000000002 2006.5000000000002 8.914933437000002 1.0000000180025095e-35
decision_type=2 2 2 2 2 2 2 2 2 2 2 2 2 2 2 2 2 2
left_child=7 8 4 14 5 6 9 16 11 -3 -11 -2 -12 -7 -4 -14 17 -1
right_child=1 2 3 -5 -6 13 -8 -9 -10 10 12 -13 15 -15 -16 -17 -18 -19
leaf_value=0.048166418927056448 0.026555967905923079 0.0051456451863050459 0.00848957217298448 -0.014131060373541471 -0.045402098056815922 -0.041337459242862203 -0.032844012261678775 0.023005623503455096 -0.003112930505825528 -0.022205904583611033 0.0024931784719228745 0.0056295044533908366 -0.016807562509371387 -0.022950843852013351 0.026500096200034025 -0.0047119637175152699 0.039412880661310976 0.048417874574661263
leaf_weight=21 23 25 20 37 21 23 24 21 29 34 30 20 31 20 20 24 27 20
leaf_count=21 23 25 20 37 21 23 24 21 29 34 30 20 31 20 20 24 27 20
internal_value=0 -0.00925753 -0.0134635 0.00229798 -0.0186947 -0.0160366 -0.0117497 0.0396305 0.00879309 -0.00823393 -0.0110448 0.0168227 -0.00658031 -0.0327855 0.0174948 -0.0115295 0.0447647 0.0482891
internal_weight=0 381 309 77 232 211 168 89 72 144 119 43 85 43 40 55 68 41
internal_count=470 381 309 77 232 211 168 89 72 144 119 43 85 43 40 55 68 41
is_linear=0
shrinkage=0.05


Tree=6
num_leaves=20
num_cat=0
split_feature=236 2 25 27 236 27 208 27 75 0 0 31 236 236 236 32 0 236 114
split_gain=62.2487 10.4422 9.19733 6.94007 5.9456 5.46921 4.49778 2.74237 2.48486 2.28681 2.18996 4.3273 1.70867 1.69117 1.49129 2.69687 1.28667 0.46302 0.000233832
threshold=10.467710685000002 1.0000000180025095e-35 1.7500000000000002 2003.5000000000002 25.017078655000002 2012.5000000000002 1.0000000180025095e-35 1991.0000000000002 1.0000000180025095e-35 412.50000000000006 449.50000000000006 1.0000000180025095e-35 15.078047380000003 25.257141755000003 24.063505800000005 1.0000000180025095e-35 149.50000000000003 8.914933437000002 1.0000000180025095e-35
decision_type=2 2 2 2 2 2 2 2 2 2 2 2 2 2 2 2 2 2 2
left_child=7 8 4 16 5 6 10 17 13 -7 11 -3 -13 -2 15 -12 -4 18 -1
right_child=1 2 3 -5 -6 9 -8 -9 -10 -11 14 12 -14 -15 -16 -17 -18 -19 -20
leaf_value=0.045758096235139031 0.025228169280023357 -0.029416512604802849 0.025587648440850898 -0.013424507548680176 -0.043131993178810391 -0.041898570501286057 -0.03120181125899156 0.021855341554397629 -0.0029572837359817892 -0.018781120087951422 -0.014353843721457656 0.0065460512693971398 -0.014122007787227631 0.0053480293974280356 0.0097301471792161469 0.0085457692481577391 0.0076525359961669903 0.037442236780016507 0.045996981263160708
leaf_weight=21 23 28 20 37 21 23 24 21 29 20 36 20 20 20 20 20 20 27 20
leaf_count=21 23 28 20 37 21 23 24 21 29 20 36 20 20 20 20 20 20 27 20
internal_value=0 -0.00879465 -0.0127903 0.00218308 -0.0177599 -0.0152348 -0.0111622 0.037649 0.00835343 -0.0311463 -0.00782223 -0.0143409 -0.00378798 0.0159816 -0.00198974 -0.00617541 0.0166201 0.0425265 0.0458746
internal_weight=0 381 309 77 232 211 168 89 72 43 144 68 40 43 76 56 40 68 41
internal_count=470 381 309 77 232 211 168 89 72 43 144 68 40 43 76 56 40 68 41
is_linear=0
shrinkage=0.05


Tree=7
num_leaves=17
num_cat=0
split_feature=236 208 2 25 91 0 27 27 31 32 27 0 0 236 236 114
split_gain=56.1794 9.60192 12.4704 6.97901 6.29552 6.53402 6.22782 4.33328 2.66462 2.51681 2.47499 2.02702 0.903848 0.417876 0.33944 0.000211028
threshold=10.467710685000002 1.0000000180025095e-35 1.0000000180025095e-35 1.7500000000000002 1.0000000180025095e-35 120.00000000000001 2003.5000000000002 2013.5000000000002 1.0000000180025095e-35 1.0000000180025095e-35 1991.0000000000002 526.50000000000011 492.50000000000006 8.914933437000002 21.376632225000005 1.0000000180025095e-35
decision_type=2 2 2 2 2 2 2 2 2 2 2 2 2 2 2 2
left_child=10 2 12 4 -4 -6 -5 8 9 14 13 -3 -2 15 -7 -1
right_child=1 11 3 6 5 7 -8 -9 -10 -11 -12 -13 -14 -15 -16 -17
leaf_value=0.043470192807061332 0.0216958039455236 -0.020488852544715913 -0.038536454271525147 0.017950112637206344 -0.03162969539407641 -0.016716370995967619 -0.011471702094588962 -0.025515018999576568 0.0089675327204167855 0.006105677566180627 0.020762575293580693 -0.040661601684987551 0.0091825874117030595 0.035570124702321161 -0.0090480032342451604 0.043697130680084233
leaf_weight=21 31 33 24 37 32 31 35 25 35 24 21 20 27 27 27 20
leaf_count=21 31 33 24 37 32 31 35 25 35 24 21 20 27 27 27 20
internal_value=0 -0.00835492 -0.00516421 -0.00968281 -0.0145303 -0.0112191 0.00364784 -0.00661957 -0.00258208 -0.0075118 0.0357666 -0.0281012 0.0158707 0.0404001 -0.0131466 0.0435809
internal_weight=0 381 328 270 198 174 72 142 117 82 89 53 58 68 58 41
internal_count=470 381 328 270 198 174 72 142 117 82 89 53 58 68 58 41
is_linear=0
shrinkage=0.05


Tree=8
num_leaves=19
num_cat=0
split_feature=236 2 25 27 236 27 0 27 114 27 75 32 214 236 236 29 236 114
split_gain=50.7019 8.51926 7.5233 5.66161 5.08941 5.16226 3.71612 4.79181 3.91734 2.23368 2.04522 2.03268 3.67663 1.47223 1.20745 0.995074 0.377133 0.000190454
threshold=10.467710685000002 1.0000000180025095e-35 1.7500000000000002 2003.5000000000002 25.017078655000002 1970.5000000000002 180.50000000000003 2002.5000000000002 1.0000000180025095e-35 1991.0000000000002 1.0000000180025095e-35 1.0000000180025095e-35 1.0000000180025095e-35 25.257141755000003 15.365687895000002 1.0000000180025095e-35 8.914933437000002 1.0000000180025095e-35
decision_type=2 2 2 2 2 2 2 2 2 2 2 2 2 2 2 2 2 2
left_child=9 10 4 14 5 -3 7 -7 -8 16 13 12 15 -2 -4 -10 17 -1
right_child=1 2 3 -5 -6 6 8 -9 11 -11 -12 -13 -14 -15 -16 -17 -18 -19
leaf_value=0.041296682613236567 0.023099591526324334 0.0062891835945525351 0.023722835832741113 -0.012100805402607532 -0.039515125112874167 -0.01397890047483088 -0.030605040401220324 -0.046683663626511891 -0.014203059683377678 0.01972444566587607 -0.0027097053568938684 0.0024216667811075847 0.0042324466873770172 0.0045508739771321421 0.0063486210806877365 -0.027446735958042354 0.033791618876987034 0.041512274742126466
leaf_weight=21 23 28 20 37 21 24 25 21 37 21 29 30 23 20 20 23 27 20
leaf_count=21 23 28 20 37 21 24 25 21 37 21 29 30 23 20 20 23 27 20
internal_value=0 -0.00793717 -0.0115462 0.0019961 -0.0160409 -0.0137046 -0.0167638 -0.0292411 -0.0126951 0.0339782 0.00755176 -0.00873267 -0.0127644 0.0144723 0.0150357 -0.0192798 0.0383801 0.0414018
internal_weight=0 381 309 77 232 211 183 45 138 89 72 113 83 43 40 60 68 41
internal_count=470 381 309 77 232 211 183 45 138 89 72 113 83 43 40 60 68 41
is_linear=0
shrinkage=0.05


Tree=9
num_leaves=16
num_cat=0
split_feature=236 208 2 90 25 236 195 216 236 32 214 236 25 112 75
split_gain=45.7585 8.30226 10.3481 7.04416 4.97059 2.46555 2.22285 3.16623 1.45361 1.12584 1.13474 0.963301 1.10324 0.793459 0.731751
threshold=10.467710685000002 1.0000000180025095e-35 1.0000000180025095e-35 1.0000000180025095e-35 1.7500000000000002 15.365687895000002 1.0000000180025095e-35 1.0000000180025095e-35 21.698399180000003 1.0000000180025095e-35 1.0000000180025095e-35 8.8510656250000022 1.7500000000000002 1.0000000180025095e-35 1.0000000180025095e-35
decision_type=2 2 2 2 2 2 2 2 2 2 2 2 2 2 2
left_child=11 2 13 4 6 -6 7 9 -3 10 14 -1 -13 -2 -4
right_child=1 8 3 -5 5 -7 -8 -9 -10 -11 -12 12 -14 -15 -16
leaf_value=0.038740606520857132 0.022350878117694744 -0.015265179835259915 -0.02143955043883938 -0.035805069316517224 0.017206476713289266 -0.0026651652035070586 0.0037307016861935459 -0.031196670215576889 -0.032348030139551023 -0.0013431184055904548 -0.0052801445420635378 0.03497823971722807 0.02067491708753201 0.010182412959182182 -0.011323085627876796
leaf_weight=35 21 20 33 22 27 37 24 20 33 30 38 28 26 37 39
leaf_count=35 21 20 33 22 27 37 24 20 33 30 38 28 26 37 39
internal_value=0 -0.00754031 -0.00457339 -0.00868959 -0.00628418 0.00571818 -0.0104589 -0.0125874 -0.0259017 -0.00992889 -0.0122705 0.0322793 0.0280915 0.0145882 -0.0159598
internal_weight=0 381 328 270 248 64 184 160 53 140 110 89 54 58 72
internal_count=470 381 328 270 248 64 184 160 53 140 110 89 54 58 72
is_linear=0
shrinkage=0.05


Tree=10
num_leaves=16
num_cat=0
split_feature=236 208 2 90 25 0 236 236 31 75 0 236 25 0 0
split_gain=41.297 7.49279 9.33921 6.35736 4.48595 4.84561 2.22515 2.13405 3.41323 2.73651 1.70326 0.869379 0.995677 0.781639 0.581982
threshold=10.467710685000002 1.0000000180025095e-35 1.0000000180025095e-35 1.0000000180025095e-35 1.7500000000000002 120.00000000000001 15.365687895000002 14.094861020000002 1.0000000180025095e-35 1.0000000180025095e-35 526.50000000000011 8.8510656250000022 1.7500000000000002 492.50000000000006 542.50000000000011
decision_type=2 2 2 2 2 2 2 2 2 2 2 2 2 2 2
left_child=11 2 13 4 5 -4 -6 -7 9 -9 -3 -1 -13 -2 -11
right_child=1 10 3 -5 6 7 -8 8 -10 14 -12 12 -14 -15 -16
leaf_value=0.036803575158119203 0.019275840239659434 -0.01762858508436969 -0.027620042441412807 -0.034014816277406434 0.016346153388386249 -0.017685717955464499 -0.0025319068143584743 0.0019479283919701211 0.011452084947377443 -0.022296157442033292 -0.036120291948318485 0.03322932720184326 0.019641171825619846 0.0076392889919656305 -0.011356237326418201
leaf_weight=35 31 33 32 22 27 32 37 39 30 20 20 28 26 27 31
leaf_count=35 31 33 32 22 27 32 37 39 30 20 20 28 26 27 31
internal_value=0 -0.0071633 -0.00434472 -0.00825511 -0.00596997 -0.00993597 0.00543227 -0.00621301 -0.00315362 -0.00802219 -0.0246066 0.0306654 0.0266869 0.0138588 -0.0156464
internal_weight=0 381 328 270 248 184 64 152 120 90 53 89 54 58 51
internal_count=470 381 328 270 248 184 64 152 120 90 53 89 54 58 51
is_linear=0
shrinkage=0.05


Tree=11
num_leaves=16
num_cat=0
split_feature=236 208 25 0 90 33 236 29 216 0 0 114 236 236 25
split_gain=37.2706 6.76225 5.42631 4.99794 4.40531 2.03262 3.15006 4.78128 1.90877 1.5372 1.48752 1.30072 1.10756 0.784614 0.898599
threshold=10.467710685000002 1.0000000180025095e-35 1.7500000000000002 120.00000000000001 1.0000000180025095e-35 1.0000000180025095e-35 14.256978955000001 1.0000000180025095e-35 1.0000000180025095e-35 526.50000000000011 492.50000000000006 1.0000000180025095e-35 18.944973555000004 8.8510656250000022 1.7500000000000002
decision_type=2 2 2 2 2 2 2 2 2 2 2 2 2 2 2
left_child=13 2 3 -2 5 6 -5 10 12 -3 -8 -12 -4 -1 -15
right_child=1 9 8 4 -6 -7 7 -9 -10 -11 11 -13 -14 14 -16
leaf_value=0.034963397596563611 -0.025579902471176214 -0.016747156711238803 0.018012208363506945 -0.013696783027262427 -0.026777924969792366 -0.013023681113043348 0.018263919899861019 -0.014194680474422598 -0.0044423522897353721 -0.034314276576042177 -0.0053011703211814165 0.011053823006729926 0.0047380575740879234 0.031567861512303355 0.018659113146937811
leaf_weight=35 35 33 30 32 21 37 33 27 29 20 20 31 33 28 26
leaf_count=35 35 33 30 32 21 37 33 27 29 20 20 31 33 28 26
internal_value=0 -0.00680513 -0.00412748 -0.00814283 -0.00510653 -0.0025782 0.000124483 0.00410899 0.00617276 -0.0233763 0.00999232 0.0046401 0.0110591 0.0291321 0.0253525
internal_weight=0 381 328 236 201 180 143 111 92 53 84 51 63 89 54
internal_count=470 381 328 236 201 180 143 111 92 53 84 51 63 89 54
is_linear=0
shrinkage=0.05


Tree=12
num_leaves=20
num_cat=0
split_feature=236 27 0 25 236 236 2 27 27 236 27 0 0 236 27 27 27 236 0
split_gain=33.6367 6.38131 10.2976 8.1668 6.96995 4.33793 4.01626 3.19257 4.47005 2.90265 1.70368 1.46873 3.50701 1.1022 0.672042 0.670231 0.319109 0.161064 0.101727
threshold=10.467710685000002 2001.5000000000002 419.50000000000006 1.7500000000000002 15.165854595000001 20.955927850000005 1.0000000180025095e-35 1980.5000000000002 1948.5000000000002 15.078047380000003 1991.0000000000002 549.50000000000011 656.50000000000011 25.440050480000004 1988.5000000000002 1982.5000000000002 1964.5000000000002 19.158619325000004 304.50000000000006
decision_type=2 2 2 2 2 2 2 2 2 2 2 2 2 2 2 2 2 2 2
left_child=10 3 9 4 -2 17 13 8 -8 -3 16 -7 -13 -6 -9 -5 -1 -4 -18
right_child=1 2 5 15 6 11 7 14 -10 -11 -12 12 -14 -15 -16 -17 18 -19 -20
leaf_value=0.026567020876841114 0.01710031253012578 -0.020395547958711784 0.0056310087256133557 0.0086424186080694201 -0.0066197435978962021 -0.0025101170087089906 -0.011141385458454136 -0.0019274358383633873 -0.043764949802841457 -0.042082795335186857 0.015227088367655165 -0.030879304379872654 -0.0022511009313166143 0.0092238338087641068 -0.01459130806848407 0.020116413849672037 0.036344439197670331 0.011976567078381777 0.031637381265560788
leaf_weight=22 26 36 20 20 23 26 21 22 21 27 21 23 20 21 20 35 22 20 24
leaf_count=22 26 36 20 20 23 26 21 22 21 27 21 23 20 21 20 35 22 20 24
internal_value=0 -0.00646488 -0.0135979 -0.000594667 -0.00650135 -0.00429686 -0.0112954 -0.0177055 -0.0274532 -0.0296901 0.0276755 -0.0118914 -0.0175639 0.000941964 -0.00795785 0.0159441 0.0315198 0.00880379 0.0338886
internal_weight=0 381 172 209 154 109 128 84 42 63 89 69 43 44 42 55 68 40 46
internal_count=470 381 172 209 154 109 128 84 42 63 89 69 43 44 42 55 68 40 46
is_linear=0
shrinkage=0.05


Tree=13
num_leaves=18
num_cat=0
split_feature=236 208 27 27 27 236 25 27 236 236 27 27 31 27 27 27 27
split_gain=30.3571 5.86898 8.19324 8.4723 5.06818 4.34605 3.07515 3.61535 2.15155 2.0747 1.53757 1.48991 1.43928 0.327345 0.287996 0.15781 0.0370937
threshold=10.467710685000002 1.0000000180025095e-35 2003.5000000000002 1966.5000000000002 1941.5000000000002 18.876736930000003 1.7500000000000002 1984.5000000000002 14.695940550000001 20.955927850000005 1991.0000000000002 1988.5000000000002 1.0000000180025095e-35 2008.5000000000002 1964.5000000000002 1984.5000000000002 1976.5000000000002
decision_type=2 2 2 2 2 2 2 2 2 2 2 2 2 2 2 2 2
left_child=10 2 3 4 -2 8 7 -5 -4 -7 14 -9 -3 -11 -1 -8 -16
right_child=1 12 5 6 -6 9 15 11 -10 13 -12 -13 -14 -15 16 -17 -18
leaf_value=0.025238670070062988 -0.00022190966119524093 -0.014904710510745645 -0.01359642988536507 0.020134624172575201 -0.031396924975243483 0.0066737123693411176 0.017928124503232539 -0.013397104330360891 -0.032399857969119636 -0.013893836674590907 0.014465734362602234 0.0038977281444452028 -0.031750662589357014 -0.0066773581121003988 0.030834755301475527 0.023886929236352446 0.033677133985541084
leaf_weight=22 32 32 32 26 22 26 20 20 29 30 21 33 21 33 24 25 22
leaf_count=22 32 32 32 26 22 26 20 20 29 30 21 33 21 33 24 25 22
internal_value=0 -0.00614163 -0.0036471 0.00360722 -0.0129228 -0.0122556 0.0108058 0.00486308 -0.0225358 -0.00520957 0.0262917 -0.00262862 -0.0215795 -0.0101138 0.0299439 0.0212386 0.0321942
internal_weight=0 381 328 178 54 150 124 79 61 89 89 53 53 63 68 45 46
internal_count=470 381 328 178 54 150 124 79 61 89 89 53 53 63 68 45 46
is_linear=0
shrinkage=0.05


Tree=14
num_leaves=19
num_cat=0
split_feature=236 2 25 91 27 27 0 0 27 0 0 75 27 236 27 27 236 0
split_gain=27.3973 5.66873 4.54002 3.91533 4.64317 3.75492 2.81706 4.12888 4.66144 2.43726 2.06036 1.46311 1.38766 1.12373 1.05391 0.259916 0.135184 0.091795
threshold=10.467710685000002 1.0000000180025095e-35 1.7500000000000002 1.0000000180025095e-35 2012.5000000000002 2003.5000000000002 120.00000000000001 611.50000000000011 1987.5000000000002 535.50000000000011 412.50000000000006 1.0000000180025095e-35 1991.0000000000002 25.257141755000003 1984.5000000000002 1964.5000000000002 15.989944045000001 311.50000000000006
decision_type=2 2 2 2 2 2 2 2 2 2 2 2 2 2 2 2 2 2
left_child=12 11 3 -3 6 14 -5 8 -8 16 -6 13 15 -2 -4 -1 -10 -17
right_child=1 2 5 4 10 -7 7 -9 9 -11 -12 -13 -14 -15 -16 17 -18 -19
leaf_value=0.023976736617359249 0.020190821928174601 -0.030553534512336441 0.0042448411695659161 -0.020079607293009758 -0.0359598607534454 -0.0097388076017031807 0.01953857553889975 -0.017111362448256267 -0.014826732980353492 0.0074347937114697948 -0.01353605492040515 -0.0018790501587349793 0.013742447289682569 0.0039855384500697257 0.020476795649155975 0.032543421708620512 -0.0092182508415796557 0.028037778474390509
leaf_weight=22 23 26 20 30 21 37 28 38 21 26 20 29 21 20 20 26 22 20
leaf_count=22 23 26 20 30 21 37 28 38 21 26 20 29 21 20 20 26 22 20
internal_value=0 -0.00583455 -0.00877855 -0.0122701 -0.00996251 0.00174152 -0.00622059 -0.00314081 0.00233218 -0.00465012 -0.0250214 0.0068001 0.0249771 0.0126535 0.0123608 0.0284467 -0.0119573 0.0305844
internal_weight=0 381 309 232 206 77 165 135 97 69 41 72 89 43 40 68 43 46
internal_count=470 381 309 232 206 77 165 135 97 69 41 72 89 43 40 68 43 46
is_linear=0
shrinkage=0.05


Tree=15
num_leaves=19
num_cat=0
split_feature=236 208 2 49 27 0 236 236 236 195 27 27 236 112 0 236 236 0
split_gain=24.7261 5.17454 7.0116 3.67985 3.85371 6.8762 6.80089 2.38075 2.23474 1.45266 1.25236 1.22954 0.89104 0.64513 0.266675 0.260847 0.235409 0.00116797
threshold=10.467710685000002 1.0000000180025095e-35 1.0000000180025095e-35 1.0000000180025095e-35 2003.5000000000002 507.00000000000006 15.365687895000002 14.695940550000001 20.955927850000005 1.0000000180025095e-35 1991.0000000000002 1967.5000000000002 14.283077400000002 1.0000000180025095e-35 388.50000000000006 22.933711120000002 8.914933437000002 315.00000000000006
decision_type=2 2 2 2 2 2 2 2 2 2 2 2 2 2 2 2 2 2
left_child=10 2 13 4 6 7 12 -6 -7 -3 16 -8 -4 -2 -13 -10 17 -1
right_child=1 9 3 -5 5 8 11 -9 15 -11 -12 14 -14 -15 -16 -17 -18 -19
leaf_value=0.029151244390578496 0.019571868928947619 -0.013594376713489044 0.010990158431231975 -0.022507784632034601 -0.015741533817102513 0.0081793455604576709 -0.015493136278733059 -0.039099392294883732 -0.012312035712723931 -0.030671644955873489 0.013055324944711866 0.0023614842537790538 0.025736555457115173 0.0085995868578351824 -0.0056158856742761359 -0.0051479521310991714 0.023399082819620769 0.02968513622879982
leaf_weight=21 21 33 20 32 24 33 27 20 24 20 21 20 21 37 22 27 27 20
leaf_count=21 21 33 20 32 24 33 27 20 24 20 21 20 21 37 22 27 27 20
internal_value=0 -0.00554282 -0.00320051 -0.00658875 -0.00444838 -0.0103465 0.00241488 -0.0263587 -0.00195911 -0.0200386 0.0237283 -0.00716862 0.0185432 0.0125723 -0.00181714 -0.00851929 0.0270243 0.0294117
internal_weight=0 381 328 270 238 128 110 44 84 53 89 69 41 58 42 51 68 41
internal_count=470 381 328 270 238 128 110 44 84 53 89 69 41 58 42 51 68 41
is_linear=0
shrinkage=0.05


Tree=16
num_leaves=18
num_cat=0
split_feature=236 208 2 90 27 195 27 214 29 0 195 236 27 77 112 27 0
split_gain=22.3153 4.67002 6.32797 4.64159 3.20701 2.55793 3.11704 2.49789 2.10697 2.10384 1.31103 1.1568 1.13025 0.646407 0.582229 0.228261 0.0864953
threshold=10.467710685000002 1.0000000180025095e-35 1.0000000180025095e-35 1.0000000180025095e-35 2012.5000000000002 1.0000000180025095e-35 1967.5000000000002 1.0000000180025095e-35 1.0000000180025095e-35 388.50000000000006 1.0000000180025095e-35 20.955927850000005 1991.0000000000002 1.0000000180025095e-35 1.0000000180025095e-35 1964.5000000000002 304.50000000000006
decision_type=2 2 2 2 2 2 2 2 2 2 2 2 2 2 2 2 2
left_child=12 2 14 4 5 6 -4 8 11 -6 -3 13 15 -8 -2 -1 -17
right_child=1 10 3 -5 9 -7 7 -9 -10 -11 -12 -13 -14 -15 -16 16 -18
leaf_value=0.021484220366586339 0.018593275072496564 -0.012914657705661024 -0.021234803452071821 -0.028270118615844032 -0.026117769970248145 0.012387873208278726 0.010042851585361253 0.010374360567786629 -0.016358302893309758 -0.0062565216670433677 -0.029138062223792078 -0.0082754487171769146 0.0124025587169897 -0.0015618120746997497 0.0081696074229438559 0.029941037703644147 0.025600654135147734
leaf_weight=22 21 33 22 22 24 29 24 36 29 30 20 30 21 24 37 22 24
leaf_count=22 21 33 22 22 24 29 24 36 29 30 20 30 21 24 37 22 24
internal_value=0 -0.00526568 -0.00304049 -0.00625931 -0.00430674 -0.00130696 -0.00371393 -0.00101841 -0.00485149 -0.0150837 -0.0190367 -0.000573314 0.0225419 0.00424052 0.0119437 0.0256731 0.0276765
internal_weight=0 381 328 270 248 194 165 143 107 54 53 78 89 48 58 68 46
internal_count=470 381 328 270 248 194 165 143 107 54 53 78 89 48 58 68 46
is_linear=0
shrinkage=0.05


Tree=17
num_leaves=19
num_cat=0
split_feature=236 2 25 236 27 27 214 32 217 75 27 236 0 27 75 0 236 0
split_gain=20.1395 4.23279 3.8517 3.47991 3.92447 2.94853 2.54217 4.01288 2.29911 1.17523 1.02005 0.917134 0.869634 0.405283 0.369993 0.232655 0.209709 0.00169656
threshold=10.467710685000002 1.0000000180025095e-35 1.7500000000000002 25.098527000000001 1970.5000000000002 2003.5000000000002 1.0000000180025095e-35 1.0000000180025095e-35 1.0000000180025095e-35 1.0000000180025095e-35 1991.0000000000002 25.257141755000003 149.50000000000003 2002.5000000000002 1.0000000180025095e-35 611.50000000000011 8.914933437000002 315.00000000000006
decision_type=2 2 2 2 2 2 2 2 2 2 2 2 2 2 2 2 2 2
left_child=10 9 3 4 -3 12 7 8 -6 11 16 -2 -4 -8 -10 -16 17 -1
right_child=1 2 5 -5 6 -7 13 -9 14 -11 -12 -13 -14 -15 15 -17 -18 -19
leaf_value=0.026328842270941961 0.017970716920883759 0.0085575250505956196 0.018926051650196313 -0.030699494406580926 -0.030608827579999345 -0.0080297137937835744 0.0042048112396150831 0.0010432345972907159 -0.018665288885434471 -0.0018632203517160541 0.011782430750983102 0.0033306963840732356 0.0041812744713388382 -0.0054324776555101078 -0.0083425465117519092 -0.015644387193024158 0.020967817844616043 0.026972302347421647
leaf_weight=21 23 28 20 20 32 37 20 31 33 29 21 20 20 24 24 20 27 20
leaf_count=21 23 28 20 20 32 37 20 31 33 29 21 20 20 24 24 20 27 20
internal_value=0 -0.0050024 -0.00754635 -0.0107624 -0.0088815 0.00214347 -0.0115353 -0.01483 -0.0193445 0.00591538 0.0214148 0.0111614 0.0115537 -0.00105189 -0.0146632 -0.0116616 0.0243895 0.0266427
internal_weight=0 381 309 232 212 77 184 140 109 72 89 43 40 44 77 44 68 41
internal_count=470 381 309 232 212 77 184 140 109 72 89 43 40 44 77 44 68 41
is_linear=0
shrinkage=0.05


Tree=18
num_leaves=19
num_cat=0
split_feature=236 208 27 0 27 27 25 27 236 236 27 0 27 0 27 27 27 0
split_gain=18.1759 4.08442 5.36824 6.98914 6.65588 4.39582 2.0045 2.90516 1.80876 1.79757 1.31392 1.25195 0.920599 0.614874 0.200441 0.122712 0.114804 0.0817885
threshold=10.467710685000002 1.0000000180025095e-35 2003.5000000000002 419.50000000000006 1966.5000000000002 1941.5000000000002 1.7500000000000002 1984.5000000000002 20.955927850000005 15.078047380000003 1988.5000000000002 526.50000000000011 1991.0000000000002 656.50000000000011 1964.5000000000002 2007.5000000000002 1984.5000000000002 304.50000000000006
decision_type=2 2 2 2 2 2 2 2 2 2 2 2 2 2 2 2 2 2
left_child=12 2 4 9 5 -2 7 -6 -5 -4 -9 -3 14 15 -1 -10 -8 -16
right_child=1 11 3 8 6 -7 16 10 13 -11 -12 -13 -14 -15 17 -17 -18 -19
leaf_value=0.019244649396701296 0.00037787760229548442 -0.011648458987474443 -0.015849196511719909 0.0067580461992244982 0.018472854073087758 -0.028655694446272473 0.015180600285530092 -0.012044993340969087 -0.013531822804361583 -0.034497092477977276 0.0041962888692840799 -0.027502122968435291 0.01119330915666762 -2.5167856365442275e-05 0.02724938494237987 -0.0079930464830249553 0.02026301929354668 0.023028746464600167
leaf_weight=22 32 33 28 38 26 22 20 20 20 24 33 20 21 20 22 20 25 24
leaf_count=22 32 33 28 38 26 22 20 20 20 24 33 20 21 20 22 20 25 24
internal_value=0 -0.00475228 -0.00267127 -0.00963935 0.00320071 -0.0114506 0.00958112 0.00478319 -0.0017775 -0.0244559 -0.0019325 -0.017631 0.020344 -0.00718335 0.02317 -0.0107624 0.0180042 0.0250473
internal_weight=0 381 328 150 178 54 124 79 98 52 53 53 89 60 68 40 45 46
internal_count=470 381 328 150 178 54 124 79 98 52 53 53 89 60 68 40 45 46
is_linear=0
shrinkage=0.05


Tree=19
num_leaves=20
num_cat=0
split_feature=236 2 90 27 31 0 114 114 27 27 25 0 75 0 27 236 236 0 0
split_gain=16.4038 3.71809 3.47984 3.34091 2.87998 2.87634 3.22247 2.86332 1.5854 2.50357 2.25807 4.62142 1.0613 0.989417 0.83084 0.773361 0.18694 0.0439897 0.00226289
threshold=10.467710685000002 1.0000000180025095e-35 1.0000000180025095e-35 2012.5000000000002 1.0000000180025095e-35 611.50000000000011 1.0000000180025095e-35 1.0000000180025095e-35 1968.5000000000002 1984.5000000000002 1.2500000000000002 180.50000000000003 1.0000000180025095e-35 535.50000000000011 1991.0000000000002 25.257141755000003 8.914933437000002 593.50000000000011 315.00000000000006
decision_type=2 2 2 2 2 2 2 2 2 2 2 2 2 2 2 2 2 2 2
left_child=14 12 3 5 17 7 -7 -3 -9 -10 11 -11 15 -13 16 -2 18 -5 -1
right_child=1 2 -4 4 -6 6 -8 8 9 10 -12 13 -14 -15 -16 -17 -18 -19 -20
leaf_value=0.023776412648814069 0.016955923289060593 0.013129608184099199 -0.026063542474399917 -0.0098737338388508022 -0.031277306452393537 -0.028153650161056296 -0.0015853653699159623 -0.015881933346390726 0.014581271021134771 -0.028748492486774926 0.010134730420329354 -0.0064887938363587154 -0.0016741387935451651 0.0066143739223480233 0.010633643752052672 0.0035122923576273025 0.01878092780157372 -0.0066744054712000352 0.024519550651311877
leaf_weight=21 23 35 22 22 20 21 25 20 22 20 22 34 29 25 21 20 27 21 20
leaf_count=21 23 35 22 22 20 21 25 20 22 20 22 34 29 25 21 20 27 21 20
internal_value=0 -0.00451466 -0.00689893 -0.00542987 -0.0156021 -0.00256893 -0.0137144 0.000311349 -0.00282599 -0.000703069 -0.00403233 -0.00797759 0.00571781 -0.000936604 0.0193268 0.0107031 0.0220115 -0.00831127 0.0241389
internal_weight=0 381 309 287 63 224 46 178 143 123 101 79 72 59 89 43 68 43 41
internal_count=470 381 309 287 63 224 46 178 143 123 101 79 72 59 89 43 68 43 41
is_linear=0
shrinkage=0.05


Tree=20
num_leaves=18
num_cat=0
split_feature=236 25 27 2 91 27 0 0 27 0 0 236 27 27 209 27 0
split_gain=14.8044 3.37772 4.10133 2.9147 2.99761 3.20907 1.95531 3.18461 3.65168 1.91015 1.19577 1.17915 0.749834 0.657322 0.439644 0.175993 0.0774588
threshold=10.467710685000002 1.7500000000000002 2003.5000000000002 1.0000000180025095e-35 1.0000000180025095e-35 2012.5000000000002 120.00000000000001 611.50000000000011 1987.5000000000002 522.00000000000011 412.50000000000006 24.868129475000003 1991.0000000000002 2015.5000000000002 1.0000000180025095e-35 1964.5000000000002 311.50000000000006
decision_type=2 2 2 2 2 2 2 2 2 2 2 2 2 2 2 2 2
left_child=12 3 14 11 -5 6 -6 8 -8 -10 -7 -2 15 -4 -3 -1 -17
right_child=1 2 13 4 5 10 7 -9 9 -11 -12 -13 -14 -15 -16 16 -18
leaf_value=0.017232745259322904 -0.0049731172443855378 0.0064412691231284826 -0.014260508424856447 -0.025435475861796966 -0.015853963394959768 -0.028270825619498893 0.018293895829369182 -0.014011309913506634 -0.01131466651601451 0.0053254097179674057 -0.011187915094196796 0.010700332626376102 0.01010196130900156 -0.0017360914126038553 0.015499097682737016 0.024469540783992182 0.02033066279254854
leaf_weight=22 21 21 22 26 30 21 28 38 35 34 20 28 21 20 37 26 20
leaf_count=22 21 21 22 26 30 21 28 38 35 34 20 28 21 20 37 26 20
internal_value=0 -0.00428893 0.0036028 -0.00709738 -0.00943766 -0.00741852 -0.00430769 -0.00174185 0.00306474 -0.00311521 -0.0199377 0.00398314 0.0183605 -0.0082965 0.0122195 0.0209109 0.02267
internal_weight=0 381 100 281 232 206 165 135 97 69 41 49 89 42 58 68 46
internal_count=470 381 100 281 232 206 165 135 97 69 41 49 89 42 58 68 46
is_linear=0
shrinkage=0.05


Tree=21
num_leaves=18
num_cat=0
split_feature=236 208 2 90 195 50 27 0 236 27 195 236 236 27 112 236 0
split_gain=13.361 3.54042 4.34075 3.48427 2.46703 2.04276 2.28517 5.09354 2.50886 2.0638 1.30824 1.10391 0.67852 0.676725 0.522728 0.165764 0.00312196
threshold=10.467710685000002 1.0000000180025095e-35 1.0000000180025095e-35 1.0000000180025095e-35 1.0000000180025095e-35 1.0000000180025095e-35 1997.5000000000002 507.00000000000006 14.695940550000001 1980.5000000000002 1.0000000180025095e-35 20.955927850000005 21.359043985000003 1991.0000000000002 1.0000000180025095e-35 8.914933437000002 315.00000000000006
decision_type=2 2 2 2 2 2 2 2 2 2 2 2 2 2 2 2 2
left_child=13 2 14 4 5 -4 9 8 -8 -7 -3 -9 -13 15 -2 16 -1
right_child=1 10 3 -5 -6 6 7 11 -10 -11 -12 12 -14 -15 -16 -17 -18
leaf_value=0.021442891231604987 0.016573971470019648 -0.0099493612619963572 -0.017495505075002537 -0.023873266848650848 0.0089905411406006244 -0.0052939525299454827 -0.009188826568424702 0.0074311624341193705 -0.034233076255768539 0.013807827041995142 -0.026155530661344531 -0.011433659564881099 -2.6755692327723785e-06 0.0095968636018889299 0.0066972804551541408 0.016823281965183994 0.022315764054656032
leaf_weight=21 21 33 29 22 36 26 20 31 20 31 20 21 34 21 37 27 20
leaf_count=21 21 33 29 22 36 26 20 31 20 31 20 21 34 21 37 27 20
internal_value=0 -0.00407448 -0.00213701 -0.00480293 -0.00311121 -0.00516622 -0.0032124 -0.0069704 -0.021711 0.00509473 -0.0160649 -0.000114323 -0.00436723 0.0174425 0.0102733 0.0198654 0.0218687
internal_weight=0 381 328 270 248 212 183 126 40 57 53 86 55 89 58 68 41
internal_count=470 381 328 270 248 212 183 126 40 57 53 86 55 89 58 68 41
is_linear=0
shrinkage=0.05


Tree=22
num_leaves=20
num_cat=0
split_feature=236 208 2 90 26 0 31 27 27 0 0 32 0 0 27 0 236 27 0
split_gain=12.0583 3.19523 3.91753 3.14455 2.15931 1.72513 1.1903 1.17094 3.19057 1.48385 1.45635 1.29348 1.15223 0.728673 0.610744 0.490612 0.37075 0.154527 0.0744209
threshold=10.467710685000002 1.0000000180025095e-35 1.0000000180025095e-35 1.0000000180025095e-35 7.5000000000000009 120.00000000000001 1.0000000180025095e-35 1966.5000000000002 1991.0000000000002 516.00000000000011 223.50000000000003 1.0000000180025095e-35 65.500000000000014 663.00000000000011 1991.0000000000002 492.50000000000006 21.313868545000002 1964.5000000000002 304.50000000000006
decision_type=2 2 2 2 2 2 2 2 2 2 2 2 2 2 2 2 2 2 2
left_child=14 2 15 4 5 12 -3 -7 -9 10 -10 13 -4 16 17 -2 -11 -1 -19
right_child=1 6 3 -5 -6 7 -8 8 9 11 -12 -13 -14 -15 -16 -17 -18 18 -20
leaf_value=0.015425532980060037 0.014051326564062508 -0.009191567683592439 -0.0059096350800246005 -0.022679603032090448 0.011997895721684804 -0.013677561645163223 -0.024511305136340006 0.014836081669286447 -0.0029916567417482536 -0.0035644825163763019 -0.021021602231831776 0.008407880044702826 -0.022159344805404546 0.003123485971064795 0.0091170205956413643 0.004832186191170304 -0.013191916458308698 0.02262099859389392 0.018594945299749574
leaf_weight=22 31 32 24 22 22 20 21 27 24 20 21 29 20 21 21 27 20 22 24
leaf_count=22 31 32 24 22 22 20 21 27 24 20 21 29 20 21 21 27 20 22 24
internal_value=0 -0.00387076 -0.00203016 -0.00456279 -0.00295565 -0.0044113 -0.0152617 -0.00226339 -0.000854231 -0.00399229 -0.0114056 -0.000285625 -0.0132959 -0.0044186 0.0165703 0.00975966 -0.0083782 0.0188721 0.0205204
internal_weight=0 381 328 270 248 226 53 182 162 135 45 90 44 61 89 58 40 68 46
internal_count=470 381 328 270 248 226 53 182 162 135 45 90 44 61 89 58 40 68 46
is_linear=0
shrinkage=0.05


Tree=23
num_leaves=19
num_cat=0
split_feature=236 27 0 236 25 236 27 0 236 236 0 0 27 31 31 236 0 236
split_gain=10.9203 2.96557 5.74524 4.8382 4.51388 3.19768 6.90631 3.00087 2.48814 1.67073 1.24389 2.64499 0.717604 0.590922 0.32479 0.268057 0.730594 0.0696011
threshold=10.252579550000002 2000.5000000000002 419.50000000000006 15.165854595000001 1.7500000000000002 24.308573915 1977.5000000000002 492.50000000000006 20.955927850000005 15.165854595000001 549.50000000000011 656.50000000000011 1987.5000000000002 1.0000000180025095e-35 1.0000000180025095e-35 8.8510656250000022 269.50000000000006 19.158619325000004
decision_type=2 2 2 2 2 2 2 2 2 2 2 2 2 2 2 2 2 2
left_child=15 3 9 -2 5 6 -5 -7 17 13 -10 -12 -8 -3 -6 -1 -17 -4
right_child=1 2 8 4 14 7 12 -9 10 -11 11 -13 -14 -15 -16 16 -18 -19
leaf_value=0.019784778271402632 0.016392659918906597 -0.008969495818018914 0.0066525738313794134 -0.035474775720817538 0.0067317821861555176 0.010637402747560179 0.0030694566667079926 -0.013202611026777465 0.0015171955443090863 -0.030659881537861151 -0.023739401607409769 0.0011226550862193107 -0.0095617070116780015 -0.020500209154561161 0.015359119083732367 0.020462031403313513 0.0081140809432836258 0.010823936904780567
leaf_weight=35 39 25 20 26 24 33 23 22 27 23 23 20 22 20 20 23 25 20
leaf_count=35 39 25 20 26 24 33 23 22 27 23 23 20 22 20 20 23 25 20
internal_value=0 -0.00352958 -0.00827235 0.00050972 -0.00313401 -0.00794863 -0.0149592 0.0011014 -0.00120962 -0.0196973 -0.00689413 -0.0121757 -0.00310578 -0.0140943 0.0106533 0.0164572 0.0140308 0.00873826
internal_weight=0 387 178 209 170 126 71 55 110 68 70 43 45 45 44 83 48 40
internal_count=470 387 178 209 170 126 71 55 110 68 70 43 45 45 44 83 48 40
is_linear=0
shrinkage=0.05


Tree=24
num_leaves=19
num_cat=0
split_feature=236 27 0 236 25 236 27 0 236 236 214 0 27 236 236 0 236 236
split_gain=9.8556 2.67643 5.18508 4.36647 4.07378 2.8859 6.23294 2.70828 2.24555 1.50784 1.14918 1.08938 0.647637 0.285493 0.241921 0.659361 0.186286 0.062815
threshold=10.252579550000002 2000.5000000000002 419.50000000000006 15.165854595000001 1.7500000000000002 24.308573915 1977.5000000000002 492.50000000000006 20.955927850000005 15.165854595000001 1.0000000180025095e-35 549.50000000000011 1987.5000000000002 17.885154310000004 8.8510656250000022 269.50000000000006 12.287649030000003 19.158619325000004
decision_type=2 2 2 2 2 2 2 2 2 2 2 2 2 2 2 2 2 2
left_child=14 3 9 -2 5 6 -5 -7 17 16 11 -10 -8 -6 -1 -16 -3 -4
right_child=1 2 8 4 13 7 12 -9 10 -11 -12 -13 -14 -15 15 -17 -18 -19
leaf_value=0.018795539438724519 0.01557302706492826 -0.016398794855922463 0.0063199450261890895 -0.033701036877643607 0.0059056527203037628 0.010105532529114773 0.002915983064019162 -0.01254248031499711 -0.0026048314798137418 -0.029126887999313036 0.0035799962282180783 -0.017412896909647518 -0.0090836219489574439 0.013969095448113006 0.019438929791035859 0.0077083766087889666 -0.0099504019577233566 0.010282740491820734
leaf_weight=35 39 24 20 26 21 33 23 22 23 23 20 27 22 23 23 25 21 20
leaf_count=35 39 24 20 26 21 33 23 22 23 23 20 27 22 23 23 25 21 20
internal_value=0 -0.0033531 -0.00785873 0.000484234 -0.00297731 -0.0075512 -0.0142113 0.00104633 -0.00114914 -0.0187125 -0.00654942 -0.0106012 -0.00295049 0.0101206 0.0156343 0.0133293 -0.0133895 0.00830134
internal_weight=0 387 178 209 170 126 71 55 110 68 70 50 45 44 83 48 45 40
internal_count=470 387 178 209 170 126 71 55 110 68 70 50 45 44 83 48 45 40
is_linear=0
shrinkage=0.05


Tree=25
num_leaves=20
num_cat=0
split_feature=236 27 0 236 25 236 27 27 236 236 216 214 0 0 236 31 25 0 236
split_gain=8.89468 2.42351 4.89572 3.85315 3.69956 2.63783 5.56755 2.63161 2.30711 2.03498 1.30459 1.05761 0.954476 0.931067 0.462219 0.294325 0.225621 0.128819 0.0566905
threshold=10.252579550000002 2001.5000000000002 419.50000000000006 15.165854595000001 1.7500000000000002 24.308573915 1977.5000000000002 1966.5000000000002 12.370367975000002 20.955927850000005 1.0000000180025095e-35 1.0000000180025095e-35 549.50000000000011 370.50000000000006 15.114384005000002 1.0000000180025095e-35 1.7500000000000002 318.50000000000006 19.158619325000004
decision_type=2 2 2 2 2 2 2 2 2 2 2 2 2 2 2 2 2 2 2
left_child=16 3 10 8 5 6 -5 -7 -2 18 14 12 -11 -8 -3 -6 17 -1 -4
right_child=1 2 9 4 15 7 13 -9 -10 11 -12 -13 -14 -15 -16 -17 -18 -19 -20
leaf_value=0.018832829988241429 0.0025898602857653587 -0.0085231906208007233 0.006003947854042054 -0.032015984978240271 0.0058815255140264831 -0.0077719580006326882 -0.011179649978876114 0.01442143083444204 0.026318411042775554 -0.0025122660889544271 -0.028327102485028184 0.0034009961411356929 -0.016542252208347676 0.0031698810366483838 -0.018916394291445614 0.014094294505193831 0.011476299058525794 0.013717521203216166 0.0097686030250042685
leaf_weight=32 21 23 20 26 24 34 20 22 20 22 22 20 27 26 20 20 31 20 20
leaf_count=32 21 23 20 26 24 34 20 22 20 22 22 20 27 26 20 20 31 20 20
internal_value=0 -0.00318544 -0.0075632 0.000390756 -0.00289258 -0.00719193 -0.0135221 0.000946873 0.0141648 -0.0010866 -0.018424 -0.00628827 -0.0102431 -0.00306905 -0.0133572 0.0096146 0.0148526 0.0168654 0.00788628
internal_weight=0 387 174 213 172 128 72 56 41 109 65 69 49 46 43 44 83 52 40
internal_count=470 387 174 213 172 128 72 56 41 109 65 69 49 46 43 44 83 52 40
is_linear=0
shrinkage=0.05


Tree=26
num_leaves=17
num_cat=0
split_feature=27 26 217 195 25 216 114 73 209 209 27 27 25 27 217 75
split_gain=5.31635 4.3897 2.33497 1.94622 1.94556 1.63429 1.28758 1.10468 0.667849 0.521412 0.436135 0.375304 0.331195 0.319632 0.136414 0.0480126
threshold=2003.5000000000002 45.000000000000007 1.0000000180025095e-35 1.0000000180025095e-35 1.7500000000000002 1.0000000180025095e-35 1.0000000180025095e-35 1.0000000180025095e-35 1.0000000180025095e-35 1.0000000180025095e-35 1983.5000000000002 2012.5000000000002 1.2500000000000002 2008.5000000000002 1.0000000180025095e-35 1.0000000180025095e-35
decision_type=2 2 2 2 2 2 2 2 2 2 2 2 2 2 2 2
left_child=1 2 3 4 7 11 -5 9 -8 -1 -6 13 -13 14 -2 -4
right_child=5 -3 15 6 10 -7 8 -9 -10 -11 -12 12 -14 -15 -16 -17
leaf_value=0.0051875549824647975 -0.0075809607841074468 0.024591129412874582 -0.0062189902948296587 0.018598076677881183 0.0053852110657663576 -0.016568064987659455 -0.00072640840980139649 -0.0096783666472349851 0.011897891488915777 -0.0032096216183466219 0.015702080652117728 -0.010304192385994707 -0.0025954397395253183 0.002728946150644966 -0.0024556430937671984 -0.0094158761009263507
leaf_weight=38 20 24 23 32 21 35 22 35 20 36 20 38 22 23 37 24
leaf_count=38 20 24 23 32 21 35 22 35 20 36 20 38 22 23 37 24
internal_value=0 0.00409577 0.00228069 0.00440663 0.00113313 -0.00690431 0.0110421 -0.00235929 0.00528516 0.00110244 0.0104178 -0.00448837 -0.00747765 -0.0022464 -0.004254 -0.00785144
internal_weight=0 295 271 224 150 175 74 109 42 74 41 140 60 80 57 47
internal_count=470 295 271 224 150 175 74 109 42 74 41 140 60 80 57 47
is_linear=0
shrinkage=0.05


Tree=27
num_leaves=18
num_cat=0
split_feature=236 208 2 90 195 27 216 27 31 236 236 236 236 27 27 27 27
split_gain=7.70669 2.38589 3.16348 2.63097 2.01492 1.808 1.96005 1.41619 1.16331 0.860573 2.78032 1.04515 0.782374 0.48917 0.399304 0.118717 0.0298042
threshold=10.467710685000002 1.0000000180025095e-35 1.0000000180025095e-35 1.0000000180025095e-35 1.0000000180025095e-35 1967.5000000000002 1.0000000180025095e-35 1987.5000000000002 1.0000000180025095e-35 18.806563875000005 14.392907600000003 20.955927850000005 21.359043985000003 1991.0000000000002 1984.5000000000002 1964.5000000000002 1976.5000000000002
decision_type=2 2 2 2 2 2 2 2 2 2 2 2 2 2 2 2 2
left_child=13 2 14 4 5 -4 7 -7 -3 10 -9 -11 -13 15 -2 -1 -17
right_child=1 8 3 -5 -6 6 -8 9 -10 11 -12 12 -14 -15 -16 16 -18
leaf_value=0.012286196969745851 0.01283015535445884 -0.0069366988027468324 -0.017736592628485103 -0.020351306992498312 0.0086269727545893859 0.010644347637891771 -0.013672704122621905 0.0049847993661056864 -0.022081788487377622 0.0089918119510492469 -0.019623360926440608 -0.010513785007325086 0.0013343414585841331 0.0065767818263598862 0.0044880802922237385 0.015533378867742918 0.018081208458170295
leaf_weight=22 32 32 22 22 36 25 33 22 21 26 24 22 38 21 26 24 22
leaf_count=22 32 32 22 22 36 25 33 22 21 26 24 22 38 21 26 24 22
internal_value=0 -0.00309448 -0.00150398 -0.00377985 -0.0023098 -0.00416699 -0.00259577 -0.0002675 -0.0129376 -0.00233414 -0.00785424 0.000618475 -0.00300997 0.0132472 0.0090906 0.0153071 0.0167519
internal_weight=0 381 328 270 248 212 190 157 53 132 46 86 60 89 58 68 46
internal_count=470 381 328 270 248 212 190 157 53 132 46 86 60 89 58 68 46
is_linear=0
shrinkage=0.05


Tree=28
num_leaves=17
num_cat=0
split_feature=236 25 27 2 236 27 214 29 31 236 236 27 209 27 236 0
split_gain=6.965 2.07882 2.62589 1.81636 3.01188 3.60874 1.99412 2.80643 2.66234 0.912956 0.707242 0.654053 0.3278 0.267723 0.19624 0.605173
threshold=10.252579550000002 1.7500000000000002 2003.5000000000002 1.0000000180025095e-35 25.098527000000001 1970.5000000000002 1.0000000180025095e-35 1.0000000180025095e-35 1.0000000180025095e-35 24.868129475000003 19.158619325000004 2015.5000000000002 1.0000000180025095e-35 2002.5000000000002 8.8510656250000022 269.50000000000006
decision_type=2 2 2 2 2 2 2 2 2 2 2 2 2 2 2 2
left_child=14 3 12 9 5 -5 7 8 10 -2 -7 -4 -3 -8 -1 -16
right_child=1 2 11 4 -6 6 13 -9 -10 -11 -12 -13 -14 -15 15 -17
leaf_value=0.015990263223648073 -0.0041673987749077024 0.00517277212982828 -0.011616406791533035 0.010940939678500097 -0.025428821742534635 -0.0066984996963292357 0.0057963673025369644 -0.022277253341714019 -0.01684145996052968 0.009623869297294212 0.0040746261867193071 0.00062643071636557578 0.012841916514413529 -0.0020364635313550633 0.01692027702279713 0.0056820808872580534
leaf_weight=35 21 22 24 30 20 25 20 38 38 28 39 20 38 24 23 25
leaf_count=35 21 22 24 30 20 25 20 38 38 28 39 20 38 24 23 25
internal_value=0 -0.00281881 0.00322624 -0.0050403 -0.00687333 -0.00513917 -0.00776093 -0.010679 -0.00635811 0.00371333 -0.000133626 -0.00605148 0.0100299 0.00152391 0.0131431 0.011067
internal_weight=0 387 104 283 234 214 184 140 102 49 64 44 60 44 83 48
internal_count=470 387 104 283 234 214 184 140 102 49 64 44 60 44 83 48
is_linear=0
shrinkage=0.05


Tree=29
num_leaves=16
num_cat=0
split_feature=236 208 27 27 0 27 77 91 195 27 236 236 27 25 0
split_gain=6.28591 1.90941 2.51579 3.96598 3.50562 2.85184 1.43843 1.53552 1.26086 1.11063 0.92041 0.869944 0.442522 0.197575 0.0979863
threshold=10.252579550000002 1.0000000180025095e-35 2003.5000000000002 1966.5000000000002 419.50000000000006 1941.5000000000002 1.0000000180025095e-35 1.0000000180025095e-35 1.0000000180025095e-35 1987.5000000000002 15.078047380000003 20.955927850000005 2008.5000000000002 1.7500000000000002 315.00000000000006
decision_type=2 2 2 2 2 2 2 2 2 2 2 2 2 2 2
left_child=13 2 3 5 10 -2 7 -5 -3 -9 -4 -6 -13 14 -1
right_child=1 8 4 6 11 -7 -8 9 -10 -11 -12 12 -14 -15 -16
leaf_value=0.016155900637949666 0.0016879460599739105 -0.0055395304170601511 -0.010396748144800466 0.0026696832052298955 0.0055500606516082039 -0.02085055673122406 -0.0013940089731477201 0.022596063278615477 -0.021360987946391106 0.0086178937788914754 -0.023533602569174642 -0.0085580846102073279 3.4681395176918277e-05 0.009326448766214232 0.011732423238988434
leaf_weight=31 32 34 30 35 38 25 32 30 20 27 24 29 31 31 21
leaf_count=31 32 34 30 35 38 25 32 30 20 27 24 29 31 31 21
internal_value=0 -0.00267786 -0.00126357 0.00271904 -0.00600603 -0.00819736 0.00773706 0.0109131 -0.0113993 0.0159748 -0.0162354 -0.000369459 -0.00411849 0.0124859 0.0143695
internal_weight=0 387 333 181 152 57 124 92 54 57 54 98 60 83 52
internal_count=470 387 333 181 152 57 124 92 54 57 54 98 60 83 52
is_linear=0
shrinkage=0.05


Tree=30
num_leaves=18
num_cat=0
split_feature=236 208 236 236 27 27 27 27 31 0 91 75 0 31 0 0 236
split_gain=5.74624 1.83045 1.90838 2.4081 2.39955 4.74194 2.26204 1.78803 1.3262 3.00707 1.03442 1.26693 1.3243 1.02537 0.57269 0.411076 0.349709
threshold=11.697947415000003 1.0000000180025095e-35 12.093165160000002 15.078047380000003 1966.5000000000002 1984.5000000000002 1941.5000000000002 2002.5000000000002 1.0000000180025095e-35 374.50000000000006 1.0000000180025095e-35 1.0000000180025095e-35 535.50000000000011 1.0000000180025095e-35 561.50000000000011 269.50000000000006 8.8704377995000012
decision_type=2 2 2 2 2 2 2 2 2 2 2 2 2 2 2 2 2
left_child=7 2 -2 -4 6 -6 -5 15 10 -10 -7 14 -13 -3 -12 -1 -17
right_child=1 13 3 4 5 8 -8 -9 9 -11 11 12 -14 -15 -16 16 -18
leaf_value=0.020356169114598918 -0.01561735034496947 -0.0058084289310500027 0.011224492101404721 -0.0030182996798040615 0.017600190368565648 -0.014479506273682302 -0.025034715086221696 -0.0017814014445651661 -0.009838901734910907 0.016412190084035199 -0.0019151157218842739 -0.018111291256817905 -0.002367615480633343 -0.020027269955192294 0.0089371179044246667 0.015146709978580475 0.0068585967365652331
leaf_weight=21 22 32 39 28 33 26 20 22 20 24 31 22 34 21 20 35 20
leaf_count=21 22 32 39 28 33 26 20 22 20 24 31 22 34 21 20 35 20
internal_value=0 -0.00283762 -0.001408 -0.000355459 -0.00210592 0.000199429 -0.0121918 0.0107714 -0.00304478 0.00447988 -0.00553414 -0.0033605 -0.00855263 -0.0114423 0.00234066 0.0144051 0.0121329
internal_weight=0 372 319 297 258 210 48 98 177 44 133 107 56 53 51 76 55
internal_count=470 372 319 297 258 210 48 98 177 44 133 107 56 53 51 76 55
is_linear=0
shrinkage=0.05


Tree=31
num_leaves=19
num_cat=0
split_feature=236 2 209 0 49 31 0 236 236 75 75 236 236 0 197 0 236 236
split_gain=5.18598 2.25533 1.94408 3.15919 3.39614 1.56807 1.39239 2.14223 2.82463 1.38116 0.851997 0.824829 0.730281 0.72951 0.625498 0.552444 0.52698 0.282688
threshold=11.697947415000003 1.0000000180025095e-35 1.0000000180025095e-35 545.50000000000011 1.0000000180025095e-35 1.0000000180025095e-35 120.00000000000001 14.094861020000002 17.316268980000004 1.0000000180025095e-35 1.0000000180025095e-35 25.257141755000003 21.158397020000006 649.50000000000011 1.0000000180025095e-35 269.50000000000006 8.8510656250000022 15.463748590000002
decision_type=2 2 2 2 2 2 2 2 2 2 2 2 2 2 2 2 2 2
left_child=14 10 3 4 5 -3 17 -8 -9 -10 11 -2 -11 -14 15 -1 -17 -4
right_child=1 2 6 -5 -6 -7 7 8 9 12 -12 -13 13 -15 -16 16 -18 -19
leaf_value=0.01932620984457788 0.01655238810926676 0.013859874196350576 -0.0060026525740977379 -0.023592578631735618 -0.021338047296740117 -0.0049234992787241944 -0.010990808800081998 0.018212721709161998 0.007657949530652592 -0.01204606176099994 -0.001271253573740351 0.0025226287241093817 0.0048971489816904065 -0.0073070190226038299 0.0030194717580857484 0.013709081867427537 0.0035770362243056301 -0.014409310985356569
leaf_weight=21 22 20 20 31 20 25 34 25 35 22 29 20 25 24 23 33 21 20
leaf_count=21 22 20 20 31 20 25 34 25 35 22 29 20 25 24 23 33 21 20
internal_value=0 -0.00269574 -0.00458656 -0.0104586 -0.00419463 0.00342467 -0.00183675 0.000192156 0.0030946 -0.000470989 0.00532026 0.00987155 -0.00447821 -0.0010804 0.0102328 0.0124449 0.00976884 -0.010206
internal_weight=0 372 301 96 65 45 205 165 131 106 71 42 71 49 98 75 54 40
internal_count=470 372 301 96 65 45 205 165 131 106 71 42 71 49 98 75 54 40
is_linear=0
shrinkage=0.05


Tree=32
num_leaves=18
num_cat=0
split_feature=236 29 214 236 236 2 209 209 197 197 236 75 31 25 236 217 195
split_gain=4.69682 1.69307 2.02282 1.70966 3.10663 1.79466 1.69509 1.21957 2.42705 0.764441 0.645418 1.20135 0.603546 0.234811 0.158142 0.134997 0.0662853
threshold=10.467710685000002 1.0000000180025095e-35 1.0000000180025095e-35 12.370367975000002 15.114384005000002 1.0000000180025095e-35 1.0000000180025095e-35 1.0000000180025095e-35 1.0000000180025095e-35 1.0000000180025095e-35 18.806563875000005 1.0000000180025095e-35 1.0000000180025095e-35 1.7500000000000002 25.440050480000004 1.0000000180025095e-35 1.0000000180025095e-35
decision_type=2 2 2 2 2 2 2 2 2 2 2 2 2 2 2 2 2
left_child=13 3 6 -2 -5 12 -3 8 -7 -9 -11 -12 14 16 -6 -13 -1
right_child=1 2 -4 4 5 7 -8 9 -10 10 11 15 -14 -15 -16 -17 -18
leaf_value=0.010450735587316256 -0.012269304384445323 -0.024846236780285837 0.0038614179431037468 0.015680769810763499 -0.0004871043969284405 -0.018607431063146301 -0.0070343836375019141 0.0074635730258056105 0.0034662938117980958 -0.0087854036539228575 0.0094173753295432455 -0.0074958339672196997 0.012819731661251613 0.0071516232192516327 0.0056560524716041984 -0.0023392461209247508 0.013976142865916094
leaf_weight=24 29 22 22 30 22 33 34 21 20 33 22 22 21 35 20 30 30
leaf_count=24 29 22 22 30 22 33 34 21 20 33 22 22 21 35 20 30 30
internal_value=0 -0.00241577 -0.00898506 -0.000724666 0.000497212 -0.00136962 -0.0140319 -0.00389948 -0.0102777 -0.00125849 -0.0029703 -0.000377074 0.00589872 0.0103417 0.00243821 -0.00452088 0.0124093
internal_weight=0 381 78 303 274 244 56 181 53 128 107 74 63 89 42 52 54
internal_count=470 381 78 303 274 244 56 181 53 128 107 74 63 89 42 52 54
is_linear=0
shrinkage=0.05


Tree=33
num_leaves=18
num_cat=0
split_feature=27 0 29 0 0 0 0 112 216 25 50 114 27 75 216 27 0
split_gain=3.34851 4.2901 4.20998 3.87834 3.41285 2.88353 2.87232 1.25252 1.24193 1.13762 0.723486 0.717761 0.945043 1.65123 0.54729 0.280294 0.108258
threshold=2000.5000000000002 385.50000000000006 1.0000000180025095e-35 449.50000000000006 492.50000000000006 240.50000000000003 120.00000000000001 1.0000000180025095e-35 1.0000000180025095e-35 1.7500000000000002 1.0000000180025095e-35 1.0000000180025095e-35 2015.5000000000002 1.0000000180025095e-35 1.0000000180025095e-35 1983.5000000000002 639.00000000000011
decision_type=2 2 2 2 2 2 2 2 2 2 2 2 2 2 2 2 2
left_child=1 6 3 -3 -5 8 9 -6 -2 -1 -8 -7 13 -13 15 -12 -15
right_child=5 2 -4 4 7 11 10 -9 -10 -11 14 12 -14 16 -16 -17 -18
leaf_value=-0.0071286941878497606 -0.0086569112120196221 -0.015455484891740177 -0.023767725090411577 0.024539987121243029 0.0078751626202747931 -0.0087442488223314283 0.0048925943105765021 -0.0096084085386246437 -0.023817301778630777 0.0080725926160812381 0.014955377076311331 0.013331239098416908 -0.0065942339017055936 0.00031303282551191472 0.0095990163753881599 0.02194874545802241 -0.0043550467361574583
leaf_weight=32 35 26 22 20 21 25 23 20 22 20 38 28 32 27 33 23 23
leaf_count=32 35 26 22 20 21 25 23 20 22 20 38 28 32 27 33 23 23
internal_value=0 0.00350732 -0.00422681 0.000714568 0.00760672 -0.0050783 0.0084956 -0.000653409 -0.0145083 -0.00128205 0.0128412 -0.00109675 0.000641318 0.00360975 0.0147861 0.0175922 -0.00183428
internal_weight=0 278 109 87 61 192 169 41 57 52 117 135 110 78 94 61 50
internal_count=470 278 109 87 61 192 169 41 57 52 117 135 110 78 94 61 50
is_linear=0
shrinkage=0.05


Tree=34
num_leaves=18
num_cat=0
split_feature=236 2 90 27 27 0 0 236 27 236 236 0 236 236 236 0 236
split_gain=3.94629 1.83917 1.52961 1.41702 1.31701 1.21992 1.21606 1.61345 2.20291 3.48518 1.82266 1.36289 1.20607 0.806634 0.674502 0.374148 0.270188
threshold=11.697947415000003 1.0000000180025095e-35 1.0000000180025095e-35 2013.5000000000002 2002.5000000000002 388.50000000000006 649.50000000000011 14.094861020000002 1993.5000000000002 15.365687895000002 17.779523195000003 367.50000000000006 20.955927850000005 21.966279380000003 25.574956140000001 269.50000000000006 8.8704377995000012
decision_type=2 2 2 2 2 2 2 2 2 2 2 2 2 2 2 2 2
left_child=4 13 3 6 15 -5 7 -3 9 -9 -10 -11 -12 -2 -15 -1 -17
right_child=1 2 -4 5 -6 -7 -8 8 10 11 12 -13 -14 14 -16 16 -18
leaf_value=0.0177224259202679 0.012586205873800362 -0.009973048412939535 -0.016752146506174046 -0.019752536220697777 -0.0018469081344929608 -0.0043367422101172537 -0.0098769296173538482 0.026494060158729557 -0.01552259966053746 -0.0068153692719837029 0.010317406787172608 0.009292335445382471 -0.0040518179722130307 -0.0049813449058843697 0.0068831249643117199 0.012526285818644935 0.0052411832939833411
leaf_weight=21 23 32 22 21 22 33 35 20 22 24 23 29 40 23 25 35 20
leaf_count=21 23 32 22 21 22 33 35 20 22 24 23 29 40 23 25 35 20
internal_value=0 -0.00235157 -0.00405905 -0.00305816 0.00892635 -0.0103318 -0.00131249 0.000265173 0.00233874 0.00870945 -0.00313258 0.00199828 0.00119409 0.00488718 0.00119807 0.0120449 0.00987716
internal_weight=0 372 301 279 98 54 225 190 158 73 85 53 63 71 48 76 55
internal_count=470 372 301 279 98 54 225 190 158 73 85 53 63 71 48 76 55
is_linear=0
shrinkage=0.05


Tree=35
num_leaves=19
num_cat=0
split_feature=236 2 209 0 49 31 27 0 27 27 77 75 236 0 236 236 0 236
split_gain=3.56153 1.65985 1.48695 2.65304 2.801 1.4889 1.31441 2.40567 1.1886 1.03059 1.61518 0.779074 0.753665 0.60526 0.513244 0.365446 0.337669 0.243845
threshold=11.697947415000003 1.0000000180025095e-35 1.0000000180025095e-35 545.50000000000011 1.0000000180025095e-35 1.0000000180025095e-35 2003.5000000000002 522.00000000000011 2002.5000000000002 1967.5000000000002 1.0000000180025095e-35 1.0000000180025095e-35 25.257141755000003 639.00000000000011 15.165854595000001 19.808697925000004 269.50000000000006 8.8704377995000012
decision_type=2 2 2 2 2 2 2 2 2 2 2 2 2 2 2 2 2 2
left_child=8 11 3 4 5 -3 9 14 16 -4 -11 12 -2 15 -8 -9 -1 -18
right_child=1 2 6 -5 -6 -7 7 13 -10 10 -12 -13 -14 -15 -16 -17 17 -19
leaf_value=0.016836304572366536 0.015381116741760213 0.01383665878325701 -0.0059947784382687963 -0.021027515420029244 -0.018820295445621013 -0.0044664185903966428 -0.0092393169082545992 -0.00028239291693483081 -0.001754562726074999 0.013010040837291041 -0.0028163634772811618 -0.0016603006499594656 0.0019702286459505557 -0.0049115293498696953 -0.020084515968337657 0.0089389678598804905 0.011899971387216024 0.004979124236851931
leaf_weight=21 22 20 23 31 20 25 24 21 22 38 28 29 20 29 20 22 35 20
leaf_count=21 22 20 23 31 20 25 24 21 22 38 28 29 20 29 20 22 35 20
internal_value=0 -0.00223399 -0.00385609 -0.00899152 -0.00325128 0.00366828 -0.00145121 -0.00495811 0.00848004 0.00311959 0.00629581 0.00464282 0.00899498 0.000670732 -0.014169 0.00443551 0.0114427 0.0093833
internal_weight=0 372 301 96 65 45 205 116 98 89 66 71 42 72 44 43 76 55
internal_count=470 372 301 96 65 45 205 116 98 89 66 71 42 72 44 43 76 55
is_linear=0
shrinkage=0.05


Tree=36
num_leaves=17
num_cat=0
split_feature=236 2 209 27 27 27 27 236 27 77 27 236 27 27 27 236
split_gain=3.21428 1.49801 1.34198 1.89855 2.01127 1.18625 1.07271 1.00859 0.93011 1.4577 0.769925 1.64345 0.547889 1.33086 0.318459 0.171477
threshold=11.697947415000003 1.0000000180025095e-35 1.0000000180025095e-35 1983.5000000000002 2001.5000000000002 2003.5000000000002 2002.5000000000002 15.989944045000001 1967.5000000000002 1.0000000180025095e-35 1988.5000000000002 24.868129475000003 2007.5000000000002 2013.5000000000002 1977.5000000000002 8.9084560200000009
decision_type=2 2 2 2 2 2 2 2 2 2 2 2 2 2 2 2
left_child=6 10 3 -3 -5 8 14 -7 -4 -10 11 -2 -9 -14 15 -1
right_child=1 2 5 4 -6 7 -8 12 9 -11 -12 -13 13 -15 -16 -17
leaf_value=0.011028312994488355 -0.0087852441746255634 -0.01872368028777982 -0.0056950396493725157 0.0067481477828955075 -0.011099809604255778 -0.011950667588697637 -0.001666834510185502 -0.006688308769441916 0.012359538532205318 -0.0026755444971578463 0.012444837830428566 0.0094028676411619903 0.0090841598670791703 -0.0074827091091058465 0.015358917501110299 0.0050956551517759054
leaf_weight=29 23 31 23 27 38 34 22 33 38 28 21 27 27 22 26 21
leaf_count=29 23 31 23 27 38 34 22 33 38 28 21 27 27 22 26 21
internal_value=0 -0.00212229 -0.00366329 -0.00854195 -0.00368604 -0.00137865 0.00805603 -0.00471021 0.00296361 0.00598102 0.00441068 0.00103634 -0.00170807 0.00164597 0.0108705 0.0085366
internal_weight=0 372 301 96 65 205 98 116 89 66 71 50 82 49 76 50
internal_count=470 372 301 96 65 205 98 116 89 66 71 50 82 49 76 50
is_linear=0
shrinkage=0.05


Tree=37
num_leaves=18
num_cat=0
split_feature=236 25 29 0 236 236 0 0 0 236 27 75 27 27 236 0 236
split_gain=2.90089 1.40342 1.36025 1.90409 2.10213 2.34042 1.60897 1.93862 1.22156 1.00436 0.968125 0.937836 0.899151 0.440401 0.403941 0.301315 0.207654
threshold=11.697947415000003 1.7500000000000002 1.0000000180025095e-35 112.50000000000001 13.892570120000002 17.316268980000004 449.50000000000006 567.50000000000011 379.00000000000006 24.063505800000005 2002.5000000000002 1.0000000180025095e-35 2003.5000000000002 1984.5000000000002 19.041120585000005 269.50000000000006 8.8704377995000012
decision_type=2 2 2 2 2 2 2 2 2 2 2 2 2 2 2 2 2
left_child=10 2 3 -2 -5 -6 -7 11 -4 -9 15 -8 13 -3 -14 -1 -17
right_child=1 12 8 4 5 6 7 9 -10 -11 -12 -13 14 -15 -16 16 -18
leaf_value=0.015422034157173976 -0.013056619259331263 0.0028467238830801635 -0.00051260265521705154 -0.014515914480117235 0.015394131756491132 -0.012470858419934909 0.014879038595947728 -0.0103369261167245 -0.015711262884239355 0.002629972459648603 -0.0015834930606863718 0.0011888875795358963 0.0024901683256030086 0.011714813765138388 -0.0075589754804968844 0.010704064582075392 0.0043174312077462673
leaf_weight=21 33 28 20 22 27 24 29 32 39 28 22 22 20 28 20 35 20
leaf_count=21 33 28 20 22 27 24 29 32 39 28 22 22 20 28 20 35 20
internal_value=0 -0.00201617 -0.0038274 -0.00199711 -1.36083e-05 0.00195584 -0.000731818 0.00180635 -0.0105592 -0.00428571 0.00765323 0.00897348 0.00319111 0.00728077 -0.0025344 0.010327 0.00838165
internal_weight=0 372 276 217 184 162 135 111 59 60 98 51 96 56 40 76 55
internal_count=470 372 276 217 184 162 135 111 59 60 98 51 96 56 40 76 55
is_linear=0
shrinkage=0.05


Tree=38
num_leaves=19
num_cat=0
split_feature=236 208 2 236 236 27 236 0 214 236 195 27 112 236 29 27 27 236
split_gain=2.61805 1.30667 2.0827 1.80321 1.15411 1.76667 2.58869 1.76456 1.21906 1.13533 1.02227 0.873732 0.61517 0.558172 0.741252 0.368101 0.277336 0.150082
threshold=11.697947415000003 1.0000000180025095e-35 1.0000000180025095e-35 25.124710705000002 12.093165160000002 1995.5000000000002 15.365687895000002 419.50000000000006 1.0000000180025095e-35 15.165854595000001 1.0000000180025095e-35 2002.5000000000002 1.0000000180025095e-35 20.955927850000005 1.0000000180025095e-35 2007.5000000000002 1977.5000000000002 8.9084560200000009
decision_type=2 2 2 2 2 2 2 2 2 2 2 2 2 2 2 2 2 2
left_child=11 2 12 4 -4 6 -6 9 -8 -7 -3 16 -2 -9 15 -15 17 -1
right_child=1 10 3 -5 5 7 8 13 -10 -11 -12 -13 -14 14 -16 -17 -18 -19
leaf_value=0.0099637169776291695 0.015019231215119361 -0.0037794740729485501 -0.012284220915965059 -0.016643997778495154 0.020046794799196979 -0.002862340041478588 -0.0086371209310448695 0.0052036963697326818 0.007642097511257895 -0.018295478419615673 -0.018105276394635439 -0.0015043183145197956 0.0041352137570848336 -0.003604722803547269 -0.010427808091044426 0.0055512854586476871 0.01399922913943346 0.0044134844449304402
leaf_weight=29 20 33 22 21 23 22 23 38 23 26 20 22 37 21 20 23 26 21
leaf_count=29 20 33 22 21 23 22 23 38 23 26 20 22 37 21 20 23 26 21
internal_value=0 -0.00191537 -0.000707485 -0.00259189 -0.00136743 -0.000270769 0.00635059 -0.00331659 -0.000497512 -0.011222 -0.00918544 0.00727057 0.00795417 0.000403575 -0.0024465 0.00118137 0.00981067 0.00763262
internal_weight=0 372 319 262 241 219 69 150 46 48 53 98 57 102 64 44 76 50
internal_count=470 372 319 262 241 219 69 150 46 48 53 98 57 102 64 44 76 50
is_linear=0
shrinkage=0.05


Tree=39
num_leaves=19
num_cat=0
split_feature=236 25 90 0 114 0 195 0 0 31 236 236 209 197 0 138 236 236
split_gain=2.36279 1.20052 1.26283 2.09851 2.96756 3.11784 2.57806 1.72458 1.60865 1.83473 0.913896 0.514099 0.494734 0.392201 0.549801 0.386592 0.333166 0.330805
threshold=11.697947415000003 1.7500000000000002 1.0000000180025095e-35 703.50000000000011 1.0000000180025095e-35 492.50000000000006 1.0000000180025095e-35 199.50000000000003 120.00000000000001 1.0000000180025095e-35 18.451792440000002 20.955927850000005 1.0000000180025095e-35 1.0000000180025095e-35 269.50000000000006 1.0000000180025095e-35 8.8510656250000022 15.365687895000002
decision_type=2 2 2 2 2 2 2 2 2 2 2 2 2 2 2 2 2 2
left_child=13 2 3 4 5 7 8 -2 -6 10 -10 -12 -3 14 -1 -13 -16 -14
right_child=1 12 -4 -5 6 -7 -8 -9 9 -11 11 15 17 -15 16 -17 -18 -19
leaf_value=0.015523500988880792 0.0050311847310513264 -0.0019628688354383817 -0.014711965247988701 -0.01761065504646727 -0.013737361939623952 -0.0077348140766844153 -0.020551411248743535 0.025106732069474197 -0.012100605764204547 0.012572490051388741 0.0065644806809723377 0.0013800257550818582 0.01021300944654892 0.001195178472477457 0.0091219962997870011 -0.0069286612128572804 0.0010657913805473419 0.0027521560589472455
leaf_weight=21 20 33 23 21 25 21 22 23 21 24 20 28 24 23 33 28 21 39
leaf_count=21 20 33 23 21 25 21 22 23 21 24 20 28 24 23 33 28 21 39
internal_value=0 -0.0018196 -0.00349479 -0.00247505 -0.00110501 0.00805699 -0.0045953 0.0157693 -0.00219095 0.000194668 -0.00286789 -0.000316739 0.00299658 0.00690704 0.00865868 -0.00277432 0.00598903 0.00559439
internal_weight=0 372 276 253 232 64 168 43 146 121 97 76 96 98 75 56 54 63
internal_count=470 372 276 253 232 64 168 43 146 121 97 76 96 98 75 56 54 63
is_linear=0
shrinkage=0.05


Tree=40
num_leaves=20
num_cat=0
split_feature=236 2 90 236 236 0 114 0 138 27 0 27 236 236 236 75 0 0 236
split_gain=2.13242 1.16341 1.13365 1.20388 4.61945 0.8988 2.08565 1.91111 1.67189 1.03488 0.888467 0.784294 0.731964 0.619502 0.424105 0.337696 0.265571 0.2486 0.155988
threshold=11.697947415000003 1.0000000180025095e-35 1.0000000180025095e-35 14.094861020000002 15.078047380000003 611.50000000000011 1.0000000180025095e-35 120.00000000000001 1.0000000180025095e-35 1991.0000000000002 180.50000000000003 2002.5000000000002 21.966279380000003 25.574956140000001 20.955927850000005 1.0000000180025095e-35 522.00000000000011 269.50000000000006 8.8704377995000012
decision_type=2 2 2 2 2 2 2 2 2 2 2 2 2 2 2 2 2 2 2
left_child=11 12 3 10 -5 6 -6 9 -7 -8 -3 17 -2 -14 15 -9 -16 -1 -19
right_child=1 2 -4 4 5 8 7 14 -10 -11 -12 -13 13 -15 16 -17 -18 18 -20
leaf_value=0.013596186999763763 0.011362714271830478 -0.017299260615947703 -0.014014060778374022 0.02215119966072962 0.012239843852818013 -0.014925676336861217 -0.0050315005083878843 0.0081916507721568159 0.0025697688402777368 -0.020431480184197427 -0.002754854570542063 -0.0017519607462666252 -0.005407646274113137 0.0059628186710178853 -0.0068184895307890001 -0.00060543050523847346 0.00080861459672451012 0.0092141212948731021 0.0036787288077175617
leaf_weight=21 23 21 22 20 25 36 24 24 22 20 21 22 23 25 21 20 25 35 20
leaf_count=21 23 21 22 20 25 36 24 24 22 20 21 22 23 25 21 20 25 35 20
internal_value=0 -0.00172862 -0.00308665 -0.00222499 -0.00084235 -0.00296157 -0.00101806 -0.00349155 -0.00828947 -0.0120315 -0.0100271 0.00656169 0.00402869 0.000514471 0.000683534 0.00419298 -0.00267332 0.00896827 0.00720125
internal_weight=0 372 301 279 237 217 159 134 58 44 42 98 71 48 90 44 46 76 55
internal_count=470 372 301 279 237 217 159 134 58 44 42 98 71 48 90 44 46 76 55
is_linear=0
shrinkage=0.05


Tree=41
num_leaves=19
num_cat=0
split_feature=236 27 236 29 217 127 2 236 236 216 236 27 27 27 27 27 236 236
split_gain=1.9341 3.84543 1.44081 1.26682 1.15684 1.14519 1.68694 0.935947 0.800356 0.753666 0.699934 0.854573 1.29829 0.501661 0.650619 0.326723 0.217526 0.124009
threshold=15.165854595000001 2003.5000000000002 12.093165160000002 1.0000000180025095e-35 1.0000000180025095e-35 1.0000000180025095e-35 1.0000000180025095e-35 25.017078655000002 10.252579550000002 1.0000000180025095e-35 15.669582880000002 1950.5000000000002 2003.5000000000002 2007.5000000000002 2012.5000000000002 1977.5000000000002 24.868129475000003 8.8704377995000012
decision_type=2 2 2 2 2 2 2 2 2 2 2 2 2 2 2 2 2 2
left_child=1 2 8 5 -5 6 16 10 15 -3 -8 -12 -13 -14 -15 17 -2 -1
right_child=3 9 -4 4 -6 -7 7 -9 -10 -11 11 12 13 14 -16 -17 -18 -19
leaf_value=0.0084777476886908221 0.0044030902752031885 -0.0015802260038132469 0.01989244278147817 -0.0024315725466043784 -0.016956118730684887 -0.012350610275752842 -0.0089140523629991902 -0.012177757861181386 -0.0024877173081040383 -0.01346771651878953 -0.0086232736074764813 0.01354093917068981 -0.0052827246632659811 0.0089348120533901728 -0.0024146559947569456 0.013168814654151598 0.010838241351704145 0.0032831896841526032
leaf_weight=27 24 30 25 29 26 20 23 21 20 24 21 21 32 23 28 27 29 20
leaf_count=27 24 30 25 29 26 20 23 21 20 24 21 21 32 23 28 27 29 20
internal_value=0 0.00420258 0.00922418 -0.00244797 -0.00929772 -0.000891203 0.000141176 -0.00229966 0.00638688 -0.00686356 -0.000898035 0.000576913 0.00243464 -0.000375384 0.00270373 0.00878542 0.00792421 0.0062673
internal_weight=0 173 119 297 55 242 222 169 94 54 148 125 104 83 51 74 53 47
internal_count=470 173 119 297 55 242 222 169 94 54 148 125 104 83 51 74 53 47
is_linear=0
shrinkage=0.05


Tree=42
num_leaves=18
num_cat=0
split_feature=236 208 2 236 236 27 236 0 0 236 31 27 112 75 0 0 236
split_gain=1.78468 1.072 1.624 1.44387 0.971467 1.54499 2.68534 1.95046 1.10281 1.29818 0.872981 0.616537 0.542267 0.421768 0.438519 0.231163 0.130802
threshold=11.697947415000003 1.0000000180025095e-35 1.0000000180025095e-35 25.124710705000002 12.093165160000002 2003.5000000000002 15.165854595000001 419.50000000000006 449.50000000000006 16.221073685000004 1.0000000180025095e-35 2002.5000000000002 1.0000000180025095e-35 1.0000000180025095e-35 663.00000000000011 269.50000000000006 8.8704377995000012
decision_type=2 2 2 2 2 2 2 2 2 2 2 2 2 2 2 2 2
left_child=11 2 12 4 -4 6 -6 -7 9 -8 -3 15 -2 -9 -15 -1 -17
right_child=1 10 3 -5 5 7 8 13 -10 -11 -12 -13 -14 14 -16 16 -18
leaf_value=0.01259928760784013 0.013794465549290182 -0.0029679889965336772 -0.011071487634696744 -0.014725611820107416 0.02107084774412215 -0.013688407071999142 0.0029059224762022495 0.0043127928281555305 0.008907091528177263 -0.013772863820195198 -0.016087745773118167 -0.0013682121918960051 0.0035757072571967101 -0.0062114973072752815 0.0030311082445439838 0.0082759156929595127 0.0032070628367364407
leaf_weight=21 20 32 22 21 20 35 28 37 25 20 21 22 37 33 21 35 20
leaf_count=21 20 32 22 21 20 35 28 37 25 20 21 22 37 33 21 35 20
internal_value=0 -0.00158141 -0.000487349 -0.00215135 -0.00105567 -4.95171e-05 0.00483874 -0.00365752 0.000391587 -0.00404357 -0.00816638 0.00600288 0.00716124 0.000200519 -0.00261715 0.00813662 0.0064327
internal_weight=0 372 319 262 241 219 93 126 73 48 53 98 57 91 54 76 55
internal_count=470 372 319 262 241 219 93 126 73 48 53 98 57 91 54 76 55
is_linear=0
shrinkage=0.05


Tree=43
num_leaves=18
num_cat=0
split_feature=236 27 236 209 27 31 27 0 236 236 216 0 0 27 236 27 236
split_gain=1.61421 3.16083 1.24243 2.31122 2.87185 2.02981 1.56835 2.02773 1.41141 1.18433 0.693609 0.651148 0.624099 0.760851 0.502476 0.293109 0.105833
threshold=15.165854595000001 2003.5000000000002 26.847577390000001 1.0000000180025095e-35 2004.5000000000002 1.0000000180025095e-35 1993.5000000000002 419.50000000000006 22.428846360000005 12.093165160000002 1.0000000180025095e-35 230.50000000000003 639.00000000000011 2007.5000000000002 15.721321450000001 1977.5000000000002 8.8704377995000012
decision_type=2 2 2 2 2 2 2 2 2 2 2 2 2 2 2 2 2
left_child=1 9 3 4 5 8 14 -8 -2 11 -3 -1 13 -9 -5 16 -13
right_child=2 10 -4 6 -6 -7 7 12 -10 -11 -12 15 -14 -15 -16 -17 -18
leaf_value=-0.0021850769408047199 -0.012552091996185483 -0.001125057520888125 0.0066115967636661875 0.0022875709645450116 0.0041208647253612686 -0.0058072507246642521 -0.015949389889188436 -0.0010465692521797287 -0.031336450939998033 0.018064293965697292 -0.012529078032821418 0.0076400645629123411 -0.005852190583944321 0.010446566083313277 0.012829129526821468 0.012134887588520845 0.0028412741795182227
leaf_weight=20 20 30 35 20 30 38 23 36 20 25 24 27 25 24 26 27 20
leaf_count=20 20 30 35 20 30 38 23 36 20 25 24 27 25 24 26 27 20
internal_value=0 0.00383934 -0.00223638 -0.00341836 -0.00902612 -0.0140826 0.000514345 -0.0027787 -0.0219443 0.00839206 -0.00619351 0.00581966 0.000785133 0.00355068 0.00824584 0.0079831 0.00559803
internal_weight=0 173 297 262 108 78 154 108 40 119 54 94 85 60 46 74 47
internal_count=470 173 297 262 108 78 154 108 40 119 54 94 85 60 46 74 47
is_linear=0
shrinkage=0.05


end of trees

feature_importances:
Column_236=204
Column_27=172
Column_0=133
Column_25=31
Column_2=29
Column_75=21
Column_208=21
Column_31=20
Column_114=16
Column_195=12
Column_90=11
Column_209=11
Column_29=10
Column_112=9
Column_214=9
Column_216=9
Column_77=7
Column_32=6
Column_91=6
Column_197=5
Column_217=5
Column_33=3
Column_49=3
Column_50=3
Column_26=2
Column_73=2
Column_138=2
Column_127=1
Column_207=1

parameters:
[boosting: gbdt]
[objective: regression]
[metric: rmse]
[tree_learner: serial]
[device_type: cpu]
[data: ]
[valid: ]
[num_iterations: 10000]
[learning_rate: 0.05]
[num_leaves: 63]
[num_threads: 0]
[deterministic: 0]
[force_col_wise: 0]
[force_row_wise: 0]
[histogram_pool_size: -1]
[max_depth: -1]
[min_data_in_leaf: 20]
[min_sum_hessian_in_leaf: 0.001]
[bagging_fraction: 1]
[pos_bagging_fraction: 1]
[neg_bagging_fraction: 1]
[bagging_freq: 0]
[bagging_seed: 32458]
[feature_fraction: 0.9]
[feature_fraction_bynode: 1]
[feature_fraction_seed: 15412]
[extra_trees: 0]
[extra_seed: 19498]
[early_stopping_round: 0]
[first_metric_only: 0]
[max_delta_step: 0]
[lambda_l1: 0]
[lambda_l2: 0]
[linear_lambda: 0]
[min_gain_to_split: 0]
[drop_rate: 0.1]
[max_drop: 50]
[skip_drop: 0.5]
[xgboost_dart_mode: 0]
[uniform_drop: 0]
[drop_seed: 818]
[top_rate: 0.2]
[other_rate: 0.1]
[min_data_per_group: 100]
[max_cat_threshold: 32]
[cat_l2: 10]
[cat_smooth: 10]
[max_cat_to_onehot: 4]
[top_k: 20]
[monotone_constraints: ]
[monotone_constraints_method: basic]
[monotone_penalty: 0]
[feature_contri: ]
[forcedsplits_filename: ]
[refit_decay_rate: 0.9]
[cegb_tradeoff: 1]
[cegb_penalty_split: 0]
[cegb_penalty_feature_lazy: ]
[cegb_penalty_feature_coupled: ]
[path_smooth: 0]
[interaction_constraints: ]
[verbosity: -1]
[saved_feature_importance_type: 0]
[linear_tree: 0]
[max_bin: 255]
[max_bin_by_feature: ]
[min_data_in_bin: 3]
[bin_construct_sample_cnt: 200000]
[data_random_seed: 4078]
[is_enable_sparse: 1]
[enable_bundle: 1]
[use_missing: 1]
[zero_as_missing: 0]
[feature_pre_filter: 1]
[pre_partition: 0]
[two_round: 0]
[header: 0]
[label_column: ]
[weight_column: ]
[group_column: ]
[ignore_column: ]
[categorical_feature: ]
[forcedbins_filename: ]
[precise_float_parser: 0]
[objective_seed: 21231]
[num_class: 1]
[is_unbalance: 0]
[scale_pos_weight: 1]
[sigmoid: 1]
[boost_from_average: 1]
[reg_sqrt: 0]
[alpha: 0.9]
[fair_c: 1]
[poisson_max_delta_step: 0.7]
[tweedie_variance_power: 1.5]
[lambdarank_truncation_level: 30]
[lambdarank_norm: 1]
[label_gain: ]
[eval_at: ]
[multi_error_top_k: 1]
[auc_mu_weights: ]
[num_machines: 1]
[local_listen_port: 12400]
[time_out: 120]
[machine_list_filename: ]
[machines: ]
[gpu_platform_id: -1]
[gpu_device_id: -1]
[gpu_use_dp: 0]
[num_gpu: 1]

end of parameters

pandas_categorical:null
