tree
version=v3
num_class=1
num_tree_per_iteration=1
label_index=0
max_feature_idx=236
objective=regression
feature_names=Column_0 Column_1 Column_2 Column_3 Column_4 Column_5 Column_6 Column_7 Column_8 Column_9 Column_10 Column_11 Column_12 Column_13 Column_14 Column_15 Column_16 Column_17 Column_18 Column_19 Column_20 Column_21 Column_22 Column_23 Column_24 Column_25 Column_26 Column_27 Column_28 Column_29 Column_30 Column_31 Column_32 Column_33 Column_34 Column_35 Column_36 Column_37 Column_38 Column_39 Column_40 Column_41 Column_42 Column_43 Column_44 Column_45 Column_46 Column_47 Column_48 Column_49 Column_50 Column_51 Column_52 Column_53 Column_54 Column_55 Column_56 Column_57 Column_58 Column_59 Column_60 Column_61 Column_62 Column_63 Column_64 Column_65 Column_66 Column_67 Column_68 Column_69 Column_70 Column_71 Column_72 Column_73 Column_74 Column_75 Column_76 Column_77 Column_78 Column_79 Column_80 Column_81 Column_82 Column_83 Column_84 Column_85 Column_86 Column_87 Column_88 Column_89 Column_90 Column_91 Column_92 Column_93 Column_94 Column_95 Column_96 Column_97 Column_98 Column_99 Column_100 Column_101 Column_102 Column_103 Column_104 Column_105 Column_106 Column_107 Column_108 Column_109 Column_110 Column_111 Column_112 Column_113 Column_114 Column_115 Column_116 Column_117 Column_118 Column_119 Column_120 Column_121 Column_122 Column_123 Column_124 Column_125 Column_126 Column_127 Column_128 Column_129 Column_130 Column_131 Column_132 Column_133 Column_134 Column_135 Column_136 Column_137 Column_138 Column_139 Column_140 Column_141 Column_142 Column_143 Column_144 Column_145 Column_146 Column_147 Column_148 Column_149 Column_150 Column_151 Column_152 Column_153 Column_154 Column_155 Column_156 Column_157 Column_158 Column_159 Column_160 Column_161 Column_162 Column_163 Column_164 Column_165 Column_166 Column_167 Column_168 Column_169 Column_170 Column_171 Column_172 Column_173 Column_174 Column_175 Column_176 Column_177 Column_178 Column_179 Column_180 Column_181 Column_182 Column_183 Column_184 Column_185 Column_186 Column_187 Column_188 Column_189 Column_190 Column_191 Column_192 Column_193 Column_194 Column_195 Column_196 Column_197 Column_198 Column_199 Column_200 Column_201 Column_202 Column_203 Column_204 Column_205 Column_206 Column_207 Column_208 Column_209 Column_210 Column_211 Column_212 Column_213 Column_214 Column_215 Column_216 Column_217 Column_218 Column_219 Column_220 Column_221 Column_222 Column_223 Column_224 Column_225 Column_226 Column_227 Column_228 Column_229 Column_230 Column_231 Column_232 Column_233 Column_234 Column_235 Column_236
feature_infos=[4:739] none [0:1] none none none none none none none none none none none none none none none none none none none none none none [0:25] [0:100] [0:2018] none [0:1] none [0:1] [0:1] [0:1] none none none none none none none none none none none none none none none [0:1] [0:1] none none none none none none none none none none none none none none none none none none none none none none [0:1] none [0:1] none [0:1] none none none none none none none none none none none none none [0:1] none none none none none none none none none none none none none none none none none none none none [0:1] none [0:1] [0:1] none none none none none none none none none none none [0:1] [0:1] none [0:1] none none none none none none none none none none none none none none none none none none none none none none none none none none none none none none none none none none none none none none none none none none none none none none none none none none none none none none none none none none none none none none none none [0:1] none [0:1] none none none none none none none none none [0:1] [0:1] [0:1] none none none none [0:1] none [0:1] [0:1] none none none none none none none none none none none none none none none none none none [8.6144111480000003:42.129650480000002]
tree_sizes=747 655 745 736 731 727 738 813 825 739 733 737 829 829 745 826 828 737 830 751 745 822 824 751 826 828 823 823 829 744 746 816 830 743 832 743 828 828 826 745 834 825 836 833 743 745 828 746 744 735 743 733 746 750 742 744 742 746 749 844 745 751 736 757 845 745 751 757 754 750 838 842 742 764 743 752 838 764 747 660

Tree=0
num_leaves=7
num_cat=0
split_feature=236 2 25 209 236 236
split_gain=90.6172 24.7944 18.266 6.52649 3.11439 0.397611
threshold=10.428864865000003 1.0000000180025095e-35 1.7500000000000002 1.0000000180025095e-35 15.566643870000002 21.292526025000004
decision_type=2 2 2 2 2 2
left_child=-1 -2 3 -3 -5 -6
right_child=1 2 -4 4 5 -7
leaf_value=0.047407043153996409 0.014821836265261014 -0.037092024947773021 0.0038069316364349203 -0.028635340306750925 -0.010625914318106887 -0.016639098680173374
leaf_weight=83 79 66 81 51 54 56
leaf_count=83 79 66 81 51 54 56
internal_value=1.2777e-08 -0.0101674 -0.016577 -0.0238505 -0.0184223 -0.0136872
internal_weight=0 387 308 227 161 110
internal_count=470 387 308 227 161 110
is_linear=0
shrinkage=1


Tree=1
num_leaves=6
num_cat=0
split_feature=236 2 25 209 236
split_gain=81.782 22.3769 16.4851 5.89016 2.83743
threshold=10.428864865000003 1.0000000180025095e-35 1.7500000000000002 1.0000000180025095e-35 19.048959165000003
decision_type=2 2 2 2 2
left_child=-1 -2 3 -3 -5
right_child=1 2 -4 4 -6
leaf_value=0.045036678776952881 0.014080731537711772 -0.035237436905277496 0.003616571923096975 -0.025165795221708826 -0.011752759778629178
leaf_weight=83 79 66 81 69 92
leaf_count=83 79 66 81 69 92
internal_value=0 -0.00965903 -0.0157481 -0.022658 -0.0175012
internal_weight=0 387 308 227 161
internal_count=470 387 308 227 161
is_linear=0
shrinkage=0.05


Tree=2
num_leaves=7
num_cat=0
split_feature=236 2 25 209 236 236
split_gain=73.8083 20.1952 14.8778 5.31586 2.59308 0.387479
threshold=10.428864865000003 1.0000000180025095e-35 1.7500000000000002 1.0000000180025095e-35 15.566643870000002 21.292526025000004
decision_type=2 2 2 2 2 2
left_child=-1 -2 3 -3 -5 -6
right_child=1 2 -4 4 5 -7
leaf_value=0.042784845134445346 0.013376695450536814 -0.033475563709031451 0.0034357433517773952 -0.025945296883583071 -0.0092834424986331567 -0.015219518721901946
leaf_weight=83 79 66 81 51 54 56
leaf_count=83 79 66 81 51 54 56
internal_value=0 -0.00917608 -0.0149607 -0.0215251 -0.0166261 -0.0123054
internal_weight=0 387 308 227 161 110
internal_count=470 387 308 227 161 110
is_linear=0
shrinkage=0.05


Tree=3
num_leaves=7
num_cat=0
split_feature=236 2 27 236 27 27
split_gain=66.6119 18.2261 10.6818 8.70405 7.36584 1.10441
threshold=10.428864865000003 1.0000000180025095e-35 2013.5000000000002 14.950350935000001 1980.5000000000002 2004.5000000000002
decision_type=2 2 2 2 2 2
left_child=-1 -2 3 -3 -5 -6
right_child=1 2 -4 4 5 -7
leaf_value=0.040645603858024244 0.012707861240575963 0.00823330348012624 -0.032575058824722732 -0.03099076331034303 -0.0041345678269863132 -0.012986838765856294
leaf_weight=83 79 54 63 50 69 72
leaf_count=83 79 54 63 50 69 72
internal_value=0 -0.00871727 -0.0142127 -0.00949093 -0.014502 -0.00865488
internal_weight=0 387 308 245 191 141
internal_count=470 387 308 245 191 141
is_linear=0
shrinkage=0.05


Tree=4
num_leaves=7
num_cat=0
split_feature=236 2 25 0 236 0
split_gain=60.1173 16.4491 13.2512 5.36122 4.13675 3.78729
threshold=10.428864865000003 1.0000000180025095e-35 1.7500000000000002 453.50000000000006 15.167658070000002 595.50000000000011
decision_type=2 2 2 2 2 2
left_child=-1 -2 3 4 -3 -5
right_child=1 2 -4 5 -6 -7
leaf_value=0.038613323840391206 0.012072467836963981 -0.016452502693031348 0.00385967371640382 -0.00314669090054803 -0.035412382865042398 -0.021751266812869149
leaf_weight=83 79 51 81 59 66 51
leaf_count=83 79 51 81 59 66 51
internal_value=0 -0.00828141 -0.013502 -0.0196972 -0.0271478 -0.0117724
internal_weight=0 387 308 227 117 110
internal_count=470 387 308 227 117 110
is_linear=0
shrinkage=0.05


Tree=5
num_leaves=7
num_cat=0
split_feature=27 0 0 0 25 0
split_gain=40.3786 16.3211 24.3821 6.83009 4.48102 1.13998
threshold=1995.5000000000002 377.50000000000006 217.50000000000003 516.50000000000011 1.2500000000000002 603.00000000000011
decision_type=2 2 2 2 2 2
left_child=1 2 -1 4 -2 -5
right_child=3 -3 -4 5 -6 -7
leaf_value=0.0031802197237179352 -0.030317514930165518 -0.0016523875836084818 0.044554432158015279 -0.00065736386336778341 -0.011044390266761184 -0.01100133970566094
leaf_weight=67 76 94 76 57 50 50
leaf_count=67 76 94 76 57 50 50
internal_value=0 0.0145312 0.0251693 -0.0147806 -0.0226694 -0.005491
internal_weight=0 237 143 233 126 107
internal_count=470 237 143 233 126 107
is_linear=0
shrinkage=0.05


Tree=6
num_leaves=7
num_cat=0
split_feature=236 2 27 236 27 0
split_gain=49.4322 14.4284 9.14144 7.86722 6.61401 1.4392
threshold=10.428864865000003 1.0000000180025095e-35 2013.5000000000002 14.950350935000001 1980.5000000000002 520.50000000000011
decision_type=2 2 2 2 2 2
left_child=-1 -2 3 -3 -5 -6
right_child=1 2 -4 4 5 -7
leaf_value=0.035014047769896958 0.011553260917838698 0.0088198114290005628 -0.029385865988239408 -0.028419590197503571 -0.012639219415458766 -0.0025155428002278015
leaf_weight=83 79 54 63 50 66 75
leaf_count=83 79 54 63 50 66 75
internal_value=0 -0.00750947 -0.0123989 -0.00803087 -0.0127949 -0.00725429
internal_weight=0 387 308 245 191 141
internal_count=470 387 308 245 191 141
is_linear=0
shrinkage=0.05


Tree=7
num_leaves=8
num_cat=0
split_feature=26 0 0 0 2 0 0
split_gain=15.9213 15.0938 14.6545 19.547 11.521 2.01734 5.13207
threshold=12.500000000000002 125.50000000000001 377.50000000000006 228.00000000000003 1.0000000180025095e-35 516.50000000000011 625.00000000000011
decision_type=2 2 2 2 2 2 2
left_child=1 -1 3 -3 -4 -6 -7
right_child=-2 2 4 -5 5 6 -8
leaf_value=-0.02494905206908965 0.024771246742130371 -0.0068973241611120272 0.011958976483137738 0.034457397869517729 -0.021558757710690594 -0.00011308832908980549 -0.021149967863874616
leaf_weight=68 57 53 62 62 51 64 53
leaf_count=68 57 53 62 62 51 64 53
internal_value=0 -0.00341879 0.000824853 0.0153983 -0.00646185 -0.01326 -0.00964261
internal_weight=0 413 345 115 230 168 117
internal_count=470 413 345 115 230 168 117
is_linear=0
shrinkage=0.05


Tree=8
num_leaves=8
num_cat=0
split_feature=236 27 25 0 27 236 31
split_gain=40.6549 13.1569 13.5284 12.2956 4.02513 1.2498 1.14614
threshold=10.428864865000003 2003.5000000000002 1.7500000000000002 419.50000000000006 1965.5000000000002 21.171008910000001 1.0000000180025095e-35
decision_type=2 2 2 2 2 2 2
left_child=-1 2 4 -3 -2 -5 -6
right_child=1 3 -4 5 6 -7 -8
leaf_value=0.031753680379275818 -0.018034490878127665 -0.034823124104785545 0.021239788094382796 -0.0015579719924264483 -0.0059543376821758493 -0.012528422240167855 0.0043543807266709896
leaf_weight=83 51 63 61 54 56 50 52
leaf_count=83 51 63 61 54 56 50 52
internal_value=0 -0.00681022 0.00122206 -0.0173917 -0.0064577 -0.00683223 -0.000990881
internal_weight=0 387 220 167 159 104 108
internal_count=470 387 220 167 159 104 108
is_linear=0
shrinkage=0.05


Tree=9
num_leaves=7
num_cat=0
split_feature=27 27 27 209 75 31
split_gain=30.9641 8.8564 6.67709 4.35464 2.9104 1.03014
threshold=1995.5000000000002 1961.0000000000002 1984.5000000000002 1.0000000180025095e-35 1.0000000180025095e-35 1.0000000180025095e-35
decision_type=2 2 2 2 2 2
left_child=1 -1 5 -2 -5 -3
right_child=3 2 -4 4 -6 -7
leaf_value=-0.001906995883473428 -0.02417185214488575 0.020647312910296024 0.0040717459959434535 -0.001677116371977788 -0.014806052562072064 0.030190047510569137
leaf_weight=72 63 52 51 78 92 62
leaf_count=72 63 52 51 78 92 62
internal_value=0 0.0127249 0.0191097 -0.0129433 -0.00878219 0.0258372
internal_weight=0 237 165 233 170 114
internal_count=470 237 165 233 170 114
is_linear=0
shrinkage=0.05


Tree=10
num_leaves=7
num_cat=0
split_feature=236 2 25 0 27 0
split_gain=35.0891 10.9972 10.4443 4.27227 4.95352 3.1111
threshold=10.428864865000003 1.0000000180025095e-35 1.7500000000000002 453.50000000000006 1999.5000000000002 595.50000000000011
decision_type=2 2 2 2 2 2
left_child=-1 -2 3 4 -3 -5
right_child=1 2 -4 5 -6 -7
leaf_value=0.029500121093658078 0.010315585740373317 -0.013859100017085006 0.0048180153225491074 -0.001203410883071059 -0.034655947074294091 -0.018065534444416272
leaf_weight=83 79 67 81 59 50 51
leaf_count=83 79 67 81 59 50 51
internal_value=0 -0.0063269 -0.0105956 -0.0160956 -0.0227466 -0.0090213
internal_weight=0 387 308 227 117 110
internal_count=470 387 308 227 117 110
is_linear=0
shrinkage=0.05


Tree=11
num_leaves=7
num_cat=0
split_feature=236 2 25 0 236 0
split_gain=31.7213 9.24415 9.44563 3.93924 3.45806 2.80777
threshold=10.757436745000001 1.0000000180025095e-35 1.7500000000000002 453.50000000000006 15.231248135000001 595.50000000000011
decision_type=2 2 2 2 2 2
left_child=-1 -2 3 4 -3 -5
right_child=1 2 -4 5 -6 -7
leaf_value=0.027448146253131158 0.0092184207035013697 -0.01258998609803341 0.0045771143974069461 -0.0011432406760878483 -0.029962918699764814 -0.017162258221822626
leaf_weight=86 78 54 81 59 61 51
leaf_count=86 78 54 81 59 61 51
internal_value=0 -0.00614724 -0.010064 -0.0153348 -0.0218052 -0.00857024
internal_weight=0 384 306 225 115 110
internal_count=470 384 306 225 115 110
is_linear=0
shrinkage=0.05


Tree=12
num_leaves=8
num_cat=0
split_feature=236 27 25 0 27 31 236
split_gain=28.6423 9.98314 10.9438 10.1206 3.43204 0.944737 0.935518
threshold=10.428864865000003 2003.5000000000002 1.7500000000000002 419.50000000000006 1965.5000000000002 1.0000000180025095e-35 21.171008910000001
decision_type=2 2 2 2 2 2 2
left_child=-1 2 4 -3 -2 -6 -5
right_child=1 3 -4 6 5 -7 -8
leaf_value=0.026652708290571193 -0.016316729125922875 -0.030748143050050927 0.019284847296285827 -0.00079023714556738188 -0.00508509798632336 0.0042741633163621796 -0.010281648053554818
leaf_weight=83 51 63 61 54 56 52 50
leaf_count=83 51 63 61 54 56 52 50
internal_value=0 -0.00571621 0.00128052 -0.0149335 -0.00562681 -0.000578787 -0.00535342
internal_weight=0 387 220 167 159 108 104
internal_count=470 387 220 167 159 108 104
is_linear=0
shrinkage=0.05


Tree=13
num_leaves=8
num_cat=0
split_feature=236 27 25 0 2 236 236
split_gain=25.8941 8.53284 9.34141 9.04103 6.52385 5.32567 0.844305
threshold=10.757436745000001 2003.5000000000002 1.7500000000000002 419.50000000000006 1.0000000180025095e-35 21.448302190000003 21.171008910000001
decision_type=2 2 2 2 2 2 2
left_child=-1 2 4 -3 -2 -6 -5
right_child=1 3 -4 6 5 -7 -8
leaf_value=0.024799211539847908 0.0092881599732209004 -0.029208144521520985 0.017745760425071543 -0.00075072514376154655 -0.0019950306010350846 -0.024352696686983109 -0.0097675654804334055
leaf_weight=86 51 62 60 54 57 50 50
leaf_count=86 51 62 60 54 57 50 50
internal_value=0 -0.00555399 0.000949955 -0.0140953 -0.0054282 -0.0124425 -0.00508574
internal_weight=0 384 218 166 158 107 104
internal_count=470 384 218 166 158 107 104
is_linear=0
shrinkage=0.05


Tree=14
num_leaves=7
num_cat=0
split_feature=27 27 27 209 75 31
split_gain=21.9793 6.42777 5.11263 4.0785 2.29047 0.918296
threshold=1995.5000000000002 1961.0000000000002 1984.5000000000002 1.0000000180025095e-35 1.0000000180025095e-35 1.0000000180025095e-35
decision_type=2 2 2 2 2 2
left_child=1 -1 5 -2 -5 -3
right_child=3 2 -4 4 -6 -7
leaf_value=-0.0017443520168954922 -0.021771637687740465 0.017147081396811141 0.0030014767156292996 -0.00057480388249342255 -0.012221851535445161 0.026156903472879241
leaf_weight=72 63 52 51 78 92 62
leaf_count=72 63 52 51 78 92 62
internal_value=0 0.0107209 0.0161603 -0.010905 -0.00687791 0.0220472
internal_weight=0 237 165 233 170 114
internal_count=470 237 165 233 170 114
is_linear=0
shrinkage=0.05


Tree=15
num_leaves=8
num_cat=0
split_feature=236 27 236 0 2 27 236
split_gain=22.7045 10.6072 9.77455 8.6168 7.82886 5.49539 0.712534
threshold=9.2624812775000027 2003.5000000000002 15.167658070000002 419.50000000000006 1.0000000180025095e-35 1980.5000000000002 21.171008910000001
decision_type=2 2 2 2 2 2 2
left_child=-1 2 -2 -3 -4 -6 -5
right_child=1 3 4 6 5 -7 -8
leaf_value=0.030825263374256642 0.019579914829228075 -0.027088077657896545 0.010534121104600756 -0.00031670765882288975 -0.023524586737155916 -0.0014014417181897445 -0.0086000854298472398
leaf_weight=53 64 69 66 54 50 64 50
leaf_count=53 64 69 66 54 50 64 50
internal_value=0 -0.00391784 0.00279691 -0.0133883 -0.00317039 -0.0111046 -0.0042991
internal_weight=0 417 244 173 180 114 104
internal_count=470 417 244 173 180 114 104
is_linear=0
shrinkage=0.05


Tree=16
num_leaves=8
num_cat=0
split_feature=236 27 236 2 27 236 236
split_gain=20.4908 9.57295 8.82154 7.06555 4.95959 4.65418 1.15085
threshold=9.2624812775000027 2003.5000000000002 15.167658070000002 1.0000000180025095e-35 1980.5000000000002 18.458514390000001 21.171008910000001
decision_type=2 2 2 2 2 2 2
left_child=-1 2 -2 -4 -5 -3 -7
right_child=1 5 3 4 -6 6 -8
leaf_value=0.029283999426747271 0.018600919012169471 -0.023034281784029151 0.010007414513860238 -0.022348357923328878 -0.0013313694995304105 -0.00078852614205257565 -0.011215690259229054
leaf_weight=53 64 67 66 50 64 51 55
leaf_count=53 64 67 66 50 64 51 55
internal_value=0 -0.00372195 0.00265706 -0.00301187 -0.0105493 -0.0127189 -0.00619885
internal_weight=0 417 244 180 114 173 106
internal_count=470 417 244 180 114 173 106
is_linear=0
shrinkage=0.05


Tree=17
num_leaves=7
num_cat=0
split_feature=236 2 25 0 27 0
split_gain=18.5904 5.96741 6.1963 3.5025 3.35153 2.20334
threshold=11.915349075000002 1.0000000180025095e-35 1.7500000000000002 447.50000000000006 1995.5000000000002 578.50000000000011
decision_type=2 2 2 2 2 2
left_child=-1 -2 3 4 -3 -5
right_child=1 2 -4 5 -6 -7
leaf_value=0.019756904260108347 0.0073026512665912901 -0.0096670329682528987 0.0038639067782638356 0.0002562183065939758 -0.027477109871272533 -0.013721195497998485
leaf_weight=95 78 50 78 59 56 54
leaf_count=95 78 50 78 59 56 54
internal_value=0 -0.00500508 -0.00823742 -0.0125475 -0.0190761 -0.00642325
internal_weight=0 375 297 219 106 113
internal_count=470 375 297 219 106 113
is_linear=0
shrinkage=0.05


Tree=18
num_leaves=8
num_cat=0
split_feature=236 27 236 0 2 27 236
split_gain=17.2029 8.25799 7.73212 7.06278 5.93753 4.48302 0.545824
threshold=9.2624812775000027 2003.5000000000002 15.167658070000002 419.50000000000006 1.0000000180025095e-35 1980.5000000000002 21.171008910000001
decision_type=2 2 2 2 2 2 2
left_child=-1 2 -2 -3 -4 -6 -5
right_child=1 3 4 6 5 -7 -8
leaf_value=0.026831954886328502 0.017441349644650474 -0.024169540070537208 0.0091419114516060242 -5.2102689665776714e-05 -0.020920395672321321 -0.00093867551768198618 -0.0073019860461354252
leaf_weight=53 64 69 66 54 50 64 50
leaf_count=53 64 69 66 54 50 64 50
internal_value=0 -0.0034103 0.00251442 -0.0117665 -0.00279294 -0.00970259 -0.00353762
internal_weight=0 417 244 173 180 114 104
internal_count=470 417 244 173 180 114 104
is_linear=0
shrinkage=0.05


Tree=19
num_leaves=7
num_cat=0
split_feature=236 208 2 236 25 236
split_gain=15.5256 6.65185 6.63322 7.22336 1.75701 0.550365
threshold=9.2624812775000027 1.0000000180025095e-35 1.0000000180025095e-35 14.950350935000001 1.2500000000000002 22.497602635000003
decision_type=2 2 2 2 2 2
left_child=-1 2 -2 -4 5 -5
right_child=1 -3 3 4 -6 -7
leaf_value=0.025490356567052175 0.012510249450507044 -0.019970633933105723 0.0080083456591648217 -0.0098184736012810418 -0.0014697615189020927 -0.016093658379934452
leaf_weight=53 74 52 85 99 53 54
leaf_count=53 74 52 85 99 53 54
internal_value=0 -0.00323978 -0.000856208 -0.00425524 -0.00931546 -0.0120332
internal_weight=0 417 365 291 206 153
internal_count=470 417 365 291 206 153
is_linear=0
shrinkage=0.05


Tree=20
num_leaves=7
num_cat=0
split_feature=27 236 2 209 236 27
split_gain=14.3382 15.6461 5.73725 3.73177 1.83655 0.26273
threshold=1995.5000000000002 15.365687895000002 1.0000000180025095e-35 1.0000000180025095e-35 18.615384775000006 1974.5000000000002
decision_type=2 2 2 2 2 2
left_child=1 5 -3 -2 -5 -1
right_child=3 2 -4 4 -6 -7
leaf_value=0.025912182770669465 -0.019202230112361059 0.0092388202938058512 -0.011642293214773466 -0.010946256784747727 -0.00044725241197138721 0.020859515823353575
leaf_weight=50 63 58 76 73 97 53
leaf_count=50 63 58 76 73 97 53
internal_value=0 0.00865907 -0.0026042 -0.00880773 -0.00495565 0.0233123
internal_weight=0 237 134 233 170 103
internal_count=470 237 134 233 170 103
is_linear=0
shrinkage=0.05


Tree=21
num_leaves=8
num_cat=0
split_feature=0 0 0 31 209 0 0
split_gain=7.09422 7.96166 5.17185 4.04803 4.04756 1.60075 0.0007538
threshold=120.50000000000001 377.50000000000006 279.00000000000006 1.0000000180025095e-35 1.0000000180025095e-35 568.50000000000011 191.00000000000003
decision_type=2 2 2 2 2 2 2
left_child=-1 2 6 4 -3 -6 -2
right_child=1 3 -4 -5 5 -7 -8
leaf_value=-0.0142103582238338 0.0042222225029642383 -0.017934711932515106 0.02275439949395756 0.0069113044451703052 -0.0077709316276013858 0.0046961026521874409 0.0044902694320269661
leaf_weight=74 54 60 60 68 52 51 51
leaf_count=74 54 60 60 68 52 51 51
internal_value=0 0.00265547 0.011044 -0.00333637 -0.00761147 -0.00159793 0.00435242
internal_weight=0 396 165 231 163 103 105
internal_count=470 396 165 231 163 103 105
is_linear=0
shrinkage=0.05


Tree=22
num_leaves=8
num_cat=0
split_feature=27 236 2 0 236 0 27
split_gain=12.6501 13.1753 5.23682 4.6763 3.27078 0.376152 0.205823
threshold=1995.5000000000002 15.365687895000002 1.0000000180025095e-35 516.50000000000011 14.693667950000002 603.00000000000011 1974.5000000000002
decision_type=2 2 2 2 2 2 2
left_child=1 6 -3 4 -2 -5 -1
right_child=3 2 -4 5 -6 -7 -8
leaf_value=0.023881091987714171 -0.0067447398493569056 0.0091123634106319018 -0.01083728760039728 0.0021901828874098628 -0.022856392164433761 -0.0037516580615192655 0.019408980445532166
leaf_weight=50 63 58 76 57 63 50 53
leaf_count=50 63 58 76 57 63 50 53
internal_value=0 0.00813339 -0.00220236 -0.00827302 -0.0148006 -0.000586378 0.0215799
internal_weight=0 237 134 233 126 107 103
internal_count=470 237 134 233 126 107 103
is_linear=0
shrinkage=0.05


Tree=23
num_leaves=7
num_cat=0
split_feature=236 208 2 236 0 75
split_gain=10.8614 5.52174 5.41465 5.43871 2.2258 0.769352
threshold=9.2624812775000027 1.0000000180025095e-35 1.0000000180025095e-35 14.950350935000001 453.50000000000006 1.0000000180025095e-35
decision_type=2 2 2 2 2 2
left_child=-1 2 -2 -4 -5 -6
right_child=1 -3 3 4 5 -7
leaf_value=0.021320348554993717 0.01153835064379146 -0.01795328202782772 0.0070322281511171775 -0.013958981982432306 0.00098847847713052096 -0.0071566426428034905
leaf_weight=53 74 52 85 89 53 64
leaf_count=53 74 52 85 89 53 64
internal_value=0 -0.00270978 -0.000538104 -0.00360909 -0.00799993 -0.00346697
internal_weight=0 417 365 291 206 117
internal_count=470 417 365 291 206 117
is_linear=0
shrinkage=0.05


Tree=24
num_leaves=8
num_cat=0
split_feature=27 25 209 27 27 27 27
split_gain=11.0135 5.42173 2.97699 2.15036 1.1942 0.989205 0.298198
threshold=1995.5000000000002 1.2500000000000002 1.0000000180025095e-35 1961.0000000000002 1978.5000000000002 2012.5000000000002 2006.5000000000002
decision_type=2 2 2 2 2 2 2
left_child=1 3 -2 -1 -5 6 -4
right_child=2 -3 5 4 -6 -7 -8
leaf_value=-0.0050763331141257494 -0.017003351224712023 0.019635313908472216 -0.003923371921160392 0.011497191961614354 0.0011680073488284559 -0.010187544189393521 0.0011323007754981517
leaf_weight=57 63 67 70 62 51 50 50
leaf_count=57 63 67 70 62 51 50 50
internal_value=0 0.00758907 -0.00771935 0.00284143 0.00683535 -0.00427881 -0.00181684
internal_weight=0 237 233 170 113 170 120
internal_count=470 237 233 170 113 170 120
is_linear=0
shrinkage=0.05


Tree=25
num_leaves=8
num_cat=0
split_feature=27 236 2 236 236 236 27
split_gain=9.93973 10.9565 4.17355 3.18525 1.50137 1.17701 0.170427
threshold=1995.5000000000002 15.365687895000002 1.0000000180025095e-35 18.901970120000005 21.756209710000004 12.339584265000001 1974.5000000000002
decision_type=2 2 2 2 2 2 2
left_child=1 6 -3 5 -5 -2 -1
right_child=3 2 -4 4 -6 -7 -8
leaf_value=0.021565742239356044 -0.0077020830474793913 0.0078852064056514678 -0.0099243954865654051 0.0031260870882998345 -0.0081246347668079231 -0.018012802309878621 0.01749629934052311
leaf_weight=50 50 58 76 69 52 62 53
leaf_count=50 50 58 76 69 52 62 53
internal_value=0 0.00720962 -0.00221576 -0.00733339 -0.00170893 -0.0134098 0.0194718
internal_weight=0 237 134 233 121 112 103
internal_count=470 237 134 233 121 112 103
is_linear=0
shrinkage=0.05


Tree=26
num_leaves=8
num_cat=0
split_feature=27 236 0 27 236 27 236
split_gain=9.13547 9.21664 5.28224 1.98911 0.99704 0.561436 0.391376
threshold=2003.5000000000002 15.167658070000002 419.50000000000006 1966.5000000000002 21.795395740000004 1974.5000000000002 21.171008910000001
decision_type=2 2 2 2 2 2 2
left_child=1 5 -2 -3 -5 -1 -4
right_child=2 3 6 4 -6 -7 -8
leaf_value=0.020487455207854513 -0.019420100127657255 -0.009473122588159251 0.0011492022209697299 -0.0018049995729548707 0.0073347904179245239 0.013416185150344973 -0.0049898603782057771
leaf_weight=50 72 56 54 74 50 64 50
leaf_count=50 72 56 54 74 50 64 50
internal_value=0 0.00539348 -0.00900956 -0.00165181 0.0018804 0.0165176 -0.00180227
internal_weight=0 294 176 180 124 114 104
internal_count=470 294 176 180 124 114 104
is_linear=0
shrinkage=0.05


Tree=27
num_leaves=8
num_cat=0
split_feature=27 236 0 209 27 0 0
split_gain=8.4734 10.1972 4.24477 3.99527 2.02182 1.19896 0.0548771
threshold=1984.5000000000002 21.448302190000003 128.50000000000003 1.0000000180025095e-35 2004.5000000000002 535.50000000000011 285.50000000000006
decision_type=2 2 2 2 2 2 2
left_child=1 6 -2 -4 -5 -6 -1
right_child=2 -3 3 4 5 -7 -8
leaf_value=0.017542630779700211 -0.018498743672435189 -0.0048888242587719751 -0.013099227724238658 0.0094690290960931667 -0.0078748421456951365 0.0024201769562017536 0.019839725460713872
leaf_weight=52 51 82 65 54 52 62 52
leaf_count=52 51 82 65 54 52 62 52
internal_value=0 0.00829569 -0.00543309 -0.00257323 0.00149933 -0.0022758 0.0186912
internal_weight=0 186 284 233 168 114 104
internal_count=470 186 284 233 168 114 104
is_linear=0
shrinkage=0.05


Tree=28
num_leaves=8
num_cat=0
split_feature=27 236 0 27 114 27 236
split_gain=7.71275 7.51239 4.50243 1.80982 0.980784 0.442101 0.347405
threshold=2003.5000000000002 15.167658070000002 419.50000000000006 1966.5000000000002 1.0000000180025095e-35 1974.5000000000002 21.171008910000001
decision_type=2 2 2 2 2 2 2
left_child=1 5 -2 -3 -5 -1 -4
right_child=2 3 6 4 -6 -7 -8
leaf_value=0.018521632151678204 -0.017889754287898543 -0.008865420453782592 0.0011564564580718677 0.0064111329585073464 -0.0024824308997560898 0.012246713646163698 -0.0046274707168340685
leaf_weight=50 72 56 54 62 62 64 50
leaf_count=50 72 56 54 62 62 64 50
internal_value=0 0.00495574 -0.00827834 -0.00140491 0.00196435 0.0149989 -0.00162428
internal_weight=0 294 176 180 124 114 104
internal_count=470 294 176 180 124 114 104
is_linear=0
shrinkage=0.05


Tree=29
num_leaves=7
num_cat=0
split_feature=27 236 0 209 75 0
split_gain=7.13654 8.56993 3.74712 3.63002 2.79963 0.0493976
threshold=1984.5000000000002 21.448302190000003 128.50000000000003 1.0000000180025095e-35 1.0000000180025095e-35 285.50000000000006
decision_type=2 2 2 2 2 2
left_child=1 5 -2 -4 -5 -1
right_child=2 -3 3 4 -6 -7
leaf_value=0.016053500059598054 -0.017261984826558652 -0.0044736071444320975 -0.012332440184142729 0.009127169381827116 -0.0039393405410816373 0.018232896716262288
leaf_weight=52 51 82 65 71 97 52
leaf_count=52 51 82 65 71 97 52
internal_value=0 0.00761321 -0.00498612 -0.00229912 0.00158282 0.0171432
internal_weight=0 186 284 233 168 104
internal_count=470 186 284 233 168 104
is_linear=0
shrinkage=0.05


Tree=30
num_leaves=7
num_cat=0
split_feature=27 236 0 209 209 27
split_gain=6.64546 6.14992 3.94791 1.89769 0.469529 0.347235
threshold=2003.5000000000002 15.231248135000001 419.50000000000006 1.0000000180025095e-35 1.0000000180025095e-35 2009.5000000000002
decision_type=2 2 2 2 2 2
left_child=1 4 -2 -3 -1 -4
right_child=2 3 5 -5 -6 -7
leaf_value=0.016635135247893 -0.016684355695421496 -0.0058223483804613358 -0.0042874752209996281 0.0046206111853410092 0.010300025537385252 0.0014918253702275895
leaf_weight=59 72 100 53 77 58 51
leaf_count=59 72 100 53 77 58 51
internal_value=0 0.00460009 -0.00768424 -0.00127937 0.0134947 -0.0014534
internal_weight=0 294 176 177 117 104
internal_count=470 294 176 177 117 104
is_linear=0
shrinkage=0.05


Tree=31
num_leaves=8
num_cat=0
split_feature=26 0 0 31 0 0 0
split_gain=4.78697 4.83019 3.25097 2.15415 2.22169 1.88996 1.85588
threshold=12.500000000000002 125.50000000000001 645.50000000000011 1.0000000180025095e-35 377.50000000000006 520.50000000000011 367.00000000000006
decision_type=2 2 2 2 2 2 2
left_child=1 -1 3 4 -3 -6 -5
right_child=-2 2 -4 6 5 -7 -8
leaf_value=-0.014054202239768691 0.01358279128509917 0.0078986932342769052 -0.010052262355263035 0.0019451594246643726 -0.01130442468280142 0.0012453415713301211 0.014825961217974071
leaf_weight=68 57 52 60 58 55 66 54
leaf_count=68 57 52 60 58 55 66 54
internal_value=0 -0.00187462 0.00052599 0.00275299 -0.000744617 -0.0044591 0.00815555
internal_weight=0 413 345 285 173 121 112
internal_count=470 413 345 285 173 121 112
is_linear=0
shrinkage=0.05


Tree=32
num_leaves=8
num_cat=0
split_feature=27 236 0 31 236 236 27
split_gain=6.00831 6.03856 2.87937 1.93008 1.85344 0.279071 0.0395887
threshold=1995.5000000000002 15.365687895000002 520.50000000000011 1.0000000180025095e-35 14.693667950000002 21.292526025000004 1974.5000000000002
decision_type=2 2 2 2 2 2 2
left_child=1 6 4 -3 -2 -4 -1
right_child=2 3 5 -5 -6 -7 -8
leaf_value=0.015717808132525535 -0.0045579501892447413 -0.0075745724757703458 0.0030295745662923131 0.0044322689995169645 -0.016547764318458964 -0.0021515119820833205 0.013756475670544326
leaf_weight=50 63 65 53 69 66 51 53
leaf_count=50 63 65 53 69 66 51 53
internal_value=0 0.00560533 -0.00570156 -0.00139195 -0.0106923 0.000488849 0.0147086
internal_weight=0 237 233 134 129 104 103
internal_count=470 237 233 134 129 104 103
is_linear=0
shrinkage=0.05


Tree=33
num_leaves=7
num_cat=0
split_feature=236 25 75 0 0 217
split_gain=5.00093 4.18291 3.56353 2.70773 2.4045 2.2175
threshold=9.2624812775000027 1.7500000000000002 1.0000000180025095e-35 202.50000000000003 645.50000000000011 1.0000000180025095e-35
decision_type=2 2 2 2 2 2
left_child=-1 3 -3 -2 5 -5
right_child=1 2 -4 4 -6 -7
leaf_value=0.014466935744122514 -0.012674103365335837 0.013708417234879767 -0.0037355340694865354 0.0057387941165289551 -0.011523913993847137 -0.006088905108731185
leaf_weight=53 83 67 52 97 51 67
leaf_count=53 83 67 52 97 51 67
internal_value=0 -0.00183872 0.00608585 -0.00500323 -0.00204192 0.000906746
internal_weight=0 417 119 298 215 164
internal_count=470 417 119 298 215 164
is_linear=0
shrinkage=0.05


Tree=34
num_leaves=8
num_cat=0
split_feature=27 236 0 2 27 209 27
split_gain=5.24356 4.43705 3.50359 2.87379 3.47469 0.36818 0.310368
threshold=2003.5000000000002 15.231248135000001 419.50000000000006 1.0000000180025095e-35 1980.5000000000002 1.0000000180025095e-35 2009.5000000000002
decision_type=2 2 2 2 2 2 2
left_child=1 5 -2 -3 -5 -1 -4
right_child=2 3 6 4 -6 -7 -8
leaf_value=0.014422185678761138 -0.015304306227092944 0.0074551783738514557 -0.0036354234898990055 -0.015568236351013185 0.0021473870011827641 0.0088123090769935027 0.0018284673419068842
leaf_weight=59 72 65 53 50 62 58 51
leaf_count=59 72 65 53 50 62 58 51
internal_value=0 0.00408618 -0.00682577 -0.000907837 -0.00576137 0.0116412 -0.000956015
internal_weight=0 294 176 177 112 117 104
internal_count=470 294 176 177 112 117 104
is_linear=0
shrinkage=0.05


Tree=35
num_leaves=7
num_cat=0
split_feature=27 236 209 25 236 236
split_gain=4.87104 5.68627 2.02003 1.78329 3.41976 0.0526371
threshold=1984.5000000000002 21.448302190000003 1.0000000180025095e-35 1.7500000000000002 19.048959165000003 9.9699322790000018
decision_type=2 2 2 2 2 2
left_child=1 5 -2 4 -4 -1
right_child=2 -3 3 -5 -6 -7
leaf_value=0.012883560102432967 -0.010412621852215538 -0.0035557205675215255 -0.013681337361802057 0.005717676487420836 0.0024399484066586746 0.015134950943455031
leaf_weight=50 88 82 58 62 76 54
leaf_count=50 88 82 58 62 76 54
internal_value=0 0.00628976 -0.00411935 -0.0012938 -0.00453792 0.0140526
internal_weight=0 186 284 196 134 104
internal_count=470 186 284 196 134 104
is_linear=0
shrinkage=0.05


Tree=36
num_leaves=8
num_cat=0
split_feature=27 236 0 2 27 27 236
split_gain=4.49129 3.64518 3.00032 2.59938 3.12973 0.294216 0.253508
threshold=2003.5000000000002 15.231248135000001 419.50000000000006 1.0000000180025095e-35 1980.5000000000002 2009.5000000000002 9.2624812775000027
decision_type=2 2 2 2 2 2 2
left_child=1 6 -2 -3 -5 -4 -1
right_child=2 3 5 4 -6 -7 -8
leaf_value=0.013323673598468304 -0.014163185365032405 0.007208951352020869 -0.0034941099794968122 -0.014668110251426697 0.0021451337766202707 0.0018257100938581954 0.0086189211830983298
leaf_weight=50 72 65 53 50 62 51 67
leaf_count=50 72 65 53 50 62 51 67
internal_value=0 0.00378172 -0.00631719 -0.000744776 -0.00536078 -0.000885352 0.0106295
internal_weight=0 294 176 177 112 104 117
internal_count=470 294 176 177 112 104 117
is_linear=0
shrinkage=0.05


Tree=37
num_leaves=8
num_cat=0
split_feature=27 236 0 114 25 0 236
split_gain=4.19645 4.69833 2.58374 1.81434 1.41729 1.36027 0.0639152
threshold=1984.5000000000002 21.448302190000003 128.50000000000003 1.0000000180025095e-35 1.2500000000000002 541.50000000000011 9.9699322790000018
decision_type=2 2 2 2 2 2 2
left_child=1 6 -2 -4 5 -5 -1
right_child=2 -3 3 4 -6 -7 -8
leaf_value=0.011606131680309772 -0.014017099757021404 -0.0031114173859993861 -0.0087620311252976542 -0.0074780107853163417 0.0074572774421038301 0.0036033064126968386 0.014087018941494604
leaf_weight=50 51 82 64 58 58 53 54
leaf_count=50 51 82 64 58 58 53 54
internal_value=0 0.00583801 -0.00382348 -0.00159226 0.00112292 -0.00218693 0.0128943
internal_weight=0 186 284 233 169 111 104
internal_count=470 186 284 233 169 111 104
is_linear=0
shrinkage=0.05


Tree=38
num_leaves=8
num_cat=0
split_feature=27 25 236 0 2 27 27
split_gain=3.90931 4.01454 2.98354 2.60447 2.29753 2.86838 0.246048
threshold=2003.5000000000002 1.2500000000000002 10.428864865000003 419.50000000000006 1.0000000180025095e-35 1983.5000000000002 2009.5000000000002
decision_type=2 2 2 2 2 2 2
left_child=1 2 -1 -2 -4 -6 -5
right_child=3 -3 4 6 5 -7 -8
leaf_value=0.010355954781612929 -0.013203818177215807 0.012766340557884956 0.0052040354074800723 -0.0032185266602714107 -0.01597339596669629 0.00032636350661050532 0.0016463666716042685
leaf_weight=51 72 84 51 53 53 55 51
leaf_count=51 72 84 51 53 53 55 51
internal_value=0 0.0035282 -0.00016705 -0.00589371 -0.00354235 -0.00767259 -0.000832858
internal_weight=0 294 210 176 159 108 104
internal_count=470 294 210 176 159 108 104
is_linear=0
shrinkage=0.05


Tree=39
num_leaves=7
num_cat=0
split_feature=26 0 0 207 75 236
split_gain=3.26311 3.16194 2.42785 1.54084 1.93193 0.932843
threshold=12.500000000000002 125.50000000000001 645.50000000000011 1.0000000180025095e-35 1.0000000180025095e-35 11.915349075000002
decision_type=2 2 2 2 2 2
left_child=1 -1 3 4 -3 -6
right_child=-2 2 -4 -5 5 -7
leaf_value=-0.011402071921688997 0.011214368616684194 0.011641949025484231 -0.0087469632690772414 -0.0040042987352030147 0.0068582244645804162 -0.001534578804762996
leaf_weight=68 57 65 60 72 50 98
leaf_count=68 57 65 60 72 50 98
internal_value=0 -0.00154775 0.000394556 0.00231909 0.00445657 0.00130083
internal_weight=0 413 345 285 213 148
internal_count=470 413 345 285 213 148
is_linear=0
shrinkage=0.05


Tree=40
num_leaves=8
num_cat=0
split_feature=27 25 236 0 236 75 236
split_gain=3.62255 3.74165 2.70302 1.95129 1.40354 0.452509 0.219156
threshold=1995.5000000000002 1.2500000000000002 15.365687895000002 520.50000000000011 14.693667950000002 1.0000000180025095e-35 21.292526025000004
decision_type=2 2 2 2 2 2 2
left_child=1 2 -1 4 -2 -4 -5
right_child=3 -3 5 6 -6 -7 -8
leaf_value=0.0079440572671592245 -0.0031974433588662318 0.014359678861115183 -0.0015031253639608622 0.0029203918112336467 -0.013631048833838467 -0.0082300053909420967 -0.0016709526087723527
leaf_weight=70 63 67 50 53 66 50 51
leaf_count=70 63 67 50 53 66 50 51
internal_value=0 0.00435243 0.000408397 -0.00442715 -0.00853557 -0.00486657 0.000668867
internal_weight=0 237 170 233 129 100 104
internal_count=470 237 170 233 129 100 104
is_linear=0
shrinkage=0.05


Tree=41
num_leaves=8
num_cat=0
split_feature=27 27 0 114 25 0 75
split_gain=3.35775 2.77896 2.0496 1.53551 1.19401 1.18065 0.395387
threshold=1984.5000000000002 1964.5000000000002 128.50000000000003 1.0000000180025095e-35 1.2500000000000002 541.50000000000011 1.0000000180025095e-35
decision_type=2 2 2 2 2 2 2
left_child=1 -1 -2 -4 5 -5 -3
right_child=2 6 3 4 -6 -7 -8
leaf_value=-0.001812843363150023 -0.01249913952915984 0.013763299267739058 -0.0080287409355150885 -0.0069023974504771428 0.0068789965954834014 0.0034214297766393086 0.0076460635954780243
leaf_weight=80 51 50 64 58 58 53 56
leaf_count=80 51 50 64 58 58 53 56
internal_value=0 0.00522213 -0.00342013 -0.00143288 0.00106496 -0.001973 0.0105316
internal_weight=0 186 284 233 169 111 106
internal_count=470 186 284 233 169 111 106
is_linear=0
shrinkage=0.05


Tree=42
num_leaves=8
num_cat=0
split_feature=27 217 0 195 2 27 27
split_gain=3.17611 2.24399 2.15649 1.58181 1.47073 2.60523 0.204017
threshold=2003.5000000000002 1.0000000180025095e-35 419.50000000000006 1.0000000180025095e-35 1.0000000180025095e-35 1979.5000000000002 2009.5000000000002
decision_type=2 2 2 2 2 2 2
left_child=1 3 -2 4 -1 -6 -4
right_child=2 -3 6 -5 5 -7 -8
leaf_value=0.0087854859509295027 -0.011964127324042945 -0.006028889861233809 -0.0028796368401567893 0.011578037910595803 -0.0083594285766594115 0.0071826584675223938 0.001550292220039695
leaf_weight=62 72 54 53 70 56 52 51
leaf_count=62 72 54 53 70 56 52 51
internal_value=0 0.00318018 -0.00531235 0.00525222 0.00264747 -0.000876201 -0.000707268
internal_weight=0 294 176 240 170 108 104
internal_count=470 294 176 240 170 108 104
is_linear=0
shrinkage=0.05


Tree=43
num_leaves=8
num_cat=0
split_feature=27 236 0 2 27 209 27
split_gain=2.86644 2.14762 1.94623 1.88028 2.55806 0.278598 0.184125
threshold=2003.5000000000002 15.231248135000001 419.50000000000006 1.0000000180025095e-35 1980.5000000000002 1.0000000180025095e-35 2009.5000000000002
decision_type=2 2 2 2 2 2 2
left_child=1 5 -2 -3 -5 -1 -4
right_child=2 3 6 4 -6 -7 -8
leaf_value=0.010696435546092058 -0.011365921087821739 0.0063114287876165831 -0.0027356550238042507 -0.012793635293841364 0.0024066989753215064 0.0058165206951249779 0.0014727779353658358
leaf_weight=59 72 65 53 50 62 58 51
leaf_count=59 72 65 53 50 62 58 51
internal_value=0 0.00302117 -0.00504673 -0.00045324 -0.00437916 0.00827733 -0.000671904
internal_weight=0 294 176 177 112 117 104
internal_count=470 294 176 177 112 117 104
is_linear=0
shrinkage=0.05


Tree=44
num_leaves=7
num_cat=0
split_feature=27 236 236 25 236 236
split_gain=2.74884 3.06481 1.10932 3.54105 0.98557 0.114978
threshold=1984.5000000000002 21.448302190000003 18.615384775000006 1.7500000000000002 21.900353990000003 9.9699322790000018
decision_type=2 2 2 2 2 2
left_child=1 5 3 -2 -4 -1
right_child=2 -3 4 -5 -6 -7
leaf_value=0.0086963386312127119 -0.013150337615952596 -0.0025031533864576642 0.0035328600028282906 0.0029183230642229321 -0.0048384041471986987 0.012023787898942829
leaf_weight=50 80 82 83 60 61 54
leaf_count=50 80 82 83 60 61 54
internal_value=0 0.00472496 -0.00309452 -0.00626377 -1.33005e-05 0.0104241
internal_weight=0 186 284 140 144 104
internal_count=470 186 284 140 144 104
is_linear=0
shrinkage=0.05


Tree=45
num_leaves=7
num_cat=0
split_feature=26 27 216 27 0 27
split_gain=2.53402 2.71898 2.95945 1.97285 1.4866 0.0831461
threshold=12.500000000000002 1984.5000000000002 1.0000000180025095e-35 1965.5000000000002 520.50000000000011 2007.5000000000002
decision_type=2 2 2 2 2 2
left_child=1 3 4 -1 -3 -6
right_child=-2 2 -4 -5 5 -7
leaf_value=-0.0018742551475211427 0.0098824288871694824 -0.0065937010443431658 -0.015385749066869417 0.0091274954605756742 0.00071925554255192941 0.0034943877209751111
leaf_weight=81 57 91 51 82 55 53
leaf_count=81 57 91 51 82 55 53
internal_value=0 -0.00136392 -0.00463975 0.00366037 -0.00188575 0.00208113
internal_weight=0 413 250 163 199 108
internal_count=470 413 250 163 199 108
is_linear=0
shrinkage=0.05


Tree=46
num_leaves=8
num_cat=0
split_feature=27 25 236 2 27 0 27
split_gain=2.31263 2.94886 1.75643 1.7459 2.64764 1.55071 0.168419
threshold=2003.5000000000002 1.2500000000000002 10.428864865000003 1.0000000180025095e-35 1983.5000000000002 419.50000000000006 2009.5000000000002
decision_type=2 2 2 2 2 2 2
left_child=1 2 -1 -4 -5 -2 -7
right_child=5 -3 3 4 -6 6 -8
leaf_value=0.0076206442406948878 -0.010173711592506152 0.010631265062727921 0.0045812844335302418 -0.014618578243930386 0.0010414232110435313 -0.0026017575753184987 0.0014231782370046075
leaf_weight=51 72 84 51 53 55 53 51
leaf_count=51 72 84 51 53 55 53 51
internal_value=0 0.00271367 -0.000453371 -0.00304315 -0.00664358 -0.00453306 -0.000627991
internal_weight=0 294 210 159 108 176 104
internal_count=470 294 210 159 108 176 104
is_linear=0
shrinkage=0.05


Tree=47
num_leaves=7
num_cat=0
split_feature=26 27 216 236 0 27
split_gain=2.20872 2.40065 2.65194 2.18634 1.29865 0.0724805
threshold=12.500000000000002 1984.5000000000002 1.0000000180025095e-35 21.448302190000003 520.50000000000011 2007.5000000000002
decision_type=2 2 2 2 2 2
left_child=1 3 4 -1 -3 -6
right_child=-2 2 -4 -5 5 -7
leaf_value=0.0092740302215571762 0.0092263350892289164 -0.0061447594578347203 -0.014523868167809413 -0.002307683539508683 0.00069164833731272008 0.0032826833760822719
leaf_weight=81 57 91 51 82 55 53
leaf_count=81 57 91 51 82 55 53
internal_value=0 -0.00127337 -0.00435147 0.00344765 -0.00174447 0.00196317
internal_weight=0 413 250 163 199 108
internal_count=470 413 250 163 199 108
is_linear=0
shrinkage=0.05


Tree=48
num_leaves=7
num_cat=0
split_feature=26 27 216 27 0 27
split_gain=1.99337 2.16658 2.39338 1.66602 1.17203 0.0654137
threshold=12.500000000000002 1984.5000000000002 1.0000000180025095e-35 1965.5000000000002 520.50000000000011 2007.5000000000002
decision_type=2 2 2 2 2 2
left_child=1 3 4 -1 -3 -6
right_child=-2 2 -4 -5 5 -7
leaf_value=-0.0018107939109114218 0.0087650185924742306 -0.0058375214255967558 -0.013797674881403939 0.0082992977758006344 0.00065706586803902279 0.0031185492486605106
leaf_weight=81 57 91 51 82 55 53
leaf_count=81 57 91 51 82 55 53
internal_value=0 -0.0012097 -0.0041339 0.00327526 -0.00165725 0.00186502
internal_weight=0 413 250 163 199 108
internal_count=470 413 250 163 199 108
is_linear=0
shrinkage=0.05


Tree=49
num_leaves=7
num_cat=0
split_feature=0 27 27 27 0 236
split_gain=1.89027 2.94396 2.72864 1.41434 1.22391 1.06276
threshold=645.50000000000011 1995.5000000000002 1961.0000000000002 1978.5000000000002 520.50000000000011 14.693667950000002
decision_type=2 2 2 2 2 2
left_child=1 2 -1 -4 5 -3
right_child=-2 4 3 -5 -6 -7
leaf_value=-0.0030373282035562532 -0.0082889402378350501 -0.00140100637199505 0.015388868363308057 0.0052464334325592844 0.0022039759404741338 -0.010480041843380384
leaf_weight=67 60 63 56 89 69 66
leaf_count=67 60 63 56 89 69 66
internal_value=0 0.00121302 0.00530759 0.00916351 -0.00317107 -0.00604609
internal_weight=0 410 212 145 198 129
internal_count=470 410 212 145 198 129
is_linear=0
shrinkage=0.05


Tree=50
num_leaves=7
num_cat=0
split_feature=27 26 29 27 27 236
split_gain=1.77348 1.43413 1.40643 1.2683 2.07284 1.7933
threshold=2012.5000000000002 1.0000000180025095e-35 1.0000000180025095e-35 1984.5000000000002 1964.5000000000002 19.543710350000001
decision_type=2 2 2 2 2 2
left_child=1 2 3 4 -1 -5
right_child=-2 -3 -4 5 -6 -7
leaf_value=-0.001001378704722111 -0.0069931904956894485 0.009261389730498195 -0.006015074659242399 -0.0074635955535499801 0.011531367647781302 0.0038727521871191428
leaf_weight=65 76 50 72 66 67 74
leaf_count=65 76 50 72 66 67 74
internal_value=0 0.00134894 0.000198875 0.00184374 0.00535994 -0.00147153
internal_weight=0 394 344 272 132 140
internal_count=470 394 344 272 132 140
is_linear=0
shrinkage=0.05


Tree=51
num_leaves=7
num_cat=0
split_feature=0 27 27 27 0 0
split_gain=1.72269 2.45568 2.3505 1.25232 1.09526 0.290316
threshold=645.50000000000011 1995.5000000000002 1961.0000000000002 1978.5000000000002 516.50000000000011 206.50000000000003
decision_type=2 2 2 2 2 2
left_child=1 2 -1 -4 5 -3
right_child=-2 4 3 -5 -6 -7
leaf_value=-0.0028474959058325685 -0.007912996510664622 -0.0035447640833116962 0.014334351037229812 0.0047905183219340416 0.0020733723403989443 -0.0083840424025600612
leaf_weight=67 60 71 56 89 72 55
leaf_count=67 60 71 56 89 72 55
internal_value=0 0.001158 0.00489763 0.00847641 -0.00284605 -0.00565715
internal_weight=0 410 212 145 198 126
internal_count=470 410 212 145 198 126
is_linear=0
shrinkage=0.05


Tree=52
num_leaves=7
num_cat=0
split_feature=25 27 0 0 217 91
split_gain=1.61865 2.28953 1.67138 2.29284 2.35512 0.936367
threshold=1.7500000000000002 1986.5000000000002 202.50000000000003 638.00000000000011 1.0000000180025095e-35 1.0000000180025095e-35
decision_type=2 2 2 2 2 2
left_child=2 -2 -1 4 5 -4
right_child=1 -3 3 -5 -6 -7
leaf_value=-0.0080231889423140034 0.012973596813047633 -0.00042680303949643581 0.0023263275743492188 -0.0089660417685216223 -0.0047001784933464871 0.01091532222640056
leaf_weight=83 51 85 62 54 70 65
leaf_count=83 51 85 62 54 70 65
internal_value=0 0.00459835 -0.00187238 0.000161552 0.00266353 0.00672227
internal_weight=0 136 334 251 197 127
internal_count=470 136 334 251 197 127
is_linear=0
shrinkage=0.05


Tree=53
num_leaves=7
num_cat=0
split_feature=26 0 29 236 91 217
split_gain=1.51709 1.69843 2.4552 2.66683 2.04701 1.71002
threshold=12.500000000000002 125.50000000000001 1.0000000180025095e-35 13.892570120000002 1.0000000180025095e-35 1.0000000180025095e-35
decision_type=2 2 2 2 2 2
left_child=1 -1 3 -3 -5 -6
right_child=-2 2 -4 4 5 -7
leaf_value=-0.0082776074037503675 0.0076465205959322163 -0.0056981421748383181 -0.0077737242506485289 -0.0016838047283024274 0.014722226284889143 0.0034256069768053387
leaf_weight=68 57 72 73 66 67 67
leaf_count=68 57 72 73 66 67 67
internal_value=0 -0.00105533 0.00036819 0.00255334 0.00552387 0.00907392
internal_weight=0 413 345 272 200 134
internal_count=470 413 345 272 200 134
is_linear=0
shrinkage=0.05


Tree=54
num_leaves=7
num_cat=0
split_feature=0 27 27 0 209 75
split_gain=1.47673 2.06258 3.00742 1.37012 1.4959 1.9278
threshold=645.50000000000011 1984.5000000000002 1961.0000000000002 128.50000000000003 1.0000000180025095e-35 1.0000000180025095e-35
decision_type=2 2 2 2 2 2
left_child=1 2 -1 -3 -5 -6
right_child=-2 3 -4 4 5 -7
leaf_value=-0.0028090452914362523 -0.007326360341782372 -0.00914163305561113 0.010908183651139039 -0.0069893625918430865 0.0085793478165189143 -0.0032001083716750147
leaf_weight=67 60 51 99 54 71 68
leaf_count=67 60 51 99 54 71 68
internal_value=0 0.00107215 0.00537171 -0.00185296 7.30609e-05 0.00281674
internal_weight=0 410 166 244 193 139
internal_count=470 410 166 244 193 139
is_linear=0
shrinkage=0.05


Tree=55
num_leaves=7
num_cat=0
split_feature=25 27 0 0 217 75
split_gain=1.40117 1.96909 1.33348 1.96689 2.11003 0.792336
threshold=1.7500000000000002 1986.5000000000002 202.50000000000003 638.00000000000011 1.0000000180025095e-35 1.0000000180025095e-35
decision_type=2 2 2 2 2 2
left_child=2 -2 -1 4 5 -4
right_child=1 -3 3 -5 -6 -7
leaf_value=-0.007236042459907728 0.012045372686549731 -0.00038196428254356281 0.001926163214676339 -0.0083792650796197087 -0.0045780116745403835 0.0098546105720426734
leaf_weight=83 51 85 58 54 70 69
leaf_count=83 51 85 58 54 70 69
internal_value=0 0.00427829 -0.00174206 7.46791e-05 0.002392 0.00623374
internal_weight=0 136 334 251 197 127
internal_count=470 136 334 251 197 127
is_linear=0
shrinkage=0.05


Tree=56
num_leaves=7
num_cat=0
split_feature=27 29 0 236 27 0
split_gain=1.27661 1.03705 1.25433 1.65569 1.28123 0.108867
threshold=2012.5000000000002 1.0000000180025095e-35 453.50000000000006 15.280392605000001 2003.5000000000002 223.00000000000003
decision_type=2 2 2 2 2 2
left_child=1 2 3 5 -4 -1
right_child=-2 -3 4 -5 -6 -7
leaf_value=0.0058099870137924047 -0.0059332402125858753 -0.003604239947424176 0.011348445412295405 -0.0052896872162818912 0.00094240435822443534 0.0025587370984402357
leaf_weight=52 76 89 64 83 55 51
leaf_count=52 76 89 64 83 55 51
internal_value=0 0.00114448 0.00253018 -3.45652e-05 0.00653893 0.00420014
internal_weight=0 394 305 186 119 103
internal_count=470 394 305 186 119 103
is_linear=0
shrinkage=0.05


Tree=57
num_leaves=7
num_cat=0
split_feature=25 27 236 29 0 0
split_gain=1.28277 1.75119 1.19566 1.42512 3.82242 0.828042
threshold=1.7500000000000002 1995.5000000000002 11.915349075000002 1.0000000180025095e-35 396.50000000000006 578.50000000000011
decision_type=2 2 2 2 2 2
left_child=2 -2 -1 4 -4 -6
right_child=1 -3 3 -5 5 -7
leaf_value=0.0046618996859818206 0.0099366443062370476 -0.0014156803994306497 -0.0099195415967533104 -0.0099610604574682862 0.0072752660940377375 -0.00065300377502449259
leaf_weight=61 66 70 79 59 78 57
leaf_count=61 66 70 79 59 78 57
internal_value=0 0.00409354 -0.00166683 -0.00308094 -0.00118409 0.00392777
internal_weight=0 136 334 273 214 135
internal_count=470 136 334 273 214 135
is_linear=0
shrinkage=0.05


Tree=58
num_leaves=7
num_cat=0
split_feature=0 27 114 73 236 27
split_gain=1.21423 1.51067 1.50673 2.84174 1.42073 1.28882
threshold=645.50000000000011 2003.5000000000002 1.0000000180025095e-35 1.0000000180025095e-35 15.421143530000002 2007.5000000000002
decision_type=2 2 2 2 2 2
left_child=1 2 3 -1 -4 -3
right_child=-2 5 4 -5 -6 -7
leaf_value=0.014101216718143621 -0.0066433668695390219 -0.0092595085238658444 0.0039668518868161409 -0.0011086260567286187 -0.0061579875151316328 0.00051125765700514125
leaf_weight=68 60 54 82 56 60 90
leaf_count=68 60 54 82 56 60 90
internal_value=0 0.0009722 0.00320527 0.00723226 -0.000311249 -0.00315278
internal_weight=0 410 266 124 142 144
internal_count=470 410 266 124 142 144
is_linear=0
shrinkage=0.05


Tree=59
num_leaves=8
num_cat=0
split_feature=26 27 128 209 31 236 236
split_gain=1.1158 1.02258 0.918631 1.2656 2.13646 0.566461 0.495024
threshold=12.500000000000002 2012.5000000000002 1.0000000180025095e-35 1.0000000180025095e-35 1.0000000180025095e-35 21.363255710000001 15.421143530000002
decision_type=2 2 2 2 2 2 2
left_child=1 2 3 4 -1 6 -5
right_child=-2 -3 -4 5 -6 -7 -8
leaf_value=-0.010808108416177444 0.0065577184944822084 -0.0065090645553188067 0.0060606891397453309 0.0033713994949471715 0.0022994216386999547 0.0059785951843910057 -0.0034377970865794591
leaf_weight=67 57 68 56 51 58 57 56
leaf_count=67 57 68 56 51 58 57 56
internal_value=0 -0.00090506 0.000199497 -0.000936236 -0.00472621 0.00195247 -0.000192292
internal_weight=0 413 345 289 125 164 107
internal_count=470 413 345 289 125 164 107
is_linear=0
shrinkage=0.05


Tree=60
num_leaves=7
num_cat=0
split_feature=25 27 0 0 217 75
split_gain=1.1255 1.52409 1.00717 1.64892 1.67402 0.711068
threshold=1.7500000000000002 1986.5000000000002 202.50000000000003 638.00000000000011 1.0000000180025095e-35 1.0000000180025095e-35
decision_type=2 2 2 2 2 2
left_child=2 -2 -1 4 5 -4
right_child=1 -3 3 -5 -6 -7
leaf_value=-0.0063360233286063258 0.010667689991932289 -0.00026556853752802403 0.0014805181554101152 -0.0077229203884834775 -0.0040689340340239665 0.0089913636985896293
leaf_weight=83 51 85 58 54 70 69
leaf_count=83 51 85 58 54 70 69
internal_value=0 0.0038344 -0.00156131 1.7574e-05 0.00213933 0.00556121
internal_weight=0 136 334 251 197 127
internal_count=470 136 334 251 197 127
is_linear=0
shrinkage=0.05


Tree=61
num_leaves=7
num_cat=0
split_feature=25 75 0 29 236 236
split_gain=1.01576 1.49753 0.908975 1.51967 1.53617 0.501428
threshold=1.7500000000000002 1.0000000180025095e-35 202.50000000000003 1.0000000180025095e-35 18.901970120000005 22.191999835000004
decision_type=2 2 2 2 2 2
left_child=2 -2 -1 4 -4 -6
right_child=1 -3 3 -5 5 -7
leaf_value=-0.0060192219820434613 0.0085893418639898297 -0.0019223079114453869 -0.0040325537797004461 -0.0065645493395053425 0.0092374682127726523 0.0027907326631248001
leaf_weight=83 72 64 63 65 53 70
leaf_count=83 72 64 63 65 53 70
internal_value=0 0.00364268 -0.00148325 1.66952e-05 0.00231659 0.00556859
internal_weight=0 136 334 251 186 123
internal_count=470 136 334 251 186 123
is_linear=0
shrinkage=0.05


Tree=62
num_leaves=7
num_cat=0
split_feature=0 0 27 27 27 0
split_gain=1.00868 1.25744 1.43301 1.90659 1.09681 0.426616
threshold=645.50000000000011 120.50000000000001 1997.5000000000002 1961.0000000000002 2007.5000000000002 343.50000000000006
decision_type=2 2 2 2 2 2
left_child=1 -1 3 -3 -4 -5
right_child=-2 2 4 5 -6 -7
leaf_value=-0.0050142128750480519 -0.0060549983149394398 -0.0030176218990236522 -0.0053419686462960123 0.006146971554821962 0.0029924646162053014 0.012043051421642303
leaf_weight=74 60 50 81 77 77 51
leaf_count=74 60 50 81 77 77 51
internal_value=0 0.000886097 0.00218557 0.00526197 -0.00128025 0.00849619
internal_weight=0 410 336 178 158 128
internal_count=470 410 336 178 158 128
is_linear=0
shrinkage=0.05


Tree=63
num_leaves=7
num_cat=0
split_feature=25 75 236 2 209 236
split_gain=0.897342 1.35485 0.810245 1.18264 0.946442 1.27869
threshold=1.7500000000000002 1.0000000180025095e-35 11.992615885000001 1.0000000180025095e-35 1.0000000180025095e-35 19.048959165000003
decision_type=2 2 2 2 2 2
left_child=2 -2 -1 -4 -5 -6
right_child=1 -3 3 4 5 -7
leaf_value=0.0035683903236393682 0.0081288834833281327 -0.0018694953294470908 0.0039958788444184592 -0.0094325673130769578 -0.0078824471642847289 0.0015477495581802468
leaf_weight=66 72 64 54 63 59 92
leaf_count=66 72 64 54 63 59 92
internal_value=0 0.00342376 -0.00139411 -0.00261622 -0.00428469 -0.0021369
internal_weight=0 136 334 268 214 151
internal_count=470 136 334 268 214 151
is_linear=0
shrinkage=0.05


Tree=64
num_leaves=8
num_cat=0
split_feature=0 0 112 75 217 0 77
split_gain=0.894929 1.10344 0.956436 0.935474 0.934194 0.676031 0.398171
threshold=645.50000000000011 120.50000000000001 1.0000000180025095e-35 1.0000000180025095e-35 1.0000000180025095e-35 300.50000000000006 1.0000000180025095e-35
decision_type=2 2 2 2 2 2 2
left_child=1 -1 3 6 5 -5 -3
right_child=-2 2 -4 4 -6 -7 -8
leaf_value=-0.004692562848858133 -0.0057033709250390533 0.0098519862988931048 -0.0033950452420573973 -0.00074331588750960783 -0.0046316529916343744 0.0070283034455872351 0.0037387043470516802
leaf_weight=74 60 57 65 51 51 62 50
leaf_count=74 60 57 65 51 51 62 50
internal_value=0 0.00083464 0.00205194 0.00335841 0.000985557 0.00352076 0.00699531
internal_weight=0 410 336 271 164 113 107
internal_count=470 410 336 271 164 113 107
is_linear=0
shrinkage=0.05


Tree=65
num_leaves=7
num_cat=0
split_feature=27 29 0 236 27 0
split_gain=0.881024 0.736791 1.24584 1.24292 0.979771 0.214421
threshold=2012.5000000000002 1.0000000180025095e-35 453.50000000000006 15.280392605000001 2003.5000000000002 223.00000000000003
decision_type=2 2 2 2 2 2
left_child=1 2 3 5 -4 -1
right_child=-2 -3 4 -5 -6 -7
leaf_value=0.0054910472450921174 -0.0049289719631671787 -0.003051895315476348 0.010319732877542266 -0.004990465485726495 0.0012198761105537415 0.00092820902081096877
leaf_weight=52 76 89 64 83 55 51
leaf_count=52 76 89 64 83 55 51
internal_value=0 0.000950766 0.00211876 -0.000437288 0.00611392 0.00323178
internal_weight=0 394 305 186 119 103
internal_count=470 394 305 186 119 103
is_linear=0
shrinkage=0.05


Tree=66
num_leaves=7
num_cat=0
split_feature=0 27 114 73 27 236
split_gain=0.845893 1.09845 1.31947 2.53947 1.21234 1.13973
threshold=645.50000000000011 2003.5000000000002 1.0000000180025095e-35 1.0000000180025095e-35 2007.5000000000002 15.421143530000002
decision_type=2 2 2 2 2 2
left_child=1 2 3 -1 -3 -4
right_child=-2 4 5 -5 -6 -7
leaf_value=0.012977462186587647 -0.0055449171278936166 -0.0086287611750540914 0.0032566089586286645 -0.001400732046126255 0.00084766673622652892 -0.0058118378246823955
leaf_weight=68 60 54 82 56 90 60
leaf_count=68 60 54 82 56 90 60
internal_value=0 0.000811451 0.00271563 0.00648408 -0.00270599 -0.000575129
internal_weight=0 410 266 124 144 142
internal_count=470 410 266 124 144 142
is_linear=0
shrinkage=0.05


Tree=67
num_leaves=7
num_cat=0
split_feature=27 29 236 75 91 236
split_gain=0.792381 0.671078 1.28103 1.49168 6.07269 1.73678
threshold=2012.5000000000002 1.0000000180025095e-35 14.175083480000001 1.0000000180025095e-35 1.0000000180025095e-35 22.689617085000005
decision_type=2 2 2 2 2 2
left_child=1 2 -1 4 -4 -5
right_child=-2 -3 3 5 -6 -7
leaf_value=-0.0033273772819240282 -0.0046744387560082893 -0.0029183322051016805 -0.0042812150580665244 -0.0055756624462822129 0.019249824331752187 0.0069046789184212688
leaf_weight=82 76 89 52 63 58 50
leaf_count=82 76 89 52 63 58 50
internal_value=0 0.000901668 0.00201636 0.00398132 0.00812606 -5.33875e-05
internal_weight=0 394 305 223 110 113
internal_count=470 394 305 223 110 113
is_linear=0
shrinkage=0.05


Tree=68
num_leaves=7
num_cat=0
split_feature=25 0 0 236 209 209
split_gain=0.791695 0.773616 1.20728 0.459244 0.450559 0.429394
threshold=1.7500000000000002 638.00000000000011 202.50000000000003 21.018297865000005 1.0000000180025095e-35 1.0000000180025095e-35
decision_type=2 2 2 2 2 2
left_child=1 2 -1 4 -4 -2
right_child=5 -3 3 -5 -6 -7
leaf_value=-0.005310825633266604 -0.00046870985068380838 -0.0067889825785877531 0.0075395037084817892 -0.00080839628935791552 0.001088194586968018 0.0053581310977596185
leaf_weight=83 50 54 50 88 59 86
leaf_count=83 50 54 50 88 59 86
internal_value=0 -0.00130947 -0.00025271 0.00187837 0.00404751 0.00321591
internal_weight=0 334 280 197 109 136
internal_count=470 334 280 197 109 136
is_linear=0
shrinkage=0.05


Tree=69
num_leaves=7
num_cat=0
split_feature=25 27 0 0 217 91
split_gain=0.714505 1.21404 0.698189 1.08957 1.3327 0.824549
threshold=1.7500000000000002 1986.5000000000002 638.00000000000011 202.50000000000003 1.0000000180025095e-35 1.0000000180025095e-35
decision_type=2 2 2 2 2 2
left_child=2 -2 3 -1 5 -5
right_child=1 -3 -4 4 -6 -7
leaf_value=-0.0050452843880707246 0.0091538855623380811 -0.00060414769440231958 -0.0064495334988115011 0.00071248971526661228 -0.0037548495190484186 0.0087723524395663006
leaf_weight=83 51 85 54 62 70 65
leaf_count=83 51 85 54 62 70 65
internal_value=0 0.00305511 -0.001244 -0.000240074 0.00178446 0.00483762
internal_weight=0 136 334 280 197 127
internal_count=470 136 334 280 197 127
is_linear=0
shrinkage=0.05


Tree=70
num_leaves=8
num_cat=0
split_feature=209 0 197 0 236 236 236
split_gain=0.708684 1.57884 1.49278 2.61209 1.53966 0.893192 0.071235
threshold=1.0000000180025095e-35 431.50000000000006 1.0000000180025095e-35 447.50000000000006 14.950350935000001 13.730196790000003 21.260575525000004
decision_type=2 2 2 2 2 2 2
left_child=1 5 -2 4 -4 -1 -5
right_child=2 -3 3 6 -6 -7 -8
leaf_value=-0.0026747755167658427 0.0085526874311817967 -0.0076404900508530342 0.00028578756004571918 0.0039244025687433107 -0.011945657491824538 0.0060038615566944441 0.0065186013924140558
leaf_weight=63 61 81 50 55 53 56 51
leaf_count=63 61 81 50 55 53 56 51
internal_value=0 -0.00225587 0.00167102 -0.00033751 -0.00600806 0.00140929 0.00517255
internal_weight=0 200 270 209 103 119 106
internal_count=470 200 270 209 103 119 106
is_linear=0
shrinkage=0.05


Tree=71
num_leaves=8
num_cat=0
split_feature=27 128 208 27 27 236 236
split_gain=0.679226 0.660512 1.00047 1.31817 1.44276 0.852835 1.01997
threshold=2012.5000000000002 1.0000000180025095e-35 1.0000000180025095e-35 1965.5000000000002 1984.5000000000002 15.421143530000002 21.363255710000001
decision_type=2 2 2 2 2 2 2
left_child=1 2 3 -1 -5 -6 -7
right_child=-2 -3 -4 4 5 6 -8
leaf_value=-0.0051789861542010122 -0.0043278234529823658 0.0057622085646565624 -0.0061827669258822104 0.0099506152461149872 0.0059171675877013729 -0.0064962462178970648 0.0031395029768628898
leaf_weight=63 76 58 55 56 52 57 53
leaf_count=63 76 58 55 56 52 57 53
internal_value=0 0.000834809 -1.57545e-05 0.00119131 0.00303227 0.000640743 -0.00185357
internal_weight=0 394 336 281 218 162 110
internal_count=470 394 336 281 218 162 110
is_linear=0
shrinkage=0.05


Tree=72
num_leaves=7
num_cat=0
split_feature=0 114 0 207 0 0
split_gain=0.646698 0.949604 4.2335 2.53 0.616486 1.25039
threshold=645.50000000000011 1.0000000180025095e-35 120.50000000000001 1.0000000180025095e-35 223.00000000000003 447.50000000000006
decision_type=2 2 2 2 2 2
left_child=1 3 -3 -1 -4 -6
right_child=-2 2 4 -5 5 -7
leaf_value=0.010555097440334216 -0.0048482850628594563 -0.013885465350288612 0.0069118938446044928 -0.002356423198096631 -0.0041200853940099478 0.0048393617976272918
leaf_weight=73 60 52 50 79 75 81
leaf_count=73 60 52 50 79 75 81
internal_value=0 0.000709505 -0.00113747 0.0038445 0.00208047 0.000531935
internal_weight=0 410 258 152 206 156
internal_count=470 410 258 152 206 156
is_linear=0
shrinkage=0.05


Tree=73
num_leaves=7
num_cat=0
split_feature=208 195 2 217 236 236
split_gain=0.65734 1.81009 1.76611 1.09143 1.37325 0.977573
threshold=1.0000000180025095e-35 1.0000000180025095e-35 1.0000000180025095e-35 1.0000000180025095e-35 15.955106640000002 19.822737890000003
decision_type=2 2 2 2 2 2
left_child=1 2 -1 4 -4 -5
right_child=-2 -3 3 5 -6 -7
leaf_value=0.0064331368165279658 -0.0039233407380337695 0.0085652798552473541 -0.0011873414547493061 0.0050136070970732433 -0.011383575704580142 -0.0042340509009127529
leaf_weight=69 87 64 75 65 59 51
leaf_count=69 87 64 75 65 59 51
internal_value=0 0.000891203 -0.000648424 -0.00260293 -0.00567673 0.000947826
internal_weight=0 383 319 250 134 116
internal_count=470 383 319 250 134 116
is_linear=0
shrinkage=0.05


Tree=74
num_leaves=7
num_cat=0
split_feature=27 27 217 0 0 0
split_gain=0.615998 0.635367 1.02727 2.00106 1.56518 1.28644
threshold=2012.5000000000002 2006.5000000000002 1.0000000180025095e-35 146.50000000000003 282.50000000000006 478.50000000000006
decision_type=2 2 2 2 2 2
left_child=1 2 3 -1 -5 -6
right_child=-2 -3 -4 4 5 -7
leaf_value=0.0099412439865144836 -0.00412146916136599 0.0055794388118941907 -0.0050318381501526779 -0.0084895095564425007 0.0055689135440782217 -0.0038123591863099605
leaf_weight=55 76 59 79 50 89 62
leaf_count=55 76 59 79 50 89 62
internal_value=0 0.000795004 -4.76276e-05 0.00149047 -0.000821933 0.001717
internal_weight=0 394 335 256 201 151
internal_count=470 394 335 256 201 151
is_linear=0
shrinkage=0.05


Tree=75
num_leaves=7
num_cat=0
split_feature=209 29 27 0 25 0
split_gain=0.620983 1.45004 2.5002 1.1933 0.748316 0.424219
threshold=1.0000000180025095e-35 1.0000000180025095e-35 1984.5000000000002 541.50000000000011 1.7500000000000002 217.50000000000003
decision_type=2 2 2 2 2 2
left_child=1 2 -1 4 5 -2
right_child=3 -3 -4 -5 -6 -7
leaf_value=0.0062579993997621021 -0.0060604300415306768 -0.0091120980507521723 -0.0069287231206544677 0.0066417289243861574 0.0037335852044634524 -0.00019228261853776764
leaf_weight=82 57 54 64 81 65 67
leaf_count=82 57 54 64 81 65 67
internal_value=0 -0.00211168 0.000477518 0.00156421 -0.000611875 -0.00288974
internal_weight=0 200 146 270 189 124
internal_count=470 200 146 270 189 124
is_linear=0
shrinkage=0.05


Tree=76
num_leaves=8
num_cat=0
split_feature=26 209 236 236 27 236 27
split_gain=0.591038 0.822207 1.13546 0.973763 0.49468 1.06146 0.939389
threshold=12.500000000000002 1.0000000180025095e-35 24.320864235000002 15.280392605000001 2003.5000000000002 15.532094640000002 2008.5000000000002
decision_type=2 2 2 2 2 2 2
left_child=1 2 3 -1 5 -3 -6
right_child=-2 4 -4 -5 6 -7 -8
leaf_value=-0.0013116893248032715 0.0047727235646003435 -0.0015416719914915472 0.0026722217776945661 -0.010250512911154638 -0.0057647650011561141 0.0082184125917653238 0.0030236265834366139
leaf_weight=59 57 52 56 63 55 60 68
leaf_count=59 57 52 56 63 55 60 68
internal_value=0 -0.000658705 -0.00322206 -0.00592764 0.0012829 0.00368694 -0.000906142
internal_weight=0 413 178 122 235 112 123
internal_count=470 413 178 122 235 112 123
is_linear=0
shrinkage=0.05


Tree=77
num_leaves=7
num_cat=0
split_feature=27 128 208 27 31 217
split_gain=0.550907 0.632986 0.832853 1.23857 1.28388 0.410432
threshold=2012.5000000000002 1.0000000180025095e-35 1.0000000180025095e-35 1965.5000000000002 1.0000000180025095e-35 1.0000000180025095e-35
decision_type=2 2 2 2 2 2
left_child=1 2 3 -1 5 -5
right_child=-2 -3 -4 4 -6 -7
leaf_value=-0.0051544721046137432 -0.0038976373040656509 0.0055754656469899008 -0.0057075558746741582 -0.0028345168925413534 0.0074687373750335117 0.0028273963058988256
leaf_weight=63 76 58 55 73 88 57
leaf_count=63 76 58 55 73 88 57
internal_value=0 0.000751829 -8.08231e-05 0.00102049 0.002805 -0.000351986
internal_weight=0 394 336 281 218 130
internal_count=470 394 336 281 218 130
is_linear=0
shrinkage=0.05


Tree=78
num_leaves=7
num_cat=0
split_feature=0 0 130 236 0 236
split_gain=0.549419 0.784237 1.36928 0.698507 0.63623 1.35182
threshold=645.50000000000011 453.50000000000006 1.0000000180025095e-35 21.260575525000004 150.50000000000003 11.992615885000001
decision_type=2 2 2 2 2 2
left_child=1 2 4 -3 -1 -6
right_child=-2 3 -4 -5 5 -7
leaf_value=0.0044423742617321453 -0.0044687836896628143 -0.0002252182931572731 -0.0078079386273332474 0.0072667817292468894 0.0033085756679065528 -0.0063583580325498731
leaf_weight=82 60 56 56 70 80 66
leaf_count=82 60 56 56 70 80 66
internal_value=0 0.000653968 -0.00080259 0.003937 0.000918022 -0.00106141
internal_weight=0 410 284 126 228 146
internal_count=470 410 284 126 228 146
is_linear=0
shrinkage=0.05


Tree=79
num_leaves=6
num_cat=0
split_feature=0 209 0 236 27
split_gain=0.564473 1.03722 1.43957 0.821985 2.38476
threshold=120.50000000000001 1.0000000180025095e-35 431.50000000000006 13.892570120000002 2003.5000000000002
decision_type=2 2 2 2 2
left_child=-1 2 -2 -3 -5
right_child=1 3 -4 4 -6
leaf_value=-0.0040084299795027523 0.0022107055730884897 -0.0014575813373085113 -0.0070266061427968528 0.013253754360734352 0.00034315580034139335
leaf_weight=74 88 72 81 56 99
leaf_count=74 88 72 81 56 99
internal_value=0 0.00074905 -0.00221665 0.00295699 0.00500763
internal_weight=0 396 169 227 155
internal_count=470 396 169 227 155
is_linear=0
shrinkage=0.05


end of trees

feature_importances:
Column_27=121
Column_0=112
Column_236=110
Column_25=30
Column_2=27
Column_209=24
Column_75=15
Column_217=11
Column_26=10
Column_31=9
Column_29=8
Column_114=6
Column_208=5
Column_91=4
Column_128=3
Column_216=3
Column_73=2
Column_195=2
Column_207=2
Column_77=1
Column_112=1
Column_130=1
Column_197=1

parameters:
[boosting: gbdt]
[objective: regression]
[metric: rmse]
[tree_learner: serial]
[device_type: cpu]
[data: ]
[valid: ]
[num_iterations: 10000]
[learning_rate: 0.05]
[num_leaves: 15]
[num_threads: 0]
[deterministic: 0]
[force_col_wise: 0]
[force_row_wise: 0]
[histogram_pool_size: -1]
[max_depth: -1]
[min_data_in_leaf: 50]
[min_sum_hessian_in_leaf: 0.001]
[bagging_fraction: 0.5]
[pos_bagging_fraction: 1]
[neg_bagging_fraction: 1]
[bagging_freq: 0]
[bagging_seed: 10961]
[feature_fraction: 0.8]
[feature_fraction_bynode: 1]
[feature_fraction_seed: 53]
[extra_trees: 0]
[extra_seed: 11644]
[early_stopping_round: 0]
[first_metric_only: 0]
[max_delta_step: 0]
[lambda_l1: 0]
[lambda_l2: 0]
[linear_lambda: 0]
[min_gain_to_split: 0]
[drop_rate: 0.1]
[max_drop: 50]
[skip_drop: 0.5]
[xgboost_dart_mode: 0]
[uniform_drop: 0]
[drop_seed: 30626]
[top_rate: 0.2]
[other_rate: 0.1]
[min_data_per_group: 100]
[max_cat_threshold: 32]
[cat_l2: 10]
[cat_smooth: 10]
[max_cat_to_onehot: 4]
[top_k: 20]
[monotone_constraints: ]
[monotone_constraints_method: basic]
[monotone_penalty: 0]
[feature_contri: ]
[forcedsplits_filename: ]
[refit_decay_rate: 0.9]
[cegb_tradeoff: 1]
[cegb_penalty_split: 0]
[cegb_penalty_feature_lazy: ]
[cegb_penalty_feature_coupled: ]
[path_smooth: 0]
[interaction_constraints: ]
[verbosity: -1]
[saved_feature_importance_type: 0]
[linear_tree: 0]
[max_bin: 255]
[max_bin_by_feature: ]
[min_data_in_bin: 3]
[bin_construct_sample_cnt: 200000]
[data_random_seed: 4071]
[is_enable_sparse: 1]
[enable_bundle: 1]
[use_missing: 1]
[zero_as_missing: 0]
[feature_pre_filter: 1]
[pre_partition: 0]
[two_round: 0]
[header: 0]
[label_column: ]
[weight_column: ]
[group_column: ]
[ignore_column: ]
[categorical_feature: ]
[forcedbins_filename: ]
[precise_float_parser: 0]
[objective_seed: 602]
[num_class: 1]
[is_unbalance: 0]
[scale_pos_weight: 1]
[sigmoid: 1]
[boost_from_average: 1]
[reg_sqrt: 0]
[alpha: 0.9]
[fair_c: 1]
[poisson_max_delta_step: 0.7]
[tweedie_variance_power: 1.5]
[lambdarank_truncation_level: 30]
[lambdarank_norm: 1]
[label_gain: ]
[eval_at: ]
[multi_error_top_k: 1]
[auc_mu_weights: ]
[num_machines: 1]
[local_listen_port: 12400]
[time_out: 120]
[machine_list_filename: ]
[machines: ]
[gpu_platform_id: -1]
[gpu_device_id: -1]
[gpu_use_dp: 0]
[num_gpu: 1]

end of parameters

pandas_categorical:null
