tree
version=v3
num_class=1
num_tree_per_iteration=1
label_index=0
max_feature_idx=236
objective=regression
feature_names=Column_0 Column_1 Column_2 Column_3 Column_4 Column_5 Column_6 Column_7 Column_8 Column_9 Column_10 Column_11 Column_12 Column_13 Column_14 Column_15 Column_16 Column_17 Column_18 Column_19 Column_20 Column_21 Column_22 Column_23 Column_24 Column_25 Column_26 Column_27 Column_28 Column_29 Column_30 Column_31 Column_32 Column_33 Column_34 Column_35 Column_36 Column_37 Column_38 Column_39 Column_40 Column_41 Column_42 Column_43 Column_44 Column_45 Column_46 Column_47 Column_48 Column_49 Column_50 Column_51 Column_52 Column_53 Column_54 Column_55 Column_56 Column_57 Column_58 Column_59 Column_60 Column_61 Column_62 Column_63 Column_64 Column_65 Column_66 Column_67 Column_68 Column_69 Column_70 Column_71 Column_72 Column_73 Column_74 Column_75 Column_76 Column_77 Column_78 Column_79 Column_80 Column_81 Column_82 Column_83 Column_84 Column_85 Column_86 Column_87 Column_88 Column_89 Column_90 Column_91 Column_92 Column_93 Column_94 Column_95 Column_96 Column_97 Column_98 Column_99 Column_100 Column_101 Column_102 Column_103 Column_104 Column_105 Column_106 Column_107 Column_108 Column_109 Column_110 Column_111 Column_112 Column_113 Column_114 Column_115 Column_116 Column_117 Column_118 Column_119 Column_120 Column_121 Column_122 Column_123 Column_124 Column_125 Column_126 Column_127 Column_128 Column_129 Column_130 Column_131 Column_132 Column_133 Column_134 Column_135 Column_136 Column_137 Column_138 Column_139 Column_140 Column_141 Column_142 Column_143 Column_144 Column_145 Column_146 Column_147 Column_148 Column_149 Column_150 Column_151 Column_152 Column_153 Column_154 Column_155 Column_156 Column_157 Column_158 Column_159 Column_160 Column_161 Column_162 Column_163 Column_164 Column_165 Column_166 Column_167 Column_168 Column_169 Column_170 Column_171 Column_172 Column_173 Column_174 Column_175 Column_176 Column_177 Column_178 Column_179 Column_180 Column_181 Column_182 Column_183 Column_184 Column_185 Column_186 Column_187 Column_188 Column_189 Column_190 Column_191 Column_192 Column_193 Column_194 Column_195 Column_196 Column_197 Column_198 Column_199 Column_200 Column_201 Column_202 Column_203 Column_204 Column_205 Column_206 Column_207 Column_208 Column_209 Column_210 Column_211 Column_212 Column_213 Column_214 Column_215 Column_216 Column_217 Column_218 Column_219 Column_220 Column_221 Column_222 Column_223 Column_224 Column_225 Column_226 Column_227 Column_228 Column_229 Column_230 Column_231 Column_232 Column_233 Column_234 Column_235 Column_236
feature_infos=[4:739] none [0:1] none none none none none none none none none none none none none none none none none none none none none none [0:12] [0:100] [0:2018] none [0:1] none [0:1] [0:1] [0:1] none none none none none none none none none none none none none none none [0:1] [0:1] none none none none none none none none none none none none none none none none none none none none none none [0:1] none [0:1] none [0:1] none none none none none none none none none none none none none [0:1] none none none none none none none none none none none none none none none none none none none none [0:1] none [0:1] [0:1] none none none none none none none none none none none [0:1] [0:1] none [0:1] none none none none none none none none none none none none none none none none none none none none none none none none none none none none none none none none none none none none none none none none none none none none none none none none none none none none none none none none none none none none none none none none [0:1] none [0:1] none none none none none none none none none [0:1] [0:1] [0:1] none none none none [0:1] none [0:1] [0:1] none none none none none none none none none none none none none none none none none none [8.5941493260000001:42.129650480000002]
tree_sizes=663 657 742 735 657 650 743 742 737 731 658 743 740 737 656 743 748 743 745 752 739 820 742 837 752 738 745 822 823 743 822 822 741 664 744 737

Tree=0
num_leaves=6
num_cat=0
split_feature=236 2 25 209 27
split_gain=114.34 16.2373 13.5913 5.89103 4.11023
threshold=10.467710685000002 1.0000000180025095e-35 1.7500000000000002 1.0000000180025095e-35 2004.5000000000002
decision_type=2 2 2 2 2
left_child=-1 -2 3 -3 -5
right_child=1 2 -4 4 -6
leaf_value=0.051025500746914539 0.0094640974276842243 -0.03424733773040637 0.001300132295215087 -0.0081177862800508559 -0.024525753043247597
leaf_weight=89 72 77 77 68 87
leaf_count=89 72 77 77 68 87
internal_value=-4.43864e-10 -0.0119193 -0.0169019 -0.0229431 -0.0173274
internal_weight=0 381 309 232 155
internal_count=470 381 309 232 155
is_linear=0
shrinkage=1


Tree=1
num_leaves=6
num_cat=0
split_feature=236 2 25 209 27
split_gain=103.192 14.6542 12.2661 5.31665 3.70948
threshold=10.467710685000002 1.0000000180025095e-35 1.7500000000000002 1.0000000180025095e-35 2004.5000000000002
decision_type=2 2 2 2 2
left_child=-1 -2 3 -3 -5
right_child=1 2 -4 4 -6
leaf_value=0.048474225746153787 0.0089908929231266189 -0.032534969922203526 0.0012351256686371642 -0.0077118965742342619 -0.023299465140049488
leaf_weight=89 72 77 77 68 87
leaf_count=89 72 77 77 68 87
internal_value=0 -0.0113234 -0.0160568 -0.0217959 -0.016461
internal_weight=0 381 309 232 155
internal_count=470 381 309 232 155
is_linear=0
shrinkage=0.05


Tree=2
num_leaves=7
num_cat=0
split_feature=236 208 27 25 236 236
split_gain=93.1305 14.7591 18.9338 13.4489 9.73861 3.27251
threshold=10.467710685000002 1.0000000180025095e-35 2003.5000000000002 1.7500000000000002 18.876736930000003 21.313868545000002
decision_type=2 2 2 2 2 2
left_child=-1 2 3 5 -4 -2
right_child=1 -3 4 -5 -6 -7
leaf_value=0.046050515945665962 0.0050222738408574876 -0.035238641669165419 -0.035276386465449804 0.025333079119335935 -0.0093403200503815436 -0.011439040086760714
leaf_weight=89 51 53 61 53 89 74
leaf_count=89 51 53 61 53 89 74
internal_value=0 -0.0107572 -0.00680137 0.00422641 -0.0198877 -0.00472282
internal_weight=0 381 328 178 150 125
internal_count=470 381 328 178 150 125
is_linear=0
shrinkage=0.05


Tree=3
num_leaves=7
num_cat=0
split_feature=236 208 27 27 236 27
split_gain=84.0503 13.3201 17.0878 12.374 8.78909 1.3709
threshold=10.467710685000002 1.0000000180025095e-35 2003.5000000000002 1965.5000000000002 18.876736930000003 1986.5000000000002
decision_type=2 2 2 2 2 2
left_child=-1 2 3 -2 -4 -5
right_child=1 -3 4 5 -6 -7
leaf_value=0.043747988711582142 -0.016230561492859192 -0.03347670788050823 -0.033512567606617194 0.017630033967300104 -0.0088733033015486913 0.0071492112598692389
leaf_weight=89 53 53 61 65 89 60
leaf_count=89 53 53 61 65 89 60
internal_value=0 -0.0102193 -0.0064613 0.00401508 -0.0188933 0.0125992
internal_weight=0 381 328 178 150 125
internal_count=470 381 328 178 150 125
is_linear=0
shrinkage=0.05


Tree=4
num_leaves=6
num_cat=0
split_feature=236 2 25 209 0
split_gain=75.8554 12.6064 10.0317 4.3335 6.46545
threshold=10.467710685000002 1.0000000180025095e-35 1.7500000000000002 1.0000000180025095e-35 367.50000000000006
decision_type=2 2 2 2 2
left_child=-1 -2 3 -3 -5
right_child=1 2 -4 4 -6
leaf_value=0.041560588312450422 0.0091331178775160681 -0.028984186585460394 0.0015392256392674014 -0.027498416059603126 -0.0064667553796122481
leaf_weight=89 72 77 77 59 96
leaf_count=89 72 77 77 59 96
internal_value=0 -0.00970838 -0.0140986 -0.0192888 -0.0144724
internal_weight=0 381 309 232 155
internal_count=470 381 309 232 155
is_linear=0
shrinkage=0.05


Tree=5
num_leaves=6
num_cat=0
split_feature=27 0 0 0 75
split_gain=33.8579 30.0129 23.2231 11.4544 1.97556
threshold=1995.5000000000002 385.50000000000006 220.50000000000003 184.50000000000003 1.0000000180025095e-35
decision_type=2 2 2 2 2
left_child=1 2 -1 -2 -5
right_child=3 -3 -4 4 -6
leaf_value=0.0055858973509577275 -0.034398232901898716 -0.0091773686670167474 0.045328969229012729 -0.0018893611244857314 -0.012503156549844546
leaf_weight=68 52 93 80 80 97
leaf_count=68 52 93 80 80 97
internal_value=0 0.0130816 0.0270686 -0.0137671 -0.00770596
internal_weight=0 241 148 229 177
internal_count=470 241 148 229 177
is_linear=0
shrinkage=0.05


Tree=6
num_leaves=7
num_cat=0
split_feature=236 208 2 27 236 27
split_gain=62.5829 11.3854 14.8397 6.90477 5.77325 4.66925
threshold=10.467710685000002 1.0000000180025095e-35 1.0000000180025095e-35 2012.5000000000002 20.955927850000005 1995.5000000000002
decision_type=2 2 2 2 2 2
left_child=-1 2 -2 4 5 -4
right_child=1 -3 3 -5 -6 -7
leaf_value=0.037749942090739029 0.017602551530982401 -0.030320270992112611 0.012366202727167144 -0.025231834823886551 -0.014777469452508171 -0.0081511186141716811
leaf_weight=89 58 53 54 60 99 57
leaf_count=89 58 53 54 60 99 57
internal_value=0 -0.00881823 -0.00534381 -0.010273 -0.00599909 0.00183028
internal_weight=0 381 328 270 210 111
internal_count=470 381 328 270 210 111
is_linear=0
shrinkage=0.05


Tree=7
num_leaves=7
num_cat=0
split_feature=0 0 25 2 209 0
split_gain=13.9132 46.2237 10.4791 8.04692 9.59498 0.404981
threshold=379.00000000000006 230.50000000000003 1.7500000000000002 1.0000000180025095e-35 1.0000000180025095e-35 564.50000000000011
decision_type=2 2 2 2 2 2
left_child=1 2 -1 -2 -5 -6
right_child=3 -3 -4 4 5 -7
leaf_value=-0.019483502008902129 0.0079433429693083531 0.035294623154914009 0.0089005144876427959 -0.029996691277769744 -0.0088476683720946324 -0.0028622470337610981
leaf_weight=93 55 96 50 61 50 65
leaf_count=93 55 96 50 61 50 65
internal_value=0 0.00845751 -0.00955902 -0.00875041 -0.0139672 -0.0054646
internal_weight=0 239 143 231 176 115
internal_count=470 239 143 231 176 115
is_linear=0
shrinkage=0.05


Tree=8
num_leaves=7
num_cat=0
split_feature=236 208 27 0 27 27
split_gain=51.4217 9.77342 12.8173 14.8091 10.3691 1.02256
threshold=10.467710685000002 1.0000000180025095e-35 2003.5000000000002 419.50000000000006 1965.5000000000002 1986.5000000000002
decision_type=2 2 2 2 2 2
left_child=-1 2 4 -4 -2 -6
right_child=1 -3 3 -5 5 -7
leaf_value=0.034218573695823047 -0.01423395816588177 -0.027915168117802099 -0.037108764138359292 -0.0040972645812648902 0.016501995227657832 0.0074501428341803462
leaf_weight=89 53 53 52 98 65 60
leaf_count=89 53 53 52 98 65 60
internal_value=0 -0.00799332 -0.00477424 -0.0155413 0.00429909 0.0121571
internal_weight=0 381 328 150 178 125
internal_count=470 381 328 150 178 125
is_linear=0
shrinkage=0.05


Tree=9
num_leaves=7
num_cat=0
split_feature=27 27 25 27 27 75
split_gain=24.6006 8.0411 6.46442 4.01819 3.298 1.22936
threshold=1995.5000000000002 1961.0000000000002 1.2500000000000002 2012.5000000000002 1974.5000000000002 1.0000000180025095e-35
decision_type=2 2 2 2 2 2
left_child=1 -1 4 5 -3 -2
right_child=3 2 -4 -5 -6 -7
leaf_value=-0.0031240199639328888 -0.0018575321326949703 0.019864487119019031 0.030925485414419591 -0.020773941464722157 0.0027839185096896614 -0.010987255268548502
leaf_weight=70 67 50 56 80 65 82
leaf_count=70 67 50 56 80 65 82
internal_value=0 0.0111507 0.0169942 -0.011735 0.0102103 -0.00688194
internal_weight=0 241 171 229 115 149
internal_count=470 241 171 229 115 149
is_linear=0
shrinkage=0.05


Tree=10
num_leaves=6
num_cat=0
split_feature=236 2 25 209 0
split_gain=45.0079 8.45738 7.74091 3.10511 5.25402
threshold=10.467710685000002 1.0000000180025095e-35 1.7500000000000002 1.0000000180025095e-35 367.50000000000006
decision_type=2 2 2 2 2
left_child=-1 -2 3 -3 -5
right_child=1 2 -4 4 -6
leaf_value=0.032013467732775074 0.007954365079705086 -0.023840359637102525 0.0026626408354125243 -0.023298785608198685 -0.0043395862817609066
leaf_weight=89 72 77 77 59 96
leaf_count=89 72 77 77 59 96
internal_value=0 -0.00747821 -0.0110742 -0.0156333 -0.0115563
internal_weight=0 381 309 232 155
internal_count=470 381 309 232 155
is_linear=0
shrinkage=0.05


Tree=11
num_leaves=7
num_cat=0
split_feature=236 208 2 25 0 0
split_gain=40.6196 8.51738 10.6723 5.74377 3.86443 0.00299559
threshold=10.467710685000002 1.0000000180025095e-35 1.0000000180025095e-35 1.7500000000000002 449.50000000000006 180.50000000000003
decision_type=2 2 2 2 2 2
left_child=-1 2 -2 4 5 -4
right_child=1 -3 3 -5 -6 -7
leaf_value=0.030412794565886594 0.015360219958880594 -0.025702016772526617 -0.019865674912929537 0.0038141783908940854 -0.0056208563968539243 -0.019318354666233065
leaf_weight=89 58 53 50 72 98 50
leaf_count=89 58 53 50 72 98 50
internal_value=0 -0.0071043 -0.00409918 -0.00827935 -0.012677 -0.019592
internal_weight=0 381 328 270 198 100
internal_count=470 381 328 270 198 100
is_linear=0
shrinkage=0.05


Tree=12
num_leaves=7
num_cat=0
split_feature=236 25 29 0 0 27
split_gain=36.6592 6.94242 4.38106 6.0444 5.07438 3.25614
threshold=10.467710685000002 1.7500000000000002 1.0000000180025095e-35 449.50000000000006 611.50000000000011 1987.5000000000002
decision_type=2 2 2 2 2 2
left_child=-1 2 3 5 -5 -2
right_child=1 -3 -4 4 -6 -7
leaf_value=0.028892154907912349 -0.0072721557226032019 0.0045649157292209563 -0.022631816498813084 0.010142027564166536 -0.010928569796038266 -0.024882866837576314
leaf_weight=89 52 100 61 62 53 53
leaf_count=89 52 100 61 62 53 53
internal_value=0 -0.00674909 -0.0107754 -0.00748797 0.000431231 -0.0161614
internal_weight=0 381 281 220 115 105
internal_count=470 381 281 220 115 105
is_linear=0
shrinkage=0.05


Tree=13
num_leaves=7
num_cat=0
split_feature=236 27 0 25 236 236
split_gain=33.0849 6.68622 11.6421 9.85992 3.90538 2.9833
threshold=10.467710685000002 2001.5000000000002 419.50000000000006 1.7500000000000002 21.698399180000003 21.158397020000006
decision_type=2 2 2 2 2 2
left_child=-1 3 -3 4 -2 -4
right_child=1 2 5 -5 -6 -7
leaf_value=0.027447547093870935 0.0023011626520504556 -0.030823622910039768 0.0049978963154203755 0.017769595511596313 -0.013788558877157894 -0.011580128327076292
leaf_weight=89 66 63 51 55 88 58
leaf_count=89 66 63 51 55 88 58
internal_value=0 -0.00641163 -0.013713 -0.000402817 -0.00689296 -0.00382344
internal_weight=0 381 172 209 154 109
internal_count=470 381 172 209 154 109
is_linear=0
shrinkage=0.05


Tree=14
num_leaves=6
num_cat=0
split_feature=27 25 195 27 27
split_gain=18.209 8.09412 4.13873 1.92467 1.76903
threshold=2003.5000000000002 1.2500000000000002 1.0000000180025095e-35 2013.5000000000002 1984.5000000000002
decision_type=2 2 2 2 2
left_child=1 2 4 -2 -1
right_child=3 -3 -4 -5 -6
leaf_value=0.002128920546424207 -0.0083417934064260301 0.020706438692286611 0.012620485087495243 -0.018976022741974217 -0.0091704824072276741
leaf_weight=86 102 84 67 73 58
leaf_count=86 102 84 67 73 58
internal_value=0 0.00758004 0.00235437 -0.0127778 -0.00242223
internal_weight=0 295 211 175 144
internal_count=470 295 211 175 144
is_linear=0
shrinkage=0.05


Tree=15
num_leaves=7
num_cat=0
split_feature=236 208 2 25 0 27
split_gain=28.8836 7.33226 8.88491 4.07616 3.04479 3.60366
threshold=10.467710685000002 1.0000000180025095e-35 1.0000000180025095e-35 1.7500000000000002 449.50000000000006 1993.5000000000002
decision_type=2 2 2 2 2 2
left_child=-1 2 -2 4 5 -4
right_child=1 -3 3 -5 -6 -7
leaf_value=0.02564565946211976 0.014552785454574843 -0.023246137165236023 -0.0073676281124353416 0.0031711983745076906 -0.0044579447646226197 -0.026350925363600255
leaf_weight=89 58 53 50 72 98 50
leaf_count=89 58 53 50 72 98 50
internal_value=0 -0.00599072 -0.0032025 -0.00701659 -0.0107212 -0.0168593
internal_weight=0 381 328 270 198 100
internal_count=470 381 328 270 198 100
is_linear=0
shrinkage=0.05


Tree=16
num_leaves=7
num_cat=0
split_feature=236 208 2 27 236 27
split_gain=26.0674 6.61737 8.01863 3.93538 4.71785 2.27851
threshold=10.467710685000002 1.0000000180025095e-35 1.0000000180025095e-35 2012.5000000000002 15.365687895000002 1985.5000000000002
decision_type=2 2 2 2 2 2
left_child=-1 2 -2 4 -4 -6
right_child=1 -3 3 -5 5 -7
leaf_value=0.024363376769456973 0.013825146319216181 -0.022083830706915768 0.0084104174084495744 -0.017958918809890749 -0.016395510338177835 -0.0035571695412121096
leaf_weight=89 58 53 60 60 54 96
leaf_count=89 58 53 60 60 54 96
internal_value=0 -0.00569118 -0.00304237 -0.00666576 -0.00343915 -0.00817897
internal_weight=0 381 328 270 210 150
internal_count=470 381 328 270 210 150
is_linear=0
shrinkage=0.05


Tree=17
num_leaves=7
num_cat=0
split_feature=236 208 27 0 27 31
split_gain=23.5258 5.97217 7.37302 10.1584 8.27352 0.957599
threshold=10.467710685000002 1.0000000180025095e-35 2003.5000000000002 419.50000000000006 1966.5000000000002 1.0000000180025095e-35
decision_type=2 2 2 2 2 2
left_child=-1 2 4 -4 -2 -6
right_child=1 -3 3 -5 5 -7
leaf_value=0.023145207252060429 -0.012343621930900824 -0.020979639592598073 -0.028919177645674123 -0.0015782746320058194 0.0069859964934011892 0.015792161647776335
leaf_weight=89 54 53 52 98 66 58
leaf_count=89 54 53 52 98 66 58
internal_value=0 -0.00540662 -0.00289025 -0.0110565 0.00399138 0.011105
internal_weight=0 381 328 150 178 124
internal_count=470 381 328 150 178 124
is_linear=0
shrinkage=0.05


Tree=18
num_leaves=7
num_cat=0
split_feature=236 208 2 236 0 0
split_gain=21.2321 5.38989 7.03336 3.3814 3.75704 1.34413
threshold=10.467710685000002 1.0000000180025095e-35 1.0000000180025095e-35 15.078047380000003 449.50000000000006 604.00000000000011
decision_type=2 2 2 2 2 2
left_child=-1 2 -2 -4 -5 -6
right_child=1 -3 3 4 5 -7
leaf_value=0.021987947151902016 0.013051543898222134 -0.019930657688176857 0.0036981478072420667 -0.017270127631355683 0.0010468041250372634 -0.0097524288147687929
leaf_weight=89 58 53 66 86 68 50
leaf_count=89 58 53 66 86 68 50
internal_value=0 -0.00513629 -0.00274574 -0.00613923 -0.00932191 -0.00352914
internal_weight=0 381 328 270 204 118
internal_count=470 381 328 270 204 118
is_linear=0
shrinkage=0.05


Tree=19
num_leaves=7
num_cat=0
split_feature=236 208 2 25 236 77
split_gain=19.1619 4.86437 6.34761 3.59867 1.07112 1.62451
threshold=10.467710685000002 1.0000000180025095e-35 1.0000000180025095e-35 1.7500000000000002 23.114959740000003 1.0000000180025095e-35
decision_type=2 2 2 2 2 2
left_child=-1 2 -2 4 5 -4
right_child=1 -3 3 -5 -6 -7
leaf_value=0.020888549759146877 0.012398966487721895 -0.018934124173983088 -0.0029703998896810743 0.0037402366297707582 -0.015640236750245097 -0.013701062373303133
leaf_weight=89 58 53 90 72 50 58
leaf_count=89 58 53 90 72 50 58
internal_value=0 -0.00487948 -0.00260845 -0.00583227 -0.00931318 -0.00717566
internal_weight=0 381 328 270 198 148
internal_count=470 381 328 270 198 148
is_linear=0
shrinkage=0.05


Tree=20
num_leaves=7
num_cat=0
split_feature=236 27 25 236 236 236
split_gain=17.3548 4.81781 7.29224 3.67328 3.57788 3.52624
threshold=10.252579550000002 2001.5000000000002 1.7500000000000002 21.313868545000002 18.876736930000003 21.313868545000002
decision_type=2 2 2 2 2 2
left_child=-1 2 3 -2 -3 -6
right_child=1 4 -4 -5 5 -7
leaf_value=0.020746647584510138 0.0047054508700966838 -0.01905543422964338 0.015897781963933977 -0.011065148180205143 0.0049090559110045433 -0.013776945013680734
leaf_weight=83 60 73 57 96 50 51
leaf_count=83 60 73 57 96 50 51
internal_value=0 -0.00444954 0.000592706 -0.00499953 -0.0106219 -0.00452645
internal_weight=0 387 213 156 174 101
internal_count=470 387 213 156 174 101
is_linear=0
shrinkage=0.05


Tree=21
num_leaves=8
num_cat=0
split_feature=26 0 0 0 209 0 0
split_gain=6.00494 7.32394 10.045 4.59023 3.64331 1.87714 0.927054
threshold=24.000000000000004 125.50000000000001 379.00000000000006 240.50000000000003 1.0000000180025095e-35 516.00000000000011 545.50000000000011
decision_type=2 2 2 2 2 2 2
left_child=1 -1 3 -3 5 -4 -6
right_child=-2 2 4 -5 6 -7 -8
leaf_value=-0.01752230600177427 0.016380049243569377 0.0018635714988641699 -0.0058588677094402637 0.021010711816523007 -0.0048730064556002615 -0.019244721688330177 0.0039164494822422668
leaf_weight=64 50 58 55 68 50 50 75
leaf_count=64 50 58 55 68 50 50 75
internal_value=0 -0.00195001 0.000849509 0.0121969 -0.00536691 -0.0122331 0.000400667
internal_weight=0 420 356 126 230 105 125
internal_count=470 420 356 126 230 105 125
is_linear=0
shrinkage=0.05


Tree=22
num_leaves=7
num_cat=0
split_feature=236 27 0 236 2 236
split_gain=14.1908 4.49017 8.81566 6.47382 3.95368 2.22407
threshold=10.252579550000002 2001.5000000000002 419.50000000000006 15.365687895000002 1.0000000180025095e-35 21.158397020000006
decision_type=2 2 2 2 2 2
left_child=-1 3 -3 -2 -5 -4
right_child=1 2 5 4 -6 -7
leaf_value=0.018760331758264318 0.015801850254474968 -0.024556387247374425 0.0063251335539069838 0.0057578696010512163 -0.010456179172674917 -0.0079887682586057308
leaf_weight=83 54 65 51 61 98 58
leaf_count=83 54 65 51 61 98 58
internal_value=0 -0.00402353 -0.00998237 0.000844246 -0.0042357 -0.00129144
internal_weight=0 387 174 213 159 109
internal_count=470 387 174 213 159 109
is_linear=0
shrinkage=0.05


Tree=23
num_leaves=8
num_cat=0
split_feature=236 208 2 50 236 0 0
split_gain=12.8307 3.99972 5.44792 3.08121 2.33542 2.2629 0.0633202
threshold=10.467710685000002 1.0000000180025095e-35 1.0000000180025095e-35 1.0000000180025095e-35 15.078047380000003 404.50000000000006 589.00000000000011
decision_type=2 2 2 2 2 2 2
left_child=-1 2 -2 -4 -5 -6 -7
right_child=1 -3 3 4 5 6 -8
leaf_value=0.017092841742834954 0.011969748099238196 -0.016737278677382558 -0.015245381533576734 0.0071741320083246523 -0.013337044875052842 0.00030291287361511164 -0.0021323957425706526
leaf_weight=89 58 53 57 51 55 56 51
leaf_count=89 58 53 57 51 55 56 51
internal_value=0 -0.00399282 -0.0019335 -0.00492012 -0.00215702 -0.00509461 -0.000857842
internal_weight=0 381 328 270 213 162 107
internal_count=470 381 328 270 213 162 107
is_linear=0
shrinkage=0.05


Tree=24
num_leaves=7
num_cat=0
split_feature=27 25 195 31 27 217
split_gain=10.2563 4.07469 2.23147 2.29527 1.6772 0.00174277
threshold=2000.5000000000002 1.2500000000000002 1.0000000180025095e-35 1.0000000180025095e-35 2013.5000000000002 1.0000000180025095e-35
decision_type=2 2 2 2 2 2
left_child=1 2 3 -1 5 -2
right_child=4 -3 -4 -5 -6 -7
leaf_value=-0.0070639593470841651 -0.005024573576312313 0.016097168738643329 0.010011604762720791 0.0059383467132706315 -0.014854227394273837 -0.0054079269251180078
leaf_weight=75 56 75 66 62 73 63
leaf_count=75 56 75 66 62 73 63
internal_value=0 0.00613825 0.00245885 -0.0011797 -0.00888768 -0.00522753
internal_weight=0 278 203 137 192 119
internal_count=470 278 203 137 192 119
is_linear=0
shrinkage=0.05


Tree=25
num_leaves=7
num_cat=0
split_feature=236 27 25 236 236 236
split_gain=11.2284 3.49876 5.69396 2.91039 2.86149 2.91771
threshold=10.252579550000002 2001.5000000000002 1.7500000000000002 21.698399180000003 18.876736930000003 21.313868545000002
decision_type=2 2 2 2 2 2
left_child=-1 2 3 -2 -3 -6
right_child=1 4 -4 -5 5 -7
leaf_value=0.01668772392496691 0.0035454402129878014 -0.016381108919030999 0.01424211544850678 -0.010227043531962078 0.0051950036808848382 -0.01180237306455406
leaf_weight=83 68 73 57 88 50 51
leaf_count=83 68 73 57 88 50 51
internal_value=0 -0.00357902 0.000717891 -0.00422365 -0.00883903 -0.00338783
internal_weight=0 387 213 156 174 101
internal_count=470 387 213 156 174 101
is_linear=0
shrinkage=0.05


Tree=26
num_leaves=7
num_cat=0
split_feature=236 29 27 0 25 75
split_gain=10.1337 3.37797 3.63707 7.14969 3.7909 0.957647
threshold=10.252579550000002 1.0000000180025095e-35 1999.5000000000002 419.50000000000006 1.7500000000000002 1.0000000180025095e-35
decision_type=2 2 2 2 2 2
left_child=-1 2 4 -4 5 -2
right_child=1 -3 3 -5 -6 -7
leaf_value=0.015853337801471131 0.0031517153215264121 -0.012623748395450508 -0.021886652496223357 0.0014534364621478903 0.015354911508221254 -0.0060491268129016351
leaf_weight=83 62 79 51 92 51 52
leaf_count=83 62 79 51 92 51 52
internal_value=0 -0.00340007 -0.00103426 -0.00687065 0.00402395 -0.00104516
internal_weight=0 387 308 143 165 114
internal_count=470 387 308 143 165 114
is_linear=0
shrinkage=0.05


Tree=27
num_leaves=8
num_cat=0
split_feature=236 27 29 0 0 27 236
split_gain=9.65675 10.551 4.72237 3.53937 3.7258 0.660383 0.46718
threshold=15.078047380000003 2001.5000000000002 1.0000000180025095e-35 449.50000000000006 567.50000000000011 1973.5000000000002 17.779523195000003
decision_type=2 2 2 2 2 2 2
left_child=1 5 3 6 -5 -1 -2
right_child=2 -3 -4 4 -6 -7 -8
leaf_value=0.022896169743930495 -0.0058259459238168068 -0.0075751049765225122 -0.01828833174842753 0.012601121504598396 -0.0039574473491506426 0.015104293503814883 -0.012465921508286286
leaf_weight=52 52 58 57 58 82 57 54
leaf_count=52 52 58 57 58 82 57 54
internal_value=0 0.00965383 -0.00532076 -0.00231608 0.00290253 0.0188215 -0.00920857
internal_weight=0 167 303 246 140 109 106
internal_count=470 167 303 246 140 109 106
is_linear=0
shrinkage=0.05


Tree=28
num_leaves=8
num_cat=0
split_feature=236 27 29 0 0 27 236
split_gain=8.71522 9.52552 4.26194 3.19428 3.36253 0.535596 0.42163
threshold=15.078047380000003 2000.5000000000002 1.0000000180025095e-35 449.50000000000006 567.50000000000011 1973.5000000000002 17.779523195000003
decision_type=2 2 2 2 2 2 2
left_child=1 5 3 6 -5 -1 -2
right_child=2 -3 -4 4 -6 -7 -8
leaf_value=0.02175136131073277 -0.0055346484591539671 -0.0067756227962672711 -0.017373914692746583 0.011971065496267141 -0.0037595752054518771 0.014673574306758714 -0.011842625357072664
leaf_weight=52 52 60 57 58 82 55 54
leaf_count=52 52 60 57 58 82 55 54
internal_value=0 0.00917114 -0.00505472 -0.00220027 0.0027574 0.0181132 -0.00874815
internal_weight=0 167 303 246 140 107 106
internal_count=470 167 303 246 140 107 106
is_linear=0
shrinkage=0.05


Tree=29
num_leaves=7
num_cat=0
split_feature=236 27 2 209 0 27
split_gain=7.86548 8.61715 3.86213 3.61346 2.54683 0.534616
threshold=15.078047380000003 2001.5000000000002 1.0000000180025095e-35 1.0000000180025095e-35 404.50000000000006 1973.5000000000002
decision_type=2 2 2 2 2 2
left_child=1 5 -2 -4 -5 -1
right_child=2 -3 3 4 -6 -7
leaf_value=0.020663793352790751 0.0056920363776632316 -0.0068575683595805334 -0.016719944300976668 -0.01173332129541974 0.0013903253608279758 0.013653030329825065
leaf_weight=52 68 58 77 59 99 57
leaf_count=52 68 58 77 59 99 57
internal_value=0 0.00871258 -0.00480198 -0.00783855 -0.00351028 0.0169976
internal_weight=0 167 303 235 158 109
internal_count=470 167 303 235 158 109
is_linear=0
shrinkage=0.05


Tree=30
num_leaves=8
num_cat=0
split_feature=236 27 29 0 0 27 236
split_gain=7.0986 7.79313 3.73682 2.68739 3.03296 0.530463 0.401957
threshold=15.078047380000003 2002.5000000000002 1.0000000180025095e-35 449.50000000000006 567.50000000000011 1973.5000000000002 17.779523195000003
decision_type=2 2 2 2 2 2 2
left_child=1 5 3 6 -5 -1 -2
right_child=2 -3 -4 4 -6 -7 -8
leaf_value=0.01963060356748219 -0.0047573428350285848 -0.006929751359192389 -0.016097213800081559 0.011408759458472245 -0.0035311034339673185 0.01270382442108111 -0.010916397226888135
leaf_weight=52 52 56 57 58 82 59 54
leaf_count=52 52 56 57 58 82 59 54
internal_value=0 0.00827695 -0.00456188 -0.00188906 0.00265827 0.0159488 -0.00789497
internal_weight=0 167 303 246 140 111 106
internal_count=470 167 303 246 140 111 106
is_linear=0
shrinkage=0.05


Tree=31
num_leaves=8
num_cat=0
split_feature=26 0 0 209 0 0 0
split_gain=3.64279 4.31471 4.7351 3.02172 2.33812 1.25717 0.883011
threshold=24.000000000000004 125.50000000000001 379.00000000000006 1.0000000180025095e-35 277.00000000000006 516.00000000000011 545.50000000000011
decision_type=2 2 2 2 2 2 2
left_child=1 -1 4 5 -3 -4 -5
right_child=-2 2 3 6 -6 -7 -8
leaf_value=-0.013471222056250554 0.012757863438688219 0.0023288196764354196 -0.0046747205372561105 -0.0035324011147022244 0.016035926223100565 -0.015629277400730644 0.0050457244416077934
leaf_weight=64 50 70 55 50 56 50 75
leaf_count=64 50 70 55 50 56 50 75
internal_value=0 -0.00151879 0.000629958 -0.00363811 0.00842087 -0.00989118 0.00161447
internal_weight=0 420 356 230 126 105 125
internal_count=470 420 356 230 126 105 125
is_linear=0
shrinkage=0.05


Tree=32
num_leaves=7
num_cat=0
split_feature=27 236 0 27 236 209
split_gain=6.02321 8.26653 5.09508 3.37863 1.92427 0.27013
threshold=2000.5000000000002 15.165854595000001 419.50000000000006 1977.5000000000002 21.270829290000005 1.0000000180025095e-35
decision_type=2 2 2 2 2 2
left_child=1 5 -2 -3 -4 -1
right_child=2 3 4 -5 -6 -7
leaf_value=0.017843077717156246 -0.016244680046035753 -0.009914869394201737 0.0062584153873225055 0.0042456029093153377 -0.0070228158198297032 0.012828099604696037
leaf_weight=58 82 77 60 93 50 50
leaf_count=58 82 77 60 93 50 50
internal_value=0 0.00470396 -0.00681094 -0.00216826 0.000221492 0.0155213
internal_weight=0 278 192 170 110 108
internal_count=470 278 192 170 110 108
is_linear=0
shrinkage=0.05


Tree=33
num_leaves=6
num_cat=0
split_feature=236 2 209 0 197
split_gain=5.35274 3.44573 2.87872 1.98984 1.73462
threshold=15.078047380000003 1.0000000180025095e-35 1.0000000180025095e-35 404.50000000000006 1.0000000180025095e-35
decision_type=2 2 2 2 2
left_child=4 -2 -3 -4 -1
right_child=1 2 3 -5 -6
leaf_value=0.011516305387557782 0.0059508003126692906 -0.014756765884238405 -0.010234793892003977 0.0013653813588498818 0.001188786216080189
leaf_weight=97 68 77 59 99 70
leaf_count=97 68 77 59 99 70
internal_value=0 -0.00396138 -0.00682958 -0.00296633 0.00718741
internal_weight=0 303 235 158 167
internal_count=470 303 235 158 167
is_linear=0
shrinkage=0.05


Tree=34
num_leaves=7
num_cat=0
split_feature=27 236 0 209 236 195
split_gain=5.40254 8.05217 7.76443 3.55839 0.733348 0.27361
threshold=2003.5000000000002 15.165854595000001 419.50000000000006 1.0000000180025095e-35 21.158397020000006 1.0000000180025095e-35
decision_type=2 2 2 2 2 2
left_child=1 5 -2 -3 -4 -1
right_child=2 3 4 -5 -6 -7
leaf_value=0.012098645169103027 -0.019858904571405479 -0.0089337174665427409 0.0060217481628060347 0.005397731059097818 -0.0023449364202943715 0.016943378103714362
leaf_weight=68 70 99 50 77 55 51
leaf_count=68 70 99 50 77 55 51
internal_value=0 0.00412884 -0.00696004 -0.00266371 0.0016392 0.014175
internal_weight=0 295 175 176 105 119
internal_count=470 295 175 176 105 119
is_linear=0
shrinkage=0.05


Tree=35
num_leaves=7
num_cat=0
split_feature=27 236 27 236 236 27
split_gain=4.88312 6.21188 2.98799 1.31904 1.96817 0.25456
threshold=2000.5000000000002 15.165854595000001 1977.5000000000002 18.876736930000003 21.313868545000002 1973.5000000000002
decision_type=2 2 2 2 2 2
left_child=1 5 -3 -2 -5 -1
right_child=3 2 -4 4 -6 -7
leaf_value=0.016131705639418216 -0.010544470825956928 -0.0090068494093713241 0.0043098646346279371 0.004843318931758404 -0.0090502856711212262 0.011273439162011657
leaf_weight=52 90 77 93 50 52 56
leaf_count=52 90 77 93 50 52 56
internal_value=0 0.00423544 -0.00172182 -0.00613256 -0.0022397 0.0136126
internal_weight=0 278 170 192 102 108
internal_count=470 278 170 192 102 108
is_linear=0
shrinkage=0.05


end of trees

feature_importances:
Column_236=54
Column_27=46
Column_0=42
Column_25=17
Column_2=15
Column_208=11
Column_209=11
Column_29=5
Column_75=3
Column_195=3
Column_26=2
Column_31=2
Column_50=1
Column_77=1
Column_197=1
Column_217=1

parameters:
[boosting: gbdt]
[objective: regression]
[metric: rmse]
[tree_learner: serial]
[device_type: cpu]
[data: ]
[valid: ]
[num_iterations: 10000]
[learning_rate: 0.05]
[num_leaves: 15]
[num_threads: 0]
[deterministic: 0]
[force_col_wise: 0]
[force_row_wise: 0]
[histogram_pool_size: -1]
[max_depth: -1]
[min_data_in_leaf: 50]
[min_sum_hessian_in_leaf: 0.001]
[bagging_fraction: 0.5]
[pos_bagging_fraction: 1]
[neg_bagging_fraction: 1]
[bagging_freq: 0]
[bagging_seed: 10961]
[feature_fraction: 0.8]
[feature_fraction_bynode: 1]
[feature_fraction_seed: 53]
[extra_trees: 0]
[extra_seed: 11644]
[early_stopping_round: 0]
[first_metric_only: 0]
[max_delta_step: 0]
[lambda_l1: 0]
[lambda_l2: 0]
[linear_lambda: 0]
[min_gain_to_split: 0]
[drop_rate: 0.1]
[max_drop: 50]
[skip_drop: 0.5]
[xgboost_dart_mode: 0]
[uniform_drop: 0]
[drop_seed: 30626]
[top_rate: 0.2]
[other_rate: 0.1]
[min_data_per_group: 100]
[max_cat_threshold: 32]
[cat_l2: 10]
[cat_smooth: 10]
[max_cat_to_onehot: 4]
[top_k: 20]
[monotone_constraints: ]
[monotone_constraints_method: basic]
[monotone_penalty: 0]
[feature_contri: ]
[forcedsplits_filename: ]
[refit_decay_rate: 0.9]
[cegb_tradeoff: 1]
[cegb_penalty_split: 0]
[cegb_penalty_feature_lazy: ]
[cegb_penalty_feature_coupled: ]
[path_smooth: 0]
[interaction_constraints: ]
[verbosity: -1]
[saved_feature_importance_type: 0]
[linear_tree: 0]
[max_bin: 255]
[max_bin_by_feature: ]
[min_data_in_bin: 3]
[bin_construct_sample_cnt: 200000]
[data_random_seed: 4071]
[is_enable_sparse: 1]
[enable_bundle: 1]
[use_missing: 1]
[zero_as_missing: 0]
[feature_pre_filter: 1]
[pre_partition: 0]
[two_round: 0]
[header: 0]
[label_column: ]
[weight_column: ]
[group_column: ]
[ignore_column: ]
[categorical_feature: ]
[forcedbins_filename: ]
[precise_float_parser: 0]
[objective_seed: 602]
[num_class: 1]
[is_unbalance: 0]
[scale_pos_weight: 1]
[sigmoid: 1]
[boost_from_average: 1]
[reg_sqrt: 0]
[alpha: 0.9]
[fair_c: 1]
[poisson_max_delta_step: 0.7]
[tweedie_variance_power: 1.5]
[lambdarank_truncation_level: 30]
[lambdarank_norm: 1]
[label_gain: ]
[eval_at: ]
[multi_error_top_k: 1]
[auc_mu_weights: ]
[num_machines: 1]
[local_listen_port: 12400]
[time_out: 120]
[machine_list_filename: ]
[machines: ]
[gpu_platform_id: -1]
[gpu_device_id: -1]
[gpu_use_dp: 0]
[num_gpu: 1]

end of parameters

pandas_categorical:null
