tree
version=v3
num_class=1
num_tree_per_iteration=1
label_index=0
max_feature_idx=236
objective=regression
feature_names=Column_0 Column_1 Column_2 Column_3 Column_4 Column_5 Column_6 Column_7 Column_8 Column_9 Column_10 Column_11 Column_12 Column_13 Column_14 Column_15 Column_16 Column_17 Column_18 Column_19 Column_20 Column_21 Column_22 Column_23 Column_24 Column_25 Column_26 Column_27 Column_28 Column_29 Column_30 Column_31 Column_32 Column_33 Column_34 Column_35 Column_36 Column_37 Column_38 Column_39 Column_40 Column_41 Column_42 Column_43 Column_44 Column_45 Column_46 Column_47 Column_48 Column_49 Column_50 Column_51 Column_52 Column_53 Column_54 Column_55 Column_56 Column_57 Column_58 Column_59 Column_60 Column_61 Column_62 Column_63 Column_64 Column_65 Column_66 Column_67 Column_68 Column_69 Column_70 Column_71 Column_72 Column_73 Column_74 Column_75 Column_76 Column_77 Column_78 Column_79 Column_80 Column_81 Column_82 Column_83 Column_84 Column_85 Column_86 Column_87 Column_88 Column_89 Column_90 Column_91 Column_92 Column_93 Column_94 Column_95 Column_96 Column_97 Column_98 Column_99 Column_100 Column_101 Column_102 Column_103 Column_104 Column_105 Column_106 Column_107 Column_108 Column_109 Column_110 Column_111 Column_112 Column_113 Column_114 Column_115 Column_116 Column_117 Column_118 Column_119 Column_120 Column_121 Column_122 Column_123 Column_124 Column_125 Column_126 Column_127 Column_128 Column_129 Column_130 Column_131 Column_132 Column_133 Column_134 Column_135 Column_136 Column_137 Column_138 Column_139 Column_140 Column_141 Column_142 Column_143 Column_144 Column_145 Column_146 Column_147 Column_148 Column_149 Column_150 Column_151 Column_152 Column_153 Column_154 Column_155 Column_156 Column_157 Column_158 Column_159 Column_160 Column_161 Column_162 Column_163 Column_164 Column_165 Column_166 Column_167 Column_168 Column_169 Column_170 Column_171 Column_172 Column_173 Column_174 Column_175 Column_176 Column_177 Column_178 Column_179 Column_180 Column_181 Column_182 Column_183 Column_184 Column_185 Column_186 Column_187 Column_188 Column_189 Column_190 Column_191 Column_192 Column_193 Column_194 Column_195 Column_196 Column_197 Column_198 Column_199 Column_200 Column_201 Column_202 Column_203 Column_204 Column_205 Column_206 Column_207 Column_208 Column_209 Column_210 Column_211 Column_212 Column_213 Column_214 Column_215 Column_216 Column_217 Column_218 Column_219 Column_220 Column_221 Column_222 Column_223 Column_224 Column_225 Column_226 Column_227 Column_228 Column_229 Column_230 Column_231 Column_232 Column_233 Column_234 Column_235 Column_236
feature_infos=[4:739] none [0:1] none none none none none none none none none none none none none none none none none none none none none none [0:25] [0:100] [0:2018] none [0:1] none [0:1] [0:1] [0:1] none none none none none none none none none none none none none none none [0:1] [0:1] none none none none none none none none none none none none none none none none none none none none none none [0:1] none [0:1] none [0:1] none none none none none none none none none none none none none [0:1] none none none none none none none none none none none none none none none none none none none none [0:1] none [0:1] [0:1] none none none none none none none none none none none [0:1] [0:1] none [0:1] none none none none none none none none none none none none none none none none none none none none none none none none none none none none none none none none none none none none none none none none none none none none none none none none none none none none none none none none none none none none none none none none [0:1] none [0:1] none none none none none none none none none [0:1] [0:1] [0:1] none none none none [0:1] none [0:1] [0:1] none none none none none none none none none none none none none none none none none none [8.5941493260000001:42.129650480000002]
tree_sizes=745 659 830 831 741 827 828 818 821 823 740 745 660 743 832 833 827 742 741 743 745 743 829 839 746 745 750 829 654 748 738 740 746 750 745 741 742 742 658 749 746 828 739 741 746 828 834 832 828 746 748 841 743 838 745 834 825 841 827 742 748 669 830

Tree=0
num_leaves=7
num_cat=0
split_feature=236 2 27 25 27 236
split_gain=98.4614 17.4716 8.86848 8.63749 7.00567 0.979259
threshold=10.467710685000002 1.0000000180025095e-35 2012.5000000000002 1.2500000000000002 1980.5000000000002 19.041120585000005
decision_type=2 2 2 2 2 2
left_child=-1 -2 3 4 -3 -6
right_child=1 2 -4 -5 5 -7
leaf_value=0.048358238069640132 0.010125714303399399 -0.03247132481444389 -0.031457607125517609 0.0069308660272905161 -0.015670681623426407 -0.0069115374015773249
leaf_weight=86 79 50 73 50 54 78
leaf_count=86 79 50 73 50 54 78
internal_value=-1.03991e-08 -0.0108302 -0.0162582 -0.0114756 -0.0165323 -0.0104948
internal_weight=0 384 305 232 182 132
internal_count=470 384 305 232 182 132
is_linear=0
shrinkage=1


Tree=1
num_leaves=6
num_cat=0
split_feature=236 2 25 209 236
split_gain=88.8615 15.7681 8.03941 6.12673 3.16968
threshold=10.467710685000002 1.0000000180025095e-35 1.7500000000000002 1.0000000180025095e-35 18.876736930000003
decision_type=2 2 2 2 2
left_child=-1 -2 3 -3 -5
right_child=1 2 -4 4 -6
leaf_value=0.045940337572679964 0.0096194391480729554 -0.031697255613184289 -0.0012296543667713801 -0.022969176584766025 -0.0083794616367463236
leaf_weight=86 79 76 75 63 91
leaf_count=86 79 76 75 63 91
internal_value=0 -0.0102887 -0.0154453 -0.0200808 -0.014348
internal_weight=0 384 305 230 154
internal_count=470 384 305 230 154
is_linear=0
shrinkage=0.05


Tree=2
num_leaves=8
num_cat=0
split_feature=236 208 2 27 236 27 236
split_gain=80.3381 15.0463 17.8084 8.8878 4.98127 0.998717 0.062776
threshold=10.278986040000001 1.0000000180025095e-35 1.0000000180025095e-35 2012.5000000000002 20.963646615000005 1997.5000000000002 24.073728040000002
decision_type=2 2 2 2 2 2 2
left_child=-1 2 -2 4 5 -4 -6
right_child=1 -3 3 -5 6 -7 -8
leaf_value=0.044637333673526007 0.017256497942349493 -0.033795756697654722 0.0064837221950292583 -0.028173646978178965 -0.01296222545936996 -0.0034607532269814441 -0.015443053125750787
leaf_weight=83 68 55 50 61 51 51 51
leaf_count=83 68 55 50 61 51 51 51
internal_value=0 -0.00957338 -0.00556064 -0.0114378 -0.00640878 0.00146225 -0.0142026
internal_weight=0 387 332 264 203 101 102
internal_count=470 387 332 264 203 101 102
is_linear=0
shrinkage=0.05


Tree=3
num_leaves=8
num_cat=0
split_feature=236 208 2 27 236 27 236
split_gain=72.5051 13.5793 16.0721 8.02124 4.4956 0.901342 0.0566554
threshold=10.278986040000001 1.0000000180025095e-35 1.0000000180025095e-35 2012.5000000000002 20.963646615000005 1997.5000000000002 24.073728040000002
decision_type=2 2 2 2 2 2 2
left_child=-1 2 -2 4 5 -4 -6
right_child=1 -3 3 -5 6 -7 -8
leaf_value=0.042405467543257289 0.016393673025509894 -0.032105969298969618 0.0061595354378223416 -0.026764964507740054 -0.012314114347100259 -0.003287715486743871 -0.014670901935474545
leaf_weight=83 68 55 50 61 51 51 51
leaf_count=83 68 55 50 61 51 51 51
internal_value=0 -0.00909471 -0.00528261 -0.0108659 -0.00608834 0.00138914 -0.0134925
internal_weight=0 387 332 264 203 101 102
internal_count=470 387 332 264 203 101 102
is_linear=0
shrinkage=0.05


Tree=4
num_leaves=7
num_cat=0
split_feature=236 208 2 25 0 0
split_gain=65.4359 12.2553 14.5051 6.07169 5.74638 2.32439
threshold=10.278986040000001 1.0000000180025095e-35 1.0000000180025095e-35 1.7500000000000002 181.50000000000003 558.00000000000011
decision_type=2 2 2 2 2 2
left_child=-1 2 -2 4 -4 -6
right_child=1 -3 3 -5 5 -7
leaf_value=0.04028519366879061 0.015573989862904831 -0.030500670725649055 -0.029355281636118891 0.0028109982101754711 -0.014708689002545326 -0.0018322202066580456
leaf_weight=83 68 55 50 66 91 57
leaf_count=83 68 55 50 66 91 57
internal_value=0 -0.00863998 -0.00501848 -0.0103226 -0.0147005 -0.00974951
internal_weight=0 387 332 264 198 148
internal_count=470 387 332 264 198 148
is_linear=0
shrinkage=0.05


Tree=5
num_leaves=8
num_cat=0
split_feature=27 0 0 0 209 75 112
split_gain=30.6327 18.3417 27.8705 7.72784 4.43101 8.24805 3.25695
threshold=1995.5000000000002 376.50000000000006 220.50000000000003 181.50000000000003 1.0000000180025095e-35 1.0000000180025095e-35 1.0000000180025095e-35
decision_type=2 2 2 2 2 2 2
left_child=1 2 -1 -2 -5 -6 -3
right_child=3 6 -4 4 5 -7 -8
leaf_value=-0.00039054966705330351 -0.029855137522898468 -0.012246930982917549 0.045820089659258115 -0.019821260845796631 0.011407238898570078 -0.013825507034858069 0.005800086081027985
leaf_weight=59 51 50 73 55 57 75 50
leaf_count=59 51 50 73 55 57 75 50
internal_value=0 0.0129288 0.0251653 -0.0126029 -0.0078977 -0.00292955 -0.00322342
internal_weight=0 232 132 238 187 132 100
internal_count=470 232 132 238 187 132 100
is_linear=0
shrinkage=0.05


Tree=6
num_leaves=8
num_cat=0
split_feature=236 208 2 27 236 0 27
split_gain=53.812 10.4939 12.629 6.88336 4.0196 1.14228 0.794146
threshold=10.278986040000001 1.0000000180025095e-35 1.0000000180025095e-35 2012.5000000000002 20.963646615000005 527.50000000000011 1997.5000000000002
decision_type=2 2 2 2 2 2 2
left_child=-1 2 -2 4 6 -6 -4
right_child=1 -3 3 -5 5 -7 -8
leaf_value=0.036532288758331033 0.014730705931673155 -0.028063906769860876 0.0065408685207366942 -0.024161417428098741 -0.017197108913499577 -0.0066126425787806521 -0.0023268265101839517
leaf_weight=83 68 55 50 61 52 50 51
leaf_count=83 68 55 50 61 52 50 51
internal_value=0 -0.00783509 -0.00448393 -0.00943316 -0.00500742 -0.0120086 0.00206312
internal_weight=0 387 332 264 203 102 101
internal_count=470 387 332 264 203 102 101
is_linear=0
shrinkage=0.05


Tree=7
num_leaves=8
num_cat=0
split_feature=0 0 2 209 0 0 0
split_gain=10.449 34.3562 5.94471 8.34169 5.78634 3.60344 0.654194
threshold=190.50000000000003 376.50000000000006 1.0000000180025095e-35 1.0000000180025095e-35 276.50000000000006 558.00000000000011 90.500000000000014
decision_type=2 2 2 2 2 2 2
left_child=6 4 -3 -4 -2 -5 -1
right_child=1 2 3 5 -6 -7 -8
leaf_value=-0.008980727290734649 0.014320204896377585 0.006789327220666031 -0.026090118117996903 -0.013059213054629993 0.036975462793830842 0.0044469930118683611 -0.016640347075308599
leaf_weight=50 51 63 61 53 63 66 63
leaf_count=50 51 63 61 53 63 66 63
internal_value=0 0.00419434 -0.00642966 -0.0110563 0.0268402 -0.00334989 -0.0132511
internal_weight=0 357 243 180 114 119 113
internal_count=470 357 243 180 114 119 113
is_linear=0
shrinkage=0.05


Tree=8
num_leaves=8
num_cat=0
split_feature=236 208 27 0 25 27 0
split_gain=44.6205 9.04859 11.7022 13.5825 8.24739 5.91094 1.97882
threshold=10.278986040000001 1.0000000180025095e-35 2006.5000000000002 565.50000000000011 1.7500000000000002 1966.5000000000002 534.50000000000011
decision_type=2 2 2 2 2 2 2
left_child=-1 2 4 -4 5 -2 -7
right_child=1 -3 3 -5 -6 6 -8
leaf_value=0.033266332305698511 -0.01704868859797716 -0.025918839817697353 -0.033667207629246229 0.00087135146287354573 0.020141573844907376 -0.0021672872374906686 0.011019699938595296
leaf_weight=83 50 55 59 55 52 66 50
leaf_count=83 50 55 59 55 52 66 50
internal_value=0 -0.00713464 -0.0040228 -0.0170039 0.00276547 -0.00267765 0.00351676
internal_weight=0 387 332 114 218 166 116
internal_count=470 387 332 114 218 166 116
is_linear=0
shrinkage=0.05


Tree=9
num_leaves=8
num_cat=0
split_feature=27 27 27 114 27 75 31
split_gain=23.0939 8.38817 4.86988 3.60207 3.616 3.03391 0.31138
threshold=1995.5000000000002 1958.5000000000002 1984.5000000000002 1.0000000180025095e-35 2012.5000000000002 1.0000000180025095e-35 1.0000000180025095e-35
decision_type=2 2 2 2 2 2 2
left_child=1 -1 6 -2 5 -5 -3
right_child=3 2 -4 4 -6 -7 -8
leaf_value=-0.0036941246060070709 -0.021903943868452 0.020935098214299772 0.0052999510354961137 0.0065193743708561059 -0.017281734510775536 -0.0095439402499433723 0.02629096092537557
leaf_weight=67 57 58 56 53 62 66 51
leaf_count=67 57 58 56 53 62 66 51
internal_value=0 0.0112257 0.0172841 -0.0109427 -0.00749083 -0.00238969 0.0234411
internal_weight=0 232 165 238 181 119 109
internal_count=470 232 165 238 181 119 109
is_linear=0
shrinkage=0.05


Tree=10
num_leaves=7
num_cat=0
split_feature=236 2 25 0 209 27
split_gain=38.8008 7.74257 6.39944 4.52806 7.74566 1.1723
threshold=10.467710685000002 1.0000000180025095e-35 1.7500000000000002 175.50000000000003 1.0000000180025095e-35 2005.5000000000002
decision_type=2 2 2 2 2 2
left_child=-1 -2 3 -3 -5 -6
right_child=1 2 -4 4 5 -7
leaf_value=0.030356924391763157 0.0071516113151660595 -0.026356771203378839 0.0022710261245568594 -0.026237276379229891 0.0025968641415238382 -0.0075203139279315726
leaf_weight=86 79 60 75 53 50 67
leaf_count=86 79 60 75 53 50 67
internal_value=0 -0.00679869 -0.010412 -0.0145478 -0.01038 -0.00319673
internal_weight=0 384 305 230 170 117
internal_count=470 384 305 230 170 117
is_linear=0
shrinkage=0.05


Tree=11
num_leaves=7
num_cat=0
split_feature=236 208 2 25 0 236
split_gain=35.0552 7.6599 9.12061 4.75424 4.11643 0.0926701
threshold=10.278986040000001 1.0000000180025095e-35 1.0000000180025095e-35 1.7500000000000002 453.00000000000006 21.292526025000004
decision_type=2 2 2 2 2 2
left_child=-1 2 -2 4 -4 -6
right_child=1 -3 3 -5 5 -7
leaf_value=0.029485860368214458 0.012868300286765375 -0.023606628369201313 -0.01882315854332885 0.0039549916643988004 -0.0028815737366676333 -0.00592575016617775
leaf_weight=83 68 55 98 66 50 50
leaf_count=83 68 55 98 66 50 50
internal_value=0 -0.00632384 -0.00346073 -0.00766669 -0.0115406 -0.00440366
internal_weight=0 387 332 264 198 100
internal_count=470 387 332 264 198 100
is_linear=0
shrinkage=0.05


Tree=12
num_leaves=6
num_cat=0
split_feature=236 27 25 236 209
split_gain=31.6373 6.49975 5.7781 2.53956 3.20757
threshold=10.278986040000001 2012.5000000000002 1.2500000000000002 20.963646615000005 1.0000000180025095e-35
decision_type=2 2 2 2 2
left_child=-1 2 3 -2 -5
right_child=1 -3 -4 4 -6
leaf_value=0.028011567684182205 0.00025280794605266217 -0.018904833428752731 0.0094322730352900726 -0.018022990441077379 -0.0033478214944663801
leaf_weight=83 86 78 74 73 76
leaf_count=83 86 78 74 73 76
internal_value=0 -0.00600765 -0.00275205 -0.00658881 -0.0105377
internal_weight=0 387 309 235 149
internal_count=470 387 309 235 149
is_linear=0
shrinkage=0.05


Tree=13
num_leaves=7
num_cat=0
split_feature=236 2 25 0 209 0
split_gain=28.5527 6.24337 5.36756 3.86206 6.43565 1.08077
threshold=10.278986040000001 1.0000000180025095e-35 1.7500000000000002 175.50000000000003 1.0000000180025095e-35 537.50000000000011
decision_type=2 2 2 2 2 2
left_child=-1 -2 3 -3 -5 -6
right_child=1 2 -4 4 5 -7
leaf_value=0.026610989491623566 0.0066363476824739739 -0.023687291977306207 0.0025453719457513412 -0.02338645040707768 -0.006988889320951994 0.0026310200603412732
leaf_weight=83 81 60 76 53 61 56
leaf_count=83 81 60 76 53 61 56
internal_value=0 -0.00570727 -0.00897469 -0.0127813 -0.00893216 -0.00238449
internal_weight=0 387 306 230 170 117
internal_count=470 387 306 230 170 117
is_linear=0
shrinkage=0.05


Tree=14
num_leaves=8
num_cat=0
split_feature=27 27 27 31 27 217 31
split_gain=17.5308 6.19174 3.37213 2.97211 2.91385 2.49785 0.264977
threshold=1995.5000000000002 1958.5000000000002 1984.5000000000002 1.0000000180025095e-35 2005.5000000000002 1.0000000180025095e-35 1.0000000180025095e-35
decision_type=2 2 2 2 2 2 2
left_child=1 -1 6 4 -2 -6 -3
right_child=3 2 -4 -5 5 -7 -8
leaf_value=-0.0030378663690010118 0.0038542844501196168 0.017797436488888645 0.0050133171657632501 -0.018948056452697325 -0.017923796331060345 -0.0037509513546281786 0.022738134640944648
leaf_weight=67 51 58 56 62 58 67 51
leaf_count=67 51 58 56 62 58 67 51
internal_value=0 0.00978062 0.0149857 -0.00953405 -0.00621776 -0.0103272 0.0201091
internal_weight=0 232 165 238 176 125 109
internal_count=470 232 165 238 176 125 109
is_linear=0
shrinkage=0.05


Tree=15
num_leaves=8
num_cat=0
split_feature=236 208 2 27 236 27 0
split_gain=24.8538 6.27418 7.54411 4.06313 2.87279 0.632119 0.592342
threshold=10.467710685000002 1.0000000180025095e-35 1.0000000180025095e-35 2012.5000000000002 20.963646615000005 1997.5000000000002 527.50000000000011
decision_type=2 2 2 2 2 2 2
left_child=-1 2 -2 4 5 -4 -6
right_child=1 -3 3 -5 6 -7 -8
leaf_value=0.024295955108002174 0.012285968891669517 -0.021072736003182154 0.006791521646082402 -0.017930239927573283 -0.012846120489904515 -0.0011590686328709127 -0.0052241075411438949
leaf_weight=86 66 55 50 61 52 50 50
leaf_count=86 66 55 50 61 52 50 50
internal_value=0 -0.00544128 -0.00282812 -0.00662101 -0.00320585 0.00281623 -0.00910984
internal_weight=0 384 329 263 202 100 102
internal_count=470 384 329 263 202 100 102
is_linear=0
shrinkage=0.05


Tree=16
num_leaves=8
num_cat=0
split_feature=236 208 27 236 25 27 27
split_gain=22.4528 5.7378 7.31412 7.14537 5.51937 4.58292 1.07558
threshold=10.278986040000001 1.0000000180025095e-35 2006.5000000000002 18.828770590000001 1.7500000000000002 1966.5000000000002 1996.5000000000002
decision_type=2 2 2 2 2 2 2
left_child=-1 2 4 -4 5 -2 -7
right_child=1 -3 3 -5 -6 6 -8
leaf_value=0.023597886862165959 -0.014323273019865156 -0.020019099143418401 -0.027008001372218135 -0.0017813375568948688 0.01699837067594322 0.0088556071463972343 -0.00078653328609271144
leaf_weight=83 50 55 50 64 52 55 61
leaf_count=83 50 55 50 64 52 55 61
internal_value=0 -0.00506105 -0.00258305 -0.0128457 0.00278363 -0.00166918 0.00378517
internal_weight=0 387 332 114 218 166 116
internal_count=470 387 332 114 218 166 116
is_linear=0
shrinkage=0.05


Tree=17
num_leaves=7
num_cat=0
split_feature=236 208 2 0 27 236
split_gain=20.2644 5.10853 6.53897 3.72258 9.04048 4.40083
threshold=10.467710685000002 1.0000000180025095e-35 1.0000000180025095e-35 558.00000000000011 2006.5000000000002 16.221073685000004
decision_type=2 2 2 2 2 2
left_child=-1 2 -2 4 5 -4
right_child=1 -3 3 -5 -6 -7
leaf_value=0.02193835930422295 0.01151592754644243 -0.019018143578009173 0.007450326039166801 0.0029104328528046612 -0.026973271532492207 -0.011173939292452166
leaf_weight=86 66 55 58 80 55 70
leaf_count=86 66 55 58 80 55 70
internal_value=0 -0.00491328 -0.00255532 -0.00608651 -0.0100196 -0.00273482
internal_weight=0 384 329 263 183 128
internal_count=470 384 329 263 183 128
is_linear=0
shrinkage=0.05


Tree=18
num_leaves=7
num_cat=0
split_feature=236 208 27 0 2 236
split_gain=18.3292 4.66992 6.0297 9.50393 4.05161 3.97145
threshold=10.278986040000001 1.0000000180025095e-35 2006.5000000000002 565.50000000000011 1.0000000180025095e-35 20.963646615000005
decision_type=2 2 2 2 2 2
left_child=-1 2 4 -4 -2 -6
right_child=1 -3 3 -5 5 -7
leaf_value=0.021321074287575414 0.013347932258095111 -0.018067236569794743 -0.025594014131416709 0.0032972619547085333 0.0059149282972937754 -0.010052462885777156
leaf_weight=83 62 55 59 55 81 75
leaf_count=83 62 55 59 55 81 75
internal_value=0 -0.00457274 -0.0023372 -0.0116552 0.00253553 -0.0017617
internal_weight=0 387 332 114 218 156
internal_count=470 387 332 114 218 156
is_linear=0
shrinkage=0.05


Tree=19
num_leaves=7
num_cat=0
split_feature=236 208 2 236 236 236
split_gain=16.6712 4.96724 4.32945 3.40067 1.9269 1.90828
threshold=9.2488978485000022 1.0000000180025095e-35 1.0000000180025095e-35 15.153029020000002 18.828770590000001 21.24630213
decision_type=2 2 2 2 2 2
left_child=-1 2 -2 -4 -5 -6
right_child=1 -3 3 4 5 -7
leaf_value=0.027292568221688268 0.0098956163130598535 -0.016193068157585842 0.0052949462355555673 -0.014896588002968775 0.0035362553835477472 -0.0082405819044429427
leaf_weight=50 73 63 76 57 53 98
leaf_count=50 73 63 76 57 53 98
internal_value=0 -0.00324912 -0.000964888 -0.0037565 -0.00706375 -0.00410699
internal_weight=0 420 357 284 208 151
internal_count=470 420 357 284 208 151
is_linear=0
shrinkage=0.05


Tree=20
num_leaves=7
num_cat=0
split_feature=236 25 27 27 236 209
split_gain=15.2022 4.42424 5.85183 3.56097 2.28641 3.03696
threshold=10.278986040000001 1.7500000000000002 2000.5000000000002 2012.5000000000002 20.963646615000005 1.0000000180025095e-35
decision_type=2 2 2 2 2 2
left_child=-1 3 -3 4 -2 -6
right_child=1 2 -4 -5 5 -7
leaf_value=0.019417393934654904 0.0016671944409608842 0.016748366643692933 -0.0073233263641595842 -0.019462520241737367 -0.015817515532867282 -0.0015379645420532479
leaf_weight=83 87 51 50 50 73 76
leaf_count=83 87 51 50 50 73 76
internal_value=0 -0.00416445 0.00483169 -0.00734141 -0.00477338 -0.00853399
internal_weight=0 387 101 286 236 149
internal_count=470 387 101 286 236 149
is_linear=0
shrinkage=0.05


Tree=21
num_leaves=7
num_cat=0
split_feature=0 0 29 0 75 0
split_gain=5.14126 7.66896 7.6687 6.30146 1.80981 0.0939611
threshold=116.50000000000001 376.50000000000006 1.0000000180025095e-35 235.50000000000003 1.0000000180025095e-35 611.50000000000011
decision_type=2 2 2 2 2 2
left_child=-1 3 4 -2 -3 -6
right_child=1 2 -4 -5 5 -7
leaf_value=-0.012714948756483331 -0.00067985425905688957 0.0063646644531759654 -0.020669753245059767 0.019403831509666312 -0.0018744818955803149 -0.0048949610222788417
leaf_weight=68 69 89 51 90 52 51
leaf_count=68 69 89 51 90 52 51
internal_value=0 0.00215079 -0.00343547 0.0106883 0.00114239 -0.00337006
internal_weight=0 402 243 159 192 103
internal_count=470 402 243 159 192 103
is_linear=0
shrinkage=0.05


Tree=22
num_leaves=8
num_cat=0
split_feature=236 27 236 0 2 27 236
split_gain=12.8773 4.48503 7.40319 6.94452 4.22416 3.71618 2.64708
threshold=9.2488978485000022 2000.5000000000002 15.199966605000002 417.50000000000006 1.0000000180025095e-35 1980.5000000000002 21.083968415000005
decision_type=2 2 2 2 2 2 2
left_child=-1 2 -2 -3 -4 -6 -5
right_child=1 3 4 6 5 -7 -8
leaf_value=0.023986878067255024 0.018437341502151237 -0.020377136309941611 0.0067885844529989893 0.0076771065957990355 -0.018422744395556273 -3.9439879557383916e-05 -0.0075924974953522906
leaf_weight=50 52 75 68 51 54 56 64
leaf_count=50 52 75 68 51 54 56 64
internal_value=0 -0.00285558 0.00184056 -0.00854038 -0.00300794 -0.00906397 -0.00082076
internal_weight=0 420 230 190 178 110 115
internal_count=470 420 230 190 178 110 115
is_linear=0
shrinkage=0.05


Tree=23
num_leaves=8
num_cat=0
split_feature=236 208 0 2 236 75 236
split_gain=11.6218 4.18899 3.91543 2.25551 2.58117 1.63008 0.726692
threshold=9.2488978485000022 1.0000000180025095e-35 116.50000000000001 1.0000000180025095e-35 20.963646615000005 1.0000000180025095e-35 23.071564120000001
decision_type=2 2 2 2 2 2 2
left_child=-1 2 -2 -4 5 -5 -6
right_child=1 -3 3 4 6 -7 -8
leaf_value=0.022787534259259702 -0.012885232544927436 -0.014599568006538211 0.0097120314247475317 0.0091878719787512522 -0.010668840751333057 -0.0019935400660348233 -0.0023082114098703162
leaf_weight=50 55 63 67 70 53 61 51
leaf_count=50 55 63 67 70 53 61 51
internal_value=0 -0.0027128 -0.000615137 0.00161948 -0.000687754 0.00398126 -0.00656892
internal_weight=0 420 357 302 235 131 104
internal_count=470 420 357 302 235 131 104
is_linear=0
shrinkage=0.05


Tree=24
num_leaves=7
num_cat=0
split_feature=27 25 31 27 217 27
split_gain=9.15849 4.47048 2.37278 1.78868 1.60844 0.418526
threshold=1995.5000000000002 1.7500000000000002 1.0000000180025095e-35 1958.5000000000002 1.0000000180025095e-35 1980.5000000000002
decision_type=2 2 2 2 2 2
left_child=1 3 4 -1 -2 -5
right_child=2 -3 -4 5 -6 -7
leaf_value=-0.0043326937526996642 -0.0091640563099645075 0.018954348703451709 -0.015302548978117206 0.009116751738865652 0.00043542300506184504 0.0030716758127091455
leaf_weight=56 80 59 62 67 96 50
leaf_count=56 80 59 62 67 96 50
internal_value=0 0.00706932 -0.0068911 0.00301604 -0.00392798 0.00653339
internal_weight=0 232 238 173 176 117
internal_count=470 232 238 173 176 117
is_linear=0
shrinkage=0.05


Tree=25
num_leaves=7
num_cat=0
split_feature=236 208 27 236 236 27
split_gain=10.1142 3.68669 5.20995 4.3177 3.54131 2.38701
threshold=9.2488978485000022 1.0000000180025095e-35 2005.5000000000002 18.828770590000001 24.126232890000001 1984.5000000000002
decision_type=2 2 2 2 2 2
left_child=-1 2 4 -4 5 -2
right_child=1 -3 3 -5 -6 -7
leaf_value=0.021258186478167775 0.015991024231715573 -0.013682089190161418 -0.018855608760246209 -0.00088881273047033559 -0.005104356363290867 0.0031803941971427483
leaf_weight=50 63 63 56 83 69 86
leaf_count=50 63 63 56 83 69 86
internal_value=0 -0.00253074 -0.000562851 -0.00812723 0.00426031 0.00859697
internal_weight=0 420 357 139 218 149
internal_count=470 420 357 139 218 149
is_linear=0
shrinkage=0.05


Tree=26
num_leaves=7
num_cat=0
split_feature=236 25 27 236 75 31
split_gain=9.20971 3.60329 2.6614 1.78939 1.55958 0.939381
threshold=10.467710685000002 1.7500000000000002 2012.5000000000002 21.735715895000002 1.0000000180025095e-35 1.0000000180025095e-35
decision_type=2 2 2 2 2 2
left_child=-1 2 3 4 -2 -5
right_child=1 -3 -4 5 -6 -7
leaf_value=0.014789739251136781 0.0054989905237700001 0.0049618775196069364 -0.016626328423619271 -0.012571456489123166 -0.0059012410586530518 -0.0035056596094707273
leaf_weight=86 66 98 50 62 55 53
leaf_count=86 66 98 50 62 55 53
internal_value=0 -0.00331229 -0.00614749 -0.00392739 0.000317067 -0.00839331
internal_weight=0 384 286 236 121 115
internal_count=470 384 286 236 121 115
is_linear=0
shrinkage=0.05


Tree=27
num_leaves=8
num_cat=0
split_feature=236 208 27 0 25 236 31
split_gain=8.47181 3.2787 4.49853 6.68941 3.14106 4.26334 0.782498
threshold=9.2488978485000022 1.0000000180025095e-35 2005.5000000000002 421.00000000000006 1.7500000000000002 24.126232890000001 1.0000000180025095e-35
decision_type=2 2 2 2 2 2 2
left_child=-1 2 4 -4 5 6 -2
right_child=1 -3 3 -5 -6 -7 -8
leaf_value=0.019455789744853975 0.011166233561933041 -0.012832399292124642 -0.021461635715556596 0.001121503036729125 0.014108262439830261 -0.010106130659017557 0.0023638096802374897
leaf_weight=50 50 63 53 86 57 60 51
leaf_count=50 50 63 53 86 57 60 51
internal_value=0 -0.00231617 -0.000460359 -0.00748933 0.00402142 0.000450299 0.00672145
internal_weight=0 420 357 139 218 161 101
internal_count=470 420 357 139 218 161 101
is_linear=0
shrinkage=0.05


Tree=28
num_leaves=6
num_cat=0
split_feature=236 25 27 236 27
split_gain=7.65609 3.0548 2.23285 1.52153 1.6005
threshold=10.467710685000002 1.7500000000000002 2012.5000000000002 20.963646615000005 1977.5000000000002
decision_type=2 2 2 2 2
left_child=-1 2 3 -2 -5
right_child=1 -3 -4 4 -6
leaf_value=0.013484692679133353 0.0016569593792845464 0.0045984208681092041 -0.015228673011064531 -0.012320555128869327 -0.0019167022791081742
leaf_weight=86 87 98 50 68 81
leaf_count=86 87 98 50 68 81
internal_value=0 -0.00302001 -0.00563052 -0.00359701 -0.00666477
internal_weight=0 384 286 236 149
internal_count=470 384 286 236 149
is_linear=0
shrinkage=0.05


Tree=29
num_leaves=7
num_cat=0
split_feature=236 75 27 236 208 27
split_gain=7.09817 3.09457 4.13725 4.20043 3.71477 1.75039
threshold=9.2488978485000022 1.0000000180025095e-35 2006.5000000000002 20.963646615000005 1.0000000180025095e-35 2003.5000000000002
decision_type=2 2 2 2 2 2
left_child=-1 2 3 -2 5 -3
right_child=1 4 -4 -5 -6 -7
leaf_value=0.017808765645138919 0.015040454124981487 0.0024057503063119501 -0.0091894332062581498 -0.0015889128873076957 -0.018003814925368018 -0.008133179525534313
leaf_weight=50 74 83 58 78 52 75
leaf_count=50 74 83 58 78 52 75
internal_value=0 -0.00212009 0.00217177 0.00650696 -0.00641195 -0.00259691
internal_weight=0 420 210 152 210 158
internal_count=470 420 210 152 210 158
is_linear=0
shrinkage=0.05


Tree=30
num_leaves=7
num_cat=0
split_feature=236 29 0 27 27 0
split_gain=6.4061 2.97007 3.39906 3.09626 1.55581 1.53745
threshold=9.2488978485000022 1.0000000180025095e-35 116.50000000000001 1997.5000000000002 1964.5000000000002 517.50000000000011
decision_type=2 2 2 2 2 2
left_child=-1 2 -2 4 -4 -5
right_child=1 -3 3 5 -6 -7
leaf_value=0.016918327325955034 -0.010904689482004758 -0.010008856309270793 0.0016691552233640797 -0.0081428628238482455 0.012799671235804758 0.0022568321992437563
leaf_weight=50 57 91 54 66 75 77
leaf_count=50 57 91 54 66 75 77
internal_value=0 -0.00201409 0.000197233 0.00252374 0.00814039 -0.00254303
internal_weight=0 420 329 272 129 143
internal_count=470 420 329 272 129 143
is_linear=0
shrinkage=0.05


Tree=31
num_leaves=7
num_cat=0
split_feature=0 0 29 0 209 0
split_gain=3.18685 3.8161 6.21613 2.45526 1.59033 0.421996
threshold=116.50000000000001 376.50000000000006 1.0000000180025095e-35 235.50000000000003 1.0000000180025095e-35 582.50000000000011
decision_type=2 2 2 2 2 2
left_child=-1 3 4 -2 -3 -6
right_child=1 2 -4 -5 5 -7
leaf_value=-0.01001060117611333 0.00061970642511395449 -0.0030726712599227378 -0.017763717184025869 0.013156072220428744 0.0028752011246979238 0.0092451701370569375
leaf_weight=68 69 88 51 90 52 52
leaf_count=68 69 88 51 90 52 52
internal_value=0 0.00169334 -0.00224726 0.00771576 0.00187429 0.00606019
internal_weight=0 402 243 159 192 104
internal_count=470 402 243 159 192 104
is_linear=0
shrinkage=0.05


Tree=32
num_leaves=7
num_cat=0
split_feature=27 236 236 73 236 236
split_gain=5.60174 8.06351 4.01576 1.98345 1.86499 1.46416
threshold=1995.5000000000002 15.373755505000002 18.828770590000001 1.0000000180025095e-35 21.335168205000006 13.303481790000001
decision_type=2 2 2 2 2 2
left_child=1 -1 5 -3 -4 -2
right_child=2 3 4 -5 -6 -7
leaf_value=0.016823161860303758 -0.0063292075229703267 -0.0073448284381788373 0.006985043929737123 0.0047717691478082695 -0.0051425069993869827 -0.017825937563360768
leaf_weight=94 53 79 61 59 66 58
leaf_count=94 53 79 61 59 66 58
internal_value=0 0.00552875 -0.00538937 -0.00216454 0.000682537 -0.0123365
internal_weight=0 232 238 138 127 111
internal_count=470 232 238 138 127 111
is_linear=0
shrinkage=0.05


Tree=33
num_leaves=7
num_cat=0
split_feature=236 115 0 25 217 73
split_gain=4.8597 2.79924 3.0631 1.54246 1.1676 1.4671
threshold=9.2488978485000022 1.0000000180025095e-35 127.50000000000001 1.2500000000000002 1.0000000180025095e-35 1.0000000180025095e-35
decision_type=2 2 2 2 2 2
left_child=-1 2 -2 4 5 -4
right_child=1 -3 3 -5 -6 -7
leaf_value=0.014735515855252743 -0.010064273304305971 -0.012055273432480662 0.0075606082247136391 0.0079811889430673067 -0.0045415499164826343 -0.0031440449780539463
leaf_weight=50 64 57 73 79 90 57
leaf_count=50 64 57 73 79 90 57
internal_value=0 -0.00175423 -0.000136709 0.00198826 -0.000163753 0.00286703
internal_weight=0 420 363 299 220 130
internal_count=470 420 363 299 220 130
is_linear=0
shrinkage=0.05


Tree=34
num_leaves=7
num_cat=0
split_feature=27 236 236 2 236 236
split_gain=4.9711 6.91077 3.64047 3.02232 1.69879 1.21913
threshold=1995.5000000000002 15.373755505000002 18.828770590000001 1.0000000180025095e-35 21.335168205000006 13.303481790000001
decision_type=2 2 2 2 2 2
left_child=1 -1 5 -3 -4 -2
right_child=2 3 4 -5 -6 -7
leaf_value=0.015664237737655639 -0.0062098747857336732 0.0063995073961674188 0.0067193992161115662 -0.0084999203742421297 -0.0048551660031080253 -0.016700576950699608
leaf_weight=94 53 61 61 77 66 58
leaf_count=94 53 61 61 77 66 58
internal_value=0 0.00520825 -0.00507695 -0.00191394 0.000704271 -0.0116915
internal_weight=0 232 238 138 127 111
internal_count=470 232 238 138 127 111
is_linear=0
shrinkage=0.05


Tree=35
num_leaves=7
num_cat=0
split_feature=27 236 236 2 236 236
split_gain=4.48642 6.2567 3.2918 2.85323 1.43219 1.20277
threshold=1995.5000000000002 15.446744070000003 18.699124905000005 1.0000000180025095e-35 21.868928090000004 13.303481790000001
decision_type=2 2 2 2 2 2
left_child=1 -1 5 -3 -4 -2
right_child=2 3 4 -5 -6 -7
leaf_value=0.014720943110296503 -0.0058993813142461599 0.006079531857957606 0.0048905951805509537 -0.0084821770812074353 -0.0057890785120005882 -0.01645429442044009
leaf_weight=96 53 61 77 75 53 55
leaf_count=96 53 61 77 75 53 55
internal_value=0 0.00494784 -0.0048231 -0.00195082 0.000536574 -0.0112746
internal_weight=0 232 238 136 130 108
internal_count=470 232 238 136 130 108
is_linear=0
shrinkage=0.05


Tree=36
num_leaves=7
num_cat=0
split_feature=27 236 0 114 236 0
split_gain=4.10597 6.90576 4.38346 2.71306 1.8023 1.59647
threshold=2001.5000000000002 15.199966605000002 417.50000000000006 1.0000000180025095e-35 21.083968415000005 489.00000000000006
decision_type=2 2 2 2 2 2
left_child=1 -1 -2 5 -4 -3
right_child=2 3 4 -5 -6 -7
leaf_value=0.014557273499311272 -0.014864811538295311 0.0097837097477167859 0.0075643852535708283 -0.0090358217936251078 -0.005079519251982371 -0.0026152491362558469
leaf_weight=98 77 50 51 77 63 54
leaf_count=98 77 50 51 77 63 54
internal_value=0 0.00386673 -0.00564825 -0.00192153 0.000576964 0.00334579
internal_weight=0 279 191 181 114 104
internal_count=470 279 191 181 114 104
is_linear=0
shrinkage=0.05


Tree=37
num_leaves=7
num_cat=0
split_feature=27 236 0 2 27 236
split_gain=3.70564 6.23245 3.95607 2.6328 2.67782 1.62658
threshold=2001.5000000000002 15.199966605000002 417.50000000000006 1.0000000180025095e-35 1980.5000000000002 21.083968415000005
decision_type=2 2 2 2 2 2
left_child=1 -1 -2 -3 -5 -4
right_child=2 3 5 4 -6 -7
leaf_value=0.013829410066162902 -0.014121571226747004 0.0058574281308961954 0.0071861657423569871 -0.014571171598853889 0.00090128130375825139 -0.0048255432929311488
leaf_weight=98 77 69 51 54 58 63
leaf_count=98 77 69 51 54 58 63
internal_value=0 0.00367339 -0.00536584 -0.00182545 -0.00655865 0.000548116
internal_weight=0 279 191 181 112 114
internal_count=470 279 191 181 112 114
is_linear=0
shrinkage=0.05


Tree=38
num_leaves=6
num_cat=0
split_feature=27 236 236 236 236
split_gain=3.45766 7.91217 2.71483 2.64979 1.20213
threshold=1984.5000000000002 21.735715895000002 18.828770590000001 15.153029020000002 21.868928090000004
decision_type=2 2 2 2 2
left_child=1 -1 3 -2 -4
right_child=2 -3 4 -5 -6
leaf_value=0.015557993006183997 -0.0023305085673928261 -0.0056790265911090447 0.0058735977962466055 -0.015861418219431055 -0.0032080709947539228
leaf_weight=93 85 83 76 63 70
leaf_count=93 85 83 76 63 70
internal_value=0 0.00554281 -0.00331814 -0.00809029 0.00151937
internal_weight=0 176 294 148 146
internal_count=470 176 294 148 146
is_linear=0
shrinkage=0.05


Tree=39
num_leaves=7
num_cat=0
split_feature=236 115 0 217 31 75
split_gain=2.76786 2.30707 2.46946 4.25842 1.91043 1.05042
threshold=9.2488978485000022 1.0000000180025095e-35 550.50000000000011 1.0000000180025095e-35 1.0000000180025095e-35 1.0000000180025095e-35
decision_type=2 2 2 2 2 2
left_child=-1 2 3 4 -2 -4
right_child=1 -3 5 -5 -6 -7
leaf_value=0.011120720103383065 0.0070975524992470387 -0.0106756272611388 0.011412501536930603 -0.011840721159185989 -0.003444352274804953 0.0015503792092204094
leaf_weight=50 88 57 54 83 84 54
leaf_count=50 88 57 54 83 84 54
internal_value=0 -0.0013239 0.000144558 -0.0025393 0.00194918 0.00648144
internal_weight=0 420 363 255 172 108
internal_count=470 420 363 255 172 108
is_linear=0
shrinkage=0.05


Tree=40
num_leaves=7
num_cat=0
split_feature=27 217 0 236 2 236
split_gain=3.21907 5.27763 3.30789 3.10472 2.85368 1.36918
threshold=2001.5000000000002 1.0000000180025095e-35 417.50000000000006 15.286603440000002 1.0000000180025095e-35 21.083968415000005
decision_type=2 2 2 2 2 2
left_child=1 3 -2 -1 -5 -4
right_child=2 -3 5 4 -6 -7
leaf_value=0.013938908104580733 -0.013007544414079808 -0.011293295480310918 0.0064968757039191687 0.0098871220139757042 -0.0044618661527509812 -0.0045235358769931495
leaf_weight=89 77 50 51 63 77 63
leaf_count=89 77 50 51 63 77 63
internal_value=0 0.00342374 -0.00500117 0.00663706 0.00199518 0.000406648
internal_weight=0 279 191 229 140 114
internal_count=470 279 191 229 140 114
is_linear=0
shrinkage=0.05


Tree=41
num_leaves=8
num_cat=0
split_feature=27 217 0 25 0 114 27
split_gain=2.90521 4.76306 2.98537 2.61476 3.31824 1.82522 0.959625
threshold=2001.5000000000002 1.0000000180025095e-35 417.50000000000006 1.7500000000000002 475.50000000000006 1.0000000180025095e-35 2008.5000000000002
decision_type=2 2 2 2 2 2 2
left_child=1 3 -2 4 5 -1 -4
right_child=2 -3 6 -5 -6 -7 -8
leaf_value=0.014462647459850731 -0.012357167192045358 -0.010728630617260933 -0.0046228160114529047 0.015271981510644159 -0.0072433110352886736 0.0019020393040397616 0.0045875230683915073
leaf_weight=55 77 50 52 60 53 61 62
leaf_count=55 77 50 52 60 53 61 62
internal_value=0 0.00325255 -0.00475111 0.00630521 0.00312174 0.0078575 0.000386316
internal_weight=0 279 191 229 169 116 114
internal_count=470 279 191 229 169 116 114
is_linear=0
shrinkage=0.05


Tree=42
num_leaves=7
num_cat=0
split_feature=27 217 0 236 2 236
split_gain=2.62195 4.29867 2.6943 2.65239 2.66441 1.24627
threshold=2001.5000000000002 1.0000000180025095e-35 417.50000000000006 15.286603440000002 1.0000000180025095e-35 21.083968415000005
decision_type=2 2 2 2 2 2
left_child=1 3 -2 -1 -5 -4
right_child=2 -3 5 4 -6 -7
leaf_value=0.012738964382266061 -0.0117393087384037 -0.01019219908118248 0.0061774289564174769 0.0093252336658123467 -0.0045397249304435471 -0.0043366805901603094
leaf_weight=89 77 50 51 63 77 63
leaf_count=89 77 50 51 63 77 63
internal_value=0 0.00308992 -0.00451355 0.00598995 0.00169951 0.000367
internal_weight=0 279 191 229 140 114
internal_count=470 279 191 229 140 114
is_linear=0
shrinkage=0.05


Tree=43
num_leaves=7
num_cat=0
split_feature=27 236 0 209 236 0
split_gain=2.36631 3.9017 2.4316 2.18969 1.12476 0.73986
threshold=2001.5000000000002 15.199966605000002 417.50000000000006 1.0000000180025095e-35 21.083968415000005 475.50000000000006
decision_type=2 2 2 2 2 2
left_child=1 -1 -2 5 -4 -3
right_child=2 3 4 -5 -6 -7
leaf_value=0.010971075955930415 -0.011152343370566371 -0.0019968687209720704 0.0058685575264926055 0.0048335997081255617 -0.0041198465795744032 -0.010513631592267286
leaf_weight=98 77 51 51 79 63 51
leaf_count=98 77 51 51 79 63 51
internal_value=0 0.00293543 -0.00428788 -0.00141537 0.00034865 -0.00625525
internal_weight=0 279 191 181 114 102
internal_count=470 279 191 181 114 102
is_linear=0
shrinkage=0.05


Tree=44
num_leaves=7
num_cat=0
split_feature=27 236 114 236 27 27
split_gain=2.13559 3.52128 1.96206 1.96106 1.40642 0.234664
threshold=2001.5000000000002 15.199966605000002 1.0000000180025095e-35 18.699124905000005 2008.5000000000002 1973.5000000000002
decision_type=2 2 2 2 2 2
left_child=1 -1 5 -2 -5 -3
right_child=3 2 -4 4 -6 -7
leaf_value=0.010422522352286141 -0.010041292564474134 0.00066651010047644383 -0.0073946359192396151 -0.0054514371569861072 0.0058053097088954283 0.0054201733338198176
leaf_weight=98 80 50 77 55 56 54
leaf_count=98 80 50 77 55 56 54
internal_value=0 0.00278866 -0.0013446 -0.00407348 0.000227642 0.00313476
internal_weight=0 279 181 191 111 104
internal_count=470 279 181 191 111 104
is_linear=0
shrinkage=0.05


Tree=45
num_leaves=8
num_cat=0
split_feature=27 217 25 0 0 114 27
split_gain=1.92737 3.73484 2.2763 2.68895 2.01066 1.60023 0.793573
threshold=2001.5000000000002 1.0000000180025095e-35 1.7500000000000002 475.50000000000006 417.50000000000006 1.0000000180025095e-35 2008.5000000000002
decision_type=2 2 2 2 2 2 2
left_child=1 2 3 5 -2 -1 -6
right_child=4 -3 -4 -5 6 -7 -8
leaf_value=0.012829860266806051 -0.010111892874679201 -0.0097312366962432877 0.013718704034884772 -0.0069485051030257969 -0.0042088395486084311 0.0010688756531501403 0.0041668073364323184
leaf_weight=55 77 50 60 53 52 61 62
leaf_count=55 77 50 60 53 52 61 62
internal_value=0 0.00264922 0.00535238 0.00238209 -0.00386981 0.0066452 0.000346337
internal_weight=0 279 229 169 191 116 114
internal_count=470 279 229 169 191 116 114
is_linear=0
shrinkage=0.05


Tree=46
num_leaves=8
num_cat=0
split_feature=27 217 25 236 0 236 50
split_gain=1.73945 3.3707 2.05436 4.07343 1.81462 1.05922 0.478663
threshold=2001.5000000000002 1.0000000180025095e-35 1.7500000000000002 15.286603440000002 417.50000000000006 21.083968415000005 1.0000000180025095e-35
decision_type=2 2 2 2 2 2 2
left_child=1 2 3 -1 -2 -6 -5
right_child=4 -3 -4 6 5 -7 -8
leaf_value=0.012591880289685043 -0.0096062981516013973 -0.0092446750178933144 0.013032769054795305 -0.0068996181297633387 0.0056857085658931269 -0.0040073474129987147 -0.00024224056655334104
leaf_weight=61 77 50 60 54 51 63 54
leaf_count=61 77 50 60 54 51 63 54
internal_value=0 0.00251676 0.00508476 0.00226298 -0.00367632 0.00032902 -0.00357093
internal_weight=0 279 229 169 191 114 108
internal_count=470 279 229 169 191 114 108
is_linear=0
shrinkage=0.05


Tree=47
num_leaves=8
num_cat=0
split_feature=27 217 25 236 0 236 50
split_gain=1.56986 3.04205 1.85406 3.67627 1.63769 0.955949 0.431994
threshold=2001.5000000000002 1.0000000180025095e-35 1.7500000000000002 15.286603440000002 417.50000000000006 21.083968415000005 1.0000000180025095e-35
decision_type=2 2 2 2 2 2 2
left_child=1 2 3 -1 -2 -6 -5
right_child=4 -3 -4 6 5 -7 -8
leaf_value=0.011962285908091752 -0.0091259832920313078 -0.0087824412733316422 0.012381130605548 -0.0065546374043656723 0.005401423368968216 -0.0038069801079848456 -0.00023012868197703801
leaf_weight=61 77 50 60 54 51 63 54
leaf_count=61 77 50 60 54 51 63 54
internal_value=0 0.00239092 0.00483052 0.00214983 -0.0034925 0.000312569 -0.00339238
internal_weight=0 279 229 169 191 114 108
internal_count=470 279 229 169 191 114 108
is_linear=0
shrinkage=0.05


Tree=48
num_leaves=8
num_cat=0
split_feature=27 217 25 0 209 0 27
split_gain=1.4168 2.74545 1.67329 2.09881 1.49377 1.47802 0.732759
threshold=2001.5000000000002 1.0000000180025095e-35 1.7500000000000002 484.50000000000006 1.0000000180025095e-35 417.50000000000006 2008.5000000000002
decision_type=2 2 2 2 2 2 2
left_child=1 2 3 4 -1 -2 -7
right_child=5 -3 -4 -5 -6 6 -8
leaf_value=0.01042283176700922 -0.0086696841802399657 -0.0083433191552758218 0.01176207385530385 -0.0065537563357502219 -0.00092663219338282943 -0.0040802177811901158 0.0039681056093785073
leaf_weight=69 77 50 60 50 50 52 62
leaf_count=69 77 50 60 50 50 52 62
internal_value=0 0.00227138 0.004589 0.00204234 0.00565415 -0.00331788 0.000296941
internal_weight=0 279 229 169 119 191 114
internal_count=470 279 229 169 119 191 114
is_linear=0
shrinkage=0.05


Tree=49
num_leaves=7
num_cat=0
split_feature=27 217 27 27 0 236
split_gain=1.27866 2.47777 1.57464 1.66789 1.33391 0.870468
threshold=2001.5000000000002 1.0000000180025095e-35 1965.5000000000002 1984.5000000000002 417.50000000000006 21.083968415000005
decision_type=2 2 2 2 2 2
left_child=1 2 -1 -4 -2 -6
right_child=4 -3 3 -5 5 -7
leaf_value=-0.00093741457181415345 -0.0082361998217930273 -0.0079261532574892053 0.012799421258623135 0.0019519745748445587 0.0051381001230694501 -0.0036489594905149375
leaf_weight=87 77 50 74 68 51 63
leaf_count=87 77 50 74 68 51 63
internal_value=0 0.00215781 0.00435955 0.00760487 -0.00315198 0.000282093
internal_weight=0 279 229 142 191 114
internal_count=470 279 229 142 191 114
is_linear=0
shrinkage=0.05


Tree=50
num_leaves=7
num_cat=0
split_feature=236 27 31 2 214 27
split_gain=1.23332 3.75494 2.61266 1.90151 2.16696 0.782927
threshold=20.963646615000005 1984.5000000000002 1.0000000180025095e-35 1.0000000180025095e-35 1.0000000180025095e-35 2006.5000000000002
decision_type=2 2 2 2 2 2
left_child=1 -1 5 -2 -5 -3
right_child=3 2 -4 4 -6 -7
leaf_value=0.010539408785601459 0.0048005677127678486 0.0072482645420321075 -0.009794401537814636 -0.011211527901745979 0.001354161844235556 -0.0010560653878201266
leaf_weight=90 56 51 67 84 58 64
leaf_count=90 56 51 67 84 58 64
internal_value=0 0.00218528 -0.00194589 -0.003002 -0.00607906 0.00262672
internal_weight=0 272 182 198 142 115
internal_count=470 272 182 198 142 115
is_linear=0
shrinkage=0.05


Tree=51
num_leaves=8
num_cat=0
split_feature=26 0 50 2 75 214 0
split_gain=1.16721 1.75885 2.0389 1.95856 1.63857 2.23001 1.13252
threshold=1.0000000180025095e-35 116.50000000000001 1.0000000180025095e-35 1.0000000180025095e-35 1.0000000180025095e-35 1.0000000180025095e-35 381.50000000000006
decision_type=2 2 2 2 2 2 2
left_child=1 -1 3 -3 -4 6 -6
right_child=-2 2 4 -5 5 -7 -8
leaf_value=-0.0088401185503850389 0.0067070622180931674 0.001135768306752046 0.0095512408797410048 -0.012283009430393578 0.0021223450750067758 0.0086512889446956776 -0.0076799449182170286
leaf_weight=60 57 57 68 52 52 56 68
leaf_count=60 57 57 68 52 52 56 68
internal_value=0 -0.000925672 0.00041956 -0.00526585 0.00295935 0.000412488 -0.00343229
internal_weight=0 413 353 109 244 176 120
internal_count=470 413 353 109 244 176 120
is_linear=0
shrinkage=0.05


Tree=52
num_leaves=7
num_cat=0
split_feature=25 27 0 0 209 0
split_gain=1.11565 1.94138 1.43379 2.806 2.82169 0.350677
threshold=1.2500000000000002 2003.5000000000002 181.50000000000003 376.50000000000006 1.0000000180025095e-35 558.00000000000011
decision_type=2 2 2 2 2 2
left_child=2 -2 -1 -4 -5 -6
right_child=1 -3 3 4 5 -7
leaf_value=-0.0081614542364453271 0.0090519905499297556 -0.0029447999584954233 0.0080475722708237864 -0.0099101257353457952 -0.00047542887195101331 0.0053619724083691844
leaf_weight=66 77 60 78 86 53 50
leaf_count=66 77 60 78 86 53 50
internal_value=0 0.00379792 -0.00156251 6.86918e-05 -0.00322418 0.00235826
internal_weight=0 137 333 267 189 103
internal_count=470 137 333 267 189 103
is_linear=0
shrinkage=0.05


Tree=53
num_leaves=8
num_cat=0
split_feature=0 0 49 217 236 236 0
split_gain=1.04435 1.20606 1.74408 0.957349 3.3733 2.81983 0.000401129
threshold=648.50000000000011 116.50000000000001 1.0000000180025095e-35 1.0000000180025095e-35 14.193065590000002 19.813358430000005 270.00000000000006
decision_type=2 2 2 2 2 2 2
left_child=1 -1 3 4 6 -5 -3
right_child=-2 2 -4 5 -6 -7 -8
leaf_value=-0.0051498840857461536 -0.0059906035661697393 0.00084624182898551225 -0.0048840842419303962 0.0081298458646051602 0.015561734865261842 -0.0081919465907940685 0.00064694388751305792
leaf_weight=68 63 50 70 55 62 51 51
leaf_count=68 63 50 70 55 62 51 51
internal_value=0 0.000927292 0.00214631 0.00397578 0.00638119 0.000276908 0.000745606
internal_weight=0 407 339 269 163 106 101
internal_count=470 407 339 269 163 106 101
is_linear=0
shrinkage=0.05


Tree=54
num_leaves=7
num_cat=0
split_feature=75 50 27 0 0 27
split_gain=1.01332 1.85206 1.89205 1.30825 1.45952 1.74184
threshold=1.0000000180025095e-35 1.0000000180025095e-35 2004.5000000000002 637.00000000000011 186.50000000000003 2002.5000000000002
decision_type=2 2 2 2 2 2
left_child=1 -1 -3 4 -2 -6
right_child=3 2 -4 -5 5 -7
leaf_value=-0.0027677353810194247 -0.0076465093338971626 0.011672467786550829 -0.00087916680849065964 -0.0093169915617681027 0.006348178617816458 -0.0048135691422170829
leaf_weight=95 51 73 51 51 93 56
leaf_count=95 51 73 51 51 93 56
internal_value=0 0.00248547 0.0065101 -0.0021686 -0.000345756 0.00215316
internal_weight=0 219 124 251 200 149
internal_count=470 219 124 251 200 149
is_linear=0
shrinkage=0.05


Tree=55
num_leaves=8
num_cat=0
split_feature=25 75 236 2 27 31 27
split_gain=0.998034 1.89095 1.46749 1.24477 2.21455 1.76907 0.91203
threshold=1.2500000000000002 1.0000000180025095e-35 10.467710685000002 1.0000000180025095e-35 1980.5000000000002 1.0000000180025095e-35 2006.5000000000002
decision_type=2 2 2 2 2 2 2
left_child=2 -2 -1 -4 -5 6 -6
right_child=1 -3 3 4 5 -7 -8
leaf_value=0.0063271839390782753 0.0094236561343427321 -0.0023250957774614694 0.0037840473166267786 -0.01382902953773737 0.0059713251073844733 -0.0094396793869910428 -0.0026853360644963687
leaf_weight=51 69 68 56 50 58 54 64
leaf_count=51 69 68 56 50 58 54 64
internal_value=0 0.00359216 -0.00147786 -0.0028894 -0.004543 -0.00190493 0.00143013
internal_weight=0 137 333 282 226 176 122
internal_count=470 137 333 282 226 176 122
is_linear=0
shrinkage=0.05


Tree=56
num_leaves=8
num_cat=0
split_feature=29 0 27 27 236 27 236
split_gain=1.02291 4.14719 1.41693 2.94352 2.18625 1.20082 1.0671
threshold=1.0000000180025095e-35 381.50000000000006 1984.5000000000002 1964.5000000000002 18.699124905000005 2007.5000000000002 15.153029020000002
decision_type=2 2 2 2 2 2 2
left_child=2 -2 3 -1 6 -6 -4
right_child=1 -3 4 -5 5 -7 -8
leaf_value=-0.0015662032682952041 0.0046271309733665628 -0.014692809093999221 -0.00156478215363326 0.013016513224977714 -0.00098193544802851378 0.0094705644398927688 -0.011520266847447586
leaf_weight=74 61 51 57 65 61 50 51
leaf_count=74 61 51 57 65 61 50 51
internal_value=0 -0.00417034 0.00130469 0.00525305 -0.00120135 0.0037264 -0.00626598
internal_weight=0 112 358 139 219 111 108
internal_count=470 112 358 139 219 111 108
is_linear=0
shrinkage=0.05


Tree=57
num_leaves=8
num_cat=0
split_feature=29 0 75 25 236 50 31
split_gain=0.923173 3.74284 1.33418 2.06416 2.02127 1.82305 0.498649
threshold=1.0000000180025095e-35 381.50000000000006 1.0000000180025095e-35 1.7500000000000002 23.379961975000004 1.0000000180025095e-35 1.0000000180025095e-35
decision_type=2 2 2 2 2 2 2
left_child=2 -2 3 5 6 -1 -4
right_child=1 -3 4 -5 -6 -7 -8
leaf_value=-0.0052757806261070073 0.0043957745369149715 -0.013958168444543274 -0.0014681117346205203 0.01287269667977942 0.0064240055395798253 0.0071556325391705705 -0.0076241165213440064
leaf_weight=60 61 51 58 51 55 58 76
leaf_count=60 61 51 58 51 55 58 76
internal_value=0 -0.00396182 0.00123945 0.00446738 -0.00164689 0.000834575 -0.00495958
internal_weight=0 112 358 169 189 118 134
internal_count=470 112 358 169 189 118 134
is_linear=0
shrinkage=0.05


Tree=58
num_leaves=8
num_cat=0
split_feature=27 217 0 50 0 0 209
split_gain=0.854016 1.26578 2.32076 1.4277 1.50674 0.891341 2.06752
threshold=2012.5000000000002 1.0000000180025095e-35 517.50000000000011 1.0000000180025095e-35 430.50000000000006 405.50000000000006 1.0000000180025095e-35
decision_type=2 2 2 2 2 2 2
left_child=1 3 -3 4 -1 6 -5
right_child=-2 2 -4 5 -6 -7 -8
leaf_value=0.0044063644734777365 -0.004536020920017216 -0.010646922211162747 0.004096500562759591 0.010728698607104329 -0.0075245948927477012 0.011060850955366804 -0.0025155965800342317
leaf_weight=51 85 56 51 52 55 52 68
leaf_count=51 85 56 51 52 55 52 68
internal_value=0 0.00100146 -0.00361968 0.0027801 -0.00178423 0.005593 0.0032236
internal_weight=0 385 107 278 106 172 120
internal_count=470 385 107 278 106 172 120
is_linear=0
shrinkage=0.05


Tree=59
num_leaves=7
num_cat=0
split_feature=29 236 27 27 236 27
split_gain=0.859104 2.07475 1.253 2.71477 1.9299 0.841264
threshold=1.0000000180025095e-35 15.446744070000003 1984.5000000000002 1964.5000000000002 15.633209695000003 2008.5000000000002
decision_type=2 2 2 2 2 2
left_child=2 -2 3 -1 -4 -6
right_child=1 -3 4 -5 5 -7
leaf_value=-0.0016403057457127206 0.0032309221231251422 -0.010388271056982722 -0.0070542418529443889 0.01236432215342155 -0.0005281581972579819 0.0076313591580472739
leaf_weight=74 54 58 85 65 83 51
leaf_count=74 54 58 85 65 83 51
internal_value=0 -0.00382187 0.00119567 0.00490862 -0.00116095 0.00257733
internal_weight=0 112 358 139 219 134
internal_count=470 112 358 139 219 134
is_linear=0
shrinkage=0.05


Tree=60
num_leaves=7
num_cat=0
split_feature=0 0 114 207 0 0
split_gain=0.860402 1.14782 2.24485 2.86386 2.41347 0.878642
threshold=648.50000000000011 517.50000000000011 1.0000000180025095e-35 1.0000000180025095e-35 127.50000000000001 270.00000000000006
decision_type=2 2 2 2 2 2
left_child=1 2 3 -1 -4 -6
right_child=-2 -3 4 -5 5 -7
leaf_value=0.011451011417312144 -0.0054374937547854935 0.00582498224452138 -0.013357206525317595 -0.0034195797724008072 0.0040576797797633657 -0.0040684564755513117
leaf_weight=69 63 90 51 61 58 78
leaf_count=69 63 90 51 61 58 78
internal_value=0 0.000841676 -0.000573143 0.00447327 -0.00408135 -0.000602898
internal_weight=0 407 317 130 187 136
internal_count=470 407 317 130 187 136
is_linear=0
shrinkage=0.05


Tree=61
num_leaves=6
num_cat=0
split_feature=115 0 114 236 75
split_gain=0.943385 1.57902 1.82236 2.86575 0.317828
threshold=1.0000000180025095e-35 517.50000000000011 1.0000000180025095e-35 15.153029020000002 1.0000000180025095e-35
decision_type=2 2 2 2 2
left_child=1 2 -1 -4 -3
right_child=-2 4 3 -5 -6
leaf_value=0.0054378958997453805 -0.0050218222823996961 0.0077619429850684755 0.0022138880016772371 -0.010167070536155497 0.0028459816810584839
leaf_weight=73 78 70 95 92 62
leaf_count=73 78 70 95 92 62
internal_value=0 0.00099924 -0.00126186 -0.00387728 0.00545293
internal_weight=0 392 260 187 132
internal_count=470 392 260 187 132
is_linear=0
shrinkage=0.05


Tree=62
num_leaves=8
num_cat=0
split_feature=29 0 75 25 0 0 27
split_gain=0.812896 3.24937 1.14796 1.83758 1.25637 0.953423 0.677348
threshold=1.0000000180025095e-35 381.50000000000006 1.0000000180025095e-35 1.7500000000000002 261.00000000000006 462.50000000000006 1997.5000000000002
decision_type=2 2 2 2 2 2 2
left_child=2 -2 3 5 -4 -1 -6
right_child=1 -3 4 -5 6 -7 -8
leaf_value=-0.003541775385007983 0.0040695139474128603 -0.013031758416407541 -0.0083113130279816698 0.012087860352852767 0.0043960349341588363 0.0054586705146773187 -0.0025848376624576369
leaf_weight=62 61 51 50 51 70 56 69
leaf_count=62 61 51 50 51 70 56 69
internal_value=0 -0.00371767 0.00116307 0.00415726 -0.00151427 0.000729623 0.00093071
internal_weight=0 112 358 169 189 118 139
internal_count=470 112 358 169 189 118 139
is_linear=0
shrinkage=0.05


end of trees

feature_importances:
Column_236=97
Column_27=84
Column_0=74
Column_2=24
Column_25=24
Column_208=15
Column_217=14
Column_75=13
Column_209=12
Column_31=10
Column_29=7
Column_114=7
Column_50=6
Column_115=3
Column_73=2
Column_214=2
Column_26=1
Column_49=1
Column_112=1
Column_207=1

parameters:
[boosting: gbdt]
[objective: regression]
[metric: rmse]
[tree_learner: serial]
[device_type: cpu]
[data: ]
[valid: ]
[num_iterations: 10000]
[learning_rate: 0.05]
[num_leaves: 15]
[num_threads: 0]
[deterministic: 0]
[force_col_wise: 0]
[force_row_wise: 0]
[histogram_pool_size: -1]
[max_depth: -1]
[min_data_in_leaf: 50]
[min_sum_hessian_in_leaf: 0.001]
[bagging_fraction: 0.5]
[pos_bagging_fraction: 1]
[neg_bagging_fraction: 1]
[bagging_freq: 0]
[bagging_seed: 10961]
[feature_fraction: 0.8]
[feature_fraction_bynode: 1]
[feature_fraction_seed: 53]
[extra_trees: 0]
[extra_seed: 11644]
[early_stopping_round: 0]
[first_metric_only: 0]
[max_delta_step: 0]
[lambda_l1: 0]
[lambda_l2: 0]
[linear_lambda: 0]
[min_gain_to_split: 0]
[drop_rate: 0.1]
[max_drop: 50]
[skip_drop: 0.5]
[xgboost_dart_mode: 0]
[uniform_drop: 0]
[drop_seed: 30626]
[top_rate: 0.2]
[other_rate: 0.1]
[min_data_per_group: 100]
[max_cat_threshold: 32]
[cat_l2: 10]
[cat_smooth: 10]
[max_cat_to_onehot: 4]
[top_k: 20]
[monotone_constraints: ]
[monotone_constraints_method: basic]
[monotone_penalty: 0]
[feature_contri: ]
[forcedsplits_filename: ]
[refit_decay_rate: 0.9]
[cegb_tradeoff: 1]
[cegb_penalty_split: 0]
[cegb_penalty_feature_lazy: ]
[cegb_penalty_feature_coupled: ]
[path_smooth: 0]
[interaction_constraints: ]
[verbosity: -1]
[saved_feature_importance_type: 0]
[linear_tree: 0]
[max_bin: 255]
[max_bin_by_feature: ]
[min_data_in_bin: 3]
[bin_construct_sample_cnt: 200000]
[data_random_seed: 4071]
[is_enable_sparse: 1]
[enable_bundle: 1]
[use_missing: 1]
[zero_as_missing: 0]
[feature_pre_filter: 1]
[pre_partition: 0]
[two_round: 0]
[header: 0]
[label_column: ]
[weight_column: ]
[group_column: ]
[ignore_column: ]
[categorical_feature: ]
[forcedbins_filename: ]
[precise_float_parser: 0]
[objective_seed: 602]
[num_class: 1]
[is_unbalance: 0]
[scale_pos_weight: 1]
[sigmoid: 1]
[boost_from_average: 1]
[reg_sqrt: 0]
[alpha: 0.9]
[fair_c: 1]
[poisson_max_delta_step: 0.7]
[tweedie_variance_power: 1.5]
[lambdarank_truncation_level: 30]
[lambdarank_norm: 1]
[label_gain: ]
[eval_at: ]
[multi_error_top_k: 1]
[auc_mu_weights: ]
[num_machines: 1]
[local_listen_port: 12400]
[time_out: 120]
[machine_list_filename: ]
[machines: ]
[gpu_platform_id: -1]
[gpu_device_id: -1]
[gpu_use_dp: 0]
[num_gpu: 1]

end of parameters

pandas_categorical:null
