tree
version=v3
num_class=1
num_tree_per_iteration=1
label_index=0
max_feature_idx=236
objective=regression
feature_names=Column_0 Column_1 Column_2 Column_3 Column_4 Column_5 Column_6 Column_7 Column_8 Column_9 Column_10 Column_11 Column_12 Column_13 Column_14 Column_15 Column_16 Column_17 Column_18 Column_19 Column_20 Column_21 Column_22 Column_23 Column_24 Column_25 Column_26 Column_27 Column_28 Column_29 Column_30 Column_31 Column_32 Column_33 Column_34 Column_35 Column_36 Column_37 Column_38 Column_39 Column_40 Column_41 Column_42 Column_43 Column_44 Column_45 Column_46 Column_47 Column_48 Column_49 Column_50 Column_51 Column_52 Column_53 Column_54 Column_55 Column_56 Column_57 Column_58 Column_59 Column_60 Column_61 Column_62 Column_63 Column_64 Column_65 Column_66 Column_67 Column_68 Column_69 Column_70 Column_71 Column_72 Column_73 Column_74 Column_75 Column_76 Column_77 Column_78 Column_79 Column_80 Column_81 Column_82 Column_83 Column_84 Column_85 Column_86 Column_87 Column_88 Column_89 Column_90 Column_91 Column_92 Column_93 Column_94 Column_95 Column_96 Column_97 Column_98 Column_99 Column_100 Column_101 Column_102 Column_103 Column_104 Column_105 Column_106 Column_107 Column_108 Column_109 Column_110 Column_111 Column_112 Column_113 Column_114 Column_115 Column_116 Column_117 Column_118 Column_119 Column_120 Column_121 Column_122 Column_123 Column_124 Column_125 Column_126 Column_127 Column_128 Column_129 Column_130 Column_131 Column_132 Column_133 Column_134 Column_135 Column_136 Column_137 Column_138 Column_139 Column_140 Column_141 Column_142 Column_143 Column_144 Column_145 Column_146 Column_147 Column_148 Column_149 Column_150 Column_151 Column_152 Column_153 Column_154 Column_155 Column_156 Column_157 Column_158 Column_159 Column_160 Column_161 Column_162 Column_163 Column_164 Column_165 Column_166 Column_167 Column_168 Column_169 Column_170 Column_171 Column_172 Column_173 Column_174 Column_175 Column_176 Column_177 Column_178 Column_179 Column_180 Column_181 Column_182 Column_183 Column_184 Column_185 Column_186 Column_187 Column_188 Column_189 Column_190 Column_191 Column_192 Column_193 Column_194 Column_195 Column_196 Column_197 Column_198 Column_199 Column_200 Column_201 Column_202 Column_203 Column_204 Column_205 Column_206 Column_207 Column_208 Column_209 Column_210 Column_211 Column_212 Column_213 Column_214 Column_215 Column_216 Column_217 Column_218 Column_219 Column_220 Column_221 Column_222 Column_223 Column_224 Column_225 Column_226 Column_227 Column_228 Column_229 Column_230 Column_231 Column_232 Column_233 Column_234 Column_235 Column_236
feature_infos=[4:737] none [0:1] none none none none none none none none none none none none none none none none none none none none none none [0:25] [0:100] [0:2018] none [0:1] none [0:1] [0:1] [0:1] none none none none none none none none none none none none none none none [0:1] [0:1] none none none none none none none none none none none none none none none none none none none none none none [0:1] none [0:1] none [0:1] none none none none none none none none none none none none none [0:1] none none none none none none none none none none none none none none none none none none none none [0:1] none [0:1] [0:1] none none none none none none none none none none none [0:1] [0:1] none [0:1] none none none none none none none none none none none none none none none none none none none none none none none none none none none none none none none none none none none none none none none none none none none none none none none none none none none none none none none none none none none none none none none none [0:1] none [0:1] none none none none none none none none none [0:1] [0:1] [0:1] none none none none [0:1] none [0:1] [0:1] none none none none none none none none none none none none none none none none none none [8.5941493260000001:40.091110190000002]
tree_sizes=661 653 656 660 821 734 833 653 743 732 823 654 659 739 735 822 747 658 742 750 662 829 660 746 656 828 741 743 819 826 743 824 824 739 745 830 823 824 825 744 656 656 753 658 741 654 745 658 659 752 830 744 751 662 755 749 740 752 746 576 755 750 750 851 759 757 838 755 755 829 755 838

Tree=0
num_leaves=6
num_cat=0
split_feature=236 27 236 2 236
split_gain=100.402 17.1086 8.79263 6.60307 4.30359
threshold=10.467710685000002 1995.5000000000002 18.734865550000006 1.0000000180025095e-35 21.270829290000005
decision_type=2 2 2 2 2
left_child=-1 3 -3 -2 -4
right_child=1 2 4 -5 -6
leaf_value=0.048499541586229926 0.013460855865827678 -0.031890739896057452 -0.0010636162484354828 -0.0069979352347991509 -0.019583898365312966
leaf_weight=87 66 92 55 98 73
leaf_count=87 66 92 55 98 73
internal_value=1.51859e-08 -0.0109882 -0.0201003 0.00123548 -0.011626
internal_weight=0 384 220 164 128
internal_count=471 384 220 164 128
is_linear=0
shrinkage=1


Tree=1
num_leaves=6
num_cat=0
split_feature=236 27 236 2 236
split_gain=90.7993 16.649 8.12374 6.2249 3.88627
threshold=10.286845695000002 1995.5000000000002 18.734865550000006 1.0000000180025095e-35 21.788191795000007
decision_type=2 2 2 2 2
left_child=-1 3 -3 -2 -4
right_child=1 2 4 -5 -6
leaf_value=0.047121233474241485 0.013507790880194352 -0.030462381452001554 -0.0028609253356561941 -0.0062271228116570106 -0.020319604426622392
leaf_weight=84 67 93 68 99 60
leaf_count=84 67 93 68 99 60
internal_value=0 -0.0102279 -0.0192159 0.00173817 -0.0110447
internal_weight=0 387 221 166 128
internal_count=471 387 221 166 128
is_linear=0
shrinkage=0.05


Tree=2
num_leaves=6
num_cat=0
split_feature=236 27 236 2 236
split_gain=81.9464 15.0257 7.33168 5.61797 3.57368
threshold=10.286845695000002 1995.5000000000002 18.734865550000006 1.0000000180025095e-35 21.270829290000005
decision_type=2 2 2 2 2
left_child=-1 3 -3 -2 -4
right_child=1 2 4 -5 -6
leaf_value=0.044765174188207663 0.012832402312822306 -0.028939261647962757 -0.00086740390143611216 -0.005915765772865276 -0.017744191935005257
leaf_weight=84 67 93 55 99 73
leaf_count=84 67 93 55 99 73
internal_value=0 -0.00971647 -0.0182551 0.00165127 -0.0104924
internal_weight=0 387 221 166 128
internal_count=471 387 221 166 128
is_linear=0
shrinkage=0.05


Tree=3
num_leaves=6
num_cat=0
split_feature=236 27 236 31 236
split_gain=74.0976 12.4946 6.45134 5.07856 3.22524
threshold=10.467710685000002 1995.5000000000002 18.734865550000006 1.0000000180025095e-35 21.270829290000005
decision_type=2 2 2 2 2
left_child=-1 3 -3 -2 -4
right_child=1 2 4 -5 -6
leaf_value=0.041664632388401311 -0.0091896023228764528 -0.027326135790866353 -0.00082403299483385954 0.0085993098550813003 -0.016856982273189988
leaf_weight=87 70 92 55 94 73
leaf_count=87 70 92 55 94 73
internal_value=0 -0.00943964 -0.0172268 0.00100648 -0.00996782
internal_weight=0 384 220 164 128
internal_count=471 384 220 164 128
is_linear=0
shrinkage=0.05


Tree=4
num_leaves=8
num_cat=0
split_feature=236 25 2 0 236 0 236
split_gain=66.8884 12.694 11.4995 6.00384 5.03254 4.29482 0.447116
threshold=10.286845695000002 1.7500000000000002 1.0000000180025095e-35 444.50000000000006 15.226106640000001 598.50000000000011 18.438473570000003
decision_type=2 2 2 2 2 2 2
left_child=-1 2 -2 4 -4 -5 -3
right_child=1 6 3 5 -6 -7 -8
leaf_value=0.040443682816943959 0.0049808049279575547 0.0087632697782125974 -0.017509443671354707 -0.0030487834165493651 -0.039403112891774915 -0.022566981263020459 0.0023112883567810061
leaf_weight=84 60 58 53 63 52 51 50
leaf_count=84 60 58 53 63 52 51 50
internal_value=0 -0.00877847 -0.0144126 -0.0197258 -0.028352 -0.0117806 0.00577624
internal_weight=0 387 279 219 105 114 108
internal_count=471 387 279 219 105 114 108
is_linear=0
shrinkage=0.05


Tree=5
num_leaves=7
num_cat=0
split_feature=27 0 0 0 75 0
split_gain=37.7437 12.5246 30.1857 6.028 3.54399 0.00301751
threshold=1995.5000000000002 376.50000000000006 215.00000000000003 174.50000000000003 1.0000000180025095e-35 566.00000000000011
decision_type=2 2 2 2 2 2
left_child=1 2 -1 -2 -5 -6
right_child=3 -3 -4 4 5 -7
leaf_value=-0.0010694203177286734 -0.028953210221460236 0.0008640691999117939 0.046680337096184077 -0.0023219763890080071 -0.016366112314164637 -0.015819492687781652
leaf_weight=62 52 98 71 87 50 51
leaf_count=62 52 98 71 87 50 51
internal_value=0 0.0144272 0.0244211 -0.0138862 -0.00971868 -0.0160901
internal_weight=0 231 133 240 188 101
internal_count=471 231 133 240 188 101
is_linear=0
shrinkage=0.05


Tree=6
num_leaves=8
num_cat=0
split_feature=236 27 0 217 236 207 236
split_gain=55.0288 11.4857 12.818 8.69783 4.43098 1.01257 0.320597
threshold=10.286845695000002 2004.5000000000002 417.50000000000006 1.0000000180025095e-35 21.270829290000005 1.0000000180025095e-35 21.226347105000006
decision_type=2 2 2 2 2 2 2
left_child=-1 3 -3 4 -2 -6 -4
right_child=1 2 6 -5 5 -7 -8
leaf_value=0.036683473594131925 0.014752236764500107 -0.036211221066654704 -0.0043943142335788879 -0.017731132996933803 -0.0067507871389389032 0.0033118438385426998 -0.010028619520366192
leaf_weight=84 69 61 51 56 50 50 50
leaf_count=84 69 61 51 56 50 50 50
internal_value=0 -0.0079623 -0.0181137 -0.000653272 0.00500566 -0.00171947 -0.00718357
internal_weight=0 387 162 225 169 100 101
internal_count=471 387 162 225 169 100 101
is_linear=0
shrinkage=0.05


Tree=7
num_leaves=6
num_cat=0
split_feature=217 0 0 0 2
split_gain=22.2485 8.89648 24.7673 6.45329 5.8385
threshold=1.0000000180025095e-35 225.50000000000003 376.50000000000006 517.50000000000011 1.0000000180025095e-35
decision_type=2 2 2 2 2
left_child=1 -1 -3 -2 -4
right_child=3 2 4 -5 -6
leaf_value=-0.0054907217140790533 -0.02570089702192065 0.034292235672473907 0.011204114395918119 -0.0054231285257264972 -0.0094429899652798965
leaf_weight=91 77 85 63 80 75
leaf_count=91 77 85 63 80 75
internal_value=0 0.00768414 0.0130604 -0.0153683 -1.7138e-05
internal_weight=0 314 223 157 138
internal_count=471 314 223 157 138
is_linear=0
shrinkage=0.05


Tree=8
num_leaves=7
num_cat=0
split_feature=236 25 27 27 217 114
split_gain=45.493 11.3536 9.36018 7.56807 3.73002 2.4133
threshold=10.467710685000002 1.7500000000000002 2000.5000000000002 2012.5000000000002 1.0000000180025095e-35 1.0000000180025095e-35
decision_type=2 2 2 2 2 2
left_child=-1 3 -3 4 5 -2
right_child=1 2 -4 -5 -6 -7
leaf_value=0.032646576666283886 0.0015300545286770692 0.020834253003651448 -0.0089028506229321177 -0.029903942661789747 -0.017099886170277991 -0.01176754106162933
leaf_weight=87 85 55 51 52 84 57
leaf_count=87 85 55 51 52 84 57
internal_value=0 -0.00739649 0.00652678 -0.0127054 -0.00874817 -0.00380771
internal_weight=0 384 106 278 226 142
internal_count=471 384 106 278 226 142
is_linear=0
shrinkage=0.05


Tree=9
num_leaves=7
num_cat=0
split_feature=27 25 27 27 27 27
split_gain=27.3753 8.22474 4.22858 6.70668 3.28513 1.06845
threshold=1995.5000000000002 1.2500000000000002 1961.0000000000002 1978.5000000000002 2012.5000000000002 2003.5000000000002
decision_type=2 2 2 2 2 2
left_child=1 2 -1 -4 5 -2
right_child=4 -3 3 -5 -6 -7
leaf_value=-0.0051561813721760974 -0.0021698237223140267 0.027204248937072628 0.023651311288041803 -0.00095425463756019222 -0.019654047168618027 -0.010736627268948053
leaf_weight=54 59 66 58 53 86 95
leaf_count=54 59 66 58 53 86 95
internal_value=0 0.0122868 0.0063198 0.0119027 -0.011826 -0.00745454
internal_weight=0 231 165 111 240 154
internal_count=471 231 165 111 240 154
is_linear=0
shrinkage=0.05


Tree=10
num_leaves=8
num_cat=0
split_feature=236 25 27 2 0 236 0
split_gain=39.7071 9.58969 8.28396 7.79701 5.03381 4.58764 3.82342
threshold=10.286845695000002 1.7500000000000002 2000.5000000000002 1.0000000180025095e-35 444.50000000000006 15.226106640000001 598.50000000000011
decision_type=2 2 2 2 2 2 2
left_child=-1 3 -3 -2 5 -5 -6
right_child=1 2 -4 4 6 -7 -8
leaf_value=0.031160869963821915 0.0043084629949104664 0.019230839450444497 -0.0084835346358326773 -0.013582082570723767 -0.00052184767666317176 -0.034485618791614589 -0.018937746727583457
leaf_weight=84 60 56 52 53 63 52 51
leaf_count=84 60 56 52 53 63 52 51
internal_value=0 -0.0067636 0.00588688 -0.0116606 -0.0160356 -0.0239343 -0.00876054
internal_weight=0 387 108 279 219 105 114
internal_count=471 387 108 279 219 105 114
is_linear=0
shrinkage=0.05


Tree=11
num_leaves=6
num_cat=0
split_feature=236 0 25 31 0
split_gain=35.8357 9.2954 6.02819 3.1235 2.67197
threshold=10.286845695000002 118.50000000000001 1.7500000000000002 1.0000000180025095e-35 517.50000000000011
decision_type=2 2 2 2 2
left_child=-1 -2 3 4 -3
right_child=1 2 -4 -5 -6
leaf_value=0.029602826031900589 -0.02306098803418918 -0.019095412941117371 0.0084911159277612051 0.00098975772343692383 -0.0056385927153437335
leaf_weight=84 69 63 86 80 89
leaf_count=84 69 63 86 80 89
internal_value=0 -0.00642542 -0.00281582 -0.00700718 -0.0112161
internal_weight=0 387 318 232 152
internal_count=471 387 318 232 152
is_linear=0
shrinkage=0.05


Tree=12
num_leaves=6
num_cat=0
split_feature=236 0 25 217 27
split_gain=32.3483 8.26261 5.56157 3.49356 3.72531
threshold=10.467710685000002 118.50000000000001 1.7500000000000002 1.0000000180025095e-35 1978.5000000000002
decision_type=2 2 2 2 2
left_child=-1 -2 3 4 -3
right_child=1 2 -4 -5 -6
leaf_value=0.027529040801114055 -0.021907939138295859 0.0082192668803535134 0.0082130411699403161 -0.014167800984884564 -0.0085951515266788191
leaf_weight=87 69 56 84 95 80
leaf_count=87 69 56 84 95 80
internal_value=0 -0.00623705 -0.00280438 -0.00681071 -0.00167157
internal_weight=0 384 315 231 136
internal_count=471 384 315 231 136
is_linear=0
shrinkage=0.05


Tree=13
num_leaves=7
num_cat=0
split_feature=236 0 27 209 0 236
split_gain=29.2533 7.56467 5.79655 5.31389 2.45428 3.2759
threshold=10.286845695000002 118.50000000000001 1997.5000000000002 1.0000000180025095e-35 517.50000000000011 21.270829290000005
decision_type=2 2 2 2 2 2
left_child=-1 -2 3 -3 -4 -6
right_child=1 2 4 -5 5 -7
leaf_value=0.02674623326886268 -0.020812541608145274 -0.0036044203235792954 -0.015271487802267076 0.01641895866021514 0.0058960508778691297 -0.011499483997033814
leaf_weight=84 69 74 75 60 50 59
leaf_count=84 69 74 75 60 50 59
internal_value=0 -0.00580538 -0.00254911 0.00536127 -0.00830994 -0.00351988
internal_weight=0 387 318 134 184 109
internal_count=471 387 318 134 184 109
is_linear=0
shrinkage=0.05


Tree=14
num_leaves=7
num_cat=0
split_feature=27 27 27 27 31 27
split_gain=19.8535 6.71638 4.00137 2.96702 1.77906 0.838205
threshold=1995.5000000000002 1957.5000000000002 1984.5000000000002 2012.5000000000002 1.0000000180025095e-35 2003.5000000000002
decision_type=2 2 2 2 2 2
left_child=1 -1 4 5 -3 -2
right_child=3 2 -4 -5 -6 -7
leaf_value=-0.0042609912664468945 -0.0012358721535084612 0.014001287607890038 0.0044087219334739657 -0.017510494052670723 0.026369049927840633 -0.0088237018726373979
leaf_weight=58 59 54 56 86 63 95
leaf_count=58 59 54 56 86 63 95
internal_value=0 0.0104635 0.0154 -0.0100711 0.0206609 -0.00591668
internal_weight=0 231 173 240 117 154
internal_count=471 231 173 240 117 154
is_linear=0
shrinkage=0.05


Tree=15
num_leaves=8
num_cat=0
split_feature=236 25 27 2 0 236 0
split_gain=25.2425 7.51636 7.20665 6.22824 4.0878 3.76773 3.36479
threshold=10.286845695000002 1.7500000000000002 2000.5000000000002 1.0000000180025095e-35 444.50000000000006 15.226106640000001 598.50000000000011
decision_type=2 2 2 2 2 2 2
left_child=-1 3 -3 -2 5 -5 -6
right_child=1 2 -4 4 6 -7 -8
leaf_value=0.024845158973974841 0.0045442657469538976 0.018253085795939632 -0.007596466181656489 -0.011374610683546877 0.00064635044555105868 -0.030318326546022525 -0.016629775613546373
leaf_weight=84 60 56 52 53 63 52 51
leaf_count=84 60 56 52 53 63 52 51
internal_value=0 -0.00539275 0.00580701 -0.00972814 -0.0136384 -0.0207563 -0.00708244
internal_weight=0 387 108 279 219 105 114
internal_count=471 387 108 279 219 105 114
is_linear=0
shrinkage=0.05


Tree=16
num_leaves=7
num_cat=0
split_feature=236 25 2 27 209 236
split_gain=22.8122 6.89165 5.73669 5.73046 3.58982 2.97359
threshold=10.467710685000002 1.7500000000000002 1.0000000180025095e-35 1999.5000000000002 1.0000000180025095e-35 18.876736930000003
decision_type=2 2 2 2 2 2
left_child=-1 2 -2 -3 -4 -6
right_child=1 3 4 -5 5 -7
leaf_value=0.023117933379507613 0.0043170525707925357 0.017018172250957125 -0.023798673561420933 -0.0062369689345359806 -0.017207353452549264 -0.0034186866600066424
leaf_weight=87 60 54 58 52 68 92
leaf_count=87 60 54 58 52 68 92
internal_value=0 -0.00523766 -0.00937381 0.00560999 -0.0131419 -0.00927887
internal_weight=0 384 278 106 218 160
internal_count=471 384 278 106 218 160
is_linear=0
shrinkage=0.05


Tree=17
num_leaves=6
num_cat=0
split_feature=236 0 25 217 27
split_gain=20.6047 6.71333 4.19083 2.83451 2.90023
threshold=10.286845695000002 118.50000000000001 1.7500000000000002 1.0000000180025095e-35 1978.5000000000002
decision_type=2 2 2 2 2
left_child=-1 -2 3 4 -3
right_child=1 2 -4 -5 -6
leaf_value=0.022447004178095434 -0.019009718269217706 0.007921390165166374 0.0076229557703617352 -0.011936236212128089 -0.0068378600652795295
leaf_weight=84 69 57 86 95 80
leaf_count=84 69 57 86 95 80
internal_value=0 -0.00487222 -0.00180465 -0.00529936 -0.00069715
internal_weight=0 387 318 232 137
internal_count=471 387 318 232 137
is_linear=0
shrinkage=0.05


Tree=18
num_leaves=7
num_cat=0
split_feature=236 0 27 31 0 236
split_gain=18.5957 6.05878 3.60465 6.09604 2.13455 2.96627
threshold=10.286845695000002 118.50000000000001 1997.5000000000002 1.0000000180025095e-35 517.50000000000011 21.270829290000005
decision_type=2 2 2 2 2 2
left_child=-1 -2 3 -3 -4 -6
right_child=1 2 4 -5 5 -7
leaf_value=0.021324654074297067 -0.018059231788999791 -0.0082576959986578342 -0.012749574681123097 0.013421917423794541 0.0071697636842727661 -0.0093832578699467543
leaf_weight=84 69 55 75 79 50 59
leaf_count=84 69 55 75 79 50 59
internal_value=0 -0.00462861 -0.00171441 0.00452357 -0.00625729 -0.00179013
internal_weight=0 387 318 134 184 109
internal_count=471 387 318 134 184 109
is_linear=0
shrinkage=0.05


Tree=19
num_leaves=7
num_cat=0
split_feature=236 25 2 209 75 236
split_gain=16.8016 5.86512 4.84211 3.26536 2.92404 2.57992
threshold=10.467710685000002 1.7500000000000002 1.0000000180025095e-35 1.0000000180025095e-35 1.0000000180025095e-35 18.876736930000003
decision_type=2 2 2 2 2 2
left_child=-1 2 -2 -4 -3 -5
right_child=1 4 3 5 -6 -7
leaf_value=0.019839967123564634 0.0042674836935475474 0.013816602988484897 -0.021936307134556361 -0.015473241227514603 -0.0027922040167844523 -0.0026297075729614693
leaf_weight=87 60 53 58 68 53 92
leaf_count=87 60 53 58 68 53 92
internal_value=0 -0.00449499 -0.00831068 -0.0117726 0.0055122 -0.00808821
internal_weight=0 384 278 218 106 160
internal_count=471 384 278 218 106 160
is_linear=0
shrinkage=0.05


Tree=20
num_leaves=6
num_cat=0
split_feature=236 27 25 217 2
split_gain=15.1793 5.39934 4.58719 2.29458 2.98995
threshold=10.286845695000002 2012.5000000000002 1.2500000000000002 1.0000000180025095e-35 1.0000000180025095e-35
decision_type=2 2 2 2 2
left_child=-1 2 3 4 -2
right_child=1 -3 -4 -5 -6
leaf_value=0.019266422926670031 0.0081285562693934749 -0.01603191438820455 0.0086571919403093719 -0.011644749643235672 -0.0067848990891086931
leaf_weight=84 54 77 85 82 89
leaf_count=84 54 77 85 82 89
internal_value=0 -0.00418186 -0.00123846 -0.00497682 -0.00115324
internal_weight=0 387 310 225 143
internal_count=471 387 310 225 143
is_linear=0
shrinkage=0.05


Tree=21
num_leaves=8
num_cat=0
split_feature=0 0 75 0 197 217 25
split_gain=9.00086 8.67057 4.65821 4.14004 2.01861 1.85021 0.176453
threshold=118.50000000000001 376.50000000000006 1.0000000180025095e-35 279.00000000000006 1.0000000180025095e-35 1.0000000180025095e-35 1.7500000000000002
decision_type=2 2 2 2 2 2 2
left_child=-1 3 4 6 -3 -4 -2
right_child=1 2 5 -5 -6 -7 -8
leaf_value=-0.016683608263838981 0.0042729181911924791 -0.0022700008667879187 -0.0041095192655364971 0.023105305985168176 0.011045013828711078 -0.016251870385229083 0.0083261127397418026
leaf_weight=69 58 59 67 54 55 59 50
leaf_count=69 58 59 67 54 55 59 50
internal_value=0 0.0028636 -0.00316939 0.0118014 0.00415391 -0.00979522 0.0061494
internal_weight=0 402 240 162 114 126 108
internal_count=471 402 240 162 114 126 108
is_linear=0
shrinkage=0.05


Tree=22
num_leaves=6
num_cat=0
split_feature=236 0 25 217 27
split_gain=12.5245 4.87782 3.14878 2.20362 2.24821
threshold=10.286845695000002 118.50000000000001 1.7500000000000002 1.0000000180025095e-35 1978.5000000000002
decision_type=2 2 2 2 2
left_child=-1 -2 3 4 -3
right_child=1 2 -4 -5 -6
leaf_value=0.017500722643342757 -0.015849427708789058 0.0074329630618816924 0.0069880754481134724 -0.010064889176895745 -0.0055617390153929599
leaf_weight=84 69 57 86 95 80
leaf_count=84 69 57 86 95 80
internal_value=0 -0.00379861 -0.00118381 -0.00421304 -0.000155184
internal_weight=0 387 318 232 137
internal_count=471 387 318 232 137
is_linear=0
shrinkage=0.05


Tree=23
num_leaves=7
num_cat=0
split_feature=236 25 2 209 0 75
split_gain=11.3034 4.43345 3.67216 3.09282 4.52822 2.03896
threshold=10.286845695000002 1.7500000000000002 1.0000000180025095e-35 1.0000000180025095e-35 517.50000000000011 1.0000000180025095e-35
decision_type=2 2 2 2 2 2
left_child=-1 2 -2 -4 -5 -3
right_child=1 5 3 4 -6 -7
leaf_value=0.016625686231557104 0.0040207979152910413 0.01186295077894573 -0.019840546337694959 -0.013822237730233207 0.0030664644715651663 -0.0018772368336579315
leaf_weight=84 60 54 58 90 71 54
leaf_count=84 60 54 58 90 71 54
internal_value=0 -0.00360868 -0.0069383 -0.0099408 -0.00637442 0.00499286
internal_weight=0 387 279 219 161 108
internal_count=471 387 279 219 161 108
is_linear=0
shrinkage=0.05


Tree=24
num_leaves=6
num_cat=0
split_feature=27 217 25 27 27
split_gain=11.6351 9.18706 3.94881 1.34188 1.13107
threshold=2003.5000000000002 1.0000000180025095e-35 1.2500000000000002 1978.5000000000002 2012.5000000000002
decision_type=2 2 2 2 2
left_child=1 2 3 -1 -2
right_child=4 -3 -4 -5 -6
leaf_value=0.010066807885654271 -0.0061866449760763272 -0.011784364402359516 0.020749566639663982 0.00083871300690449211 -0.014101484495886538
leaf_weight=100 95 57 68 65 86
leaf_count=100 95 57 68 65 86
internal_value=0 0.00620848 0.0106102 0.0064315 -0.00994729
internal_weight=0 290 233 165 181
internal_count=471 290 233 165 181
is_linear=0
shrinkage=0.05


Tree=25
num_leaves=8
num_cat=0
split_feature=27 236 236 2 236 236 27
split_gain=10.5007 14.0327 7.55989 4.79085 3.5859 1.72218 1.23642
threshold=2003.5000000000002 15.167658070000002 18.734865550000006 1.0000000180025095e-35 21.713799690000005 21.332003140000005 1974.5000000000002
decision_type=2 2 2 2 2 2 2
left_child=1 6 -2 -3 -5 -4 -1
right_child=2 3 5 4 -6 -7 -8
leaf_value=0.025534307974856348 -0.021325634526354928 0.0070438186098019497 0.0056542815746001484 -0.00072210879513510962 -0.019209761068444044 -0.007216451755341362 0.015004084297245191
leaf_weight=50 77 72 53 54 51 51 63
leaf_count=50 77 72 53 54 51 51 63
internal_value=0 0.00589806 -0.00944992 -0.00289004 -0.00970183 -0.000657328 0.0196635
internal_weight=0 290 181 177 105 104 113
internal_count=471 290 181 177 105 104 113
is_linear=0
shrinkage=0.05


Tree=26
num_leaves=7
num_cat=0
split_feature=27 236 0 75 27 236
split_gain=9.47688 12.6645 9.02424 2.86491 1.11587 0.443077
threshold=2003.5000000000002 15.167658070000002 417.50000000000006 1.0000000180025095e-35 1974.5000000000002 21.226347105000006
decision_type=2 2 2 2 2 2
left_child=1 4 -2 -3 -1 -4
right_child=2 3 5 -5 -6 -7
leaf_value=0.024257592913287229 -0.02255701008316589 0.0030976012523145375 0.0032874327884720904 -0.0096707361819291567 0.014253880332098418 -0.0031220893303935348
leaf_weight=50 73 96 56 81 63 52
leaf_count=50 73 96 56 81 63 52
internal_value=0 0.00560315 -0.00897743 -0.00274554 0.0186803 0.000201367
internal_weight=0 290 181 177 113 108
internal_count=471 290 181 177 113 108
is_linear=0
shrinkage=0.05


Tree=27
num_leaves=7
num_cat=0
split_feature=27 236 0 209 27 236
split_gain=8.55288 11.4297 8.14438 3.64793 1.00707 0.399877
threshold=2003.5000000000002 15.167658070000002 417.50000000000006 1.0000000180025095e-35 1974.5000000000002 21.226347105000006
decision_type=2 2 2 2 2 2
left_child=1 4 -2 -3 -1 -4
right_child=2 3 5 -5 -6 -7
leaf_value=0.023044712893664838 -0.021429159645348379 -0.0090530279368086133 0.0031230611726641658 0.0053865168526580067 0.013541186604619263 -0.0029659848230389452
leaf_weight=50 73 98 56 79 63 52
leaf_count=50 73 98 56 79 63 52
internal_value=0 0.00532299 -0.00852855 -0.00260826 0.0177463 0.000191298
internal_weight=0 290 181 177 113 108
internal_count=471 290 181 177 113 108
is_linear=0
shrinkage=0.05


Tree=28
num_leaves=8
num_cat=0
split_feature=27 236 0 236 27 236 27
split_gain=7.79191 8.77674 3.2618 3.94694 2.50776 2.24899 2.19889
threshold=1995.5000000000002 21.448302190000003 517.50000000000011 14.876770190000002 1966.5000000000002 21.270829290000005 1973.5000000000002
decision_type=2 2 2 2 2 2 2
left_child=1 6 3 -2 -3 -4 -1
right_child=2 4 5 -5 -6 -7 -8
leaf_value=0.02292893784199479 -0.002547157315477248 -0.012517740029376001 0.0078592082411050798 -0.019990179060465275 0.003318170677870512 -0.0064989865695436804 0.0097305058334500368
leaf_weight=53 62 50 50 68 50 60 78
leaf_count=53 62 50 50 68 50 60 78
internal_value=0 0.00655513 -0.00630931 -0.0116712 -0.00459978 2.74656e-05 0.0150703
internal_weight=0 231 240 130 100 110 131
internal_count=471 231 240 130 100 110 131
is_linear=0
shrinkage=0.05


Tree=29
num_leaves=8
num_cat=0
split_feature=27 236 0 2 236 27 236
split_gain=7.21019 9.47877 7.08153 4.28321 3.00032 0.749745 0.301812
threshold=2003.5000000000002 15.167658070000002 417.50000000000006 1.0000000180025095e-35 21.713799690000005 1974.5000000000002 21.226347105000006
decision_type=2 2 2 2 2 2 2
left_child=1 5 -2 -3 -5 -1 -4
right_child=2 3 6 4 -6 -7 -8
leaf_value=0.020772427283227445 -0.019859978444363977 0.007057483587414027 0.0028474681744618075 -0.0005622921787478306 -0.017473177210080858 0.012572485184858715 -0.0024425141943188815
leaf_weight=50 73 72 56 54 51 63 52
leaf_count=50 73 72 56 54 51 63 52
internal_value=0 0.00488735 -0.00783056 -0.00233535 -0.00877615 0.0162008 0.00030044
internal_weight=0 290 181 177 105 113 108
internal_count=471 290 181 177 105 113 108
is_linear=0
shrinkage=0.05


Tree=30
num_leaves=7
num_cat=0
split_feature=27 236 0 209 27 236
split_gain=6.5072 8.55459 6.39108 3.34285 0.676645 0.272385
threshold=2003.5000000000002 15.167658070000002 417.50000000000006 1.0000000180025095e-35 1974.5000000000002 21.226347105000006
decision_type=2 2 2 2 2 2
left_child=1 4 -2 -3 -1 -4
right_child=2 3 5 -5 -6 -7
leaf_value=0.019733805831521751 -0.018866979340984399 -0.0083879734232679623 0.0027050951096628394 0.0054345851646193976 0.011943860583391691 -0.0023203885326018698
leaf_weight=50 73 98 56 79 63 52
leaf_count=50 73 98 56 79 63 52
internal_value=0 0.00464298 -0.00743903 -0.00221858 0.0153907 0.000285418
internal_weight=0 290 181 177 113 108
internal_count=471 290 181 177 113 108
is_linear=0
shrinkage=0.05


Tree=31
num_leaves=8
num_cat=0
split_feature=0 0 75 0 0 0 25
split_gain=5.07068 4.09049 3.44409 1.62284 0.773741 0.256623 0.160765
threshold=118.50000000000001 376.50000000000006 1.0000000180025095e-35 279.00000000000006 542.50000000000011 524.50000000000011 1.7500000000000002
decision_type=2 2 2 2 2 2 2
left_child=-1 3 4 6 -3 -4 -2
right_child=1 2 5 -5 -6 -7 -8
leaf_value=-0.012522209792033487 0.0029585129998881241 -3.9469962939620021e-05 -0.010473724015057088 0.015365528073851709 0.0082104103942401713 -0.0058614924304971573 0.0068273315653204925
leaf_weight=69 58 54 50 54 60 76 50
leaf_count=69 58 54 50 54 60 76 50
internal_value=0 0.00214933 -0.00199444 0.00828826 0.00430257 -0.00769174 0.00474963
internal_weight=0 402 240 162 114 126 108
internal_count=471 402 240 162 114 126 108
is_linear=0
shrinkage=0.05


Tree=32
num_leaves=8
num_cat=0
split_feature=27 236 0 236 27 236 114
split_gain=5.83629 6.26358 2.4587 3.29086 2.092 1.84823 1.70934
threshold=1995.5000000000002 21.448302190000003 517.50000000000011 14.876770190000002 1966.5000000000002 21.270829290000005 1.0000000180025095e-35
decision_type=2 2 2 2 2 2 2
left_child=1 6 3 -2 -3 -4 -1
right_child=2 4 5 -5 -6 -7 -8
leaf_value=0.020136211752891542 -0.0017844080023707882 -0.010982152187265455 0.0071409323811531065 -0.017711846867357106 0.0034815978370606898 -0.005875259923438232 0.0083793207439651473
leaf_weight=50 62 50 50 68 50 60 81
leaf_count=50 62 50 50 68 50 60 81
internal_value=0 0.00567319 -0.00546045 -0.0101157 -0.00375028 4.11911e-05 0.0128667
internal_weight=0 231 240 130 100 110 131
internal_count=471 231 240 130 100 110 131
is_linear=0
shrinkage=0.05


Tree=33
num_leaves=7
num_cat=0
split_feature=236 2 25 0 0 236
split_gain=5.02413 3.23724 2.68787 2.50782 2.74484 1.16238
threshold=11.915349075000002 1.0000000180025095e-35 1.7500000000000002 455.50000000000006 577.50000000000011 15.286603440000002
decision_type=2 2 2 2 2 2
left_child=-1 -2 3 5 -5 -3
right_child=1 2 -4 4 -6 -7
leaf_value=0.010010228712450374 0.005906704464269912 -0.0085074243314850802 0.0028600753039905902 0.0050286461548371755 -0.01084087626249702 -0.019184608548879625
leaf_weight=99 85 52 76 55 54 50
leaf_count=99 85 52 76 55 54 50
internal_value=0 -0.00266401 -0.00520238 -0.00810639 -0.00283332 -0.0137413
internal_weight=0 372 287 211 109 102
internal_count=471 372 287 211 109 102
is_linear=0
shrinkage=0.05


Tree=34
num_leaves=7
num_cat=0
split_feature=27 217 0 236 114 0
split_gain=5.22881 6.73131 5.59402 3.93934 1.31549 0.174136
threshold=2003.5000000000002 1.0000000180025095e-35 417.50000000000006 21.270829290000005 1.0000000180025095e-35 594.50000000000011
decision_type=2 2 2 2 2 2
left_child=1 3 -2 4 -1 -4
right_child=2 -3 5 -5 -6 -7
leaf_value=0.019421616948463699 -0.017359995622545071 -0.011239443392607205 0.0027207320034503941 0.00029914708587112931 0.0093765049474313859 -0.0013057645024924444
leaf_weight=55 73 57 50 98 80 58
leaf_count=55 73 57 50 98 80 58
internal_value=0 0.00416199 -0.00666838 0.00792972 0.013469 0.000558354
internal_weight=0 290 181 233 135 108
internal_count=471 290 181 233 135 108
is_linear=0
shrinkage=0.05


Tree=35
num_leaves=8
num_cat=0
split_feature=27 236 236 2 114 236 27
split_gain=4.719 6.17472 3.92803 3.51288 1.98119 0.898425 0.883998
threshold=2003.5000000000002 21.085970450000001 18.734865550000006 1.0000000180025095e-35 1.0000000180025095e-35 21.332003140000005 1985.5000000000002
decision_type=2 2 2 2 2 2 2
left_child=1 4 -2 -3 -1 -4 -6
right_child=2 3 5 -5 6 -7 -8
leaf_value=0.017748324455399263 -0.014895270547115959 0.0041596076737347425 0.0045616580700536943 -0.012818340797509467 0.010469289786987386 -0.0047345222795710847 0.0015273966154871652
leaf_weight=57 77 59 53 63 59 51 52
leaf_count=57 77 59 53 63 59 51 52
internal_value=0 0.00395389 -0.00633496 -0.00460769 0.0101712 2.95424e-06 0.00628029
internal_weight=0 290 181 122 168 104 111
internal_count=471 290 181 122 168 104 111
is_linear=0
shrinkage=0.05


Tree=36
num_leaves=8
num_cat=0
split_feature=27 217 0 236 2 236 0
split_gain=4.2589 5.86932 4.65198 3.25873 3.63215 0.133738 0.0811754
threshold=2003.5000000000002 1.0000000180025095e-35 417.50000000000006 15.253216630000002 1.0000000180025095e-35 21.226347105000006 261.50000000000006
decision_type=2 2 2 2 2 2 2
left_child=1 3 -2 6 -5 -4 -1
right_child=2 -3 5 4 -6 -7 -8
leaf_value=0.015230302347467757 -0.015768110481639432 -0.010625341756824863 0.0022674697351508905 0.010290238591484153 -0.0064900789853709288 -0.001253911337027183 0.012435983398965761
leaf_weight=53 73 57 56 65 64 52 51
leaf_count=53 73 57 56 65 64 52 51
internal_value=0 0.0037562 -0.00601822 0.00727443 0.00196512 0.00057199 0.01386
internal_weight=0 290 181 233 129 108 104
internal_count=471 290 181 233 129 108 104
is_linear=0
shrinkage=0.05


Tree=37
num_leaves=8
num_cat=0
split_feature=27 236 0 2 114 0 0
split_gain=3.84365 5.32658 4.19841 2.85891 1.68515 0.847005 0.122881
threshold=2003.5000000000002 21.085970450000001 417.50000000000006 1.0000000180025095e-35 1.0000000180025095e-35 215.00000000000003 594.50000000000011
decision_type=2 2 2 2 2 2 2
left_child=1 4 -2 -3 -1 -6 -4
right_child=2 3 6 -5 5 -7 -8
leaf_value=0.01633106253452991 -0.01497970513285023 0.0035257407274665469 0.0023598646819591521 -0.01179056301239937 0.0011021044176931563 0.0098548994336466675 -0.0010225357359339453
leaf_weight=57 73 59 50 63 52 59 58
leaf_count=57 73 59 50 63 52 59 58
internal_value=0 0.00356839 -0.00571731 -0.0043835 0.00934297 0.00575449 0.00054339
internal_weight=0 290 181 122 168 111 108
internal_count=471 290 181 122 168 111 108
is_linear=0
shrinkage=0.05


Tree=38
num_leaves=8
num_cat=0
split_feature=27 236 0 236 27 236 27
split_gain=3.49978 3.92615 1.7477 2.92152 1.56101 1.38629 1.22027
threshold=1995.5000000000002 21.448302190000003 517.50000000000011 14.876770190000002 1966.5000000000002 21.270829290000005 1973.5000000000002
decision_type=2 2 2 2 2 2 2
left_child=1 6 3 -2 -3 -4 -1
right_child=2 4 5 -5 -6 -7 -8
leaf_value=0.015942684561014175 -0.00030343834528579351 -0.0093145960094407204 0.0065588394738733766 -0.015310500073246658 0.0031794515810906888 -0.0047140055025617286 0.0061105185451033788
leaf_weight=53 62 50 50 68 50 60 78
leaf_count=53 62 50 50 68 50 60 78
internal_value=0 0.00439318 -0.00422844 -0.00815329 -0.00306757 0.000410015 0.0100884
internal_weight=0 231 240 130 100 110 131
internal_count=471 231 240 130 100 110 131
is_linear=0
shrinkage=0.05


Tree=39
num_leaves=7
num_cat=0
split_feature=208 0 31 236 236 236
split_gain=3.52443 3.3393 2.10211 1.82704 1.42931 0.578328
threshold=1.0000000180025095e-35 118.50000000000001 1.0000000180025095e-35 20.955927850000005 14.637020525000002 14.271099430000001
decision_type=2 2 2 2 2 2
left_child=1 -1 3 5 -4 -3
right_child=-2 2 4 -5 -6 -7
leaf_value=-0.00897840175954304 -0.0090232344767586757 0.0016188982054591182 0.0028470771496786791 -0.0039818050482367381 0.01381939257114706 0.0090488380295309159
leaf_weight=58 88 50 51 98 71 55
leaf_count=58 88 50 51 98 71 55
internal_value=0 0.00207322 0.00404551 0.000928148 0.0092326 0.00551077
internal_weight=0 383 325 203 122 105
internal_count=471 383 325 203 122 105
is_linear=0
shrinkage=0.05


Tree=40
num_leaves=6
num_cat=0
split_feature=217 27 25 236 0
split_gain=3.3482 4.49214 2.86679 3.33643 2.66882
threshold=1.0000000180025095e-35 2003.5000000000002 1.2500000000000002 15.286603440000002 517.50000000000011
decision_type=2 2 2 2 2
left_child=1 2 3 -1 -2
right_child=4 -3 -4 -5 -6
leaf_value=0.011438424275804531 -0.012606604495871957 -0.0071621013460335912 0.015146311189678005 -0.0030064191501203582 0.00043374281609430914
leaf_weight=68 77 81 68 97 80
leaf_count=68 77 81 68 97 80
internal_value=0 0.00298092 0.00650704 0.00294661 -0.00596184
internal_weight=0 314 233 165 157
internal_count=471 314 233 165 157
is_linear=0
shrinkage=0.05


Tree=41
num_leaves=6
num_cat=0
split_feature=208 27 0 27 27
split_gain=3.29733 3.01138 3.83284 3.47584 1.59069
threshold=1.0000000180025095e-35 2003.5000000000002 517.50000000000011 1964.5000000000002 1984.5000000000002
decision_type=2 2 2 2 2
left_child=1 3 -3 -1 -5
right_child=-2 2 -4 4 -6
leaf_value=-0.0042695430474967945 -0.0087276755197143018 -0.011060628268125032 0.0043713957889050968 0.015625200886279344 0.0054980745345869289
leaf_weight=62 88 79 82 66 94
leaf_count=62 88 79 82 66 94
internal_value=0 0.00200531 -0.00320084 0.00578095 0.00967551
internal_weight=0 383 161 222 160
internal_count=471 383 161 222 160
is_linear=0
shrinkage=0.05


Tree=42
num_leaves=7
num_cat=0
split_feature=26 208 2 0 31 0
split_gain=3.23259 3.77157 4.14795 2.09938 0.730837 2.34177
threshold=1.0000000180025095e-35 1.0000000180025095e-35 1.0000000180025095e-35 127.50000000000001 1.0000000180025095e-35 517.50000000000011
decision_type=2 2 2 2 2 2
left_child=1 2 -1 -4 5 -5
right_child=-2 -3 3 4 -6 -7
leaf_value=0.011111973139767847 0.011276258328663451 -0.011588622214836315 -0.011436959668781129 -0.010736784422952755 0.0038401116641214143 0.0027860723847393382
leaf_weight=75 56 76 50 51 77 86
leaf_count=75 56 76 50 51 77 86
internal_value=0 -0.00152162 0.000735294 -0.00221263 -5.74074e-05 -0.00224798
internal_weight=0 415 339 264 214 137
internal_count=471 415 339 264 214 137
is_linear=0
shrinkage=0.05


Tree=43
num_leaves=6
num_cat=0
split_feature=236 2 236 0 27
split_gain=3.11421 1.77017 1.87605 1.87223 3.5445
threshold=11.915349075000002 1.0000000180025095e-35 21.713799690000005 517.50000000000011 2003.5000000000002
decision_type=2 2 2 2 2
left_child=-1 -2 3 4 -3
right_child=1 2 -4 -5 -6
leaf_value=0.0078811121013278914 0.0042403882681666056 0.0027548229293132276 -0.0097214273598633313 0.0060186044373098883 -0.013883913197481125
leaf_weight=99 85 73 95 62 57
leaf_count=99 85 73 95 62 57
internal_value=0 -0.00209739 -0.00397444 -0.00113087 -0.00454062
internal_weight=0 372 287 192 130
internal_count=471 372 287 192 130
is_linear=0
shrinkage=0.05


Tree=44
num_leaves=7
num_cat=0
split_feature=236 25 27 27 236 27
split_gain=2.90672 1.92391 4.27314 1.26484 1.33268 1.46613
threshold=9.2898294585000016 1.7500000000000002 2003.5000000000002 2012.5000000000002 20.955927850000005 1987.5000000000002
decision_type=2 2 2 2 2 2
left_child=-1 3 -3 4 -2 -6
right_child=1 2 -4 -5 5 -7
leaf_value=0.011271986160792558 0.0025249237514799461 0.012024413696490229 -0.0065993810462003409 -0.010649054139279404 -0.0098757323447467866 0.00011689425774023567
leaf_weight=51 96 70 55 52 76 71
leaf_count=51 96 70 55 52 76 71
internal_value=0 -0.00136874 0.00382994 -0.00357157 -0.00205705 -0.00504936
internal_weight=0 420 125 295 243 147
internal_count=471 420 125 295 243 147
is_linear=0
shrinkage=0.05


Tree=45
num_leaves=6
num_cat=0
split_feature=208 0 27 27 0
split_gain=2.81438 2.53586 2.03598 1.70439 1.54686
threshold=1.0000000180025095e-35 118.50000000000001 1997.5000000000002 1964.5000000000002 542.50000000000011
decision_type=2 2 2 2 2
left_child=1 -1 3 -3 -4
right_child=-2 2 4 -5 -6
leaf_value=-0.0077781143182776222 -0.0080632320552302354 0.00053953666778683079 -0.0043328180506553814 0.011850298578307654 0.0050182991115966949
leaf_weight=58 88 51 96 96 82
leaf_count=58 88 51 96 96 82
internal_value=0 0.00185265 0.00357137 0.00792616 -2.5e-05
internal_weight=0 383 325 147 178
internal_count=471 383 325 147 178
is_linear=0
shrinkage=0.05


Tree=46
num_leaves=7
num_cat=0
split_feature=26 0 209 236 27 0
split_gain=2.69075 2.79923 2.12533 4.26796 2.06217 1.87357
threshold=1.0000000180025095e-35 123.00000000000001 1.0000000180025095e-35 21.332003140000005 1997.5000000000002 542.50000000000011
decision_type=2 2 2 2 2 2
left_child=1 -1 3 -3 -4 -6
right_child=-2 2 4 -5 5 -7
leaf_value=-0.01100501130495104 0.010287889745086432 0.0051745542194968205 0.010442554966023525 -0.011721115033366685 -0.0066231024483124085 0.0055535051341661645
leaf_weight=64 56 68 73 83 59 68
leaf_count=64 56 68 73 83 59 68
internal_value=0 -0.00138825 0.000365239 -0.00411247 0.00374591 -0.000103344
internal_weight=0 415 351 151 200 127
internal_count=471 415 351 151 200 127
is_linear=0
shrinkage=0.05


Tree=47
num_leaves=6
num_cat=0
split_feature=217 27 236 25 236
split_gain=2.60497 3.2072 2.56791 2.0867 2.44042
threshold=1.0000000180025095e-35 2003.5000000000002 20.955927850000005 1.2500000000000002 15.286603440000002
decision_type=2 2 2 2 2
left_child=1 3 -2 4 -1
right_child=2 -3 -4 -5 -6
leaf_value=0.0098337248460773161 0.00011625741760286949 -0.0059411145424769253 -0.012866257452047789 0.012979469556525789 -0.0025201641599234847
leaf_weight=68 92 81 65 68 97
leaf_count=68 92 81 65 68 97
internal_value=0 0.00262933 -0.00525867 0.00560876 0.00257114
internal_weight=0 314 157 233 165
internal_count=471 314 157 233 165
is_linear=0
shrinkage=0.05


Tree=48
num_leaves=6
num_cat=0
split_feature=208 0 27 31 0
split_gain=2.59052 2.09018 1.56475 1.58562 1.40041
threshold=1.0000000180025095e-35 118.50000000000001 1997.5000000000002 1.0000000180025095e-35 517.50000000000011
decision_type=2 2 2 2 2
left_child=1 -1 3 -3 -4
right_child=-2 2 4 -5 -6
leaf_value=-0.0069661476805902497 -0.007735903165303171 0.00063031362533046489 -0.004723567148903385 0.011288171429187061 0.0041920212534617409
leaf_weight=58 88 57 80 90 98
leaf_count=58 88 57 80 90 98
internal_value=0 0.00177744 0.00333783 0.00715553 0.000185015
internal_weight=0 383 325 147 178
internal_count=471 383 325 147 178
is_linear=0
shrinkage=0.05


Tree=49
num_leaves=7
num_cat=0
split_feature=208 0 27 216 31 236
split_gain=2.33794 1.88638 1.45774 1.48639 1.28266 2.03601
threshold=1.0000000180025095e-35 118.50000000000001 1974.5000000000002 1.0000000180025095e-35 1.0000000180025095e-35 20.955927850000005
decision_type=2 2 2 2 2 2
left_child=1 -1 -3 4 5 -4
right_child=-2 2 3 -5 -6 -7
leaf_value=-0.0066178399922387932 -0.007349107736213641 0.0093381618627825305 0.0071812250957009388 -0.0061743140363922488 0.0093573056543093235 -0.0049972626858869121
leaf_weight=58 88 74 64 52 61 74
leaf_count=58 88 74 64 52 61 74
internal_value=0 0.00168857 0.00317094 0.00135272 0.00331958 0.000650732
internal_weight=0 383 325 251 199 138
internal_count=471 383 325 251 199 138
is_linear=0
shrinkage=0.05


Tree=50
num_leaves=8
num_cat=0
split_feature=236 25 27 27 27 31 236
split_gain=2.38113 1.60351 3.35804 0.99491 1.20735 3.02331 0.477069
threshold=9.2898294585000016 1.7500000000000002 2003.5000000000002 2012.5000000000002 1987.5000000000002 1.0000000180025095e-35 21.127511120000005
decision_type=2 2 2 2 2 2 2
left_child=-1 3 -3 4 5 -2 -6
right_child=1 2 -4 -5 6 -7 -8
leaf_value=0.010202129199808721 -0.014863674130756408 0.010771515369415284 -0.0057381184077398353 -0.0095268964292839747 -0.0013732470601098613 0.0011868756789136941 0.0048876514208727878
leaf_weight=51 50 70 55 52 64 71 58
leaf_count=51 50 70 55 52 64 71 58
internal_value=0 -0.00123883 0.00350728 -0.00324989 -0.00190666 -0.00544558 0.00160325
internal_weight=0 420 125 295 243 121 122
internal_count=471 420 125 295 243 121 122
is_linear=0
shrinkage=0.05


Tree=51
num_leaves=7
num_cat=0
split_feature=26 0 209 0 27 0
split_gain=2.27782 2.14446 1.71488 1.94361 1.3864 1.55048
threshold=1.0000000180025095e-35 123.00000000000001 1.0000000180025095e-35 546.50000000000011 1997.5000000000002 542.50000000000011
decision_type=2 2 2 2 2 2
left_child=1 -1 3 -3 -4 -6
right_child=-2 2 4 -5 5 -7
leaf_value=-0.0096944997501850604 0.0094656225094305619 0.0003465186089578301 0.0087850699481898786 -0.011591813287052971 -0.0057929774114893655 0.0052840822006520981
leaf_weight=64 56 99 73 52 59 68
leaf_count=64 56 99 73 52 59 68
internal_value=0 -0.00127729 0.000257473 -0.0037647 0.00329421 0.000138047
internal_weight=0 415 351 151 200 127
internal_count=471 415 351 151 200 127
is_linear=0
shrinkage=0.05


Tree=52
num_leaves=7
num_cat=0
split_feature=217 216 27 0 214 27
split_gain=2.21075 2.72456 1.8283 1.62074 0.663309 0.091369
threshold=1.0000000180025095e-35 1.0000000180025095e-35 1997.5000000000002 517.50000000000011 1.0000000180025095e-35 1984.5000000000002
decision_type=2 2 2 2 2 2
left_child=1 4 -3 -2 -1 -6
right_child=3 2 -4 -5 5 -7
leaf_value=0.0088885218538727953 -0.010022610236056053 0.0021879527997225525 -0.010556436381039192 0.00013954168302007021 0.0016296376127238367 0.0045942165906418045
leaf_weight=97 77 60 53 80 51 53
leaf_count=97 77 60 53 80 51 53
internal_value=0 0.00242222 -0.0037895 -0.00484444 0.00591439 0.00314043
internal_weight=0 314 113 157 201 104
internal_count=471 314 113 157 201 104
is_linear=0
shrinkage=0.05


Tree=53
num_leaves=6
num_cat=0
split_feature=208 2 25 0 236
split_gain=2.14931 1.99379 1.29637 1.22229 0.420026
threshold=1.0000000180025095e-35 1.0000000180025095e-35 1.7500000000000002 203.50000000000003 20.955927850000005
decision_type=2 2 2 2 2
left_child=1 -1 3 -3 -5
right_child=-2 2 -4 4 -6
leaf_value=0.0085848137034954114 -0.0070464031601494004 -0.0082666612710923914 0.0048592388076940558 0.002946088203917379 -0.0023330911634916285
leaf_weight=81 88 62 88 69 83
leaf_count=81 88 62 88 69 83
internal_value=0 0.00161902 -0.000249293 -0.00235 6.33784e-05
internal_weight=0 383 302 214 152
internal_count=471 383 302 214 152
is_linear=0
shrinkage=0.05


Tree=54
num_leaves=7
num_cat=0
split_feature=26 208 2 27 27 0
split_gain=2.05979 2.52042 3.08801 1.15931 1.18011 0.476157
threshold=1.0000000180025095e-35 1.0000000180025095e-35 1.0000000180025095e-35 2012.5000000000002 1981.5000000000002 542.50000000000011
decision_type=2 2 2 2 2 2
left_child=1 2 -1 4 -4 -6
right_child=-2 -3 3 -5 5 -7
leaf_value=0.0095836079921573416 0.0090012120548635718 -0.0094441589654276261 -0.0057408577180467551 -0.0080227128641369438 0.00010937160949277528 0.0060799761421301149
leaf_weight=75 56 76 64 60 85 55
leaf_count=75 56 76 64 60 85 55
internal_value=0 -0.00121462 0.000630349 -0.00191319 -0.000116273 0.00245497
internal_weight=0 415 339 264 204 140
internal_count=471 415 339 264 204 140
is_linear=0
shrinkage=0.05


Tree=55
num_leaves=7
num_cat=0
split_feature=236 208 2 25 0 236
split_gain=2.12189 7.88341 1.82837 1.06702 1.06808 0.585706
threshold=9.2898294585000016 1.0000000180025095e-35 1.0000000180025095e-35 1.7500000000000002 225.50000000000003 20.955927850000005
decision_type=2 2 2 2 2 2
left_child=-1 2 -2 4 -4 -6
right_child=1 -3 3 -5 5 -7
leaf_value=0.0096307495864582995 0.0083029936014776106 -0.018634060710402474 -0.0072009123205928746 0.0045675558256334627 0.0045353970275475433 -0.002232224467289017
leaf_weight=51 78 56 71 80 52 83
leaf_count=51 78 56 71 80 52 83
internal_value=0 -0.00116945 0.00151742 -0.000333197 -0.0022364 0.000374563
internal_weight=0 420 364 286 206 135
internal_count=471 420 364 286 206 135
is_linear=0
shrinkage=0.05


Tree=56
num_leaves=7
num_cat=0
split_feature=236 208 27 27 0 27
split_gain=1.915 7.11477 1.49944 2.73408 2.24557 0.92866
threshold=9.2898294585000016 1.0000000180025095e-35 2003.5000000000002 1964.5000000000002 517.50000000000011 1984.5000000000002
decision_type=2 2 2 2 2 2
left_child=-1 2 3 -2 -4 -5
right_child=1 -3 4 5 -6 -7
leaf_value=0.0091492120980047713 -0.0046040977510663234 -0.017702357810256735 -0.0083342466999280756 0.013209703399075401 0.0035557018189759158 0.0049157516838103125
leaf_weight=51 61 56 77 54 82 90
leaf_count=51 61 56 77 54 82 90
internal_value=0 -0.00111098 0.00144154 0.00426776 -0.00220232 0.00802598
internal_weight=0 420 364 205 159 144
internal_count=471 420 364 205 159 144
is_linear=0
shrinkage=0.05


Tree=57
num_leaves=7
num_cat=0
split_feature=217 216 236 27 75 31
split_gain=1.79827 2.39531 2.203 1.57534 1.25063 1.44022
threshold=1.0000000180025095e-35 1.0000000180025095e-35 20.955927850000005 1997.5000000000002 1.0000000180025095e-35 1.0000000180025095e-35
decision_type=2 2 2 2 2 2
left_child=1 4 -2 -3 -1 -6
right_child=2 3 -4 -5 5 -7
leaf_value=0.00950231620571481 0.00060919916976000309 0.0019088522205129264 -0.011415566022579487 -0.0099210924504078788 0.0076991197392344479 -0.0041307684526128595
leaf_weight=98 92 60 65 53 50 53
leaf_count=98 92 60 65 53 50 53
internal_value=0 0.0021846 -0.00436921 -0.00363971 0.00545897 0.0016119
internal_weight=0 314 157 113 201 103
internal_count=471 314 157 113 201 103
is_linear=0
shrinkage=0.05


Tree=58
num_leaves=7
num_cat=0
split_feature=26 208 0 27 0 0
split_gain=1.74895 1.76118 2.0007 1.21345 1.95265 0.466091
threshold=1.0000000180025095e-35 1.0000000180025095e-35 123.00000000000001 1974.5000000000002 517.50000000000011 628.50000000000011
decision_type=2 2 2 2 2 2
left_child=1 2 -1 -4 -5 -6
right_child=-2 -3 3 4 5 -7
leaf_value=-0.0084014038417350358 0.0082942816827978414 -0.0079984823339863832 0.0078674821151872628 -0.0050640506126607455 0.0018695041360998793 0.0081901594549417499
leaf_weight=54 56 76 69 96 70 50
leaf_count=54 56 76 69 96 70 50
internal_value=0 -0.00111923 0.000423023 0.00209502 0.000251039 0.00450311
internal_weight=0 415 339 285 216 120
internal_count=471 415 339 285 216 120
is_linear=0
shrinkage=0.05


Tree=59
num_leaves=5
num_cat=0
split_feature=236 2 236 27
split_gain=1.72478 0.97801 1.42709 0.609741
threshold=11.915349075000002 1.0000000180025095e-35 21.713799690000005 2004.5000000000002
decision_type=2 2 2 2
left_child=-1 -2 3 -3
right_child=1 2 -4 -5
leaf_value=0.005865157798233659 0.0031499859827625407 0.0024311429635691709 -0.0079684731891182699 -0.0032069777197326825
leaf_weight=99 85 93 95 99
leaf_count=99 85 93 95 99
internal_value=0 -0.00156089 -0.0029561 -0.000476013
internal_weight=0 372 287 192
internal_count=471 372 287 192
is_linear=0
shrinkage=0.05


Tree=60
num_leaves=7
num_cat=0
split_feature=217 216 27 0 75 31
split_gain=1.50648 2.18396 1.40459 1.26742 1.05901 1.31219
threshold=1.0000000180025095e-35 1.0000000180025095e-35 1997.5000000000002 517.50000000000011 1.0000000180025095e-35 1.0000000180025095e-35
decision_type=2 2 2 2 2 2
left_child=1 4 -3 -2 -1 -6
right_child=3 2 -4 -5 5 -7
leaf_value=0.0088468238326473818 -0.0085781404654821976 0.0016773384770688911 -0.0094931184261474975 0.00040832744911313058 0.0073963473420590167 -0.0038954817531806117
leaf_weight=98 77 60 53 80 50 53
leaf_count=98 77 60 53 80 50 53
internal_value=0 0.00199952 -0.0035619 -0.00399905 0.0051261 0.00158599
internal_weight=0 314 113 157 201 103
internal_count=471 314 113 157 201 103
is_linear=0
shrinkage=0.05


Tree=61
num_leaves=7
num_cat=0
split_feature=236 208 2 27 27 27
split_gain=1.58835 6.02716 1.29982 0.903255 1.15274 0.626325
threshold=9.2898294585000016 1.0000000180025095e-35 1.0000000180025095e-35 2012.5000000000002 1979.5000000000002 2003.5000000000002
decision_type=2 2 2 2 2 2
left_child=-1 2 -2 4 -4 -6
right_child=1 -3 3 -5 5 -7
leaf_value=0.0083324361081216856 0.0070588730771142319 -0.016282479268764811 -0.0047526104632636601 -0.0054040387147464434 0.0066510983330162268 0.00044940049327643855
leaf_weight=51 78 56 58 65 79 84
leaf_count=51 78 56 58 65 79 84
internal_value=0 -0.0010118 0.00133754 -0.000222823 0.00130106 0.00345513
internal_weight=0 420 364 286 221 163
internal_count=471 420 364 286 221 163
is_linear=0
shrinkage=0.05


Tree=62
num_leaves=7
num_cat=0
split_feature=26 0 209 0 27 27
split_gain=1.45551 1.30374 1.50534 2.01465 0.876788 0.999806
threshold=1.0000000180025095e-35 118.50000000000001 1.0000000180025095e-35 478.50000000000006 1997.5000000000002 2007.5000000000002
decision_type=2 2 2 2 2 2
left_child=1 -1 3 -3 -4 -6
right_child=-2 2 4 -5 5 -7
leaf_value=-0.0076453580417566837 0.0075665375350841462 0.0016899623328865303 0.0073714505906586781 -0.0099038773634727451 -0.0044271677054399461 0.0044641513587303566
leaf_weight=63 56 82 73 69 57 71
leaf_count=63 56 82 73 69 57 71
internal_value=0 -0.00102103 0.000164578 -0.00360788 0.00299862 0.000504736
internal_weight=0 415 352 151 201 128
internal_count=471 415 352 151 201 128
is_linear=0
shrinkage=0.05


Tree=63
num_leaves=8
num_cat=0
split_feature=236 208 2 25 75 236 217
split_gain=1.35183 5.32233 1.22633 0.853951 0.365904 0.423264 0.203117
threshold=9.2898294585000016 1.0000000180025095e-35 1.0000000180025095e-35 1.7500000000000002 1.0000000180025095e-35 18.876736930000003 1.0000000180025095e-35
decision_type=2 2 2 2 2 2 2
left_child=-1 2 -2 4 5 -4 -6
right_child=1 -3 3 -5 6 -7 -8
leaf_value=0.0076870491801231513 0.0068315017377384574 -0.015283457236364484 -0.0073511885553598404 0.004142877851845697 -0.0020355900964484767 -0.00093803662314729879 0.0024053488839782923
leaf_weight=51 78 56 50 80 52 53 51
leaf_count=51 78 56 50 80 52 53 51
internal_value=0 -0.000933427 0.00127427 -0.000241339 -0.00194395 -0.00405122 0.000163321
internal_weight=0 420 364 286 206 103 103
internal_count=471 420 364 286 206 103 103
is_linear=0
shrinkage=0.05


Tree=64
num_leaves=7
num_cat=0
split_feature=217 216 75 0 75 31
split_gain=1.2616 1.94374 1.43743 1.14326 0.900791 1.20791
threshold=1.0000000180025095e-35 1.0000000180025095e-35 1.0000000180025095e-35 517.50000000000011 1.0000000180025095e-35 1.0000000180025095e-35
decision_type=2 2 2 2 2 2
left_child=1 4 -3 -2 -1 -6
right_child=3 2 -4 -5 5 -7
leaf_value=0.0082109707825798166 -0.008008653277156318 -0.0093114402265874318 0.0019781798108528229 0.0005263338166696485 0.0070891617583110928 -0.0037446870345552012
leaf_weight=98 77 54 59 80 50 53
leaf_count=98 77 54 59 80 50 53
internal_value=0 0.00182981 -0.00341686 -0.00365962 0.00477943 0.00151446
internal_weight=0 314 113 157 201 103
internal_count=471 314 113 157 201 103
is_linear=0
shrinkage=0.05


Tree=65
num_leaves=7
num_cat=0
split_feature=26 208 2 27 27 236
split_gain=1.31494 1.25211 1.78738 0.828875 1.16014 0.345377
threshold=1.0000000180025095e-35 1.0000000180025095e-35 1.0000000180025095e-35 2012.5000000000002 1981.5000000000002 20.955927850000005
decision_type=2 2 2 2 2 2
left_child=1 2 -1 4 -4 -6
right_child=-2 -3 3 -5 5 -7
leaf_value=0.0071415240469699104 0.0071918825186522949 -0.0067708979135970467 -0.0056625813711434604 -0.0067711666203103954 0.0046777192989770231 -0.00032190990393921254
leaf_weight=75 56 76 64 60 78 62
leaf_count=75 56 76 64 60 78 62
internal_value=0 -0.000970471 0.00032992 -0.0016052 -8.57917e-05 0.0024636
internal_weight=0 415 339 264 204 140
internal_count=471 415 339 264 204 140
is_linear=0
shrinkage=0.05


Tree=66
num_leaves=8
num_cat=0
split_feature=236 25 27 236 50 27 75
split_gain=1.28046 1.33269 0.84382 1.91598 1.25433 0.741768 0.0806853
threshold=11.915349075000002 1.7500000000000002 1987.5000000000002 18.876736930000003 1.0000000180025095e-35 1998.5000000000002 1.0000000180025095e-35
decision_type=2 2 2 2 2 2 2
left_child=-1 2 4 -4 -2 -3 -5
right_child=1 5 3 6 -6 -7 -8
leaf_value=0.0050535479748640404 -0.0013154779560863973 0.0077999768997816486 -0.0079708217971454394 0.0017980751724770436 -0.012195531662123707 -0.00077029590355232362 0.0045834309367749557
leaf_weight=99 54 51 61 52 52 50 52
leaf_count=99 54 51 61 52 52 50 52
internal_value=0 -0.0013449 -0.0031719 -0.000935647 -0.00665286 0.00355727 0.00319075
internal_weight=0 372 271 165 106 101 104
internal_count=471 372 271 165 106 101 104
is_linear=0
shrinkage=0.05


Tree=67
num_leaves=7
num_cat=0
split_feature=236 27 214 29 27 236
split_gain=1.15561 0.683831 1.02164 2.29289 1.19223 0.813862
threshold=11.915349075000002 1964.5000000000002 1.0000000180025095e-35 1.0000000180025095e-35 2012.5000000000002 21.823594810000003
decision_type=2 2 2 2 2 2
left_child=-1 -2 3 4 5 -3
right_child=1 2 -4 -5 -6 -7
leaf_value=0.0048008705611632327 -0.0062152886951896682 0.0060354356053802707 0.0052875994146234012 -0.010702455145240363 -0.0056817487580701712 -0.0018704168498516083
leaf_weight=99 59 90 64 56 52 51
leaf_count=99 59 90 64 56 52 51
internal_value=0 -0.00127765 -0.000346914 -0.00179514 0.000789363 0.00317587
internal_weight=0 372 313 249 193 141
internal_count=471 372 313 249 193 141
is_linear=0
shrinkage=0.05


Tree=68
num_leaves=7
num_cat=0
split_feature=26 208 2 0 236 0
split_gain=1.08826 1.16371 1.61226 0.753726 1.06319 0.429314
threshold=1.0000000180025095e-35 1.0000000180025095e-35 1.0000000180025095e-35 455.50000000000006 15.625748145000001 577.50000000000011
decision_type=2 2 2 2 2 2
left_child=1 2 -1 4 -4 -5
right_child=-2 -3 3 5 -6 -7
leaf_value=0.0068400999602551268 0.0065426703076809645 -0.0064747881934683962 -0.00068588062109405643 0.0048333112044997937 -0.0096131044583251859 -0.0012092472542655852
leaf_weight=75 56 76 93 53 52 66
leaf_count=75 56 76 93 53 52 66
internal_value=0 -0.000882866 0.00037078 -0.0014671 -0.00388737 0.00148198
internal_weight=0 415 339 264 145 119
internal_count=471 415 339 264 145 119
is_linear=0
shrinkage=0.05


Tree=69
num_leaves=8
num_cat=0
split_feature=236 209 0 27 0 2 0
split_gain=1.09157 1.04153 2.59948 1.39446 1.96179 1.25134 0.832018
threshold=9.2898294585000016 1.0000000180025095e-35 270.00000000000006 2003.5000000000002 517.50000000000011 1.0000000180025095e-35 215.00000000000003
decision_type=2 2 2 2 2 2 2
left_child=-1 2 -2 6 -5 -4 -3
right_child=1 3 5 4 -6 -7 -8
leaf_value=0.0069075629882076207 0.0047045204379971613 0.00019766150918953561 -0.003307153429159371 -0.0087719116256468836 0.003349393001523092 -0.014078589604021266 0.0085940950550138957
leaf_weight=51 57 51 56 63 71 52 70
leaf_count=51 57 51 56 63 71 52 70
internal_value=0 -0.000838776 -0.00393412 0.00116409 -0.00234943 -0.0084934 0.0050551
internal_weight=0 420 165 255 134 108 121
internal_count=471 420 165 255 134 108 121
is_linear=0
shrinkage=0.05


Tree=70
num_leaves=7
num_cat=0
split_feature=236 217 0 216 31 236
split_gain=1.00337 2.08045 1.00719 0.805666 1.23656 0.388718
threshold=20.955927850000005 1.0000000180025095e-35 478.50000000000006 1.0000000180025095e-35 1.0000000180025095e-35 15.275868235000003
decision_type=2 2 2 2 2 2
left_child=3 2 -2 4 5 -1
right_child=1 -3 -4 -5 -6 -7
leaf_value=0.010214653733634839 0.0063838582120689692 -0.010049291138465588 -0.0026297683491595565 -0.002179608081680644 -0.00089607430630397195 0.0042690932713282696
leaf_weight=54 51 65 79 83 83 56
leaf_count=54 51 65 79 83 83 56
internal_value=0 -0.00274553 0.000906347 0.00193978 0.00371133 0.00718782
internal_weight=0 195 130 276 193 110
internal_count=471 195 130 276 193 110
is_linear=0
shrinkage=0.05


Tree=71
num_leaves=8
num_cat=0
split_feature=236 208 27 27 29 27 236
split_gain=0.941851 4.23553 0.989361 1.89047 0.665789 0.690252 0.801632
threshold=9.2898294585000016 1.0000000180025095e-35 1964.5000000000002 1984.5000000000002 1.0000000180025095e-35 2003.5000000000002 19.802053400000002
decision_type=2 2 2 2 2 2 2
left_child=-1 2 -2 -4 5 -5 -7
right_child=1 -3 3 4 -6 6 -8
leaf_value=0.0064163827793855301 -0.0046193846825846154 -0.013580490279543615 0.010840695903257088 0.00597216970273766 -0.0040182095143150116 -0.0041826267262905954 0.0040391673999173308
leaf_weight=51 61 56 54 69 61 63 56
leaf_count=51 61 56 54 69 61 63 56
internal_value=0 -0.000779132 0.00119031 0.00235992 0.00052071 0.00199344 -0.000313547
internal_weight=0 420 364 303 249 188 119
internal_count=471 420 364 303 249 188 119
is_linear=0
shrinkage=0.05


end of trees

feature_importances:
Column_236=103
Column_27=97
Column_0=82
Column_2=28
Column_25=25
Column_217=19
Column_208=16
Column_31=13
Column_75=12
Column_209=10
Column_26=8
Column_216=6
Column_114=5
Column_29=2
Column_214=2
Column_50=1
Column_197=1
Column_207=1

parameters:
[boosting: gbdt]
[objective: regression]
[metric: rmse]
[tree_learner: serial]
[device_type: cpu]
[data: ]
[valid: ]
[num_iterations: 10000]
[learning_rate: 0.05]
[num_leaves: 15]
[num_threads: 0]
[deterministic: 0]
[force_col_wise: 0]
[force_row_wise: 0]
[histogram_pool_size: -1]
[max_depth: -1]
[min_data_in_leaf: 50]
[min_sum_hessian_in_leaf: 0.001]
[bagging_fraction: 0.5]
[pos_bagging_fraction: 1]
[neg_bagging_fraction: 1]
[bagging_freq: 0]
[bagging_seed: 10961]
[feature_fraction: 0.8]
[feature_fraction_bynode: 1]
[feature_fraction_seed: 53]
[extra_trees: 0]
[extra_seed: 11644]
[early_stopping_round: 0]
[first_metric_only: 0]
[max_delta_step: 0]
[lambda_l1: 0]
[lambda_l2: 0]
[linear_lambda: 0]
[min_gain_to_split: 0]
[drop_rate: 0.1]
[max_drop: 50]
[skip_drop: 0.5]
[xgboost_dart_mode: 0]
[uniform_drop: 0]
[drop_seed: 30626]
[top_rate: 0.2]
[other_rate: 0.1]
[min_data_per_group: 100]
[max_cat_threshold: 32]
[cat_l2: 10]
[cat_smooth: 10]
[max_cat_to_onehot: 4]
[top_k: 20]
[monotone_constraints: ]
[monotone_constraints_method: basic]
[monotone_penalty: 0]
[feature_contri: ]
[forcedsplits_filename: ]
[refit_decay_rate: 0.9]
[cegb_tradeoff: 1]
[cegb_penalty_split: 0]
[cegb_penalty_feature_lazy: ]
[cegb_penalty_feature_coupled: ]
[path_smooth: 0]
[interaction_constraints: ]
[verbosity: -1]
[saved_feature_importance_type: 0]
[linear_tree: 0]
[max_bin: 255]
[max_bin_by_feature: ]
[min_data_in_bin: 3]
[bin_construct_sample_cnt: 200000]
[data_random_seed: 4071]
[is_enable_sparse: 1]
[enable_bundle: 1]
[use_missing: 1]
[zero_as_missing: 0]
[feature_pre_filter: 1]
[pre_partition: 0]
[two_round: 0]
[header: 0]
[label_column: ]
[weight_column: ]
[group_column: ]
[ignore_column: ]
[categorical_feature: ]
[forcedbins_filename: ]
[precise_float_parser: 0]
[objective_seed: 602]
[num_class: 1]
[is_unbalance: 0]
[scale_pos_weight: 1]
[sigmoid: 1]
[boost_from_average: 1]
[reg_sqrt: 0]
[alpha: 0.9]
[fair_c: 1]
[poisson_max_delta_step: 0.7]
[tweedie_variance_power: 1.5]
[lambdarank_truncation_level: 30]
[lambdarank_norm: 1]
[label_gain: ]
[eval_at: ]
[multi_error_top_k: 1]
[auc_mu_weights: ]
[num_machines: 1]
[local_listen_port: 12400]
[time_out: 120]
[machine_list_filename: ]
[machines: ]
[gpu_platform_id: -1]
[gpu_device_id: -1]
[gpu_use_dp: 0]
[num_gpu: 1]

end of parameters

pandas_categorical:null
